SVM-light Version V6.02
0 # kernel type
3 # kernel parameter -d 
1 # kernel parameter -g 
1 # kernel parameter -s 
1 # kernel parameter -r 
empty# kernel parameter -u 
201 # highest feature index 
235 # number of training documents 
120 # number of support vectors plus 1 
1.0249916 # threshold b, each following line is a SV (starting with alpha*y)
-4.5491435301822327e-005 1:95.126015 2:33.67664 3:-0.58756262 4:-0.53492308 5:1.1916388 6:82.55629 7:35.478649 8:0.078237571 9:-0.059399761 10:0.87386847 11:0.13270636 12:0.077995017 13:0.43488991 14:0.63045597 15:0.40291932 16:0.60287791 17:0.3632732 18:0.33266872 19:0.38761592 20:0.20061174 21:0.26968756 22:0.33767286 23:0.073998801 24:0.56695449 25:0.91690081 26:0.97876155 27:0.068385676 28:0.56088459 29:0.92987704 30:0.9905476 31:0.36501437 32:0.56187767 33:0.34247386 34:0.54331201 35:0.32532823 36:0.3123453 37:0.32760102 38:0.20330942 39:0.33751547 40:0.41010511 41:0.14132211 42:0.63591582 43:0.98677027 44:1.0487479 45:0.13198921 46:0.63031518 47:0.99574274 48:1.0590175 49:0.19871286 50:0.12581536 51:0.32542089 52:0.35115612 53:0.40770164 54:0.1549913 55:0.39596888 56:0.63798851 57:0.71921831 58:0.49436104 59:0.98412734 60:1.3370051 61:1.3917447 62:0.48511314 63:0.98699939 64:1.356536 65:1.4203639 66:0.27639809 67:0.36525121 68:0.50927669 69:0.57261008 70:0.28230545 71:0.56455022 72:0.81594568 73:0.89793491 74:0.69092917 75:1.179248 76:1.531605 77:1.5844201 78:0.67792404 79:1.1808786 80:1.5499865 81:1.6142187 82:0.26366583 83:0.24964114 84:0.30489811 85:0.22656666 86:0.39340246 87:0.60030091 88:0.67550623 89:0.45018053 90:0.9215399 91:1.2756159 92:1.3234576 93:0.46190086 94:0.94571054 95:1.3265688 96:1.3835881 97:0.29135421 98:0.36755323 99:0.46876544 100:0.64373338 101:0.82104933 102:0.88747597 103:0.63224548 104:1.0531346 105:1.4023268 106:1.4413457 107:0.66812885 108:1.1117759 109:1.4891063 110:1.5423145 111:0.092516698 112:0.43122694 113:0.4636544 114:0.57425332 115:0.63037527 116:0.37104967 117:0.76547879 118:1.1156499 119:1.1560085 120:0.42980918 121:0.82981294 122:1.2102274 123:1.2598752 124:0.4653306 125:0.44810274 126:0.522129 127:0.57172769 128:0.32790619 129:0.69504493 130:1.0432945 131:1.0816216 132:0.39577514 133:0.76682335 134:1.1500738 135:1.1965702 136:0.28861007 137:0.55118471 138:0.63570315 139:0.4562628 140:0.94770753 141:1.2931458 142:1.3523328 143:0.42259571 144:0.9267593 145:1.2893171 146:1.3549784 147:0.26912934 148:0.35459685 149:0.25980264 150:0.70459938 151:1.0343326 152:1.0963527 153:0.19789802 154:0.66654092 155:1.0273839 156:1.0895274 157:0.086123668 158:0.25597411 159:0.48641148 160:0.79211742 161:0.85108572 162:0.23140323 163:0.44889244 164:0.81163132 165:0.86166185 166:0.30999202 167:0.43160498 168:0.72023779 169:0.77731091 170:0.29863361 171:0.39623171 172:0.75270057 173:0.79710549 174:0.49958172 175:0.85237211 176:0.91250026 177:0.096435159 178:0.50699723 179:0.88055605 180:0.93794358 181:0.37041453 182:0.42799255 183:0.54152215 184:0.22737466 185:0.51803321 186:0.5397225 187:0.10911977 188:0.88445282 189:0.45520428 190:0.39724508 191:0.3714906 192:0.95013809 193:0.53219104 194:0.46670941 195:0.42304936 196:0.51843828 197:0.88003463 198:0.94274968 199:0.40558067 200:0.45515421 201:0.10913612 #
4.5491435301822327e-005 1:109.81119 2:30.809807 3:-0.4248606 4:-0.41397771 5:0.76744783 6:87.378906 7:25.585176 8:0.1691201 9:-0.035538759 10:1.3046613 11:0.14906374 12:0.10371231 13:0.55971956 14:0.75644004 15:0.53904051 16:0.59154481 17:0.71086228 18:0.77835494 19:0.40588066 20:0.38523492 21:0.50943244 22:0.56973636 23:0.087060042 24:0.63526291 25:1.0120606 26:1.0659126 27:0.082315594 28:0.59433031 29:0.97809559 30:1.0534656 31:0.46963593 32:0.67005849 33:0.45106596 34:0.5260424 35:0.67082608 36:0.74608719 37:0.31814355 38:0.34273884 39:0.51101071 40:0.57312626 41:0.17989363 42:0.72705096 43:1.1035917 44:1.1602237 45:0.16599239 46:0.68512255 47:1.0666362 48:1.1448399 49:0.2110776 50:0.14147048 51:0.27193871 52:0.47436693 53:0.57001287 54:0.21283835 55:0.36025399 56:0.54000103 57:0.59063148 58:0.62992448 59:1.1804898 60:1.5555105 61:1.605516 62:0.62140352 63:1.1374065 64:1.5176243 65:1.5914483 66:0.26253501 67:0.29344517 68:0.45222801 69:0.54550558 70:0.40803689 71:0.49559376 72:0.59784704 73:0.63899487 74:0.82243699 75:1.3681471 76:1.7431539 77:1.7889247 78:0.81945401 79:1.3329051 80:1.7132312 81:1.783769 82:0.28158075 83:0.45866212 84:0.54920042 85:0.28413436 86:0.41141033 87:0.56077659 88:0.60896367 89:0.59743965 90:1.1387397 91:1.5197155 92:1.5693519 93:0.6086086 94:1.1061864 95:1.4829171 96:1.5562812 97:0.28142819 98:0.38420895 99:0.36981139 100:0.38454306 101:0.48984155 102:0.53120059 103:0.64455956 104:1.1697353 105:1.5391333 106:1.5780859 107:0.6574592 108:1.1376027 109:1.5167066 110:1.5804905 111:0.10713252 112:0.57515198 113:0.55214369 114:0.5427705 115:0.57741731 116:0.74662548 117:1.2468948 118:1.6169449 119:1.6490886 120:0.77528816 121:1.1968243 122:1.5613732 123:1.6179987 124:0.66686302 125:0.63818693 126:0.61274028 127:0.63294411 128:0.80720341 129:1.2643307 130:1.6313779 131:1.6601552 132:0.83680421 133:1.2105638 134:1.5660801 135:1.6191789 136:0.29389343 137:0.51289088 138:0.57137543 139:0.48533884 140:1.0287505 141:1.396208 142:1.4498132 143:0.45267823 144:0.97783595 145:1.3582572 146:1.4346414 147:0.26414561 148:0.33275372 149:0.44458243 150:0.97759122 151:1.3463181 152:1.3949866 153:0.41443235 154:0.9121092 155:1.2826407 156:1.3487685 157:0.07779818 158:0.5231508 159:0.98274058 160:1.351559 161:1.3926665 162:0.51231235 163:0.93106443 164:1.2972016 165:1.3518531 166:0.57423735 167:0.99329942 168:1.360249 169:1.3999736 170:0.56982088 171:0.94658065 172:1.3094163 173:1.3612852 174:0.57119989 175:0.95172751 176:1.004725 177:0.11499445 178:0.53789067 179:0.9160223 180:0.99001396 181:0.40062627 182:0.45663124 183:0.58954924 184:0.26282129 185:0.49499178 186:0.55897593 187:0.118414 188:0.95922112 189:0.52199864 190:0.44923964 191:0.46787527 192:1.0151699 193:0.57828563 194:0.48240343 195:0.48442668 196:0.54150045 197:0.92701703 198:1.0034121 199:0.40788546 200:0.48118755 201:0.11655832 #
-3.2288952188266101e-005 1:85.390236 2:50.589893 3:-0.51981401 4:-0.62032872 5:0.023954537 6:46.982761 7:37.770504 8:0.2286637 9:-0.01368675 10:0.0071863611 11:0.17713481 12:0.085860506 13:0.52161211 14:0.74592775 15:0.44869387 16:0.2456584 17:0.36124113 18:0.42110395 19:0.37718141 20:0.27151263 21:0.26060277 22:0.32094771 23:0.073815681 24:0.66000772 25:1.0530422 26:1.0800383 27:0.058165576 28:0.66206425 29:1.0231434 30:1.0915482 31:0.43581206 32:0.66175896 33:0.37298506 34:0.22766565 35:0.39813152 36:0.46505776 37:0.29803574 38:0.24370429 39:0.31173834 40:0.38287944 41:0.15149681 42:0.7418803 43:1.1348658 44:1.1634334 45:0.1256852 46:0.74683094 47:1.1076851 48:1.1761404 49:0.24662064 50:0.21119377 51:0.48122889 52:0.71892405 53:0.79240459 54:0.2214985 55:0.47031131 56:0.69435757 57:0.77642268 58:0.5807761 59:1.1652755 60:1.5567397 61:1.590609 62:0.55486614 63:1.1807774 64:1.5407377 65:1.6091139 66:0.35242113 67:0.66392964 68:0.89680225 69:0.96726483 70:0.45573255 71:0.71064329 72:0.92891854 73:1.0064479 74:0.79894263 75:1.3896196 76:1.7833124 77:1.8139181 78:0.78318906 79:1.402196 80:1.7639019 81:1.8288606 82:0.32106972 83:0.54842412 84:0.62013471 85:0.32430673 86:0.50739825 87:0.67191637 88:0.74625248 89:0.48744956 90:1.0582074 91:1.4574935 92:1.4900186 93:0.4972699 94:1.0990896 95:1.4605563 96:1.5265926 97:0.2486316 98:0.32542399 99:0.44188765 100:0.45520833 101:0.48770136 102:0.54037392 103:0.23557582 104:0.75832379 105:1.1629329 106:1.1914804 107:0.29970321 108:0.81109762 109:1.1673738 110:1.2315893 111:0.080897927 112:0.66406202 113:0.61111701 114:0.54454964 115:0.56595677 116:0.30387357 117:0.58960277 118:0.98520464 119:1.0125799 120:0.39733711 121:0.69172359 122:1.0256596 123:1.0865825 124:0.73613316 125:0.67401004 126:0.58732176 127:0.59918737 128:0.35882193 129:0.55796301 130:0.94304514 131:0.96827412 132:0.4526597 133:0.67151856 134:0.99364829 135:1.0521106 136:0.25755665 137:0.49728698 138:0.58151412 139:0.44801548 140:1.0161161 141:1.3963276 142:1.4292952 143:0.39207122 144:1.008698 145:1.362349 146:1.4324771 147:0.26684892 148:0.35675785 149:0.33709848 150:0.81511527 151:1.1776249 152:1.2126291 153:0.24755496 154:0.79662973 155:1.137598 156:1.2112887 157:0.096969351 158:0.27611855 159:0.59253943 160:0.94144386 161:0.96839023 162:0.20617364 163:0.54156864 164:0.88031429 165:0.95299816 166:0.31984007 167:0.54548854 168:0.88086849 169:0.90228808 170:0.26822612 171:0.46642733 172:0.80047178 173:0.87160319 174:0.60261768 175:1.0002785 176:1.0258248 177:0.099506035 178:0.61304265 179:0.97452509 180:1.041804 181:0.42742482 182:0.46213108 183:0.63880724 184:0.29277775 185:0.50627095 186:0.5787943 187:0.10185623 188:1.0242629 189:0.50538111 190:0.38690552 191:0.43294689 192:1.0510961 193:0.5001837 194:0.33368474 195:0.36376235 196:0.62760007 197:0.98694533 198:1.0562623 199:0.36271802 200:0.42987245 201:0.086577721 #
4.5491435301822327e-005 1:85.546143 2:9.1338224 3:-0.33843511 4:-0.34658691 5:0.499928 6:143.48643 7:39.153988 8:0.20607521 9:0.029679891 10:0.83321333 11:0.28692406 12:0.091206446 13:0.52263439 14:0.75739002 15:0.42580065 16:0.44234383 17:0.55910838 18:0.61894298 19:0.46007198 20:0.39458472 21:0.52634692 22:0.58621907 23:0.10974567 24:0.61347294 25:0.99897707 26:1.0584939 27:0.12470839 28:0.65393156 29:1.001092 30:1.0509207 31:0.4375985 32:0.67436934 33:0.34780702 34:0.40012148 35:0.54527146 36:0.61057478 37:0.38958716 38:0.35006458 39:0.52541715 40:0.5936867 41:0.18192622 42:0.69640321 43:1.0794972 44:1.1410859 45:0.20440911 46:0.73764706 47:1.0843006 48:1.1347606 49:0.24818794 50:0.22923832 51:0.37311178 52:0.53860116 53:0.6050595 54:0.24214348 55:0.38381028 56:0.57804042 57:0.65602434 58:0.60370511 59:1.1187829 60:1.4978029 61:1.5570143 62:0.62685996 63:1.1580282 64:1.5011607 65:1.5457116 66:0.43853599 67:0.53332633 68:0.62495935 69:0.67399633 70:0.38430429 71:0.51456404 72:0.64163983 73:0.71322119 74:0.84176505 75:1.3491867 76:1.7277681 77:1.783964 78:0.85348642 79:1.3838586 80:1.7276858 81:1.7676148 82:0.2944546 83:0.52689886 84:0.60735255 85:0.38561597 86:0.42858541 87:0.61692989 88:0.68758672 89:0.47551981 90:0.98883867 91:1.3648295 92:1.4275503 93:0.54524136 94:1.0564219 95:1.3890109 96:1.4385568 97:0.25938728 98:0.34602931 99:0.47289488 100:0.52342767 101:0.71118003 102:0.769894 103:0.4639143 104:0.92861533 105:1.3082399 106:1.3571404 107:0.5417369 108:1.0272068 109:1.3560036 110:1.3979392 111:0.089129567 112:0.5849126 113:0.65791118 114:0.83507365 115:0.88672328 116:0.56369978 117:0.94731921 118:1.3244244 119:1.3616407 120:0.61808532 121:1.0547251 122:1.3769017 123:1.413947 124:0.63752067 125:0.71712691 126:0.88942516 127:0.93864691 128:0.62209779 129:0.95989645 130:1.3333944 131:1.3669275 132:0.66341776 133:1.069747 134:1.3871975 135:1.4230229 136:0.28814462 137:0.49784285 138:0.5752399 139:0.56067836 140:1.0462667 141:1.4222739 142:1.4772117 143:0.52313638 144:1.0365944 145:1.3840925 146:1.4242673 147:0.28249466 148:0.36522698 149:0.49621421 150:0.95383877 151:1.3351849 152:1.3870866 153:0.43343872 154:0.94418591 155:1.291666 156:1.3259093 157:0.094580233 158:0.59668726 159:0.96320713 160:1.3425357 161:1.3887069 162:0.50514185 163:0.93787962 164:1.2787522 165:1.3017642 166:0.64103466 167:0.95430505 168:1.329572 169:1.3726661 170:0.55565232 171:0.92061186 172:1.2554249 173:1.2738843 174:0.53408784 175:0.91817069 176:0.97949475 177:0.15936475 178:0.59977818 179:0.93761545 180:0.98921293 181:0.40176362 182:0.4582369 183:0.54883587 184:0.34993693 185:0.56655014 186:0.60971463 187:0.11332147 188:0.93021512 189:0.56248039 190:0.51092052 191:0.53020215 192:0.98702824 193:0.60590696 194:0.52399033 195:0.53020287 196:0.55748373 197:0.90906465 198:0.95702404 199:0.36659673 200:0.41630575 201:0.11565201 #
-3.178985152274054e-005 1:89.940514 2:23.421677 3:-0.62534022 4:-0.64005321 5:1.1042452 6:104.36562 7:29.772821 8:0.1244123 9:-0.01535334 10:1.2882861 11:0.10259037 12:0.11566392 13:0.65167278 14:0.881639 15:0.44229418 16:0.27252015 17:0.32980517 18:0.38285664 19:0.51180911 20:0.26296479 21:0.29930207 22:0.35652128 23:0.041254841 24:0.56712812 25:0.95485437 26:1.0081754 27:0.046892919 28:0.57884771 29:0.95309114 30:1.0127442 31:0.54588705 32:0.77508867 33:0.35135743 34:0.25636163 35:0.38758904 36:0.44838044 37:0.41680995 38:0.20211256 39:0.34827024 40:0.41366887 41:0.14601849 42:0.67345232 43:1.06045 44:1.114341 45:0.15361446 46:0.67981434 47:1.0544398 48:1.1154804 49:0.23422 50:0.28426841 51:0.58161891 52:0.8150177 53:0.88222939 54:0.19643362 55:0.48001251 56:0.76683605 57:0.83346224 58:0.67828465 59:1.2148297 60:1.5952573 61:1.6500611 62:0.68854588 63:1.2101424 64:1.5785401 65:1.6383975 66:0.50224012 67:0.80632252 68:1.0393337 69:1.1052426 70:0.40526566 71:0.69511056 72:0.97647268 73:1.0404559 74:0.9091115 75:1.4431635 76:1.8225893 77:1.8765984 78:0.91705048 79:1.4365501 80:1.8046411 81:1.8641406 82:0.31634349 83:0.57187444 84:0.64600885 85:0.13358146 86:0.32591727 87:0.59070879 88:0.65944362 89:0.4582977 90:0.99270153 91:1.3738905 92:1.4298546 93:0.4857142 94:1.0090588 95:1.3703792 96:1.4307131 97:0.26837268 98:0.34629235 99:0.42623952 100:0.27237082 101:0.41784355 102:0.48312944 103:0.26305643 104:0.74252558 105:1.121466 106:1.1774772 107:0.30827925 108:0.75570959 109:1.0962528 110:1.1560208 111:0.080920115 112:0.6721471 113:0.45773068 114:0.30478758 115:0.34816918 116:0.3043662 117:0.58446616 118:0.95073348 119:1.0023583 120:0.3338984 121:0.56950039 122:0.88540721 123:0.94014674 124:0.7439748 125:0.52359319 126:0.32862735 127:0.32918301 128:0.35689101 129:0.55556673 130:0.9123103 131:0.96221018 132:0.37942612 133:0.5290879 134:0.83142167 135:0.88377994 136:0.31590968 137:0.60882735 138:0.67980617 139:0.53830248 140:1.0700125 141:1.4522558 142:1.5056704 143:0.54794073 144:1.0795929 145:1.4475558 146:1.5061395 147:0.31986684 148:0.39589864 149:0.29566517 150:0.79196656 151:1.1747326 152:1.2240516 153:0.28352222 154:0.79359478 155:1.1673882 156:1.2225524 157:0.08424063 158:0.31738102 159:0.60246438 160:0.97490233 161:1.0109634 162:0.27796465 163:0.58017743 164:0.94857204 165:0.99147379 166:0.36909056 167:0.57638705 168:0.93853056 169:0.96948659 170:0.33157772 171:0.54954898 172:0.91441625 173:0.95218801 174:0.54253644 175:0.92993104 176:0.98418492 177:0.063470945 178:0.56044292 179:0.93176812 180:0.99166143 181:0.40573946 182:0.45516548 183:0.53322506 184:0.23155442 185:0.49724281 186:0.54740125 187:0.099978134 188:0.92062503 189:0.49584362 190:0.40569276 191:0.40164661 192:0.97309828 193:0.53999847 194:0.44048333 195:0.42422912 196:0.54089278 197:0.91883343 198:0.97723681 199:0.40817332 200:0.46185559 201:0.10739623 #
4.5491435301822327e-005 1:39.976528 2:34.382336 3:-0.43533409 4:-0.41748181 5:0.026281785 6:59.711735 7:59.710953 8:0.2381541 9:0.016670531 10:0.0017521189 11:0.66513038 12:0.09503784 13:0.57053852 14:0.78237671 15:0.62893903 16:0.82840735 17:0.99260533 18:1.0563269 19:0.38964149 20:0.20215654 21:0.26880354 22:0.34142426 23:0.043371979 24:0.66957575 25:0.97588098 26:1.0572578 27:0.0222516 28:0.65643698 29:1.0563453 30:1.1084201 31:0.47556436 32:0.68861294 33:0.54950428 34:0.74502057 35:0.91062707 36:0.97533232 37:0.30157113 38:0.18583503 39:0.34210753 40:0.42235592 41:0.13759126 42:0.75899023 43:1.0605464 44:1.1426015 45:0.11554236 46:0.74865848 47:1.148646 48:1.2016275 49:0.22841665 50:0.30569312 51:0.39584732 52:0.55213702 53:0.61924201 54:0.24930148 55:0.52627933 56:0.78504294 57:0.87338871 58:0.61254525 59:1.2154672 60:1.4976897 61:1.5811366 62:0.59099966 63:1.2189083 64:1.6179577 65:1.6733774 66:0.34707674 67:0.27379367 68:0.37332526 69:0.4341152 70:0.45629358 71:0.72265232 72:0.98908818 73:1.0784354 74:0.82277089 75:1.4048969 76:1.670218 77:1.7530026 78:0.80360967 79:1.4361206 80:1.8356148 81:1.8875171 82:0.25244665 83:0.47080904 84:0.54869109 85:0.47880316 86:0.65294075 87:0.87066567 88:0.94820887 89:0.66229051 90:1.1755245 91:1.4307564 92:1.5146296 93:0.65054744 94:1.2663835 95:1.6624671 96:1.7134959 97:0.22343437 98:0.30186036 99:0.60661149 100:0.8049801 101:1.0474231 102:1.1300673 103:0.86239302 104:1.3713574 105:1.6073757 106:1.689104 107:0.85058856 108:1.4759191 109:1.87291 110:1.9185851 111:0.079362214 112:0.7461465 113:0.93588483 114:1.1867372 115:1.2712392 116:1.0253944 117:1.5186148 118:1.7357556 119:1.8142215 120:1.014534 121:1.6353151 122:2.0295761 123:2.0691121 124:0.80648404 125:0.9912926 126:1.2425448 127:1.3270804 128:1.0885288 129:1.5741779 130:1.784377 131:1.8615646 132:1.0780898 133:1.6953191 134:2.0879726 135:2.1254323 136:0.30355376 137:0.56654108 138:0.65740782 139:0.43114376 140:1.0499787 141:1.3423725 142:1.4232882 143:0.40666938 144:1.0103848 145:1.4049776 146:1.4590726 147:0.28255427 148:0.37623164 149:0.22231799 150:0.78171957 151:1.0682493 152:1.1456246 153:0.2092137 154:0.75149637 155:1.1413953 156:1.1859125 157:0.093770288 158:0.2426227 159:0.56066877 160:0.84987587 161:0.92624724 162:0.25262859 163:0.49574459 164:0.87716842 165:0.91856205 166:0.30952808 167:0.49752927 168:0.78321809 169:0.85847723 170:0.3231934 171:0.41787389 172:0.79256338 173:0.83240896 174:0.62733579 175:0.93484044 176:1.0158581 177:0.029100852 178:0.61840159 179:1.0179572 180:1.0689172 181:0.33146048 182:0.40528959 183:0.65438616 184:0.40522054 185:0.63751602 186:0.64776069 187:0.098457783 188:0.96267825 189:0.66411471 190:0.72953767 191:0.69709939 192:1.043696 193:0.71521032 194:0.73934293 195:0.69678688 196:0.63464123 197:1.0345687 198:1.0869243 199:0.40015396 200:0.45916876 201:0.10043982 #
-4.5491435301822327e-005 1:27.76902 2:19.377316 3:-0.3727214 4:-0.4248243 5:0.16057637 6:60.712112 7:54.259422 8:0.091957562 9:-0.068945192 10:0.02676273 11:0.72861093 12:0.084019154 13:0.50792271 14:0.67342883 15:0.44411823 16:0.28532362 17:0.25095257 18:0.30548596 19:0.38976344 20:0.22717032 21:0.3280102 22:0.41396457 23:0.05006114 24:0.49023509 25:0.85875773 26:0.95321804 27:0.056754578 28:0.58860892 29:0.97174597 30:1.0226653 31:0.42396316 32:0.59054434 33:0.36900696 34:0.23413026 35:0.28709397 36:0.34441528 37:0.31223509 38:0.20947893 39:0.37763664 40:0.47273338 41:0.12422957 42:0.56117523 43:0.92612201 44:1.0182087 45:0.130798 46:0.67102885 47:1.0541537 48:1.1058625 49:0.18781379 50:0.19335248 51:0.35901001 52:0.62324804 53:0.67276061 54:0.206753 55:0.47646743 56:0.73744702 57:0.84361684 58:0.54304117 59:0.95064509 60:1.2950225 61:1.3771991 62:0.55107838 63:1.0913465 64:1.4736847 65:1.5280151 66:0.31656918 67:0.50536406 68:0.78076518 69:0.82347244 70:0.36683333 71:0.63650423 72:0.88381732 73:0.98650151 74:0.70560771 75:1.0828593 76:1.4067415 77:1.4812957 78:0.71795237 79:1.2609953 80:1.6437654 81:1.694074 82:0.20624174 83:0.4851523 84:0.52562952 85:0.31417283 86:0.50276834 87:0.7327435 88:0.83053625 89:0.46482438 90:0.84856546 91:1.1964774 92:1.2824738 93:0.49700066 94:1.0174506 95:1.3980143 96:1.4507697 97:0.28052187 98:0.32106355 99:0.37198269 100:0.42692471 101:0.60330755 102:0.68977928 103:0.29042241 104:0.65763551 105:1.0150955 106:1.1064917 107:0.34078613 108:0.82844567 109:1.2056081 110:1.2564464 111:0.065668233 112:0.57042885 113:0.47268176 114:0.52796447 115:0.58264434 116:0.21384726 117:0.45339772 118:0.82149994 119:0.92292619 120:0.27689686 121:0.58855772 122:0.95107543 123:1.001219 124:0.62923861 125:0.53061098 126:0.56484598 127:0.61015999 128:0.26405552 129:0.42735249 130:0.78579432 131:0.88715369 132:0.32937497 133:0.59040105 134:0.94229567 135:0.98882669 136:0.29008919 137:0.56670624 138:0.67712414 139:0.43536362 140:0.85991603 141:1.209389 142:1.2938025 143:0.41750839 144:0.94554597 145:1.322962 146:1.3792276 147:0.28541708 148:0.39704227 149:0.27325881 150:0.6526196 151:0.99538124 152:1.081948 153:0.21406765 154:0.68310976 155:1.0530211 156:1.1067445 157:0.11199702 158:0.33731067 159:0.4843322 160:0.77682561 161:0.85796404 162:0.28170383 163:0.49344733 164:0.83770269 165:0.87823462 166:0.41300109 167:0.44754729 168:0.70130038 169:0.77867454 170:0.36684224 171:0.44305915 172:0.76287246 173:0.79581475 174:0.44715983 175:0.81858587 176:0.91438729 177:0.075548656 178:0.5620777 179:0.9445489 180:0.99378711 181:0.37754509 182:0.47946125 183:0.47536346 184:0.43542528 185:0.72271866 186:0.73460501 187:0.10842285 188:0.84167504 189:0.65326113 190:0.76511604 191:0.73004603 192:0.93660867 193:0.74917459 194:0.83315343 195:0.78893697 196:0.54341519 197:0.92606759 198:0.97775036 199:0.38343978 200:0.43942711 201:0.092883855 #
4.5491435301822327e-005 1:90.245186 2:24.772432 3:-0.1994202 4:-0.51649803 5:0.63738281 6:145.8965 7:25.056423 8:0.2324622 9:0.058755759 10:0.91358203 11:0.32258236 12:0.10628033 13:0.57787275 14:0.79622811 15:0.43594638 16:0.44662264 17:0.55041212 18:0.60908669 19:0.51698852 20:0.44172189 21:0.52090436 22:0.5858199 23:0.06817805 24:0.62418199 25:1.0363485 26:1.0834 27:0.080869861 28:0.67057788 29:1.0453475 30:1.0893182 31:0.48514631 32:0.70422864 33:0.34763858 34:0.40340438 35:0.55959171 36:0.62140471 37:0.43043834 38:0.39747769 39:0.54892033 40:0.62490726 41:0.14917596 42:0.72342402 43:1.1334 44:1.1827214 45:0.17908186 46:0.75667238 47:1.1316524 48:1.1776758 49:0.22791758 50:0.22390494 51:0.37496966 52:0.57473141 53:0.63473213 54:0.19656372 55:0.42134729 56:0.69114757 57:0.78681886 58:0.6244362 59:1.1850611 60:1.5947098 61:1.6343628 62:0.64105016 63:1.2136319 64:1.5867431 65:1.6285096 66:0.40984926 67:0.48211446 68:0.63524467 69:0.69244629 70:0.36238438 71:0.56671828 72:0.82186556 73:0.91674304 74:0.84049588 75:1.3954184 76:1.8016727 77:1.8389286 78:0.85973114 79:1.4259182 80:1.7969595 81:1.8381428 82:0.29428059 83:0.53582579 84:0.60630149 85:0.31362554 86:0.45186269 87:0.68503344 88:0.77142841 89:0.46896285 90:1.0340383 91:1.4425313 92:1.4878893 93:0.50721043 94:1.0814933 95:1.451405 96:1.4992015 97:0.25737929 98:0.33161062 99:0.42659196 100:0.46426994 101:0.63388604 102:0.71247095 103:0.49358824 104:0.99762064 105:1.4023306 106:1.4307897 107:0.49606854 108:1.07235 109:1.4426521 110:1.4818177 111:0.081601754 112:0.58562493 113:0.60196149 114:0.64392668 115:0.69786495 116:0.58781314 117:0.99492508 118:1.3899832 119:1.4065962 120:0.55997151 121:1.0839542 122:1.4501228 123:1.4811422 124:0.63535017 125:0.64683956 126:0.67289007 127:0.70798302 128:0.64194548 129:1.0055218 130:1.3968681 131:1.4098797 132:0.61536825 133:1.0980818 134:1.4610682 135:1.4898187 136:0.31705558 137:0.60421324 138:0.70149767 139:0.57102072 140:1.1045043 141:1.5127685 142:1.549041 143:0.56737226 144:1.1049066 145:1.4799645 146:1.5165565 147:0.30547833 148:0.40511405 149:0.5054307 150:0.98377979 151:1.3903902 152:1.4199817 153:0.46026537 154:0.98384684 155:1.3607306 156:1.386506 157:0.10512399 158:0.55918962 159:0.87897009 160:1.2697251 161:1.2901551 162:0.47357547 163:0.89461404 164:1.2595884 165:1.2738532 166:0.61229789 167:0.84744513 168:1.226251 169:1.2430634 170:0.53141367 171:0.87029147 172:1.2254362 173:1.2349384 174:0.58491081 175:0.99444288 176:1.046452 177:0.10700796 178:0.64160055 179:1.0119318 180:1.0589664 181:0.42708987 182:0.47257295 183:0.5717631 184:0.30416137 185:0.55502599 186:0.58791399 187:0.12285746 188:0.98417175 189:0.56913102 190:0.50637478 191:0.51340759 192:1.0286508 193:0.615291 194:0.53740174 195:0.5328083 196:0.61111456 197:0.98747301 198:1.0280156 199:0.39606148 200:0.43582764 201:0.11854524 #
-4.5491435301822327e-005 1:145.08714 2:13.620201 3:-0.04676491 4:0.063183188 5:0.78703666 6:127.58871 7:28.722044 8:0.18810789 9:-0.01195817 10:1.2067896 11:0.20734198 12:0.081513911 13:0.49145114 14:0.67637658 15:0.36542445 16:0.27665392 17:0.38030812 18:0.4415282 19:0.52912736 20:0.59061539 21:0.69628012 22:0.76489311 23:0.099496856 24:0.53737938 25:0.90809888 26:0.97282499 27:0.095070571 28:0.56452465 29:0.92285472 30:0.96895897 31:0.41002414 32:0.59597999 33:0.29360449 34:0.26089185 35:0.41958919 36:0.48870951 37:0.45451629 38:0.52193701 39:0.65638196 40:0.7312268 41:0.16680516 42:0.61199641 43:0.98174059 44:1.0457392 45:0.16291767 46:0.63471013 47:0.9904626 48:1.033541 49:0.20375144 50:0.22974874 51:0.48719534 52:0.73857486 53:0.81862479 54:0.18184623 55:0.35150796 56:0.58281708 57:0.65651947 58:0.56630617 59:1.0060259 60:1.3674212 61:1.4282438 62:0.56155217 63:1.0134796 64:1.35352 65:1.3856182 66:0.41606846 67:0.66507471 68:0.90876538 69:0.98748964 70:0.22922885 71:0.33072469 72:0.54374862 73:0.61179864 74:0.75544721 75:1.1785624 76:1.5359936 77:1.591859 78:0.73847467 79:1.1741015 80:1.5042013 81:1.5285274 82:0.29885435 83:0.57305896 84:0.65820009 85:0.37836778 86:0.49033222 87:0.67401403 88:0.74422741 89:0.41226545 90:0.86502039 91:1.224869 92:1.2903466 93:0.45059803 94:0.90690982 95:1.2483611 96:1.2907162 97:0.28250805 98:0.37069553 99:0.59412742 100:0.64290023 101:0.71971846 102:0.7748118 103:0.27201891 104:0.66465265 105:1.0177448 106:1.0804186 107:0.33186761 108:0.70087719 109:1.0205215 110:1.0666103 111:0.092041455 112:0.80960608 113:0.83490014 114:0.84793085 115:0.86687869 116:0.33808488 117:0.52466291 118:0.84907424 119:0.90648121 120:0.37282366 121:0.51247114 122:0.7876063 123:0.83608365 124:0.88022047 125:0.90240341 126:0.91143119 127:0.92025054 128:0.39600357 129:0.50506032 130:0.8097983 131:0.86560708 132:0.421424 133:0.46670333 134:0.71901977 135:0.7691763 136:0.28625193 137:0.54343402 138:0.62222958 139:0.61496001 140:1.029265 141:1.3867992 142:1.4445792 143:0.58023864 144:1.0032786 145:1.3405768 146:1.3667412 147:0.26841298 148:0.34817386 149:0.67501938 150:1.0559351 151:1.3945343 152:1.4444153 153:0.63514578 154:1.042441 155:1.370348 156:1.3916202 157:0.091451392 158:0.75756562 159:1.0869838 160:1.4023321 161:1.4441787 162:0.72880381 163:1.0951651 164:1.4083602 165:1.4265918 166:0.81735992 167:1.1173577 168:1.4185364 169:1.458523 170:0.79126889 171:1.1275791 172:1.4300244 173:1.4474447 174:0.48843065 175:0.85493022 176:0.92280138 177:0.13951406 178:0.53659463 179:0.88850021 180:0.94103771 181:0.385387 182:0.4461017 183:0.47655702 184:0.36975881 185:0.64474237 186:0.69667554 187:0.10188568 188:0.84782881 189:0.62217999 190:0.6903131 191:0.72790122 192:0.91058856 193:0.67216742 194:0.71527451 195:0.74218214 196:0.4879396 197:0.85050315 198:0.89383703 199:0.38893905 200:0.43943527 201:0.11316541 #
4.5491435301822327e-005 1:100.23823 2:71.991722 3:-0.52470762 4:-0.4409236 5:0.49618822 6:84.828766 7:14.184703 8:0.21924549 9:0.006404662 10:0.26463372 11:0.56508893 12:0.079494871 13:0.45979735 14:0.69220906 15:0.50338918 16:0.26892784 17:0.29741597 18:0.4099631 19:0.37489533 20:0.53135246 21:0.7275663 22:0.79260653 23:0.078119524 24:0.69516641 25:1.1176347 26:1.1537911 27:0.05887207 28:0.671417 29:1.111901 30:1.1669735 31:0.38456416 32:0.61675096 33:0.44141653 34:0.21415889 35:0.32054514 36:0.44570872 37:0.30933639 38:0.46930343 39:0.66745293 40:0.73100644 41:0.14982705 42:0.76697868 43:1.1897699 44:1.2266192 45:0.12547471 46:0.74223042 47:1.181437 48:1.2346123 49:0.23629938 50:0.22436567 51:0.3301968 52:0.59319478 53:0.74330938 54:0.17108008 55:0.24786898 56:0.42025757 57:0.46961215 58:0.52682072 59:1.1465633 60:1.5669402 61:1.606445 62:0.4984102 63:1.1119084 64:1.5443531 65:1.5898461 66:0.33527246 67:0.5250982 68:0.79295504 69:0.94658083 70:0.37569305 71:0.34315279 72:0.38912991 73:0.40909711 74:0.75654387 75:1.3757275 76:1.7963265 77:1.8363998 78:0.73223287 79:1.3444355 80:1.7738273 81:1.8165128 82:0.30534986 83:0.58286583 84:0.73697197 85:0.32269564 86:0.39039847 87:0.51523334 88:0.54894966 89:0.54866159 90:1.1612253 91:1.5832549 92:1.6152505 93:0.55247557 94:1.143289 95:1.5674634 96:1.6100192 97:0.28842753 98:0.44562292 99:0.35279736 100:0.48076728 101:0.64585203 102:0.69387972 103:0.30392939 104:0.90400326 105:1.3277439 106:1.3580135 107:0.32019809 108:0.89091057 109:1.3183835 110:1.3657309 111:0.16109206 112:0.57008266 113:0.70067108 114:0.85817552 115:0.90916908 116:0.24767098 117:0.67646527 118:1.0938284 119:1.1150557 120:0.31130737 121:0.66694516 122:1.0848036 123:1.1352276 124:0.7051363 125:0.83041126 126:0.98523057 127:1.0370729 128:0.34799454 129:0.56020737 130:0.96307641 131:0.97636521 132:0.40601194 133:0.53768075 134:0.94455582 135:0.99685192 136:0.28026941 137:0.51334405 138:0.57185709 139:0.45114383 140:1.0471008 141:1.459936 142:1.5053121 143:0.39597198 144:1.0132637 145:1.451358 146:1.5025409 147:0.24762328 148:0.31068769 149:0.59823722 150:1.2105157 151:1.6277961 152:1.6620346 153:0.56018031 154:1.1242834 155:1.5513922 156:1.5850257 157:0.072438985 158:0.78621864 159:1.3919219 160:1.8127885 161:1.8395098 162:0.76400638 163:1.2903267 164:1.7054653 165:1.7275271 166:0.85017872 167:1.4581534 168:1.8798189 169:1.9053153 170:0.83055645 171:1.3553221 172:1.7675027 173:1.7874703 174:0.6340273 175:1.0586528 176:1.0908393 177:0.094619505 178:0.61547571 179:1.0535389 180:1.1090366 181:0.43212712 182:0.47047356 183:0.6605069 184:0.33690083 185:0.61206204 186:0.70987183 187:0.12010152 188:1.0794312 189:0.60658973 190:0.54281819 191:0.65626246 192:1.1185973 193:0.6032573 194:0.47625634 195:0.5825578 196:0.63848096 197:1.0818226 198:1.1399164 199:0.44849521 200:0.5118289 201:0.12202046 #
-4.5491435301822327e-005 1:89.407486 2:32.702839 3:-0.6187284 4:-0.60666227 5:1.0712489 6:112.29345 7:26.796556 8:0.162655 9:-0.0087650763 10:1.2497904 11:0.11937281 12:0.11836905 13:0.65905035 14:0.87279809 15:0.45857719 16:0.29437861 17:0.32780889 18:0.38051054 19:0.47979835 20:0.30920702 21:0.38233355 22:0.42988971 23:0.036367912 24:0.55270165 25:0.94355547 26:1.0071479 27:0.047929656 28:0.58173722 29:0.94404858 30:1.0016236 31:0.5527817 32:0.76646227 33:0.36957902 34:0.25369427 35:0.36330843 36:0.4280163 37:0.39331245 38:0.26980662 39:0.38548109 40:0.44105211 41:0.14363906 42:0.65929896 43:1.0510589 44:1.1149642 45:0.15226747 46:0.67235357 47:1.0383685 48:1.0976207 49:0.21861218 50:0.26677388 51:0.53007978 52:0.78927058 53:0.86920595 54:0.2755017 55:0.5454331 56:0.74388975 57:0.79922438 58:0.67852777 59:1.2055482 60:1.5928055 61:1.6542321 62:0.6950472 63:1.2115948 64:1.5724169 65:1.6322001 66:0.46778059 67:0.73731881 68:0.9962033 69:1.075408 70:0.45556736 71:0.73353469 72:0.92244858 73:0.97332704 74:0.89302337 75:1.4166601 76:1.8018579 77:1.8616846 78:0.90749055 79:1.4212146 80:1.7831689 81:1.8428645 82:0.31211361 83:0.59141141 84:0.67543048 85:0.16878298 86:0.3999418 87:0.62657899 88:0.68781757 89:0.46982303 90:1.0000638 91:1.3834674 92:1.4454743 93:0.50021225 94:1.0299041 95:1.3814552 96:1.4394708 97:0.29306543 98:0.38061109 99:0.38286602 100:0.28491315 101:0.49810639 102:0.55722266 103:0.29045764 104:0.77985972 105:1.1616518 106:1.2278998 107:0.32955277 108:0.80500883 109:1.1409491 110:1.1984485 111:0.089142077 112:0.64726901 113:0.45805436 114:0.43373433 115:0.4772729 116:0.31135601 117:0.60128069 118:0.96466833 119:1.0348096 120:0.33316842 121:0.61041737 122:0.91798401 123:0.97441494 124:0.72765219 125:0.53166533 126:0.44836 127:0.46941721 128:0.36323023 129:0.55840629 130:0.91010171 131:0.98087865 132:0.37816462 133:0.56302077 134:0.85669404 135:0.91254848 136:0.31599802 137:0.563007 138:0.62750727 139:0.50336462 140:1.0126958 141:1.3975729 142:1.4569249 143:0.50829673 144:1.0327107 145:1.3885522 146:1.445936 147:0.28109658 148:0.34783298 149:0.33705747 150:0.77059168 151:1.1585231 152:1.2148154 153:0.31341052 154:0.77816832 155:1.13519 156:1.1877078 157:0.072764486 158:0.40573284 159:0.66912097 160:1.052094 161:1.0991147 162:0.36360106 163:0.65502042 164:1.0154556 165:1.0603195 166:0.45163238 167:0.66268831 168:1.0393239 169:1.0833097 170:0.40775636 171:0.64316875 172:1.0000718 173:1.0425763 174:0.53726166 175:0.92592359 176:0.99007851 177:0.066163309 178:0.57307881 179:0.93101472 180:0.98831654 181:0.41508523 182:0.47275704 183:0.51807022 184:0.228128 185:0.5025115 186:0.54620796 187:0.10701567 188:0.91033423 189:0.50164473 190:0.4407163 191:0.43400946 192:0.9738006 193:0.5710656 194:0.50381863 195:0.48860803 196:0.54247051 197:0.90847689 198:0.96554714 199:0.40298963 200:0.46033284 201:0.10008452 #
4.5491435301822327e-005 1:165.92976 2:28.198814 3:-0.4047544 4:-0.3528921 5:0.45302466 6:91.610649 7:38.800289 8:0.2100887 9:0.01303555 10:0.679537 11:0.35072196 12:0.099501334 13:0.50949472 14:0.73619556 15:0.56272936 16:0.55834287 17:0.63505018 18:0.68061858 19:0.37748134 20:0.40109003 21:0.56318462 22:0.61341113 23:0.077259041 24:0.68162471 25:1.0544027 26:1.099612 27:0.066360913 28:0.66265094 29:1.0632581 30:1.1208106 31:0.42866445 32:0.65793425 33:0.49250826 34:0.50939584 35:0.6175102 36:0.67279303 37:0.30295444 38:0.38864067 39:0.58103907 40:0.63624316 41:0.1666908 42:0.76475251 43:1.1366566 44:1.1844089 45:0.15149598 46:0.74908495 47:1.1467438 48:1.2073549 49:0.23376265 50:0.25843495 51:0.3377153 52:0.54050797 53:0.61564839 54:0.22357294 55:0.43151322 56:0.61724824 57:0.67719728 58:0.57759434 59:1.1746039 60:1.5430503 61:1.5825951 62:0.56178606 63:1.1603247 64:1.5557603 65:1.6096901 66:0.33349219 67:0.39835081 68:0.56524378 69:0.63340551 70:0.43458012 71:0.59083837 72:0.71953154 73:0.77144229 74:0.80017811 75:1.3919078 76:1.7570065 77:1.7920028 78:0.7894581 79:1.3852005 80:1.7786276 81:1.8294619 82:0.30914038 83:0.54098153 84:0.60989606 85:0.42964944 86:0.59673977 87:0.73821402 88:0.78729695 89:0.60416472 90:1.157094 91:1.5219077 92:1.5543282 93:0.62319112 94:1.1962967 95:1.584825 96:1.6393564 97:0.30076176 98:0.38464603 99:0.42947537 100:0.53474635 101:0.70140386 102:0.75726807 103:0.60432005 104:1.1519767 105:1.5133839 106:1.5370549 107:0.61277807 108:1.1669203 109:1.5589246 110:1.6044908 111:0.092695028 112:0.57770956 113:0.60483813 114:0.71408445 115:0.77133179 116:0.67139596 117:1.1828183 118:1.5410181 119:1.5567236 120:0.68421012 121:1.185922 122:1.5782669 123:1.6165333 124:0.64774203 125:0.67068666 126:0.74538016 127:0.79611766 128:0.70863587 129:1.1958638 130:1.5519061 131:1.5647932 132:0.72714311 133:1.2020626 134:1.591544 135:1.627956 136:0.31236956 137:0.55416131 138:0.62262076 139:0.45081922 140:1.0386779 141:1.4026 142:1.4481264 143:0.40793118 144:0.99907136 145:1.3957305 146:1.4514982 147:0.27192932 148:0.34717429 149:0.44546759 150:0.98480165 151:1.3437781 152:1.3828923 153:0.39428839 154:0.90514135 155:1.2969717 156:1.3366309 157:0.086720511 158:0.58143228 159:1.007035 160:1.3565027 161:1.390744 162:0.55054963 163:0.91953683 164:1.3019164 165:1.3286997 166:0.62690282 167:1.0043319 168:1.3479872 169:1.3818911 170:0.60078537 171:0.91066641 172:1.2866352 173:1.309714 174:0.61837852 175:0.99238151 176:1.0365639 177:0.090351015 178:0.61178815 179:1.0095029 180:1.0674902 181:0.38811135 182:0.43715513 183:0.64391953 184:0.32651845 185:0.57483184 186:0.63583153 187:0.11471915 188:1.0140817 189:0.56592703 190:0.50938749 191:0.55265439 192:1.0610851 193:0.61771435 194:0.54609233 195:0.57908809 196:0.61337525 197:1.0154067 198:1.0736935 199:0.41368327 200:0.47147259 201:0.10966931 #
-4.5210067961514945e-005 1:146.47639 2:26.862247 3:-0.49939761 4:-0.6223104 5:1.0634109 6:98.52961 7:24.322067 8:0.1369255 9:-0.021109359 10:1.2760931 11:0.39220202 12:0.1099026 13:0.60316324 14:0.83606029 15:0.45255458 16:0.26487985 17:0.33494166 18:0.39132765 19:0.44606772 20:0.2494217 21:0.30432844 22:0.37366951 23:0.039224189 24:0.59034145 25:0.96918333 26:1.009944 27:0.043896757 28:0.58590597 29:0.97922796 30:1.0387466 31:0.50634056 32:0.73891056 33:0.36947614 34:0.22149968 35:0.34698349 36:0.41289529 37:0.36719829 38:0.20721373 39:0.33892399 40:0.41775298 41:0.13335283 42:0.67240745 43:1.0549264 44:1.0998861 45:0.14479914 46:0.68381053 47:1.081085 48:1.1404563 49:0.23517869 50:0.20757782 51:0.48066694 52:0.71651864 53:0.78746712 54:0.2657187 55:0.47158435 56:0.74683142 57:0.83636874 58:0.62876415 59:1.1702247 60:1.5509359 61:1.5990912 62:0.63604015 63:1.1815544 64:1.5744382 65:1.6291691 66:0.42260107 67:0.70404804 68:0.93816602 69:1.0068727 70:0.45875636 71:0.69453096 72:0.96818489 73:1.056447 74:0.86215663 75:1.3990616 76:1.777552 77:1.8274492 78:0.86798137 79:1.4147388 80:1.8058782 81:1.8603153 82:0.29522648 83:0.56118214 84:0.63704699 85:0.22107339 86:0.32522541 87:0.59582251 88:0.68795061 89:0.47341388 90:1.0262411 91:1.4022511 92:1.445825 93:0.48815697 94:1.0219767 95:1.4119015 96:1.4659483 97:0.30743399 98:0.38510644 99:0.39734256 100:0.21598886 101:0.352743 102:0.44056731 103:0.26681772 104:0.77845389 105:1.1495559 106:1.1914822 107:0.29983515 108:0.77126145 109:1.1635311 110:1.2180393 111:0.085253105 112:0.63917571 113:0.44707909 114:0.31374651 115:0.30908802 116:0.31259149 117:0.61346239 118:0.9816249 119:1.0239336 120:0.35275114 121:0.60777766 122:0.99921352 123:1.0469985 124:0.70814127 125:0.51286918 126:0.36193013 127:0.32728207 128:0.36576512 129:0.59332567 130:0.95289254 131:0.99414271 132:0.40481803 133:0.58015484 134:0.96521658 135:1.0091131 136:0.3211346 137:0.61032456 138:0.69986212 139:0.47876355 140:1.0084928 141:1.3808534 142:1.4250315 143:0.4676851 144:1.0090169 145:1.3901786 146:1.4465246 147:0.30091247 148:0.39460859 149:0.27025452 150:0.78230333 151:1.1429455 152:1.187042 153:0.273231 154:0.78103906 155:1.1639805 156:1.2238059 157:0.0964498 158:0.29060578 159:0.58403927 160:0.91682738 161:0.96230245 162:0.30691001 163:0.5937987 164:0.96421748 165:1.0269957 166:0.35581353 167:0.53415889 168:0.84866071 169:0.8955341 170:0.37013498 171:0.55279517 172:0.91203314 173:0.9761048 174:0.56660265 175:0.94526529 176:0.98555422 177:0.061427824 178:0.56055272 179:0.95641261 180:1.0156873 181:0.40701011 182:0.45498374 183:0.56350535 184:0.26391563 185:0.54589242 186:0.62003219 187:0.10139834 188:0.94055188 189:0.51203477 190:0.44199735 191:0.51870555 192:0.98045474 193:0.51938158 194:0.39283741 195:0.46153229 196:0.55723357 197:0.94751471 198:1.0078914 199:0.41959989 200:0.47548047 201:0.10860412 #
4.5491435301822327e-005 1:58.134445 2:33.656536 3:-0.42412019 4:-0.29118589 5:2.7733407 6:79.787827 7:70.701218 8:0.21628261 9:0.007390717 10:0.27733406 11:0.085543789 12:0.12143709 13:0.7165246 14:0.89661318 15:0.61716902 16:0.72372305 17:0.81180501 18:0.84993643 19:0.74431652 20:0.68517083 21:0.57282466 22:0.49153093 23:0.070607297 24:0.50689763 25:1.0397794 26:1.0817108 27:0.10068565 28:0.54964036 29:1.0496724 30:1.0626991 31:0.59746534 32:0.77866608 33:0.50297171 34:0.61025333 35:0.70407778 36:0.74478823 37:0.62915915 38:0.57848936 39:0.47068569 40:0.40400469 41:0.16978301 42:0.62389708 43:1.1562515 44:1.1976572 45:0.21314171 46:0.66727722 47:1.1645479 48:1.1752315 49:0.19330548 50:0.22162676 51:0.16493271 52:0.31714228 53:0.37252158 54:0.20506993 55:0.25118753 56:0.3413088 57:0.44764811 58:0.75798315 59:1.2051771 60:1.7273411 61:1.7626225 62:0.80342281 63:1.2454015 64:1.7225659 65:1.7217051 66:0.38195395 67:0.27698523 68:0.30579939 69:0.3406426 70:0.273247 71:0.32975224 72:0.43916887 73:0.54491347 74:0.94084573 75:1.3856375 76:1.9042795 77:1.9375609 78:0.98002392 79:1.4226093 80:1.8957108 81:1.891372 82:0.19674681 83:0.33187637 84:0.39788848 85:0.36093435 86:0.40384293 87:0.43945387 88:0.51271671 89:0.64180142 90:1.1035283 91:1.6274662 92:1.6679685 93:0.71274894 94:1.1472992 95:1.6270405 96:1.6324404 97:0.21969257 98:0.2856361 99:0.36415985 100:0.38368639 101:0.4596321 102:0.55043453 103:0.75512755 104:1.1982589 105:1.711439 106:1.7452043 107:0.81601107 108:1.2332807 109:1.6953058 110:1.6920885 111:0.070327148 112:0.47085378 113:0.46537966 114:0.60003722 115:0.71040595 116:0.84180623 117:1.2790663 118:1.7831128 119:1.8142987 120:0.90351295 121:1.3123399 122:1.764688 123:1.7579941 124:0.51063722 125:0.49749392 126:0.64502937 127:0.75973213 128:0.87924957 129:1.312041 130:1.8125732 131:1.8424286 132:0.94124389 133:1.3448534 134:1.7927551 135:1.7846028 136:0.18535359 137:0.29589775 138:0.40899664 139:0.79416311 140:1.233093 141:1.757677 142:1.7956005 143:0.82061797 144:1.2796017 145:1.7688625 146:1.7714944 147:0.22161886 148:0.35843232 149:0.73741114 150:1.1528716 151:1.6670654 152:1.6984738 153:0.75537169 154:1.1912183 155:1.6645099 156:1.6606196 157:0.13749096 158:0.62887961 159:1.0476031 160:1.5655172 161:1.5987632 162:0.63934714 163:1.0850579 164:1.5654846 165:1.5645366 166:0.55017108 167:0.9627431 168:1.4831467 169:1.5185089 170:0.54939491 171:0.99963379 172:1.4852941 173:1.4876572 174:0.47027758 175:1.0025722 176:1.0462625 177:0.1254981 178:0.51885337 179:1.0154331 180:1.0312291 181:0.53538901 182:0.58112305 183:0.43742353 184:0.12220129 185:0.57988501 186:0.60926986 187:0.081594832 188:0.96689516 189:0.52487898 190:0.2098832 191:0.26774868 192:1.0090699 193:0.56130207 194:0.19015849 195:0.22825965 196:0.4722583 197:0.97572899 198:0.98963374 199:0.50596148 200:0.52800202 201:0.081480235 #
-4.5491435301822327e-005 1:103.2709 2:21.479778 3:-0.25671601 4:-0.26528439 5:0.6974951 6:103.51364 7:30.892559 8:0.1270967 9:-0.05681473 10:1.7669876 11:0.32842293 12:0.0798807 13:0.46346709 14:0.44507861 15:0.3793295 16:0.62109053 17:0.39420384 18:0.353982 19:0.34681922 20:0.239205 21:0.32482907 22:0.38101053 23:0.063803092 24:0.59285563 25:0.97838515 26:1.0393357 27:0.059432682 28:0.56569582 29:0.94544619 30:1.0014179 31:0.38794112 32:0.37271121 33:0.31524584 34:0.55170482 35:0.32975069 36:0.29304856 37:0.28210092 38:0.24137171 39:0.37507713 40:0.43600443 41:0.13297364 42:0.65644008 43:1.0400521 44:1.1018144 45:0.12783395 46:0.63730514 47:1.0180809 48:1.0752968 49:0.20102191 50:0.19198109 51:0.18784986 52:0.20562428 53:0.25602141 54:0.20594934 55:0.47985548 56:0.70769894 57:0.77590191 58:0.51377434 59:1.0188289 60:1.3936895 61:1.4549438 62:0.50578338 63:1.0171597 64:1.3968421 65:1.4558244 66:0.20928778 67:0.33513021 68:0.24158479 69:0.25218403 70:0.28812355 71:0.51577014 72:0.69672781 73:0.75612986 74:0.48544341 75:0.94995761 76:1.3078421 77:1.3656386 78:0.49185795 79:0.97933775 80:1.371841 81:1.4246274 82:0.29487368 83:0.19565302 84:0.2158047 85:0.23146591 86:0.45026097 87:0.64907092 88:0.71116012 89:0.41811779 90:0.9074381 91:1.2840358 92:1.3433838 93:0.42736664 94:0.92079049 95:1.2985277 96:1.3533535 97:0.26681545 98:0.32705936 99:0.32737395 100:0.60403574 101:0.84590405 102:0.91496688 103:0.67286372 104:1.176253 105:1.5510814 106:1.6105274 107:0.65901864 108:1.1706973 109:1.5437634 110:1.6015157 111:0.06196174 112:0.16280417 113:0.38133222 114:0.60320985 115:0.67013127 116:0.44911471 117:0.94421154 118:1.3147899 119:1.3724222 120:0.42633301 121:0.93660027 122:1.3148717 123:1.3686188 124:0.17329839 125:0.3481096 126:0.55595535 127:0.62124437 128:0.40825546 129:0.89518732 130:1.2627305 131:1.3194176 132:0.38395399 133:0.88950592 134:1.2702992 135:1.3223047 136:0.29550639 137:0.54228634 138:0.61437094 139:0.40720037 140:0.91452068 141:1.290007 142:1.3509085 143:0.37171829 144:0.88813239 145:1.2615917 146:1.3208069 147:0.26782474 148:0.3429307 149:0.2887747 150:0.71352088 151:1.0803114 152:1.14289 153:0.21377619 154:0.65924978 155:1.0074403 156:1.0686691 157:0.076408356 158:0.32835692 159:0.51836485 160:0.85573983 161:0.918437 162:0.27464321 163:0.47689405 164:0.79768807 165:0.85508299 166:0.37498963 167:0.47698486 168:0.7974419 169:0.85973924 170:0.33147135 171:0.4428539 172:0.74600887 173:0.80143321 174:0.5429734 175:0.92973077 176:0.99022073 177:0.085597597 178:0.52140415 179:0.90058929 180:0.95528305 181:0.40115207 182:0.46678454 183:0.57060385 184:0.35538578 185:0.55185866 186:0.59252697 187:0.10265978 188:0.95353907 189:0.63498873 190:0.58695775 191:0.58137 192:1.0144054 193:0.68396884 194:0.61753505 195:0.59488755 196:0.52951342 197:0.90680903 198:0.96302795 199:0.4144302 200:0.45872965 201:0.10223852 #
4.5491435301822327e-005 1:111.81154 2:22.854891 3:-0.47409791 4:-0.3109563 5:0.59397161 6:110.30576 7:11.791808 8:0.2164436 9:0.01832323 10:2.4352834 11:0.38403505 12:0.095439963 13:0.50682962 14:0.71598679 15:0.51892978 16:0.48436809 17:0.54847634 18:0.59366369 19:0.36249262 20:0.39811224 21:0.53566206 22:0.59205902 23:0.069781199 24:0.66839343 25:1.074236 26:1.1343062 27:0.066435806 28:0.65577978 29:1.0714864 30:1.1318152 31:0.42619649 32:0.63668662 33:0.45195532 34:0.43706152 35:0.53399253 36:0.58963352 37:0.29524639 38:0.36919054 39:0.53079754 40:0.58913422 41:0.15346526 42:0.74355197 43:1.1506624 44:1.2132156 45:0.14819612 46:0.73724461 47:1.1512629 48:1.2122055 49:0.22337998 50:0.24829589 51:0.35496655 52:0.53954452 53:0.61736071 54:0.22504829 55:0.35624832 56:0.52496904 57:0.57623363 58:0.56351322 59:1.1544013 60:1.5579022 61:1.6203042 62:0.56018734 63:1.1490636 64:1.5596818 65:1.615522 66:0.33084968 67:0.45507529 68:0.62737441 69:0.70427519 70:0.41808379 71:0.50571251 72:0.60781443 73:0.64515436 74:0.77015692 75:1.3544292 76:1.7565725 77:1.8184065 78:0.76991826 79:1.355092 80:1.7633103 81:1.8169146 82:0.28459087 83:0.510777 84:0.59297323 85:0.35757002 86:0.41114047 87:0.57164979 88:0.62180269 89:0.56232679 90:1.128069 91:1.524959 92:1.5832598 93:0.57575083 94:1.1378121 95:1.5434248 96:1.5956658 97:0.27820781 98:0.3670978 99:0.41298449 100:0.38449457 101:0.50032824 102:0.56071317 103:0.51285672 104:1.0561696 105:1.4494805 106:1.5051144 107:0.53703058 108:1.0484788 109:1.4548628 110:1.4996352 111:0.098046362 112:0.5548991 113:0.51564288 114:0.54809779 115:0.57115227 116:0.55698824 117:1.0130811 118:1.4003195 119:1.4527538 120:0.58308667 121:1.0035326 122:1.408819 123:1.4483742 124:0.62538308 125:0.58627641 126:0.60148662 127:0.6184364 128:0.59533 129:1.0009346 130:1.3811549 131:1.4310763 132:0.62117255 133:0.98909932 134:1.3907886 135:1.4275105 136:0.28791079 137:0.5119893 138:0.57395786 139:0.4247947 140:1.009598 141:1.4080166 142:1.4705484 143:0.40089232 144:0.98906481 145:1.3987129 146:1.4585893 147:0.26485142 148:0.33826765 149:0.43429244 150:1.0037858 151:1.3950894 152:1.4520514 153:0.43242234 154:0.95084053 155:1.3605436 156:1.4058543 157:0.082504846 158:0.54300237 159:1.045386 160:1.433642 161:1.4857185 162:0.55893242 163:0.97732675 164:1.3822252 165:1.4191579 166:0.59492993 167:1.0617601 168:1.4468712 169:1.4978049 170:0.61075217 171:0.99064392 172:1.3928978 173:1.4283643 174:0.61862725 175:1.0250155 176:1.0836742 177:0.086017072 178:0.6059218 179:1.021816 180:1.0808479 181:0.42506912 182:0.48743963 183:0.6243723 184:0.31968364 185:0.58906186 186:0.64738989 187:0.10829342 188:1.0275369 189:0.57048118 190:0.50030226 191:0.53160447 192:1.0879776 193:0.61165625 194:0.49782619 195:0.51846129 196:0.60873353 197:1.023297 198:1.0858362 199:0.43163991 200:0.48992449 201:0.11372562 #
-4.5491435301822327e-005 1:111.23829 2:24.286489 3:-0.34802741 4:-0.5236088 5:0.38352874 6:96.194382 7:32.659988 8:0.2251031 9:-0.01564109 10:0.65199888 11:0.18168563 12:0.099048011 13:0.59702349 14:0.85165405 15:0.42453885 16:0.31135085 17:0.32177514 18:0.36124921 19:0.46665221 20:0.25560242 21:0.28946346 22:0.33153814 23:0.076506488 24:0.63642853 25:1.0142449 26:1.076993 27:0.074038349 28:0.63709062 29:0.98419672 30:1.0254961 31:0.49804628 32:0.7532441 33:0.33232456 34:0.28254756 35:0.36523303 36:0.41779211 37:0.37759927 38:0.18992311 39:0.3166877 40:0.37937215 41:0.1594515 42:0.73315012 43:1.1093404 44:1.1731859 45:0.16015333 46:0.73181301 47:1.0798663 48:1.1220695 49:0.26169318 50:0.2491973 51:0.54456204 52:0.76417547 53:0.8347345 54:0.23466493 55:0.42280185 56:0.68393975 57:0.77930933 58:0.65053344 59:1.2263145 60:1.5963496 61:1.6632576 62:0.64961851 63:1.2165512 64:1.5661906 65:1.6115311 66:0.49247387 67:0.79277909 68:1.0155623 69:1.0856944 70:0.4346891 71:0.66813844 72:0.92037094 73:1.0155563 74:0.90702456 75:1.4824212 76:1.8545278 77:1.9201307 78:0.9006151 79:1.4673166 80:1.8194033 81:1.8639613 82:0.3051818 83:0.53343803 84:0.60813177 85:0.31819189 86:0.27118605 87:0.51931888 88:0.61485893 89:0.45830896 90:1.0303347 91:1.3965726 92:1.4639927 93:0.49141741 94:1.0507667 95:1.390085 96:1.4309982 97:0.25506034 98:0.33664337 99:0.5425657 100:0.3136906 101:0.37066445 102:0.45815778 103:0.29048553 104:0.79161823 105:1.1393808 106:1.2096902 107:0.37983501 108:0.84624135 109:1.1575344 110:1.1962221 111:0.083803549 112:0.71043122 113:0.44345167 114:0.33818847 115:0.35861769 116:0.25837424 117:0.58799565 118:0.92866439 119:0.99513054 120:0.35420695 121:0.67184567 122:0.95688123 123:0.98943424 124:0.76887274 125:0.49887308 126:0.37246627 127:0.36461931 128:0.29631975 129:0.53360838 130:0.86948454 131:0.93361521 132:0.37867248 133:0.62766474 134:0.89994216 135:0.9296996 136:0.32677174 137:0.57162517 138:0.65544105 139:0.53553188 140:1.0894015 141:1.4632543 142:1.5256729 143:0.49896425 144:1.0520805 145:1.4079968 146:1.4542549 147:0.30277592 148:0.39272988 149:0.3109602 150:0.84874618 151:1.2213461 152:1.2853413 153:0.2863771 154:0.84245181 155:1.1879718 156:1.2313069 157:0.10968312 158:0.29834303 159:0.66612858 160:1.028329 161:1.0878109 162:0.27469528 163:0.67744517 164:1.0033716 165:1.0433152 166:0.33117789 167:0.59463131 168:0.94986135 169:1.0064288 170:0.30290687 171:0.61719191 172:0.93177348 173:0.96845305 174:0.58311701 175:0.95964301 176:1.0230639 177:0.11155467 178:0.60437262 179:0.94293594 180:0.98194396 181:0.39324501 182:0.44785342 183:0.59638047 184:0.28726175 185:0.45627096 186:0.48031828 187:0.096784942 188:0.97529012 189:0.52407342 190:0.36423367 191:0.35182819 192:1.0359436 193:0.57433569 194:0.38114285 195:0.35765496 196:0.58149904 197:0.93307084 198:0.97492993 199:0.36502102 200:0.41758636 201:0.10962323 #
4.5491435301822327e-005 1:74.502975 2:31.03595 3:-0.42162251 4:-0.4496417 5:1.0357611 6:82.655632 7:64.020042 8:0.2051906 9:-0.063025951 10:0.69050741 11:0.22744879 12:0.087322436 13:0.52850109 14:0.73441929 15:0.61364526 16:0.37786552 17:0.27408957 18:0.30165106 19:0.34321797 20:0.24123459 21:0.33524051 22:0.38752043 23:0.060189515 24:0.63292474 25:1.0401829 26:1.1081833 27:0.06066972 28:0.68628865 29:1.0767475 30:1.1299344 31:0.44124964 32:0.64745986 33:0.5361405 34:0.30186248 35:0.27206618 36:0.3246426 37:0.26295358 38:0.22399762 39:0.37568918 40:0.43291995 41:0.13944335 42:0.71447474 43:1.122637 44:1.190233 45:0.14177334 46:0.7722953 47:1.1605871 48:1.215026 49:0.20972523 50:0.24774338 51:0.26793146 52:0.53323025 53:0.61224258 54:0.24593702 55:0.48873985 56:0.70694226 57:0.77000511 58:0.57669038 59:1.1369908 60:1.5447204 61:1.610679 62:0.57833207 63:1.2094251 64:1.5893953 65:1.6478841 66:0.2786845 67:0.4271113 68:0.69724399 69:0.77633059 70:0.44265419 71:0.67900866 72:0.88974518 73:0.9512189 74:0.78300965 75:1.3323371 76:1.7366716 77:1.8011687 78:0.7829231 79:1.4148511 80:1.794609 81:1.8529848 82:0.30609551 83:0.5877527 84:0.66038769 85:0.4435418 86:0.62190682 87:0.78577501 88:0.8371073 89:0.66821355 90:1.1477513 91:1.5507348 92:1.6150187 93:0.64952749 94:1.2659562 95:1.6454697 96:1.6988863 97:0.29083195 98:0.36823434 99:0.26363498 100:0.34514508 101:0.50946981 102:0.56475192 103:0.42528069 104:0.94454122 105:1.3481295 106:1.4091406 107:0.42280731 108:1.0418237 109:1.4392399 110:1.4880407 111:0.08499492 112:0.40282926 113:0.21982904 114:0.24400578 115:0.29639837 116:0.28186095 117:0.75251329 118:1.1410347 119:1.1960548 120:0.30088949 121:0.83746421 122:1.2480851 123:1.2873259 124:0.4756881 125:0.26309544 126:0.19435729 127:0.23478508 128:0.2898463 129:0.69570702 130:1.07906 131:1.1328193 132:0.30969959 133:0.78307635 134:1.1948754 135:1.2307514 136:0.28841791 137:0.53233784 138:0.59900528 139:0.37927535 140:0.96881843 141:1.3705782 142:1.4366499 143:0.39928675 144:1.0115799 145:1.3922602 146:1.4505405 147:0.25465462 148:0.32172674 149:0.23263797 150:0.7841239 151:1.1652708 152:1.2226105 153:0.2883248 154:0.82168269 155:1.2225887 156:1.2687006 157:0.07175377 158:0.29836565 159:0.63159949 160:0.98530608 161:1.0342921 162:0.3384997 163:0.68276101 164:1.092308 165:1.1241403 166:0.35036272 167:0.5951916 168:0.93375564 169:0.97911644 170:0.3836745 171:0.65768731 172:1.0663358 173:1.0925522 174:0.60365885 175:1.0065178 176:1.0731577 177:0.074045941 178:0.64484715 179:1.0378976 180:1.0899903 181:0.43129107 182:0.50753707 183:0.57997406 184:0.29539165 185:0.61888266 186:0.63626128 187:0.11460378 188:0.98926842 189:0.51178074 190:0.53213984 191:0.49450523 192:1.0590324 193:0.58342671 194:0.58672088 195:0.53398532 196:0.63719523 197:1.0264024 198:1.0792286 199:0.42050567 200:0.45644373 201:0.10087612 #
-4.5491435301822327e-005 1:78.528099 2:30.816906 3:-0.54862863 4:-0.59705389 5:0.063119724 6:50.424412 7:45.844795 8:0.207552 9:-0.041562252 10:0.021039909 11:0.32013962 12:0.08424218 13:0.50927043 14:0.72214192 15:0.38754475 16:0.14752252 17:0.26820549 18:0.32070059 19:0.35323527 20:0.27444658 21:0.28702429 22:0.34212378 23:0.09709508 24:0.68758637 25:1.0720496 26:1.143025 27:0.097840033 28:0.75040722 29:1.1173601 30:1.1824571 31:0.4251138 32:0.63929403 33:0.31245983 34:0.11170346 35:0.30632061 36:0.36663279 37:0.2778728 38:0.26267323 39:0.32695404 40:0.38497734 41:0.16944386 42:0.76980805 43:1.1545959 44:1.226182 45:0.16816172 46:0.83205307 47:1.1981583 48:1.2640733 49:0.23119318 50:0.20547073 51:0.41860092 52:0.65554476 53:0.72036076 54:0.24449596 55:0.51408613 56:0.68265522 57:0.7345497 58:0.58243942 59:1.1864924 60:1.5728182 61:1.6465031 62:0.58455676 63:1.2519729 64:1.614453 65:1.6828611 66:0.37105033 67:0.61384314 68:0.84214163 69:0.90460801 70:0.45672339 71:0.7334457 72:0.88835293 73:0.93105948 74:0.78835195 75:1.393873 76:1.7875792 77:1.8597132 78:0.800726 79:1.4691212 80:1.8349899 81:1.9012104 82:0.2713578 83:0.54498923 84:0.6068508 85:0.29575059 86:0.49787197 87:0.60716724 88:0.65013313 89:0.43563476 90:1.0307804 91:1.4282743 92:1.5005772 93:0.47967187 94:1.1331234 95:1.4998752 96:1.5646859 97:0.30176297 98:0.36213791 99:0.3229875 100:0.35442406 101:0.3785367 102:0.41703925 103:0.18952623 104:0.78698164 105:1.1828271 106:1.2526922 107:0.23798074 108:0.87570131 109:1.2444379 110:1.3071451 111:0.077385925 112:0.48814648 113:0.37557432 114:0.20855078 115:0.21235749 116:0.26699793 117:0.66677064 118:1.0408442 119:1.1035936 120:0.24626587 121:0.70084494 122:1.062528 123:1.1192422 124:0.55166024 125:0.42321789 126:0.2327427 127:0.20046002 128:0.30781072 129:0.62688565 130:0.99580115 131:1.0564975 132:0.28711784 133:0.659082 134:1.0169557 135:1.0712444 136:0.27802455 137:0.47381285 138:0.5369696 139:0.44602624 140:1.0323918 141:1.4014611 142:1.4736922 143:0.39949891 144:1.0526705 145:1.4092878 146:1.4786547 147:0.26935983 148:0.35019985 149:0.3591198 150:0.83852458 151:1.1742264 152:1.2457187 153:0.24346597 154:0.80877429 155:1.1516223 156:1.2233441 157:0.085599281 158:0.31949097 159:0.67969954 160:1.006357 161:1.0719652 162:0.21833715 163:0.63709319 164:0.98376715 165:1.0487795 166:0.35894287 167:0.66404998 168:0.98319465 169:1.0460182 170:0.27784258 171:0.61464739 172:0.9589836 173:1.0209236 174:0.60906416 175:1.0029309 176:1.0732825 177:0.13490744 178:0.70169854 179:1.0693595 180:1.1319636 181:0.40830612 182:0.47569841 183:0.63877457 184:0.31313956 185:0.57483834 186:0.62166989 187:0.09072683 188:1.0093226 189:0.42299557 190:0.33048138 191:0.34646699 192:1.0793598 193:0.47465384 194:0.32999796 195:0.32462493 196:0.66927099 197:1.0346922 198:1.1005979 199:0.37322557 200:0.43396088 201:0.086400524 #
4.5491435301822327e-005 1:95.035362 2:22.814533 3:-0.2503784 4:-0.34348819 5:0.52864915 6:138.0229 7:22.608854 8:0.216369 9:0.04531284 10:0.81059533 11:0.27822539 12:0.08058235 13:0.44676599 14:0.70553172 15:0.36896229 16:0.44468641 17:0.59792453 18:0.64935786 19:0.43296084 20:0.4497768 21:0.59300244 22:0.65879887 23:0.12941854 24:0.68840975 25:1.0741817 26:1.1279504 27:0.14181902 28:0.70703441 29:1.073498 30:1.1306797 31:0.37584797 32:0.6353476 33:0.30798623 34:0.42086917 35:0.59571642 36:0.65022439 37:0.37823647 38:0.41878688 39:0.59604651 40:0.66728044 41:0.19076467 42:0.75940442 43:1.1424968 44:1.1978363 45:0.20861147 46:0.77889907 47:1.143889 48:1.2024702 49:0.27239648 50:0.22839664 51:0.38841245 52:0.57592934 53:0.6376949 54:0.24543409 55:0.40466103 56:0.61651069 57:0.69648516 58:0.54845232 59:1.1182836 60:1.4977618 61:1.5487777 62:0.56819344 63:1.1419419 64:1.5026819 65:1.5581447 66:0.459436 67:0.5508492 68:0.67738175 69:0.73464215 70:0.38460538 71:0.46519101 72:0.63108236 73:0.71098614 74:0.81207061 75:1.3715265 76:1.7479451 77:1.7961129 78:0.81224406 79:1.3906542 80:1.7536378 81:1.8052295 82:0.29135865 83:0.53555399 84:0.60686392 85:0.40539733 86:0.516954 87:0.70608783 88:0.77722853 89:0.4227643 90:0.99266231 91:1.3692569 92:1.4241763 93:0.50527698 94:1.0449176 95:1.3956635 96:1.4570624 97:0.26677632 98:0.34319291 99:0.51217484 100:0.65490443 101:0.83358526 102:0.89833748 103:0.44469947 104:0.95971715 105:1.333801 106:1.374774 107:0.55059373 108:1.0486408 109:1.3968414 110:1.4506419 111:0.084845588 112:0.63991654 113:0.79101878 114:0.95918065 115:1.0205144 116:0.56868398 117:0.96498126 118:1.3307407 119:1.3591306 120:0.65206826 121:1.0723584 122:1.4179728 123:1.4649554 124:0.68655539 125:0.83563048 126:0.99815685 127:1.058098 128:0.61855441 129:0.95093584 130:1.3114591 131:1.3363638 132:0.68766356 133:1.070315 134:1.4113219 135:1.4568256 136:0.28438628 137:0.52812171 138:0.61084813 139:0.55061358 140:1.0746691 141:1.4502704 142:1.4957645 143:0.48930132 144:1.0500653 145:1.4139011 146:1.4620417 147:0.2834377 148:0.37393245 149:0.57019687 150:1.062844 151:1.4417692 152:1.4846296 153:0.49118239 154:1.0322661 155:1.3970934 156:1.4367596 157:0.098184049 158:0.68435758 159:1.0749471 160:1.4514524 161:1.4902222 162:0.59115225 163:1.0434926 164:1.4019703 165:1.4321978 166:0.73880726 167:1.0717204 168:1.4435909 169:1.4806764 170:0.65154308 171:1.039467 172:1.3925464 173:1.4190364 174:0.59339535 175:0.97765756 176:1.0332721 177:0.17982823 178:0.63706177 179:0.99399316 180:1.0548395 181:0.40271133 182:0.45500457 183:0.60886008 184:0.34658939 185:0.56960523 186:0.61986572 187:0.11028035 188:0.9907729 189:0.57711381 190:0.51422387 191:0.54041553 192:1.0418326 193:0.62206423 194:0.53796351 195:0.55157542 196:0.59770972 197:0.96864021 198:1.0223026 199:0.39068645 200:0.4436613 201:0.11502279 #
-8.7349383481441402e-006 1:122.87349 2:22.590759 3:-0.53842932 4:-0.54465008 5:1.1192089 6:98.793434 7:27.444937 8:0.1658027 9:-0.02543035 10:1.3803576 11:0.12269974 12:0.091133736 13:0.55188459 14:0.7630499 15:0.46538863 16:0.28023252 17:0.27872732 18:0.35192734 19:0.39620322 20:0.2475172 21:0.33987364 22:0.39402726 23:0.078548729 24:0.61668581 25:0.96366698 26:1.0257715 27:0.065251097 28:0.5842638 29:0.97794247 30:1.0331647 31:0.46082583 32:0.67214447 33:0.38766661 34:0.23789592 35:0.31373885 36:0.4001261 37:0.31157944 38:0.22969398 39:0.38829854 40:0.45058328 41:0.16061154 42:0.70423645 43:1.0508201 44:1.1128917 45:0.14059837 46:0.6737166 47:1.0663844 48:1.1223363 49:0.21385321 50:0.24743551 51:0.44327015 52:0.6785292 53:0.77148479 54:0.22992896 55:0.52450961 56:0.76994604 57:0.84133244 58:0.61476201 59:1.1542557 60:1.497139 61:1.5589936 62:0.59385687 63:1.1302689 64:1.5187608 65:1.576655 66:0.4014686 67:0.63478768 68:0.87233716 69:0.96250492 70:0.42113993 71:0.72704768 72:0.97581184 73:1.0475684 74:0.8245129 75:1.363273 76:1.7069527 77:1.7686042 78:0.80478114 79:1.3390443 80:1.7245665 81:1.7823464 82:0.28693348 83:0.55005425 84:0.64789104 85:0.35010108 86:0.53730792 87:0.72649777 88:0.78688389 89:0.50735694 90:1.0158106 91:1.3627262 92:1.4219015 93:0.51889694 94:1.0157503 95:1.3995184 96:1.4537128 97:0.28184882 98:0.38385645 99:0.38100463 100:0.39724529 101:0.51592773 102:0.56649649 103:0.2865479 104:0.77160126 105:1.1223766 106:1.1781292 107:0.33370599 108:0.77788627 109:1.1584339 110:1.2078444 111:0.11582087 112:0.55847079 113:0.39384916 114:0.35354796 115:0.386765 116:0.23435152 117:0.57492352 118:0.92791402 119:0.97490299 120:0.30489039 121:0.58515388 122:0.95364469 123:0.99263042 124:0.64506233 125:0.460774 126:0.34528899 127:0.34776345 128:0.30219582 129:0.53839368 130:0.88107437 131:0.92270321 132:0.37030563 133:0.54969054 134:0.90227377 135:0.93404126 136:0.314417 137:0.57860732 138:0.6537354 139:0.46646127 140:1.0009974 141:1.3358788 142:1.3985994 143:0.42407349 144:0.96035779 145:1.3483638 146:1.4072676 147:0.27480164 148:0.35125372 149:0.29625243 150:0.75158745 151:1.0673869 152:1.1280459 153:0.23368078 154:0.71006191 155:1.0951165 156:1.1512076 157:0.077902287 158:0.32964122 159:0.55601645 160:0.84911638 161:0.90160334 162:0.30551708 163:0.53716052 164:0.90726382 165:0.95488161 166:0.37345842 167:0.51047719 168:0.79037476 169:0.84018183 170:0.35956037 171:0.50198281 172:0.85900539 173:0.90374124 174:0.556104 175:0.90579736 176:0.96656328 177:0.10512825 178:0.52991921 179:0.92185527 180:0.97567636 181:0.40224978 182:0.44848767 183:0.58701873 184:0.21270384 185:0.46874914 186:0.50975341 187:0.10480104 188:0.93189454 189:0.47375247 190:0.41387618 191:0.4330641 192:0.99407083 193:0.53114426 194:0.43409795 195:0.44240469 196:0.54830325 197:0.94089842 198:0.99742681 199:0.41955671 200:0.4695681 201:0.11060564 #
4.5491435301822327e-005 1:93.139336 2:47.185574 3:-0.2880497 4:-0.35078281 5:0.37801796 6:80.158981 7:40.586647 8:0.2394945 9:0.02027519 10:0.18900898 11:0.1331335 12:0.074959874 13:0.37198946 14:0.57557327 15:0.41152877 16:0.36967066 17:0.26378438 18:0.28318083 19:0.3212249 20:0.48959795 21:0.67187917 22:0.72507745 23:0.082064368 24:0.57767826 25:0.93020129 26:0.98401618 27:0.1063014 28:0.62539881 29:1.2367996 30:1.2718835 31:0.31584442 32:0.51773798 33:0.363758 34:0.31456959 35:0.24991024 36:0.29017735 37:0.27848393 38:0.46257809 39:0.64306229 40:0.69584632 41:0.13553533 42:0.64442492 43:0.99064666 44:1.047477 45:0.16644044 46:0.68216544 47:1.2934878 48:1.3310021 49:0.21271355 50:0.15172364 51:0.26656917 52:0.42383698 53:0.50537038 54:0.18803281 55:0.26842943 56:0.4093219 57:0.45466667 58:0.43038577 59:0.93570161 60:1.2955931 61:1.3475338 62:0.46169409 63:0.99222034 64:1.6022788 65:1.6379702 66:0.22655489 67:0.36454704 68:0.58147842 69:0.67124128 70:0.35225815 71:0.33226824 72:0.35998046 73:0.38296887 74:0.62837982 75:1.1366163 76:1.5002229 77:1.5517678 78:0.66680712 79:1.1975998 80:1.8080989 81:1.8431524 82:0.24433535 83:0.42317763 84:0.5055936 85:0.27553225 86:0.30653241 87:0.40537518 88:0.43994352 89:0.45315641 90:0.96652722 91:1.3308545 92:1.3804533 93:0.50857115 94:1.0256841 95:1.6358061 96:1.6662242 97:0.26093248 98:0.35616067 99:0.3717669 100:0.48298401 101:0.60000968 102:0.63604182 103:0.38514641 104:0.90264821 105:1.2439913 106:1.301461 107:0.46827471 108:0.93679535 109:1.5373472 110:1.5695338 111:0.09944576 112:0.46260336 113:0.60021645 114:0.74687421 115:0.78875196 116:0.2240954 117:0.67907524 118:1.0116426 119:1.0688275 120:0.33804911 121:0.71428764 122:1.3049035 123:1.3320487 124:0.52990067 125:0.66868001 126:0.81816334 127:0.86053264 128:0.22457658 129:0.60686719 130:0.92985529 131:0.98657244 132:0.3348195 133:0.63857323 134:1.2202128 135:1.2442219 136:0.24078725 137:0.43343809 138:0.49193513 139:0.39713866 140:0.85870886 141:1.2133863 142:1.2649217 143:0.37764519 144:0.91358852 145:1.5200362 146:1.5613019 147:0.20935062 148:0.27127984 149:0.55507118 150:0.9854005 151:1.3595511 152:1.400297 153:0.54877007 154:1.0717039 155:1.6721979 156:1.7047669 157:0.065118253 158:0.72945493 159:1.1620085 160:1.5408471 161:1.5782847 162:0.74022776 163:1.2541854 164:1.8524208 165:1.880029 166:0.77988744 167:1.2138917 168:1.5944245 169:1.630927 170:0.79641277 171:1.3087467 172:1.906364 173:1.9321151 174:0.5358755 175:0.88562173 176:0.93986207 177:0.1311429 178:0.58096713 179:1.1903753 180:1.2218014 181:0.39528337 182:0.42801213 183:0.49780238 184:0.22053754 185:0.72376579 186:0.74518758 187:0.098706104 188:0.84361178 189:0.33163056 190:0.34603512 191:0.38135162 192:0.89788413 193:0.40473655 194:0.33832249 195:0.34797394 196:0.5413174 197:1.1510178 198:1.1892822 199:0.61344659 200:0.6540283 201:0.10925244 #
-4.5491435301822327e-005 1:97.35038 2:28.835224 3:-0.60169852 4:-0.585976 5:1.2764207 6:118.95532 7:26.941906 8:0.12980691 9:-0.020873999 10:1.2764207 11:0.10387065 12:0.097942367 13:0.58962029 14:0.78927523 15:0.47439703 16:0.31323379 17:0.22779232 18:0.24836022 19:0.47359148 20:0.43770424 21:0.47790939 22:0.53951669 23:0.064971454 24:0.48607439 25:0.87952369 26:0.92736632 27:0.08053413 28:0.51213551 29:0.85521001 30:0.911246 31:0.49174792 32:0.69225311 33:0.38140476 34:0.25722611 35:0.18658572 36:0.21717021 37:0.38385233 38:0.37008756 39:0.44640559 40:0.52392381 41:0.14261362 42:0.57866794 43:0.97284389 44:1.0210085 45:0.16768396 46:0.60464638 47:0.95022964 48:1.0051491 49:0.21541521 50:0.20246091 51:0.45031878 52:0.49291009 53:0.51672381 54:0.2128574 55:0.38052303 56:0.56717134 57:0.66624576 58:0.62574607 59:1.0575683 60:1.4496723 61:1.4984962 62:0.65231842 63:1.0819116 64:1.4319029 65:1.4830713 66:0.39512789 67:0.65267974 68:0.67477912 69:0.68516028 70:0.3696453 71:0.49906722 72:0.66219121 73:0.74930799 74:0.82835376 75:1.2538664 76:1.6477908 77:1.6925659 78:0.84724945 79:1.2675169 80:1.6206945 81:1.6666812 82:0.26322535 83:0.35989851 84:0.40853801 85:0.30195549 86:0.44076267 87:0.60344905 88:0.6974622 89:0.5010466 90:0.93646026 91:1.3266239 92:1.3770124 93:0.54232818 94:0.9798643 95:1.3210032 96:1.3767003 97:0.23020402 98:0.31024897 99:0.45664245 100:0.5295077 101:0.64268595 102:0.72001892 103:0.31870058 104:0.72769523 105:1.1038393 106:1.155509 107:0.37754869 108:0.79077595 109:1.11596 110:1.1764094 111:0.081825905 112:0.44461089 113:0.43982291 114:0.4789452 115:0.54186869 116:0.25377989 117:0.64014906 118:1.0354818 119:1.0730836 120:0.26828516 121:0.66916847 122:1.0144268 123:1.0619997 124:0.45300153 125:0.42009598 126:0.42596516 127:0.48180893 128:0.28091839 129:0.63711667 130:1.0335996 131:1.065618 132:0.27432019 133:0.65046 134:1.00014 135:1.0419544 136:0.20351481 137:0.41530117 138:0.52672982 139:0.51520151 140:0.92315954 141:1.3099974 142:1.3585893 143:0.52778316 144:0.93224537 145:1.2821106 146:1.331735 147:0.26054689 148:0.37916768 149:0.48668212 150:0.84462297 151:1.2282087 152:1.2689686 153:0.47106495 154:0.83546293 155:1.1871325 156:1.2296845 157:0.12189687 158:0.52497053 159:0.79522634 160:1.1741344 161:1.2016865 162:0.47910768 163:0.75826699 164:1.0947896 165:1.1216178 166:0.58021003 167:0.79675603 168:1.1597242 169:1.180652 170:0.52807498 171:0.74144143 172:1.0690255 173:1.0874902 174:0.46042395 175:0.84835184 176:0.89830142 177:0.11200435 178:0.49474648 179:0.82848388 180:0.88773549 181:0.43202764 182:0.47793639 183:0.4318122 184:0.2602624 185:0.46897247 186:0.53254324 187:0.10738721 188:0.82618773 189:0.48682979 190:0.39647341 191:0.43676054 192:0.87106472 193:0.51020718 194:0.39826769 195:0.42286527 196:0.44960451 197:0.79613572 198:0.84952956 199:0.39205295 200:0.44007486 201:0.10226905 #
4.5491435301822327e-005 1:90.056953 2:12.811816 3:-0.28759101 4:-0.3430604 5:0.43602806 6:124.78813 7:39.494442 8:0.2533651 9:0.057286821 10:0.71217918 11:0.32418203 12:0.10554498 13:0.54407126 14:0.77967954 15:0.39458296 16:0.41837007 17:0.54337788 18:0.59798306 19:0.45161921 20:0.45765701 21:0.61072439 22:0.67220485 23:0.13627543 24:0.64472336 25:1.0337597 26:1.0935158 27:0.1349934 28:0.66728818 29:1.0264649 30:1.0789648 31:0.45857701 32:0.6935848 33:0.32179055 34:0.40141901 35:0.56284148 36:0.62348467 37:0.37906152 38:0.42641002 39:0.62355244 40:0.68984079 41:0.21639748 42:0.73530799 43:1.1209483 44:1.1845559 45:0.22071306 46:0.75467223 47:1.1139411 48:1.1686902 49:0.24533884 50:0.25551695 51:0.42976674 52:0.62272304 53:0.69403028 54:0.23603871 55:0.42725232 56:0.64569443 57:0.71279913 58:0.64912456 59:1.1710783 60:1.5523359 61:1.6117376 62:0.65206891 63:1.1909881 64:1.5477511 65:1.594236 66:0.48344073 67:0.61703557 68:0.74935347 69:0.81164801 70:0.39583597 71:0.52575368 72:0.69799501 73:0.75911421 74:0.88899755 75:1.4073864 76:1.7863481 77:1.8449991 78:0.87821144 79:1.4171009 80:1.7749141 81:1.817916 82:0.28039595 83:0.52619159 84:0.6042425 85:0.36190596 86:0.51728684 87:0.71896583 88:0.78136903 89:0.45932367 90:0.98532432 91:1.3654468 92:1.4261059 93:0.52196032 94:1.0394205 95:1.3851238 96:1.4386336 97:0.26913977 98:0.3506532 99:0.49932727 100:0.65517157 101:0.83683199 102:0.89356649 103:0.42758229 104:0.90509158 105:1.2814306 106:1.3307458 107:0.51867586 108:1.0049623 109:1.3441486 110:1.3944193 111:0.085599028 112:0.64236063 113:0.7950052 114:0.96434504 115:1.0182823 116:0.5167653 117:0.86956 118:1.2390621 119:1.2777033 120:0.58556563 121:0.99609864 122:1.3287224 123:1.3758988 124:0.70068926 125:0.84838253 126:1.0108249 127:1.063103 128:0.57100338 129:0.85267425 130:1.2172523 131:1.2523565 132:0.62352425 133:0.99260795 134:1.3190078 135:1.3655303 136:0.29048368 137:0.54553199 138:0.61960489 139:0.57994491 140:1.0732189 141:1.4553412 142:1.5117755 143:0.52318406 144:1.0507179 145:1.413323 146:1.4535033 147:0.27522454 148:0.35417566 149:0.58341575 150:1.041363 151:1.4253111 152:1.4775282 153:0.48803407 154:0.99070662 155:1.3516864 156:1.3816746 157:0.083813049 158:0.69718993 159:1.0594698 160:1.4376594 161:1.4840616 162:0.59565604 163:0.9992528 164:1.3517181 165:1.371376 166:0.74668008 167:1.0642374 168:1.4366571 169:1.481414 170:0.65411174 171:1.0017303 172:1.3496201 173:1.3659905 174:0.54644096 175:0.93340373 176:0.99426425 177:0.18643899 178:0.60249478 179:0.94774801 180:1.005345 181:0.39945105 182:0.45676222 183:0.57542157 184:0.36718851 185:0.56885296 186:0.6261766 187:0.10943688 188:0.96122712 189:0.60361677 190:0.53022259 191:0.56671035 192:1.0182165 193:0.64708704 194:0.54793853 195:0.57489765 196:0.56473714 197:0.9298023 198:0.97873968 199:0.37907544 200:0.43223938 201:0.11388542 #
-4.5491435301822327e-005 1:107.23454 2:7.7066708 3:-0.2463579 4:-0.31147829 5:0.87082773 6:124.20336 7:17.139866 8:0.16874941 9:-0.074539639 10:2.4673452 11:0.13766433 12:0.090326391 13:0.54390341 14:0.73164201 15:0.40317723 16:0.24683142 17:0.27501532 18:0.33942834 19:0.39486867 20:0.26474702 21:0.27423623 22:0.32519278 23:0.071197823 24:0.54803973 25:0.92850941 26:0.98906672 27:0.078174658 28:0.55287856 29:0.93352348 30:0.99024963 31:0.4536505 32:0.64253646 33:0.31904298 34:0.21964851 35:0.3315165 36:0.40621769 37:0.31285065 38:0.21888144 39:0.31196314 40:0.37369025 41:0.14496987 42:0.63390714 43:1.0131607 44:1.0729212 45:0.15793243 46:0.63612568 47:1.0146576 48:1.0697752 49:0.20782952 50:0.22016576 51:0.48759723 52:0.73297161 53:0.81915045 54:0.21974422 55:0.43175122 56:0.657386 57:0.73713696 58:0.59102315 59:1.0769687 60:1.4491349 61:1.5058699 62:0.60358036 63:1.0704594 64:1.4378734 65:1.4866145 66:0.40629146 67:0.68198192 68:0.92502522 69:1.0098103 70:0.37658355 71:0.58568215 72:0.81448668 73:0.89451629 74:0.78121692 75:1.2568555 76:1.6234004 77:1.6762362 78:0.78686321 79:1.2507643 80:1.6183393 81:1.6619173 82:0.28191441 83:0.5422914 84:0.63096869 85:0.27782038 86:0.38326347 87:0.57804716 88:0.65194565 89:0.4316847 90:0.92236298 91:1.2940329 92:1.3537252 93:0.47582939 94:0.93792039 95:1.3034621 96:1.3581139 97:0.27154869 98:0.36135334 99:0.43950963 100:0.40190515 101:0.48246059 102:0.5365876 103:0.2286097 104:0.68758917 105:1.0559591 106:1.118727 107:0.31845632 108:0.72038937 109:1.075273 110:1.136863 111:0.090959199 112:0.63300723 113:0.52043319 114:0.46359003 115:0.47988826 116:0.21174663 117:0.46872365 118:0.83011794 119:0.88997912 120:0.2924673 121:0.50391942 122:0.84075516 123:0.90399426 124:0.71099788 125:0.58529717 126:0.49876577 127:0.49895358 128:0.27656481 129:0.41574073 130:0.76592726 131:0.82465315 132:0.33975232 133:0.4510974 134:0.77113491 135:0.83484834 136:0.2620514 137:0.4737131 138:0.55141139 139:0.45630285 140:0.91791654 141:1.2897158 142:1.345659 143:0.43697336 144:0.89569318 145:1.2674199 146:1.3146654 147:0.24184641 148:0.32638159 149:0.32434106 150:0.74230486 151:1.1098509 152:1.1677566 153:0.28980061 154:0.73023945 155:1.1078006 156:1.1595592 157:0.098998874 158:0.2981301 159:0.57064313 160:0.92592812 161:0.98240447 162:0.24428356 163:0.54805416 164:0.92176896 165:0.97450727 166:0.33897567 167:0.52691132 168:0.86916316 169:0.92197698 170:0.28210327 171:0.49313831 172:0.85654587 173:0.90785843 174:0.50714576 175:0.88700324 176:0.94886875 177:0.10988355 178:0.52796501 179:0.90411055 180:0.96404773 181:0.38942224 182:0.4505432 183:0.50093913 184:0.33594292 185:0.62190247 186:0.68365324 187:0.10473467 188:0.88009834 189:0.60177273 190:0.65283459 191:0.69571358 192:0.9401015 193:0.65398937 194:0.68314087 195:0.71629012 196:0.49256086 197:0.87633413 198:0.93121588 199:0.40438595 200:0.46198463 201:0.1124208 #
4.5491435301822327e-005 1:86.821465 2:47.587845 3:-0.3669844 4:-0.3726168 5:0.93492585 6:99.809357 7:37.831741 8:0.2427295 9:0.0074533671 10:0.46746293 11:0.5027557 12:0.095151111 13:0.49266928 14:0.69211608 15:0.38521117 16:0.45845819 17:0.55619597 18:0.62029165 19:0.37631872 20:0.5786674 21:0.77737069 22:0.82974094 23:0.078352123 24:0.70027506 25:1.1302142 26:1.1775224 27:0.057474073 28:0.63392156 29:1.076171 30:1.1405402 31:0.41510463 32:0.61383939 33:0.33788392 34:0.41408718 35:0.51415759 36:0.58749056 37:0.32934302 38:0.53158849 39:0.71552396 40:0.76548213 41:0.14968526 42:0.77805984 43:1.2129016 44:1.261207 45:0.14689872 46:0.71553713 47:1.1547288 48:1.2179477 49:0.21495467 50:0.21376877 51:0.38661122 52:0.49919131 53:0.61251068 54:0.21448596 55:0.28260469 56:0.38446274 57:0.43380374 58:0.55890793 59:1.184962 60:1.6150976 61:1.6633437 62:0.52997309 63:1.1092701 64:1.5463955 65:1.6038892 66:0.38045269 67:0.51766157 68:0.60420567 69:0.71573043 70:0.38525757 71:0.34040198 72:0.31469849 73:0.3468425 74:0.7550354 75:1.3800443 76:1.8102994 77:1.859772 78:0.73103654 79:1.3038601 80:1.7386385 81:1.7947584 82:0.28719053 83:0.48193926 84:0.59213918 85:0.15207776 86:0.22947456 87:0.42562288 88:0.48705769 89:0.45645911 90:1.0707763 91:1.4859635 92:1.5301456 93:0.40875456 94:0.96401286 95:1.4012768 96:1.4560722 97:0.29997143 98:0.40816769 99:0.38203928 100:0.34050038 101:0.44401261 102:0.48274258 103:0.50981563 104:1.1054699 105:1.5132957 106:1.5489395 107:0.4810259 108:0.9456529 109:1.368428 110:1.4094563 111:0.12232047 112:0.53508574 113:0.47011068 114:0.50567657 115:0.5185045 116:0.58796966 117:1.1540753 118:1.566702 119:1.5976881 120:0.58572936 121:0.98855412 122:1.3953098 123:1.4272714 124:0.63621885 125:0.57666224 126:0.6050058 127:0.6112352 128:0.64452386 129:1.1495323 130:1.5510074 131:1.5763135 132:0.64635909 133:0.97582334 134:1.3585827 135:1.3846012 136:0.27442834 137:0.48106679 138:0.54638535 139:0.45118704 140:1.0507253 141:1.466882 142:1.5161296 143:0.39637765 144:0.97869766 145:1.4193256 146:1.4807887 147:0.24767698 148:0.31562701 149:0.64834696 150:1.2563345 151:1.6642936 152:1.7083267 153:0.59885204 154:1.1271193 155:1.561409 156:1.6102703 157:0.073333926 158:0.84245229 159:1.4655851 160:1.8802592 161:1.923481 162:0.80583173 163:1.3268466 164:1.7570734 165:1.7998016 166:0.89260948 167:1.5177612 168:1.9337002 169:1.9760739 170:0.85999203 171:1.3723574 172:1.7991745 173:1.8394744 174:0.63734406 175:1.0708032 176:1.1171998 177:0.09520153 178:0.57661736 179:1.0182581 180:1.0831074 181:0.44554162 182:0.50140548 183:0.67062449 184:0.35872078 185:0.58693492 186:0.67540115 187:0.11426248 188:1.0947546 189:0.6349256 190:0.51293546 191:0.58800626 192:1.1427433 193:0.66172558 194:0.48746485 195:0.55615932 196:0.60085875 197:1.0434229 198:1.1091353 199:0.45984957 200:0.52157384 201:0.12310879 #
-4.5491435301822327e-005 1:116.98397 2:31.877691 3:-0.54516298 4:-0.56171483 5:1.0915375 6:89.153465 7:30.00975 8:0.1640095 9:-0.01380486 10:1.3462296 11:0.33482924 12:0.076877564 13:0.46335953 14:0.69708329 15:0.53112721 16:0.3037757 17:0.26182425 18:0.33405563 19:0.34560394 20:0.22700977 21:0.34339145 22:0.40994474 23:0.065342665 24:0.62915993 25:0.99297577 26:1.0624989 27:0.061412904 28:0.62558281 29:1.0316876 30:1.0912191 31:0.3865383 32:0.62031823 33:0.45888153 34:0.24262016 35:0.26766524 36:0.35671955 37:0.2760337 38:0.2169102 39:0.38646463 40:0.45807275 41:0.13735326 42:0.7035076 43:1.0664872 44:1.1364925 45:0.13021567 46:0.70174921 47:1.1069891 48:1.1668473 49:0.23489635 50:0.15903956 51:0.25741485 52:0.52615625 53:0.62698078 54:0.20374264 55:0.46134195 56:0.70206785 57:0.7782653 58:0.519912 59:1.081496 60:1.4402282 61:1.5116792 62:0.51249433 63:1.0861355 64:1.4879675 65:1.5488034 66:0.24763031 67:0.47229457 68:0.74255538 69:0.84083682 70:0.40370226 71:0.67592621 72:0.92066121 73:0.9967078 74:0.75351048 75:1.3138129 76:1.669398 77:1.7415168 78:0.745206 79:1.319155 80:1.718266 81:1.7798942 82:0.28864259 83:0.55668819 84:0.65310395 85:0.34957179 86:0.57533091 87:0.79050511 88:0.86135 89:0.57769227 90:1.1211698 91:1.484575 92:1.5543029 93:0.58637512 94:1.1395795 95:1.5415477 96:1.5995426 97:0.28285524 98:0.38807419 99:0.25145569 100:0.37254077 101:0.56455868 102:0.63347691 103:0.33443782 104:0.88205588 105:1.2473102 106:1.3154904 107:0.36163852 108:0.89162129 109:1.2928753 110:1.3488339 111:0.112637 112:0.4487313 113:0.32637519 114:0.39917207 115:0.4559263 116:0.24379155 117:0.67021775 118:1.0379208 119:1.0999119 120:0.29458249 121:0.68193883 122:1.0770856 123:1.1241807 124:0.54879826 125:0.40385485 126:0.38205519 127:0.41619235 128:0.30441144 129:0.61829394 130:0.98132998 131:1.0394777 132:0.35397756 133:0.63269275 134:1.0221061 135:1.0629064 136:0.28455541 137:0.54521912 138:0.62563378 139:0.40735126 140:0.96212822 141:1.311381 142:1.3832721 143:0.38043809 144:0.95194495 145:1.3497367 146:1.4122595 147:0.26821932 148:0.34964967 149:0.26402435 150:0.73486358 151:1.0661167 152:1.1365414 153:0.2236387 154:0.72825801 155:1.1230687 156:1.1843301 157:0.083363853 158:0.32933891 159:0.55229199 160:0.85783982 161:0.92315984 162:0.31299996 163:0.56510097 164:0.94629329 165:1.0025361 166:0.38804489 167:0.51381415 168:0.80031127 169:0.86364871 170:0.37768966 171:0.53514659 172:0.9027651 173:0.95740074 174:0.57403886 175:0.94084495 176:1.0090032 177:0.075933501 178:0.57348579 179:0.98115999 180:1.0392565 181:0.42265022 182:0.47763783 183:0.58893597 184:0.17781714 185:0.49553367 186:0.5452866 187:0.10544008 188:0.95008773 189:0.47659704 190:0.40080053 191:0.44097546 192:1.0199773 193:0.52664202 194:0.40051031 195:0.42564508 196:0.57945317 197:0.98355794 198:1.0443796 199:0.42845511 200:0.47790077 201:0.10265531 #
4.5491435301822327e-005 1:107.74208 2:16.554554 3:-0.21282589 4:0.1081765 5:0.31298906 6:126.39037 7:17.448843 8:0.20813569 9:0.033482332 10:1.1997914 11:0.3611522 12:0.095233679 13:0.49406785 14:0.72758025 15:0.39460838 16:0.44550714 17:0.57618576 18:0.62930375 19:0.483253 20:0.47523561 21:0.58356804 22:0.62852144 23:0.1189991 24:0.70216054 25:1.0697453 26:1.1188515 27:0.12447435 28:0.71092665 29:1.067288 30:1.1173517 31:0.4159247 32:0.65009475 33:0.32723492 34:0.42250296 35:0.58234173 36:0.63892776 37:0.41754425 38:0.44550204 39:0.58600402 40:0.63662809 41:0.18794954 42:0.78537297 43:1.1503875 44:1.2025571 45:0.20488657 46:0.78990602 47:1.1471512 48:1.1997159 49:0.24590345 50:0.24620259 51:0.40373799 52:0.57846761 53:0.63551188 54:0.25384733 55:0.43479982 56:0.59934801 57:0.65597451 58:0.58419335 59:1.1799411 60:1.5434109 61:1.5906385 62:0.59545994 63:1.1797043 64:1.5419878 65:1.5908811 66:0.44879013 67:0.55610383 68:0.67181033 69:0.71504718 70:0.3618558 71:0.51353109 72:0.64747638 73:0.70321363 74:0.82107252 75:1.4065568 76:1.7669207 77:1.8118254 78:0.81932735 79:1.4020284 80:1.7666689 81:1.8134145 82:0.27498156 83:0.5102849 84:0.5808807 85:0.41706684 86:0.53703535 87:0.68580085 88:0.73719603 89:0.44196674 90:1.0469933 91:1.4094751 92:1.4601693 93:0.51189166 94:1.0776784 95:1.4277071 96:1.4792674 97:0.25335476 98:0.33266219 99:0.54382461 100:0.65285653 101:0.77593052 102:0.81976086 103:0.45267302 104:1.0050159 105:1.3675436 106:1.4047042 107:0.53513139 108:1.0644799 109:1.4103727 110:1.4528278 111:0.089413263 112:0.67469758 113:0.78325331 114:0.88155389 115:0.91743696 116:0.56195396 117:1.0081825 118:1.3654259 119:1.3900181 120:0.6201902 121:1.0744338 122:1.4166889 123:1.4522578 124:0.71956515 125:0.83118999 126:0.92819601 127:0.95793527 128:0.61482829 129:1.0099289 130:1.3648235 131:1.3862079 132:0.66104299 133:1.0760176 134:1.4147626 135:1.4490616 136:0.28528041 137:0.47859517 138:0.54101616 139:0.59339571 140:1.139957 141:1.4987751 142:1.5420723 143:0.54156733 144:1.1007444 145:1.4639053 146:1.5089155 147:0.26724717 148:0.34157276 149:0.5852555 150:1.0793772 151:1.4394106 152:1.4772258 153:0.4988732 154:1.0293744 155:1.3907216 156:1.4283842 157:0.09007778 158:0.6728726 159:1.0650351 160:1.42172 161:1.4541003 162:0.57330453 163:1.0161942 164:1.3710527 165:1.4000739 166:0.71063524 167:1.0614533 168:1.4141287 169:1.4443661 170:0.61487162 171:1.0142465 172:1.3638104 173:1.3898543 174:0.62517965 175:0.9908672 176:1.0422517 177:0.16788474 178:0.65844107 179:1.0044484 180:1.0560549 181:0.38309562 182:0.43046421 183:0.62564093 184:0.34826219 185:0.55095601 186:0.58965033 187:0.1141501 188:0.99037248 189:0.56223482 190:0.49096295 191:0.50413656 192:1.0367469 193:0.59752321 194:0.49784034 195:0.49771801 196:0.6141656 197:0.97271615 198:1.0211037 199:0.38291618 200:0.4340511 201:0.10725129 #
-4.5491435301822327e-005 1:118.82796 2:30.21312 3:-0.50628233 4:-0.55731553 5:1.4271181 6:120.93433 7:9.0820332 8:0.1465251 9:-0.03398582 10:1.2368356 11:0.3014558 12:0.094452344 13:0.56110322 14:0.78041822 15:0.44755268 16:0.2972942 17:0.3164373 18:0.36764222 19:0.41911992 20:0.26906633 21:0.35898134 22:0.41798627 23:0.065046877 24:0.58101422 25:0.91564107 26:0.96926934 27:0.052667756 28:0.59996372 29:0.94689637 30:0.99337989 31:0.46850625 32:0.68795073 33:0.36502403 34:0.25395465 35:0.34082231 36:0.40074176 37:0.33322665 38:0.24257573 39:0.40497807 40:0.47103208 41:0.15129767 42:0.66866362 43:1.0064671 44:1.06059 45:0.12995708 46:0.69022918 47:1.0361663 48:1.0831585 49:0.22168319 50:0.21043929 51:0.45188528 52:0.66828126 53:0.73814523 54:0.20649622 55:0.50594813 56:0.78023505 57:0.8538174 58:0.61262584 59:1.1282301 60:1.4696516 61:1.5237485 62:0.59223282 63:1.1504353 64:1.4910347 65:1.5398932 66:0.39094076 67:0.64831889 68:0.87020111 69:0.93927926 70:0.40580976 71:0.71274197 72:0.99037457 73:1.06372 74:0.83104122 75:1.3445597 76:1.6870759 77:1.7414017 78:0.81149292 79:1.3670824 80:1.70314 81:1.7529451 82:0.30883008 83:0.5162189 84:0.59024578 85:0.26310739 86:0.47128358 87:0.7113598 88:0.7801888 89:0.48412436 90:0.98923498 91:1.3339468 92:1.3848153 93:0.49067742 94:1.0177521 95:1.3633252 96:1.4098303 97:0.28268534 98:0.36329728 99:0.38328734 100:0.3815828 101:0.55400568 102:0.61348015 103:0.312475 104:0.76998079 105:1.1064416 106:1.151731 107:0.33820385 108:0.80367815 109:1.1480849 110:1.1880893 111:0.087046936 112:0.58563465 113:0.47702634 114:0.48005331 115:0.51447988 116:0.29023734 117:0.60350567 118:0.94438231 119:0.98103404 120:0.33798254 121:0.6407907 122:0.98814851 123:1.0143883 124:0.6506111 125:0.5261299 126:0.48819789 127:0.50363219 128:0.33756196 129:0.57094872 130:0.90691215 131:0.93941551 132:0.38093543 133:0.60777354 134:0.95237482 135:0.97285664 136:0.31746545 137:0.60458446 138:0.68014258 139:0.4783133 140:0.98793 141:1.3191177 142:1.3739709 143:0.43850586 144:1.0013795 145:1.3371487 146:1.3861084 147:0.2936132 148:0.36984044 149:0.32087189 150:0.75179273 151:1.0538965 152:1.1111077 153:0.25419506 154:0.75459975 155:1.0897378 156:1.1383778 157:0.078342527 158:0.36537948 159:0.56751484 160:0.81956547 161:0.87819797 162:0.322799 163:0.56481051 164:0.89132077 165:0.9369294 166:0.4159824 167:0.53909278 168:0.76758623 169:0.82636535 170:0.38171721 171:0.53200656 172:0.85026753 173:0.89466083 174:0.53103912 175:0.8675729 176:0.91986358 177:0.088768281 178:0.55211574 179:0.90271604 180:0.94764143 181:0.39820659 182:0.44158587 183:0.55906409 184:0.23043564 185:0.46210715 186:0.49507934 187:0.096348114 188:0.88893783 189:0.39464316 190:0.34295896 191:0.350777 192:0.94344437 193:0.44469005 194:0.36197382 195:0.35933512 196:0.57595426 197:0.91844583 198:0.96570134 199:0.40876848 200:0.44368252 201:0.10508543 #
4.5491435301822327e-005 1:76.705551 2:16.812933 3:-0.3021608 4:-0.1649428 5:0.37933543 6:79.786407 7:54.049984 8:0.2279117 9:0.045572039 10:0.26553479 11:0.53972095 12:0.06811779 13:0.41003674 14:0.62667513 15:0.54166275 16:0.62395394 17:0.75238407 18:0.79843116 19:0.3389284 20:0.2380625 21:0.32515687 22:0.37809697 23:0.07719285 24:0.61150551 25:1.0100557 26:1.0761218 27:0.067013785 28:0.63109714 29:1.1147236 30:1.1595738 31:0.34201488 32:0.55915254 33:0.48357442 34:0.56704956 35:0.70217496 36:0.75083858 37:0.27754113 38:0.21707588 39:0.35198772 40:0.40992653 41:0.14286213 42:0.67184389 43:1.0707717 44:1.1360879 45:0.12836792 46:0.69793683 47:1.1812139 48:1.2266812 49:0.22279222 50:0.25505811 51:0.36740398 52:0.53010464 53:0.5814743 54:0.18308765 55:0.38827679 56:0.59426355 57:0.65365362 58:0.48193786 59:0.98776382 60:1.3840967 61:1.4461647 62:0.46663526 63:1.0363357 64:1.517686 65:1.5654542 66:0.26838347 67:0.3127892 68:0.42436013 69:0.46650982 70:0.36262423 71:0.57682228 72:0.77601266 73:0.83187234 74:0.69519413 75:1.1841793 76:1.5746413 77:1.6326754 78:0.68339491 79:1.2544223 80:1.7371918 81:1.7835522 82:0.24750347 83:0.46628511 84:0.52559173 85:0.42616296 86:0.58015358 87:0.75103873 88:0.80189157 89:0.59152979 90:1.0323162 91:1.4232326 92:1.483904 93:0.60003644 94:1.135332 95:1.6103402 96:1.6579263 97:0.25140485 98:0.31863669 99:0.49031398 100:0.63682073 101:0.80457503 102:0.8558256 103:0.67696297 104:1.1004857 105:1.4810736 106:1.5353761 107:0.68078983 108:1.2224443 109:1.7011294 110:1.74374 111:0.073346548 112:0.60808003 113:0.71947557 114:0.87215841 115:0.92623526 116:0.80425751 117:1.2190477 118:1.590088 119:1.6380769 120:0.80385226 121:1.3412145 122:1.824423 123:1.8618143 124:0.65523362 125:0.76683462 126:0.90761882 127:0.96249968 128:0.84939194 129:1.2585175 130:1.6267025 131:1.6730896 132:0.84828967 133:1.3802927 134:1.8642035 135:1.9004744 136:0.2692633 137:0.48889071 138:0.55302137 139:0.41051301 140:0.92420959 141:1.3142539 142:1.3764423 143:0.37941036 144:0.93998265 145:1.4174554 146:1.4639757 147:0.22094303 148:0.28539672 149:0.27551991 150:0.74492198 151:1.1237819 152:1.1813097 153:0.23300514 154:0.75143391 155:1.2309476 156:1.2687747 157:0.070665978 158:0.31506249 159:0.62278086 160:0.97710562 161:1.029153 162:0.28772414 163:0.62794554 164:1.0945926 165:1.1224527 166:0.35975653 167:0.59770697 168:0.94076306 169:0.99109906 170:0.33821335 171:0.6047861 172:1.0627674 173:1.0872916 174:0.55076283 175:0.94977188 176:1.0164436 177:0.078102782 178:0.57047504 179:1.0525427 180:1.0969909 181:0.40757048 182:0.47856915 183:0.56998342 184:0.34260359 185:0.68468076 186:0.70289069 187:0.097893678 188:0.96523285 189:0.58958423 190:0.57426 191:0.54179668 192:1.0313751 193:0.66174573 194:0.62977731 195:0.58570135 196:0.57732886 197:1.0605272 198:1.1047382 199:0.49115863 200:0.53667361 201:0.092925861 #
-2.8492621270944244e-005 1:36.779217 2:12.247529 3:-0.54797173 4:-0.45749101 5:0.44896346 6:102.55065 7:29.885471 8:0.095645249 9:-0.048097432 10:0.14965449 11:0.35107511 12:0.081768461 13:0.49188226 14:0.65851551 15:0.44381052 16:0.22075894 17:0.16384363 18:0.17792886 19:0.36136717 20:0.2439073 21:0.31946376 22:0.38641709 23:0.086841255 24:0.57494271 25:0.85826373 26:0.92364073 27:0.060655713 28:0.49399605 29:0.81556517 30:0.88286144 31:0.41022262 32:0.57804549 33:0.37229618 34:0.17416739 35:0.20108213 36:0.22175916 37:0.28680247 38:0.23401877 39:0.37834725 40:0.45147932 41:0.16301423 42:0.65225458 43:0.93967104 44:1.004357 45:0.1259681 46:0.57201612 47:0.89294952 48:0.96150684 49:0.18256254 50:0.20732321 51:0.36419949 52:0.55102366 53:0.57466632 54:0.21607274 55:0.49273375 56:0.74842823 57:0.82988 58:0.56769085 59:1.0524348 60:1.3471953 61:1.4087011 62:0.52916521 63:0.97373664 64:1.2929292 65:1.3644356 66:0.33531332 67:0.51195568 68:0.69739932 69:0.72059417 70:0.37145811 71:0.6562081 72:0.91230899 73:0.99448097 74:0.73340929 75:1.225875 76:1.5046762 77:1.5612782 78:0.69487649 79:1.13386 80:1.4668539 81:1.5365493 82:0.26791197 83:0.47451901 84:0.50164288 85:0.32873729 86:0.52912551 87:0.74327666 88:0.81712091 89:0.49726 90:0.96569896 91:1.2676203 92:1.3310238 93:0.49658558 94:0.91847759 95:1.2177559 96:1.287549 97:0.21072033 98:0.23842588 99:0.33963114 100:0.39916247 101:0.53751272 102:0.60429639 103:0.2597616 104:0.74718595 105:1.0151379 106:1.0739287 107:0.27698219 108:0.67371976 109:0.99963176 110:1.0635579 111:0.06632752 112:0.46570763 113:0.3926582 114:0.41380757 115:0.46427971 116:0.14033139 117:0.58441871 118:0.81834692 119:0.87352079 120:0.19302773 121:0.48732734 122:0.83205056 123:0.88945168 124:0.48416018 125:0.39790624 126:0.39963207 127:0.44685954 128:0.14537974 129:0.56803602 130:0.79254824 131:0.84729707 132:0.19769624 133:0.46490332 134:0.8122893 135:0.86870718 136:0.28824818 137:0.55832577 138:0.64139324 139:0.44672546 140:0.90697193 141:1.2050918 142:1.2694718 143:0.37906682 144:0.81895077 145:1.1323388 146:1.2054135 147:0.28148043 148:0.36342651 149:0.30780202 150:0.66821253 151:0.96761107 152:1.0369569 153:0.21366857 154:0.57998216 155:0.87133938 156:0.94537759 157:0.084193051 158:0.31158236 159:0.44352588 160:0.70610154 161:0.77597952 162:0.26177847 163:0.33300984 164:0.61732733 165:0.68557352 166:0.36436155 167:0.3891125 168:0.63814908 169:0.70948404 170:0.33078909 171:0.27935138 172:0.54198468 173:0.60883987 174:0.50307006 175:0.78405792 176:0.85044247 177:0.10330499 178:0.43372735 179:0.74897999 180:0.81423217 181:0.40638408 182:0.4973093 183:0.54856527 184:0.25851318 185:0.27190354 186:0.33716774 187:0.097848296 188:0.82829213 189:0.41159877 190:0.34242842 191:0.30628148 192:0.8938933 193:0.47629911 194:0.4284541 195:0.38372895 196:0.45635098 197:0.78119767 198:0.84852487 199:0.40405455 200:0.45143488 201:0.10429777 #
4.5491435301822327e-005 1:126.94388 2:36.845165 3:-0.42324001 4:-0.2755287 5:0.46829581 6:104.25172 7:29.22715 8:0.1978498 9:0.01125431 10:0.73366344 11:0.22598447 12:0.099503495 13:0.54440695 14:0.78798538 15:0.4994294 16:0.46229404 17:0.64075923 18:0.66899198 19:0.37862295 20:0.42962405 21:0.60830021 22:0.67481029 23:0.094647832 24:0.67180538 25:1.0526265 26:1.0967966 27:0.092056639 28:0.65662742 29:1.0557773 30:1.1142683 31:0.4577246 32:0.70084339 33:0.43362907 34:0.39338723 35:0.59230715 36:0.62833524 37:0.31128982 38:0.40144816 39:0.60051161 40:0.6657272 41:0.17470023 42:0.74796158 43:1.1315814 44:1.1783161 45:0.17390464 46:0.74397624 47:1.1405165 48:1.1982653 49:0.24841544 50:0.25238633 51:0.28554115 52:0.52568781 53:0.58776635 54:0.24795768 55:0.43342176 56:0.62033141 57:0.6690346 58:0.61784601 59:1.1937143 60:1.5735799 61:1.6193625 62:0.61191529 63:1.1883876 64:1.5839097 65:1.6377553 66:0.41189554 67:0.44835317 68:0.58206326 69:0.64139384 70:0.47277206 71:0.59300101 72:0.71517855 73:0.74714047 74:0.85802644 75:1.4326731 76:1.8119591 77:1.8567684 78:0.85538375 79:1.4268261 80:1.8215008 81:1.8724926 82:0.32106352 83:0.57013112 84:0.62379605 85:0.29662251 86:0.4443709 87:0.61129832 88:0.65886623 89:0.5605461 90:1.120257 91:1.4962325 92:1.5344551 93:0.56325513 94:1.1178241 95:1.510829 96:1.5609478 97:0.31086886 98:0.3717308 99:0.32080489 100:0.40465677 101:0.58579403 102:0.64185649 103:0.51906049 104:1.0604334 105:1.4361411 106:1.4759747 107:0.52855188 108:1.047865 109:1.4432614 110:1.4878552 111:0.094247401 112:0.56737059 113:0.55979919 114:0.66172081 115:0.71103948 116:0.67804098 117:1.1425219 118:1.5053231 119:1.5412881 120:0.69963187 121:1.1119325 122:1.4883323 123:1.5198934 124:0.62110096 125:0.61508834 126:0.70938891 127:0.75489444 128:0.70113868 129:1.1379195 130:1.4967737 131:1.5309739 132:0.72492903 133:1.1040161 134:1.4775699 135:1.5064449 136:0.30977505 137:0.55307335 138:0.61547154 139:0.46250805 140:1.0317402 141:1.4045779 142:1.4511462 143:0.42039752 144:1.0011572 145:1.3972218 146:1.4548355 147:0.27962959 148:0.35340235 149:0.48425683 150:1.0250853 151:1.3960924 152:1.4350595 153:0.44337231 154:0.94450033 155:1.3383441 156:1.3815653 157:0.087738521 158:0.62265724 159:1.0754457 160:1.4382647 161:1.4683229 162:0.60970998 163:0.98678017 164:1.37389 165:1.4019902 166:0.68351996 167:1.105274 168:1.4627477 169:1.4908634 170:0.67880243 171:1.0152522 172:1.3981261 173:1.4231632 174:0.59838849 175:0.98232436 176:1.0248327 177:0.13421911 178:0.59689003 179:0.99574792 180:1.0521489 181:0.40529561 182:0.45563594 183:0.63593864 184:0.34202176 185:0.583359 186:0.63761729 187:0.11026536 188:1.0108198 189:0.57813281 190:0.50452465 191:0.53471535 192:1.0560127 193:0.60291553 194:0.49972877 195:0.52023572 196:0.60171229 197:0.99779099 198:1.0591468 199:0.41578466 200:0.47044098 201:0.11355828 #
-4.5491435301822327e-005 1:87.215576 2:25.00053 3:-0.58803242 4:-0.63547778 5:1.3271981 6:108.91631 7:28.424149 8:0.095799968 9:-0.045621589 10:1.1502384 11:0.37974322 12:0.083599731 13:0.48406178 14:0.67522508 15:0.37943947 16:0.27353206 17:0.19902173 18:0.22437857 19:0.37156245 20:0.23439376 21:0.23439772 22:0.27081135 23:0.15089037 24:0.56963772 25:0.95471579 26:1.0157752 27:0.15326367 28:0.58740819 29:0.93574274 30:0.99552494 31:0.40566742 32:0.59796286 33:0.31212837 34:0.25733227 35:0.20399314 36:0.23342367 37:0.30750921 38:0.22100534 39:0.22829603 40:0.25119638 41:0.21201932 42:0.64516532 43:1.0333382 44:1.0948882 45:0.22336376 46:0.66662872 47:1.0126058 48:1.0716846 49:0.20360978 50:0.22787628 51:0.45485261 52:0.46169138 53:0.47984672 54:0.23149197 55:0.45053226 56:0.42721355 57:0.39647043 58:0.59846008 59:1.044443 60:1.4234625 61:1.4820836 62:0.60624272 63:1.0533617 64:1.4084088 65:1.4633921 66:0.40751779 67:0.64417636 68:0.63576102 69:0.64315677 70:0.36348832 71:0.60796094 72:0.58284324 73:0.54633528 74:0.79280049 75:1.2279613 76:1.6048108 77:1.6597197 78:0.78817987 79:1.2299535 80:1.5879035 81:1.638696 82:0.24838111 83:0.34789681 84:0.39546114 85:0.3457146 86:0.45826194 87:0.38192284 88:0.34956381 89:0.4490844 90:0.92319697 91:1.2955794 92:1.3588299 93:0.52655232 94:0.95293528 95:1.3015566 96:1.3634739 97:0.24674278 98:0.31739622 99:0.47438321 100:0.46201152 101:0.35651553 102:0.34073964 103:0.25851882 104:0.73176861 105:1.0920669 106:1.1569607 107:0.41106227 108:0.77478456 109:1.108302 110:1.1739824 111:0.072451748 112:0.38306352 113:0.32999012 114:0.1535788 115:0.13840581 116:0.23537128 117:0.65796888 118:1.0355711 119:1.0841571 120:0.29960254 121:0.66351283 122:1.0181415 123:1.0699017 124:0.37500387 125:0.31187278 126:0.12124804 127:0.11367296 128:0.27676907 129:0.65746588 130:1.0345589 131:1.0779296 132:0.29595783 133:0.64881063 134:1.0060439 135:1.0528027 136:0.24819191 137:0.29504883 138:0.3083733 139:0.51324487 140:0.89515841 141:1.2695276 142:1.3220612 143:0.4509266 144:0.88561213 145:1.2445982 146:1.2938656 147:0.2704578 148:0.3175433 149:0.37263334 150:0.66975653 151:1.0398401 152:1.0918225 153:0.23437598 154:0.65054005 155:1.0051425 156:1.0555258 157:0.066693023 158:0.30873671 159:0.68262964 160:1.0687616 161:1.1135254 162:0.3047809 163:0.68108672 164:1.0359653 165:1.0831419 166:0.33759037 167:0.73321503 168:1.1182257 169:1.162621 170:0.36131719 171:0.73468834 172:1.0889269 173:1.1356881 174:0.48771814 175:0.87153786 176:0.93545204 177:0.21326789 178:0.53445935 179:0.86442196 180:0.92836589 181:0.42911673 182:0.48722339 183:0.46745199 184:0.22274865 185:0.45455447 186:0.51838589 187:0.10871378 188:0.84356767 189:0.44231996 190:0.39158621 191:0.43490022 192:0.90098852 193:0.48229432 194:0.40424046 195:0.43471283 196:0.45886073 197:0.81298941 198:0.87067533 199:0.40645811 200:0.4629789 201:0.11078551 #
4.5491435301822327e-005 1:74.694099 2:21.865623 3:-0.38846871 4:-0.3283695 5:0.5269286 6:84.264786 7:45.940899 8:0.2380349 9:0.033743329 10:0.43910718 11:0.076843061 12:0.084619239 13:0.46971413 14:0.66892403 15:0.59298921 16:0.6390146 17:0.69806033 18:0.74341327 19:0.33757219 20:0.31116697 21:0.44817173 22:0.50759685 23:0.089562327 24:0.68163317 25:1.0536706 26:1.1196535 27:0.082091808 28:0.69432074 29:1.1021464 30:1.160936 31:0.3924951 32:0.59524906 33:0.53003561 34:0.58329117 35:0.65975696 36:0.71150213 37:0.26721135 38:0.30256873 39:0.48094162 40:0.54193306 41:0.16824605 42:0.76120752 43:1.1326907 44:1.1996263 45:0.15472296 46:0.76929361 47:1.1748054 48:1.2366297 49:0.21036127 50:0.31638372 51:0.3856177 52:0.53593886 53:0.59802336 54:0.21784921 55:0.42215985 56:0.64963555 57:0.70204908 58:0.55027437 59:1.1354842 60:1.5047344 61:1.566276 62:0.5381307 63:1.1557088 64:1.5621266 65:1.6239562 66:0.33025154 67:0.35227194 68:0.49463692 69:0.55477113 70:0.41103557 71:0.58305842 72:0.78197223 73:0.82502824 74:0.74474156 75:1.3207283 76:1.6886967 77:1.7453983 78:0.73916191 79:1.3570418 80:1.7660956 81:1.8253672 82:0.27616313 83:0.41720602 84:0.47693804 85:0.49135756 86:0.64356631 87:0.82049572 88:0.86256498 89:0.64180583 90:1.1666451 91:1.5330428 92:1.5884379 93:0.66959673 94:1.2560428 95:1.6551248 96:1.7148237 97:0.2440448 98:0.31769893 99:0.53068864 100:0.6746425 101:0.85203159 102:0.89564043 103:0.68916005 104:1.2098764 105:1.5743724 106:1.6218749 107:0.71604061 108:1.3098762 109:1.7160462 110:1.7696939 111:0.085696056 112:0.64721912 113:0.79866719 114:0.96423382 115:1.0100756 116:0.73581582 117:1.2243495 118:1.5852188 119:1.6308211 120:0.76612699 121:1.3287413 122:1.7303829 123:1.7822725 124:0.70466387 125:0.84550905 126:1.0000134 127:1.0442281 128:0.77567756 129:1.2379122 130:1.5955296 131:1.6388633 132:0.80650216 133:1.3460553 134:1.7465004 135:1.7962357 136:0.29304373 137:0.54387903 138:0.60523337 139:0.42229569 140:1.0023873 141:1.3650795 142:1.4311509 143:0.38222545 144:0.98484612 145:1.3855034 146:1.4485493 147:0.25376886 148:0.31671363 149:0.36056033 150:0.87536293 151:1.2321454 152:1.2913958 153:0.31115329 154:0.84914076 155:1.2574625 156:1.3067038 157:0.076692544 158:0.45126966 159:0.80194199 160:1.1411659 161:1.1919885 162:0.42389759 163:0.7769388 164:1.1759521 165:1.2099435 166:0.50400871 167:0.80644524 168:1.1385403 169:1.1875223 170:0.48359597 171:0.78336215 172:1.1763015 173:1.2063378 174:0.60394436 175:0.97883922 176:1.0446554 177:0.097145908 178:0.63209218 179:1.0387245 180:1.0957062 181:0.38828352 182:0.45430872 183:0.6331473 184:0.33786449 185:0.60518175 186:0.62885588 187:0.11189275 188:1.0012337 189:0.54197884 190:0.47383526 191:0.44832164 192:1.0701298 193:0.62166071 194:0.54435486 195:0.49891397 196:0.62520802 197:1.0314957 198:1.0906614 199:0.42277858 200:0.47811896 201:0.11383999 #
