SVM-light Version V6.02
0 # kernel type
3 # kernel parameter -d 
1 # kernel parameter -g 
1 # kernel parameter -s 
1 # kernel parameter -r 
empty# kernel parameter -u 
201 # highest feature index 
235 # number of training documents 
162 # number of support vectors plus 1 
1.0158603 # threshold b, each following line is a SV (starting with alpha*y)
-4.5491435301822327e-005 1:92.488182 2:25.71257 3:-0.59844041 4:-0.61344481 5:1.1314135 6:133.03127 7:46.730858 8:0.1145226 9:-0.039418869 10:1.3954099 11:0.28780872 12:0.093426742 13:0.56486976 14:0.74724323 15:0.45451111 16:0.2983067 17:0.21440126 18:0.2416265 19:0.44551271 20:0.29231003 21:0.35765749 22:0.42056739 23:0.068575062 24:0.48446316 25:0.87956864 26:0.94252872 27:0.084876828 28:0.53657192 29:0.88297921 30:0.92189628 31:0.47151431 32:0.65459192 33:0.36707383 34:0.2537902 35:0.18686122 36:0.21854337 37:0.36052561 38:0.25929815 39:0.4024438 40:0.47327974 41:0.14329174 42:0.572712 43:0.96834683 44:1.0306323 45:0.16818692 46:0.62650514 47:0.97361559 48:1.0117954 49:0.19603571 50:0.20699471 51:0.45837364 52:0.49770159 53:0.51314294 54:0.21344608 55:0.48347807 56:0.76809454 57:0.84684545 58:0.60594046 59:1.0318153 60:1.4249294 61:1.4847134 62:0.63277328 63:1.0883663 64:1.4355582 65:1.4712249 66:0.38339865 67:0.6418497 68:0.66446036 69:0.66769069 70:0.34856912 71:0.63226783 72:0.91993344 73:0.99571329 74:0.79156339 75:1.2071233 76:1.600237 77:1.6556455 78:0.81032795 79:1.2607218 80:1.6108896 81:1.6415373 82:0.26979825 83:0.37466487 84:0.4162775 85:0.3078813 86:0.48246971 87:0.73317403 88:0.81184304 89:0.48359102 90:0.91932553 91:1.3073914 92:1.370558 93:0.5287773 94:0.9831118 95:1.320235 96:1.362161 97:0.22732678 98:0.30185321 99:0.463687 100:0.486132 101:0.64364523 102:0.71226859 103:0.30150318 104:0.70930839 105:1.0819883 106:1.1460224 107:0.36508906 108:0.7817716 109:1.1054767 110:1.1510993 111:0.077854313 112:0.4355841 113:0.39738417 114:0.52140957 115:0.58023649 116:0.24680267 117:0.60450387 118:0.99296445 119:1.0439165 120:0.2496736 121:0.67024451 122:1.0164392 123:1.0463519 124:0.43472642 125:0.38596207 126:0.50226229 127:0.55695212 128:0.28237349 129:0.60358292 130:0.99209535 131:1.037544 132:0.26078203 133:0.66469359 134:1.0153607 135:1.0389522 136:0.28769508 137:0.57542062 138:0.65235317 139:0.49356517 140:0.89211732 141:1.2836348 142:1.3422525 143:0.50253791 144:0.93666041 145:1.2866609 146:1.317958 147:0.29098389 148:0.37027299 149:0.33561936 150:0.65743256 151:1.0377128 152:1.0974656 153:0.31839418 154:0.68575287 155:1.0319031 156:1.0616564 157:0.084139593 158:0.37153864 159:0.46045229 160:0.80095005 161:0.85801911 162:0.32270095 163:0.45619833 164:0.786066 165:0.80980176 166:0.43092042 167:0.43912742 168:0.75477958 169:0.80746847 170:0.37569407 171:0.41936541 172:0.73583686 173:0.75431764 174:0.4625051 175:0.84747708 176:0.91331488 177:0.11395102 178:0.5102998 179:0.8496924 180:0.89221942 181:0.42138088 182:0.48208091 183:0.41782832 184:0.23756592 185:0.51758605 186:0.54950136 187:0.10853966 188:0.81823462 189:0.4515945 190:0.43595257 191:0.44418982 192:0.87885493 193:0.50884795 194:0.46729973 195:0.46605772 196:0.47111833 197:0.82046306 198:0.85600007 199:0.39094278 200:0.41902432 201:0.10269461 #
4.5491435301822327e-005 1:89.062271 2:28.91151 3:-0.58747792 4:-0.57331252 5:0.71620411 6:111.52892 7:22.664438 8:0.097427413 9:-0.0117379 10:1.0504327 11:0.12886071 12:0.10072067 13:0.60964829 14:0.82106477 15:0.44039911 16:0.25840405 17:0.29902488 18:0.35172534 19:0.45499462 20:0.2888189 21:0.34124541 22:0.4013581 23:0.053955685 24:0.5755468 25:0.9468416 26:1.0100739 27:0.064465553 28:0.58177453 29:0.92970824 30:0.98286808 31:0.50899196 32:0.72064865 33:0.34654206 34:0.22690929 35:0.34819546 36:0.41170609 37:0.36497906 38:0.25840104 39:0.37968034 40:0.44575059 41:0.13884598 42:0.6728729 43:1.0425296 44:1.1066606 45:0.15607668 46:0.67841792 47:1.0270246 48:1.0801795 49:0.21487176 50:0.25059626 51:0.53881115 52:0.77197981 53:0.84503496 54:0.25375345 55:0.5369817 56:0.76342458 57:0.82861525 58:0.64275932 59:1.1730046 60:1.5353343 61:1.6021268 62:0.66012746 63:1.1754434 64:1.5240453 65:1.5769714 66:0.44466671 67:0.7440173 68:0.97888315 69:1.0515445 70:0.42731559 71:0.72255057 72:0.94946957 73:1.011709 74:0.85500997 75:1.3820493 76:1.7426871 77:1.8096825 78:0.86995327 79:1.3831053 80:1.7323595 81:1.7845379 82:0.30998993 83:0.56156772 84:0.63929641 85:0.32092315 86:0.48226538 87:0.68141294 88:0.74859816 89:0.46100956 90:0.9942649 91:1.3547568 92:1.4219599 93:0.4982633 94:1.0131384 95:1.3521109 96:1.4054189 97:0.2619935 98:0.34168792 99:0.48651412 100:0.45177293 101:0.56582302 102:0.62696862 103:0.25207579 104:0.74006516 105:1.0958416 106:1.1612049 107:0.30788732 108:0.76011902 109:1.0814474 110:1.1340547 111:0.082262881 112:0.66791219 113:0.53237116 114:0.53886342 115:0.57918191 116:0.27066332 117:0.56458521 118:0.91017705 119:0.97032797 120:0.30300099 121:0.56520092 122:0.86003292 123:0.90772378 124:0.73102313 125:0.57546377 126:0.55533016 127:0.58717293 128:0.32286996 129:0.52636576 130:0.86281836 131:0.92079806 132:0.34394559 133:0.51740378 134:0.79716241 135:0.84242404 136:0.30959606 137:0.54023945 138:0.60456043 139:0.49844891 140:0.9996956 141:1.3614308 142:1.4251585 143:0.49153224 144:0.9820025 145:1.3344406 146:1.3859106 147:0.23897991 148:0.30639383 149:0.33897349 150:0.74536866 151:1.1021646 152:1.1591409 153:0.28565785 154:0.71383375 155:1.0704701 156:1.1180619 157:0.07409554 158:0.37455648 159:0.58720499 160:0.93051922 161:0.9763847 162:0.29383212 163:0.54324251 164:0.89678961 165:0.93794024 166:0.43054014 167:0.5756374 168:0.90782964 169:0.94819027 170:0.34991872 171:0.52147484 172:0.86841428 173:0.9055987 174:0.54885983 175:0.91758674 176:0.98202163 177:0.087138467 178:0.56141627 179:0.90281016 180:0.95762163 181:0.38795662 182:0.44312871 183:0.52940577 184:0.23803531 185:0.49301142 186:0.54709411 187:0.10528609 188:0.90333039 189:0.49018821 190:0.44086829 191:0.47325277 192:0.96390522 193:0.53755385 194:0.44781125 195:0.46693683 196:0.52969342 197:0.88159579 198:0.93311638 199:0.38812423 200:0.43735677 201:0.10389189 #
-4.4156413299954003e-005 1:94.773117 2:27.321442 3:-0.314226 4:-0.1240901 5:1.110478 6:62.479465 7:19.575851 8:0.18298 9:-0.044477161 10:0.99943024 11:0.57646996 12:0.051229894 13:0.2979632 14:0.49750379 15:0.20838845 16:0.1871095 17:0.33756849 18:0.39204308 19:0.27259204 20:0.20593981 21:0.24720888 22:0.31046379 23:0.092593968 24:0.57258236 25:0.98316443 26:1.0472358 27:0.098239198 28:0.58490241 29:0.97040248 30:1.0359517 31:0.24983844 32:0.44931853 33:0.16927561 34:0.2113245 35:0.38287202 36:0.43893191 37:0.24009322 38:0.208828 39:0.29247048 40:0.35822594 41:0.13620746 42:0.62041628 43:1.028764 44:1.0938002 45:0.14293189 46:0.63321489 47:1.0188891 48:1.0844101 49:0.20207632 50:0.18744007 51:0.40775511 52:0.60307735 53:0.65940922 54:0.20900467 55:0.35541508 56:0.51334536 57:0.58101314 58:0.37620646 59:0.86922121 60:1.2764927 61:1.3414893 62:0.38564545 63:0.85901755 64:1.2387395 65:1.3001765 66:0.35181057 67:0.5905261 68:0.79148406 69:0.84854555 70:0.36492237 71:0.54196405 72:0.70948398 73:0.77538908 74:0.57237256 75:1.0687704 76:1.4740716 77:1.5394673 78:0.58465821 79:1.0514189 80:1.4261421 81:1.4851313 82:0.25556993 83:0.47070628 84:0.5348261 85:0.30492553 86:0.35166243 87:0.43401879 88:0.49286392 89:0.25300208 90:0.7468577 91:1.15071 92:1.2174656 93:0.29954994 94:0.7834056 95:1.1609628 96:1.2243965 97:0.22118638 98:0.28936189 99:0.43895757 100:0.34582549 101:0.26541975 102:0.29861656 103:0.12969604 104:0.53176177 105:0.93903184 106:1.0005234 107:0.20532954 108:0.59349871 109:0.95541757 110:1.0168339 111:0.071645945 112:0.58537716 113:0.43398526 114:0.21188518 115:0.18165599 116:0.2619355 117:0.37561396 118:0.77845508 119:0.83040255 120:0.29803365 121:0.43089369 122:0.76214164 123:0.81957829 124:0.62880468 125:0.4668659 126:0.22697906 127:0.17543925 128:0.31849787 129:0.3483302 130:0.74297684 131:0.79041046 132:0.34538645 133:0.38566369 134:0.70022851 135:0.75535649 136:0.21467549 137:0.43309224 138:0.50542468 139:0.35607356 140:0.78477466 141:1.1827558 142:1.2458744 143:0.31772554 144:0.73773086 145:1.1175579 146:1.181414 147:0.25220358 148:0.32453519 149:0.25640637 150:0.59873194 151:0.99529994 152:1.0551112 153:0.18146032 154:0.5420416 155:0.92789996 156:0.99374491 157:0.081708975 158:0.20943627 159:0.40844429 160:0.82339507 161:0.87697887 162:0.18302619 163:0.36877233 164:0.75016683 165:0.81283581 166:0.2604191 167:0.3652868 168:0.77733111 169:0.82734531 170:0.24660288 171:0.32039031 172:0.69125032 173:0.75218636 174:0.50514358 175:0.91747987 176:0.98155689 177:0.10907101 178:0.54039925 179:0.92023802 180:0.98565358 181:0.42259949 182:0.48138878 183:0.49090922 184:0.28870118 185:0.56916821 186:0.64307618 187:0.093719319 188:0.89917439 189:0.59677291 190:0.60739344 191:0.6555118 192:0.96241379 193:0.62880081 194:0.59589386 195:0.63638389 196:0.50585133 197:0.89589614 198:0.96355325 199:0.40145856 200:0.47144154 201:0.088449724 #
4.5491435301822327e-005 1:116.18121 2:44.520828 3:-0.57736611 4:-0.2372815 5:2.1492672 6:123.06026 7:102.7741 8:0.1613591 9:-0.021535421 10:0.2149267 11:0.39561725 12:0.084666915 13:0.50261438 14:0.75097144 15:0.51653993 16:0.36488107 17:0.31805271 18:0.37691647 19:0.38488683 20:0.21230808 21:0.26603663 22:0.34897164 23:0.039811004 24:0.5848285 25:0.94551623 26:1.020142 27:0.059213396 28:0.63625157 29:0.56601691 30:0.64951092 31:0.41799301 32:0.66637981 33:0.43632153 34:0.31477866 35:0.33122176 36:0.40852043 37:0.30638608 38:0.19824725 39:0.32923576 40:0.41614437 41:0.11500112 42:0.66711092 43:1.0204185 44:1.0972451 45:0.13689284 46:0.7161746 47:0.64686197 48:0.73249978 49:0.24905999 50:0.13947551 51:0.36744964 52:0.59331805 53:0.69816548 54:0.19711339 55:0.47124055 56:0.71288633 57:0.80075634 58:0.52933204 59:1.0770485 60:1.4044515 61:1.4881775 62:0.55216968 63:1.119783 64:1.0527104 65:1.1442574 66:0.29383022 67:0.57223499 68:0.81589937 69:0.921776 70:0.41069376 71:0.70193708 72:0.95418102 73:1.0413301 74:0.77784616 75:1.3222244 76:1.6370773 77:1.7232972 78:0.79978704 79:1.3634337 80:1.2964782 81:1.3901072 82:0.27917081 83:0.53037757 84:0.64125979 85:0.30737105 86:0.53958094 87:0.75264549 88:0.8388921 89:0.53495371 90:1.0700343 91:1.4067568 92:1.4910975 93:0.57220072 94:1.1196479 95:1.0440451 96:1.1362739 97:0.26373586 98:0.38164178 99:0.41607141 100:0.49437192 101:0.61798793 102:0.69485724 103:0.36344051 104:0.84653503 105:1.2076814 106:1.2874359 107:0.42205355 108:0.90657848 109:0.8215372 110:0.90833074 111:0.12579308 112:0.57139212 113:0.51526529 114:0.52150446 115:0.57875037 116:0.29027405 117:0.64582497 118:1.0398166 119:1.1095459 120:0.35259286 121:0.71988308 122:0.62340963 123:0.69561237 124:0.66129279 125:0.57112831 126:0.52221447 127:0.56336004 128:0.34422335 129:0.59712809 130:1.0084764 131:1.0701088 132:0.39510757 133:0.66574609 134:0.5791409 135:0.63606042 136:0.29372296 137:0.55301976 138:0.64031869 139:0.41952443 140:0.95755714 141:1.2775534 142:1.3579376 143:0.42187938 144:0.99230707 145:0.93755633 146:1.0247271 147:0.26878962 148:0.35475674 149:0.24881729 150:0.70600647 151:1.0202951 152:1.0953809 153:0.20688745 154:0.72913587 155:0.69624817 156:0.77429211 157:0.092029482 158:0.26950985 159:0.48239332 160:0.81105125 161:0.8764258 162:0.21204141 163:0.48443225 164:0.49411249 165:0.55102599 166:0.34733924 167:0.44107011 168:0.75681615 169:0.81690729 170:0.29418772 171:0.42578748 172:0.46790394 173:0.51038593 174:0.55885303 175:0.92849427 176:1.0020155 177:0.068971895 178:0.61349368 179:0.53896582 180:0.6216864 181:0.43250424 182:0.4829239 183:0.54210693 184:0.18278347 185:0.17593454 186:0.16267265 187:0.11091264 188:0.89989102 189:0.42296317 190:0.4463065 191:0.43034044 192:0.97318906 193:0.47720122 194:0.50441456 195:0.46534353 196:0.59106845 197:0.52637357 198:0.60749453 199:0.31131601 200:0.28243124 201:0.11625223 #
-4.5491435301822327e-005 1:104.17623 2:97.663994 3:-0.66414839 4:-0.60051131 5:0.55618012 6:88.577362 7:82.020706 8:0.088411182 9:-0.068752602 10:0.037078675 11:0.10072505 12:0.086111419 13:0.51834863 14:0.68065274 15:0.39090815 16:0.3049176 17:0.21085782 18:0.24360731 19:0.41772982 20:0.20825419 21:0.2570852 22:0.32163319 23:0.10002055 24:0.57429481 25:0.94217217 26:0.9809525 27:0.10195495 28:0.57188803 29:0.95370018 30:0.9511708 31:0.4322916 32:0.59639668 33:0.3099598 34:0.2718353 35:0.21840237 36:0.25952187 37:0.33909664 38:0.17521784 39:0.31546247 40:0.38674775 41:0.1705762 42:0.6594466 43:1.0271599 44:1.0664388 45:0.17626734 46:0.6526227 47:1.0365778 48:1.0361391 49:0.19559747 50:0.1982252 51:0.45845687 52:0.54204208 53:0.58028239 54:0.18839175 55:0.43071216 56:0.69603366 57:0.773094 58:0.59270871 59:1.0898509 60:1.456057 61:1.4971638 62:0.59737313 63:1.0692732 64:1.4580408 65:1.4647576 66:0.3731434 67:0.63273656 68:0.68140423 69:0.70582128 70:0.31586018 71:0.57791305 72:0.84683526 73:0.92394865 74:0.75717151 75:1.2414333 76:1.6199129 77:1.6538099 78:0.75339848 79:1.2400199 80:1.6302741 81:1.6308367 82:0.26239479 83:0.38734406 84:0.44068411 85:0.27034426 86:0.38431785 87:0.61240029 88:0.68628001 89:0.44301623 90:0.94738472 91:1.3096597 92:1.3511443 93:0.48588982 94:0.93803543 95:1.3139631 96:1.3191596 97:0.26823789 98:0.34204653 99:0.47384807 100:0.42803541 101:0.54649973 102:0.60474753 103:0.29449841 104:0.76408666 105:1.1062996 106:1.1499649 107:0.40074271 108:0.76479793 109:1.1116287 110:1.1162633 111:0.074775822 112:0.49917772 113:0.37648508 114:0.44108304 115:0.49314836 116:0.18603338 117:0.60547191 118:0.99390936 119:1.0154715 120:0.28038967 121:0.68693292 122:1.0324495 123:1.0125008 124:0.52785242 125:0.39704379 126:0.44496113 127:0.49276 128:0.2220995 129:0.58569682 130:0.9830482 131:0.99705458 132:0.29275331 133:0.69290215 134:1.0320823 135:1.0046326 136:0.27325904 137:0.54413766 138:0.6210987 139:0.50959283 140:0.97980988 141:1.3415152 142:1.3831633 143:0.47406593 144:0.94525725 145:1.3408697 146:1.3479683 147:0.27124801 148:0.34925371 149:0.30705076 150:0.72413164 151:1.0770801 152:1.1197424 153:0.22234857 154:0.68072236 155:1.0767181 156:1.0821223 157:0.085937887 158:0.2913973 159:0.49995929 160:0.82553738 161:0.87084287 162:0.16600937 163:0.43080738 164:0.82257724 165:0.8270458 166:0.33896512 167:0.45253339 168:0.75962377 169:0.80638868 170:0.22633141 171:0.36962897 172:0.75663537 173:0.76129985 174:0.50583977 175:0.87402147 176:0.91136438 177:0.1405926 178:0.52374846 179:0.89065534 180:0.88473576 181:0.40849158 182:0.41867408 183:0.5086059 184:0.29482743 185:0.48506269 186:0.43288413 187:0.11737009 188:0.87306619 189:0.43355015 190:0.1670156 191:0.076676264 192:0.9117415 193:0.50919271 194:0.28038806 195:0.1635161 196:0.49830684 197:0.88450772 198:0.88075346 199:0.39747834 200:0.42060602 201:0.11736982 #
4.5491435301822327e-005 1:86.599106 2:31.50798 3:-0.5658415 4:-0.56380701 5:1.0982481 6:75.773071 7:23.695927 8:0.17924251 9:-0.1453288 10:1.3178977 11:0.32139894 12:0.1042749 13:0.63069314 14:0.85356545 15:0.44288841 16:0.28172249 17:0.33969438 18:0.39248425 19:0.47289604 20:0.28441748 21:0.34311351 22:0.3883881 23:0.076196678 24:0.57016343 25:0.95479882 26:1.0087396 27:0.082927056 28:0.58442193 29:0.94138557 30:1.0141668 31:0.52648443 32:0.74954826 33:0.34558928 34:0.24770495 35:0.37932363 36:0.44063336 37:0.37937379 38:0.2578254 39:0.38951412 40:0.44150662 41:0.16148628 42:0.67180127 43:1.0554513 44:1.1098151 45:0.17520304 46:0.68529761 47:1.0414678 48:1.1143332 49:0.22491713 50:0.26490489 51:0.56100869 52:0.78796989 53:0.85241473 54:0.25821966 55:0.55772561 56:0.79866362 57:0.8556596 58:0.67999327 59:1.1922131 60:1.5706984 61:1.6261938 62:0.69342011 63:1.2018589 64:1.5539359 65:1.6264946 66:0.47101131 67:0.77156919 68:0.99788904 69:1.0603808 70:0.44402438 71:0.75932801 72:1.0055039 73:1.0622902 74:0.90336549 75:1.4141823 76:1.7903372 77:1.8466201 78:0.91447413 79:1.4215195 80:1.7717105 81:1.8442889 82:0.31702268 83:0.56977457 84:0.64137405 85:0.32753935 86:0.49055609 87:0.68879312 88:0.74105716 89:0.47245628 90:0.98681492 91:1.3643804 92:1.4218624 93:0.51909995 94:1.0181112 95:1.3622204 96:1.4362768 97:0.27189511 98:0.34759113 99:0.51139313 100:0.48017228 101:0.59406471 102:0.63230926 103:0.26968637 104:0.74650282 105:1.1157757 106:1.1734505 107:0.35298976 108:0.77198106 109:1.0934548 110:1.1669145 111:0.077428535 112:0.68491536 113:0.55354738 114:0.58515579 115:0.60188162 116:0.30798686 117:0.61818296 118:0.96791559 119:1.0213188 120:0.36202615 121:0.60401112 122:0.89809281 123:0.96522397 124:0.74053687 125:0.59407163 126:0.606062 127:0.61607409 128:0.36125746 129:0.60223526 130:0.93988818 131:0.99175048 132:0.40242165 133:0.57509029 134:0.85508138 135:0.91964942 136:0.31960484 137:0.57619494 138:0.63570517 139:0.53861809 140:1.022418 141:1.3992413 142:1.4497705 143:0.51467627 144:1.006699 145:1.3652672 146:1.434502 147:0.276398 148:0.33806798 149:0.35613444 150:0.74700201 151:1.1170702 152:1.1606722 153:0.27450296 154:0.71602857 155:1.0836523 156:1.1494633 157:0.07110963 158:0.37211195 159:0.56122279 160:0.91648799 161:0.94813448 162:0.28085774 163:0.52362108 164:0.89493412 165:0.95584446 166:0.40868858 167:0.54032224 168:0.88930643 169:0.91504025 170:0.32535961 171:0.49221551 172:0.86218959 173:0.91932458 174:0.52494836 175:0.90882695 176:0.9641633 177:0.11815081 178:0.55348861 179:0.90113151 180:0.97545362 181:0.39830288 182:0.44608191 183:0.51926178 184:0.23547539 185:0.49891287 186:0.56863797 187:0.09782324 188:0.9032355 189:0.48765063 190:0.41709659 191:0.45351371 192:0.95444107 193:0.52484661 194:0.43025741 195:0.45370752 196:0.51959622 197:0.88346446 198:0.95471096 199:0.39288568 200:0.45802179 201:0.099856637 #
-1.4521538150947884e-006 1:85.546143 2:9.1338224 3:-0.33843511 4:-0.34658691 5:0.499928 6:143.48643 7:39.153988 8:0.20607521 9:0.029679891 10:0.83321333 11:0.28692406 12:0.091206446 13:0.52263439 14:0.75739002 15:0.42580065 16:0.44234383 17:0.55910838 18:0.61894298 19:0.46007198 20:0.39458472 21:0.52634692 22:0.58621907 23:0.10974567 24:0.61347294 25:0.99897707 26:1.0584939 27:0.12470839 28:0.65393156 29:1.001092 30:1.0509207 31:0.4375985 32:0.67436934 33:0.34780702 34:0.40012148 35:0.54527146 36:0.61057478 37:0.38958716 38:0.35006458 39:0.52541715 40:0.5936867 41:0.18192622 42:0.69640321 43:1.0794972 44:1.1410859 45:0.20440911 46:0.73764706 47:1.0843006 48:1.1347606 49:0.24818794 50:0.22923832 51:0.37311178 52:0.53860116 53:0.6050595 54:0.24214348 55:0.38381028 56:0.57804042 57:0.65602434 58:0.60370511 59:1.1187829 60:1.4978029 61:1.5570143 62:0.62685996 63:1.1580282 64:1.5011607 65:1.5457116 66:0.43853599 67:0.53332633 68:0.62495935 69:0.67399633 70:0.38430429 71:0.51456404 72:0.64163983 73:0.71322119 74:0.84176505 75:1.3491867 76:1.7277681 77:1.783964 78:0.85348642 79:1.3838586 80:1.7276858 81:1.7676148 82:0.2944546 83:0.52689886 84:0.60735255 85:0.38561597 86:0.42858541 87:0.61692989 88:0.68758672 89:0.47551981 90:0.98883867 91:1.3648295 92:1.4275503 93:0.54524136 94:1.0564219 95:1.3890109 96:1.4385568 97:0.25938728 98:0.34602931 99:0.47289488 100:0.52342767 101:0.71118003 102:0.769894 103:0.4639143 104:0.92861533 105:1.3082399 106:1.3571404 107:0.5417369 108:1.0272068 109:1.3560036 110:1.3979392 111:0.089129567 112:0.5849126 113:0.65791118 114:0.83507365 115:0.88672328 116:0.56369978 117:0.94731921 118:1.3244244 119:1.3616407 120:0.61808532 121:1.0547251 122:1.3769017 123:1.413947 124:0.63752067 125:0.71712691 126:0.88942516 127:0.93864691 128:0.62209779 129:0.95989645 130:1.3333944 131:1.3669275 132:0.66341776 133:1.069747 134:1.3871975 135:1.4230229 136:0.28814462 137:0.49784285 138:0.5752399 139:0.56067836 140:1.0462667 141:1.4222739 142:1.4772117 143:0.52313638 144:1.0365944 145:1.3840925 146:1.4242673 147:0.28249466 148:0.36522698 149:0.49621421 150:0.95383877 151:1.3351849 152:1.3870866 153:0.43343872 154:0.94418591 155:1.291666 156:1.3259093 157:0.094580233 158:0.59668726 159:0.96320713 160:1.3425357 161:1.3887069 162:0.50514185 163:0.93787962 164:1.2787522 165:1.3017642 166:0.64103466 167:0.95430505 168:1.329572 169:1.3726661 170:0.55565232 171:0.92061186 172:1.2554249 173:1.2738843 174:0.53408784 175:0.91817069 176:0.97949475 177:0.15936475 178:0.59977818 179:0.93761545 180:0.98921293 181:0.40176362 182:0.4582369 183:0.54883587 184:0.34993693 185:0.56655014 186:0.60971463 187:0.11332147 188:0.93021512 189:0.56248039 190:0.51092052 191:0.53020215 192:0.98702824 193:0.60590696 194:0.52399033 195:0.53020287 196:0.55748373 197:0.90906465 198:0.95702404 199:0.36659673 200:0.41630575 201:0.11565201 #
4.5491435301822327e-005 1:81.416275 2:79.291138 3:-0.67563331 4:-0.6493485 5:0.45121267 6:62.781628 7:56.536922 8:0.15385561 9:-0.008823392 10:0.090242535 11:0.064285792 12:0.09948387 13:0.59878969 14:0.81459308 15:0.43010077 16:0.31435612 17:0.34225425 18:0.38518625 19:0.44377416 20:0.2402111 21:0.27014539 22:0.33341137 23:0.10686777 24:0.61188352 25:0.99070114 26:1.0261252 27:0.10644309 28:0.57843149 29:0.96876717 30:1.0318817 31:0.49935427 32:0.71595758 33:0.33726138 34:0.28625834 35:0.39218065 36:0.44650918 37:0.35687581 38:0.21629198 39:0.33044279 40:0.40460855 41:0.18761799 42:0.71093261 43:1.0879272 44:1.1246494 45:0.19062339 46:0.67230916 47:1.0642031 48:1.1295025 49:0.22717135 50:0.2447003 51:0.55255669 52:0.80383444 53:0.87396628 54:0.26591983 55:0.53321922 56:0.76320726 57:0.8479203 58:0.67547017 59:1.2094065 60:1.5805416 61:1.6212128 62:0.67688006 63:1.1559951 64:1.5509064 65:1.6229379 66:0.46032947 67:0.77473557 68:1.028949 69:1.099225 70:0.42539614 71:0.72077584 72:0.95313179 73:1.036247 74:0.89525485 75:1.4255997 76:1.799325 77:1.8384916 78:0.88590294 79:1.3675694 80:1.7694978 81:1.8406796 82:0.32107899 83:0.5789367 84:0.65092647 85:0.32924816 86:0.46460426 87:0.65529096 88:0.73278755 89:0.48084918 90:1.0233954 91:1.391865 92:1.4323263 93:0.52780592 94:0.99410939 95:1.3674301 96:1.4370288 97:0.27287459 98:0.34638196 99:0.54048222 100:0.48553193 101:0.57985604 102:0.64132124 103:0.29337975 104:0.78064328 105:1.1231228 106:1.1692203 107:0.41250768 108:0.77450407 109:1.0988238 110:1.1717274 111:0.074019298 112:0.73016781 113:0.56307065 114:0.54208773 115:0.57233721 116:0.25091457 117:0.54328907 118:0.86262184 119:0.90979093 120:0.38840431 121:0.57116574 122:0.84299773 123:0.91325176 124:0.78999496 125:0.60411936 126:0.55581254 127:0.57611334 128:0.28827077 129:0.48664513 130:0.79382372 131:0.8417182 132:0.41484445 133:0.52741444 134:0.77552724 135:0.84513754 136:0.29865819 137:0.53429174 138:0.62037975 139:0.54341632 140:1.0347804 141:1.4067171 142:1.443723 143:0.4898583 144:0.96279263 145:1.375784 146:1.4444503 147:0.24394049 148:0.33584961 149:0.34313217 150:0.75429457 151:1.1210719 152:1.1564056 153:0.22886878 154:0.67359447 155:1.0903335 156:1.1562771 157:0.096164137 158:0.32176426 159:0.55085438 160:0.91685718 161:0.94328797 162:0.17136429 163:0.47366318 164:0.89382231 165:0.9478479 166:0.36303455 167:0.49649331 168:0.86019737 169:0.87991303 170:0.23116292 171:0.42615613 172:0.84290904 173:0.88834387 174:0.54363281 175:0.9200905 176:0.95568776 177:0.15577661 178:0.53489649 179:0.90205276 180:0.96358085 181:0.39199671 182:0.41621059 183:0.54636663 184:0.21291509 185:0.39367139 186:0.43045169 187:0.087891288 188:0.92583019 189:0.47573963 190:0.098229922 191:0.061765745 192:0.95873076 193:0.5144757 194:0.17725292 195:0.075349227 196:0.49964622 197:0.90351754 198:0.964001 199:0.44159365 200:0.50548673 201:0.11890556 #
-4.5491435301822327e-005 1:108.31303 2:97.851067 3:-0.41616881 4:-0.31682679 5:0.33203402 6:79.438103 7:70.396484 8:0.1509473 9:-0.037950002 10:0.066406801 11:0.22592986 12:0.083393008 13:0.50369614 14:0.71296436 15:0.41936591 16:0.26642594 17:0.29609749 18:0.35399526 19:0.39504606 20:0.14574571 21:0.38821507 22:0.42874268 23:0.067834161 24:0.44756162 25:0.62404323 26:0.68170738 27:0.096122235 28:0.51418942 29:0.90539277 30:0.93793154 31:0.42038667 32:0.63115215 33:0.34202257 34:0.23219123 35:0.33974203 36:0.40928897 37:0.31846133 38:0.13232902 39:0.36564732 40:0.40860417 41:0.12570485 42:0.50526595 43:0.70607406 44:0.76239032 45:0.17196462 46:0.59615558 47:0.98647511 48:1.0200706 49:0.23319551 50:0.19569722 51:0.42596632 52:0.69187742 53:0.77691305 54:0.18193932 55:0.45515013 56:0.49214935 57:0.52231497 58:0.53459316 59:0.86431664 60:1.1237881 61:1.1766051 62:0.58536708 63:1.0115654 64:1.3997492 65:1.4372264 66:0.398927 67:0.63591057 68:0.89654434 69:0.98220718 70:0.34548309 71:0.64338422 72:0.60613322 73:0.61790329 74:0.74947816 75:1.0243407 76:1.3279185 77:1.3736616 78:0.78716886 79:1.2202973 80:1.61638 81:1.649615 82:0.26215482 83:0.5484215 84:0.63439459 85:0.28524542 86:0.42869893 87:0.55258745 88:0.58671558 89:0.43267113 90:0.79009193 91:1.0154969 92:1.0689958 93:0.51064575 94:0.91903716 95:1.2854835 96:1.3225329 97:0.29045725 98:0.37560126 99:0.42118147 100:0.3579661 101:0.56154329 102:0.59364092 103:0.25194809 104:0.59487909 105:0.78104913 106:0.83113897 107:0.34710041 108:0.70946074 109:1.0548518 110:1.0855061 111:0.088463098 112:0.63499987 113:0.42492935 114:0.64043647 115:0.66232038 116:0.25591129 117:0.40521699 118:0.52067286 119:0.5607121 120:0.3043164 121:0.50149918 122:0.80898082 123:0.82593662 124:0.71326947 125:0.48231903 126:0.69384009 127:0.71413285 128:0.31302285 129:0.38986024 130:0.44962031 131:0.48746023 132:0.34263331 133:0.45102429 134:0.73343706 135:0.7468375 136:0.30743378 137:0.31636155 138:0.35463327 139:0.43968853 140:0.74485111 141:1.0085883 142:1.0613071 143:0.46115524 144:0.88560957 145:1.2875539 146:1.3235143 147:0.25086522 148:0.29794264 149:0.20470582 150:0.48349503 151:0.70835406 152:0.76201946 153:0.1686427 154:0.58541584 155:0.99242395 156:1.0238972 157:0.069136083 158:0.44531322 159:0.58793372 160:0.86467737 161:0.90809238 162:0.38443512 163:0.73847526 164:1.1492294 165:1.1756619 166:0.48549822 167:0.57971883 168:0.8790164 169:0.9162153 170:0.41905198 171:0.76309687 172:1.1714164 173:1.1930915 174:0.45595771 175:0.59778398 176:0.65842301 177:0.12723501 178:0.49238798 179:0.87241679 180:0.90668696 181:0.4424938 182:0.43171573 183:0.38741556 184:0.4729555 185:0.78874171 186:0.7731092 187:0.10005517 188:0.55174208 189:0.22356984 190:0.34865633 191:0.34205666 192:0.60846812 193:0.30885345 194:0.38261837 195:0.34865656 196:0.43877921 197:0.83806682 198:0.86746615 199:0.41293567 200:0.44875839 201:0.10005493 #
4.5491435301822327e-005 1:97.059578 2:23.071623 3:-0.61897051 4:-0.54148328 5:0.71174717 6:133.53926 7:21.338438 8:0.1255486 9:-0.01290764 10:1.9691671 11:0.31890985 12:0.11111774 13:0.6370399 14:0.84055614 15:0.44077158 16:0.2756134 17:0.30354771 18:0.35085857 19:0.49658909 20:0.26243487 21:0.25714406 22:0.34614623 23:0.062156931 24:0.59070319 25:0.97530025 26:1.0205035 27:0.066818349 28:0.57966226 29:0.93994814 30:0.99123907 31:0.53293782 32:0.73645264 33:0.35084206 34:0.25584942 35:0.36251968 36:0.42072806 37:0.40543786 38:0.22358489 39:0.31349435 40:0.41187599 41:0.15811303 42:0.69374013 43:1.0774221 44:1.1234819 45:0.16635184 46:0.67775851 47:1.0395632 48:1.0924425 49:0.209695 50:0.27379766 51:0.56878638 52:0.80386442 53:0.87582314 54:0.23201172 55:0.51271939 56:0.75598884 57:0.85432965 58:0.67801791 59:1.218781 60:1.5967263 61:1.6443285 62:0.68743098 63:1.200098 64:1.5594889 65:1.6122504 66:0.46912202 67:0.77079326 68:1.0060784 69:1.0772252 70:0.39061338 71:0.69455904 72:0.94425231 73:1.0415694 74:0.88368189 75:1.4227868 76:1.8007017 77:1.8475544 78:0.88767922 79:1.3991591 80:1.760577 81:1.8122309 82:0.31332541 83:0.56180894 84:0.63831586 85:0.22027591 86:0.36589509 87:0.56176925 88:0.65472484 89:0.46698442 90:1.0044005 91:1.3808185 92:1.4282938 93:0.50084251 94:1.0092514 95:1.3584145 96:1.411501 97:0.26521051 98:0.3459813 99:0.46014127 100:0.30693743 101:0.3580144 102:0.43546125 103:0.26406834 104:0.74803799 105:1.1172652 106:1.164466 107:0.32975471 108:0.77056581 109:1.0962913 110:1.1501038 111:0.082611747 112:0.67500728 113:0.44835848 114:0.25123966 115:0.27799001 116:0.25944313 117:0.55670846 118:0.91829908 119:0.96217489 120:0.31617045 121:0.57467014 122:0.87098992 123:0.92241657 124:0.74371165 125:0.50618446 126:0.29076266 127:0.27270967 128:0.30561236 129:0.51104009 130:0.8661477 131:0.90825474 132:0.35093495 133:0.52548146 134:0.80751109 135:0.85724926 136:0.3116349 137:0.58174151 138:0.68747777 139:0.54672909 140:1.0762202 141:1.4534609 142:1.4989556 143:0.53470373 144:1.0486224 145:1.4095802 146:1.4581686 147:0.30628744 148:0.41472808 149:0.31660312 150:0.7977891 151:1.1711708 152:1.2151167 153:0.27273589 154:0.76093477 155:1.1194066 156:1.1661035 157:0.11725599 158:0.25979656 159:0.59621882 160:0.96130085 161:1.0000073 162:0.2413135 163:0.57714802 164:0.91393417 165:0.95889521 166:0.33548832 167:0.54446828 168:0.89707172 169:0.93204403 170:0.31973404 171:0.54373962 172:0.85887939 173:0.90320188 174:0.54917097 175:0.93376422 176:0.9795478 177:0.094808616 178:0.55398315 179:0.90673995 180:0.95947671 181:0.40113315 182:0.44523519 183:0.55263925 184:0.25379544 185:0.44546106 186:0.49698547 187:0.094373107 188:0.93612456 189:0.51981831 190:0.36814696 191:0.38049853 192:0.97999799 193:0.55609578 194:0.39493236 195:0.39321482 196:0.5276069 197:0.89309669 198:0.94244635 199:0.39796689 200:0.44227716 201:0.09811496 #
-4.5491435301822327e-005 1:93.676201 2:18.676149 3:-0.412835 4:-0.65170532 5:1.1277579 6:88.960274 7:31.535585 8:0.1239107 9:-0.05893866 10:1.3533095 11:0.19293673 12:0.11330388 13:0.6034103 14:0.78989065 15:0.46439046 16:0.31065902 17:0.21899693 18:0.24425364 19:0.52397066 20:0.28791451 21:0.34022716 22:0.39852321 23:0.055302627 24:0.49322891 25:0.87773126 26:0.94048154 27:0.067237012 28:0.52912456 29:0.87426853 30:0.93542457 31:0.50703144 32:0.69835204 33:0.37334377 34:0.26114532 35:0.23303622 36:0.27539054 37:0.43487602 38:0.23959818 39:0.37837806 40:0.44963366 41:0.13853046 42:0.59289896 43:0.97238362 44:1.039435 45:0.17368512 46:0.62520146 47:0.96636891 48:1.0304142 49:0.20228098 50:0.21861282 51:0.47640747 52:0.51855773 53:0.54880399 54:0.20539108 55:0.46485618 56:0.73721123 57:0.82521468 58:0.63552809 59:1.0854727 60:1.468484 61:1.5307519 62:0.65487522 63:1.1125411 64:1.4553161 65:1.5135667 66:0.40408039 67:0.6673547 68:0.68992651 69:0.70834357 70:0.32578313 71:0.62154949 72:0.88878667 73:0.9763757 74:0.82495445 75:1.2696304 76:1.6519002 77:1.7100813 78:0.83725047 79:1.2901158 80:1.6355076 81:1.6897933 82:0.2675496 83:0.37267774 84:0.42629719 85:0.32409343 86:0.43587384 87:0.67746848 88:0.75970244 89:0.48602226 90:0.93660128 91:1.3182243 92:1.3827262 93:0.52243817 94:0.98518866 95:1.3205792 96:1.3830334 97:0.25392935 98:0.33261845 99:0.51222223 100:0.45237887 101:0.60711056 102:0.67141068 103:0.30895138 104:0.72588784 105:1.1004368 106:1.1670775 107:0.36711499 108:0.79415739 109:1.1096747 110:1.1755739 111:0.080572374 112:0.48330835 113:0.34664041 114:0.44298434 115:0.5028044 116:0.24518739 117:0.63012624 118:1.0220635 119:1.0730716 120:0.24730124 121:0.68031549 122:1.0172129 123:1.0692464 124:0.49477714 125:0.3421191 126:0.41103411 127:0.47149795 128:0.27777711 129:0.62428254 130:1.0149254 131:1.0598985 132:0.25499648 133:0.66467148 134:1.0052426 135:1.0516114 136:0.3087751 137:0.58452481 138:0.67332959 139:0.56402713 140:0.98989445 141:1.3682865 142:1.4283876 143:0.56441891 144:0.99470192 145:1.3399273 146:1.3944012 147:0.30094323 148:0.39168438 149:0.33178303 150:0.7076149 151:1.0804073 152:1.1390848 153:0.30694345 154:0.69699782 155:1.0444992 156:1.0979613 157:0.094267532 158:0.36569193 159:0.53972709 160:0.87908673 161:0.92834848 162:0.31262264 163:0.49670812 164:0.82920319 165:0.87547141 166:0.41674265 167:0.51344782 168:0.82834744 169:0.87393111 170:0.36427712 171:0.45155191 172:0.76863194 173:0.81187433 174:0.46749672 175:0.84882188 176:0.91420227 177:0.092944562 178:0.51324826 179:0.85169667 180:0.9158842 181:0.407473 182:0.46735021 183:0.44678736 184:0.24822231 185:0.49595702 186:0.55621976 187:0.11320934 188:0.83239442 189:0.48492444 190:0.42607966 191:0.46076679 192:0.89201874 193:0.5354563 194:0.45315626 195:0.475041 196:0.47508183 197:0.82475466 198:0.88314992 199:0.38255048 200:0.43719926 201:0.10112384 #
4.5491435301822327e-005 1:94.643913 2:80.135414 3:-0.61171418 4:-0.584782 5:1.1372001 6:97.220818 7:60.61692 8:0.14622819 9:-0.01052971 10:0.11372001 11:0.14806636 12:0.099812016 13:0.60365301 14:0.8253879 15:0.40079597 16:0.274948 17:0.3820501 18:0.42798787 19:0.45107996 20:0.27525172 21:0.35623717 22:0.40178582 23:0.072740667 24:0.62347227 25:1.0088396 26:1.0588506 27:0.087937556 28:0.62439096 29:1.0253111 30:1.0364844 31:0.50389671 32:0.72600126 33:0.30959728 34:0.26411223 35:0.4395698 36:0.49381101 37:0.36338642 38:0.25597584 39:0.38753375 40:0.43583739 41:0.15156566 42:0.72248948 43:1.1081076 44:1.1577755 45:0.17731951 46:0.72206426 47:1.1228052 48:1.135628 49:0.22808185 50:0.2797434 51:0.59342521 52:0.86249751 53:0.92849988 54:0.2626994 55:0.55609691 56:0.75058502 57:0.79441357 58:0.64684653 59:1.2244989 60:1.6102771 61:1.6588496 62:0.67330092 63:1.2186753 64:1.6185564 65:1.6369846 66:0.48865411 67:0.8096683 68:1.0830059 69:1.1499114 70:0.4431771 71:0.74910736 72:0.9355858 73:0.97565931 74:0.86941558 75:1.4424748 76:1.8288933 77:1.8746307 78:0.89260489 79:1.4389764 80:1.8417976 81:1.8593484 82:0.32628295 83:0.60519624 84:0.67372394 85:0.33743045 86:0.47979841 87:0.63914895 88:0.68263787 89:0.42155764 90:1.0053247 91:1.3866643 92:1.4377714 93:0.48487025 94:1.0143256 95:1.399979 96:1.415724 97:0.28209236 98:0.35187128 99:0.55675781 100:0.51865506 101:0.61676019 102:0.65729964 103:0.23624055 104:0.75802654 105:1.1139508 106:1.1758732 107:0.34984586 108:0.76268482 109:1.1151879 110:1.1360718 111:0.070237823 112:0.78156978 113:0.65002298 114:0.6872009 115:0.71895826 116:0.31592363 117:0.5727796 118:0.87978905 119:0.95434397 120:0.40139645 121:0.56125468 122:0.86179721 123:0.89059514 124:0.83842367 125:0.6901145 126:0.71382403 127:0.74294943 128:0.36270374 129:0.53360564 130:0.82192892 131:0.90008992 132:0.43515077 133:0.51566023 134:0.79769278 135:0.82903063 136:0.31854916 137:0.5338788 138:0.58110863 139:0.51347148 140:1.0475069 141:1.431347 142:1.4763901 143:0.49666649 144:1.029749 145:1.4393628 146:1.4559201 147:0.23823531 148:0.29172102 149:0.34584674 150:0.7621457 151:1.1440681 152:1.1806123 153:0.26459807 154:0.7531873 155:1.1678362 156:1.1741227 157:0.055874262 158:0.40073133 159:0.6303879 160:1.01226 161:1.028383 162:0.30487806 163:0.66872776 164:1.0728726 165:1.0579033 166:0.44079769 167:0.62354231 168:1.0034202 169:1.013148 170:0.34926936 171:0.67535025 172:1.0704437 173:1.049775 174:0.58878767 175:0.97135133 176:1.0232677 177:0.12025879 178:0.5974347 179:0.98716414 180:0.99826849 181:0.40785062 182:0.44152218 183:0.55740571 184:0.20868641 185:0.48492497 186:0.45366693 187:0.12290987 188:0.94327074 189:0.42714745 190:0.21720545 191:0.15758827 192:0.99120361 193:0.50073409 194:0.3163783 195:0.20864433 196:0.55425155 197:0.96278781 198:0.97177309 199:0.42369258 200:0.43759188 201:0.11987809 #
-4.5491435301822327e-005 1:165.92976 2:28.198814 3:-0.4047544 4:-0.3528921 5:0.45302466 6:91.610649 7:38.800289 8:0.2100887 9:0.01303555 10:0.679537 11:0.35072196 12:0.099501334 13:0.50949472 14:0.73619556 15:0.56272936 16:0.55834287 17:0.63505018 18:0.68061858 19:0.37748134 20:0.40109003 21:0.56318462 22:0.61341113 23:0.077259041 24:0.68162471 25:1.0544027 26:1.099612 27:0.066360913 28:0.66265094 29:1.0632581 30:1.1208106 31:0.42866445 32:0.65793425 33:0.49250826 34:0.50939584 35:0.6175102 36:0.67279303 37:0.30295444 38:0.38864067 39:0.58103907 40:0.63624316 41:0.1666908 42:0.76475251 43:1.1366566 44:1.1844089 45:0.15149598 46:0.74908495 47:1.1467438 48:1.2073549 49:0.23376265 50:0.25843495 51:0.3377153 52:0.54050797 53:0.61564839 54:0.22357294 55:0.43151322 56:0.61724824 57:0.67719728 58:0.57759434 59:1.1746039 60:1.5430503 61:1.5825951 62:0.56178606 63:1.1603247 64:1.5557603 65:1.6096901 66:0.33349219 67:0.39835081 68:0.56524378 69:0.63340551 70:0.43458012 71:0.59083837 72:0.71953154 73:0.77144229 74:0.80017811 75:1.3919078 76:1.7570065 77:1.7920028 78:0.7894581 79:1.3852005 80:1.7786276 81:1.8294619 82:0.30914038 83:0.54098153 84:0.60989606 85:0.42964944 86:0.59673977 87:0.73821402 88:0.78729695 89:0.60416472 90:1.157094 91:1.5219077 92:1.5543282 93:0.62319112 94:1.1962967 95:1.584825 96:1.6393564 97:0.30076176 98:0.38464603 99:0.42947537 100:0.53474635 101:0.70140386 102:0.75726807 103:0.60432005 104:1.1519767 105:1.5133839 106:1.5370549 107:0.61277807 108:1.1669203 109:1.5589246 110:1.6044908 111:0.092695028 112:0.57770956 113:0.60483813 114:0.71408445 115:0.77133179 116:0.67139596 117:1.1828183 118:1.5410181 119:1.5567236 120:0.68421012 121:1.185922 122:1.5782669 123:1.6165333 124:0.64774203 125:0.67068666 126:0.74538016 127:0.79611766 128:0.70863587 129:1.1958638 130:1.5519061 131:1.5647932 132:0.72714311 133:1.2020626 134:1.591544 135:1.627956 136:0.31236956 137:0.55416131 138:0.62262076 139:0.45081922 140:1.0386779 141:1.4026 142:1.4481264 143:0.40793118 144:0.99907136 145:1.3957305 146:1.4514982 147:0.27192932 148:0.34717429 149:0.44546759 150:0.98480165 151:1.3437781 152:1.3828923 153:0.39428839 154:0.90514135 155:1.2969717 156:1.3366309 157:0.086720511 158:0.58143228 159:1.007035 160:1.3565027 161:1.390744 162:0.55054963 163:0.91953683 164:1.3019164 165:1.3286997 166:0.62690282 167:1.0043319 168:1.3479872 169:1.3818911 170:0.60078537 171:0.91066641 172:1.2866352 173:1.309714 174:0.61837852 175:0.99238151 176:1.0365639 177:0.090351015 178:0.61178815 179:1.0095029 180:1.0674902 181:0.38811135 182:0.43715513 183:0.64391953 184:0.32651845 185:0.57483184 186:0.63583153 187:0.11471915 188:1.0140817 189:0.56592703 190:0.50938749 191:0.55265439 192:1.0610851 193:0.61771435 194:0.54609233 195:0.57908809 196:0.61337525 197:1.0154067 198:1.0736935 199:0.41368327 200:0.47147259 201:0.10966931 #
4.5491435301822327e-005 1:76.392815 2:8.7776842 3:-0.59439272 4:-0.58723313 5:1.8290042 6:110.85264 7:30.987156 8:0.15745591 9:-0.0197489 10:0.60966808 11:0.49246532 12:0.11190884 13:0.64877224 14:0.87318772 15:0.42724323 16:0.26295149 17:0.3149001 18:0.36729407 19:0.4365001 20:0.24896133 21:0.27021146 22:0.31811911 23:0.040912297 24:0.55818218 25:0.91817099 26:0.97776419 27:0.041635711 28:0.56103641 29:0.92001665 30:0.98098135 31:0.54323775 32:0.76766306 33:0.33739609 34:0.25322059 35:0.388152 36:0.44726554 37:0.34757948 38:0.21580739 39:0.32828733 40:0.38481185 41:0.14289726 42:0.6575765 43:1.0204782 44:1.0779839 45:0.14352006 46:0.65505379 47:1.0130476 48:1.0762125 49:0.22669782 50:0.28293914 51:0.58530599 52:0.84847784 53:0.9185766 54:0.27646601 55:0.53404462 56:0.77263933 57:0.83191955 58:0.67692751 59:1.1899683 60:1.5598161 61:1.6136692 62:0.67924875 63:1.1851399 64:1.5287811 65:1.5976094 66:0.48869362 67:0.79388744 68:1.0614848 69:1.1318947 70:0.48404455 71:0.74650842 72:0.98640567 73:1.044628 74:0.90088958 75:1.4117057 76:1.7831916 77:1.8363255 78:0.90371513 79:1.4065182 80:1.7448249 81:1.8152868 82:0.31600353 83:0.59091634 84:0.66406649 85:0.19956042 86:0.32696226 87:0.58358872 88:0.64149332 89:0.4470382 90:0.97398728 91:1.3396342 92:1.3982908 93:0.46280164 94:0.98175693 95:1.3169639 96:1.3830833 97:0.28066194 98:0.35460681 99:0.43256 100:0.24220198 101:0.44953817 102:0.50127077 103:0.25482613 104:0.73387223 105:1.0938721 106:1.1599145 107:0.29649267 108:0.75163305 109:1.0544951 110:1.1182593 111:0.075705953 112:0.6739502 113:0.45617133 114:0.41519204 115:0.43906793 116:0.28059092 117:0.52986944 118:0.87006885 119:0.93982655 120:0.3242285 121:0.55840248 122:0.82150257 123:0.88002414 124:0.74048519 125:0.51999581 126:0.4374961 127:0.44658187 128:0.33163258 129:0.48679474 130:0.81724584 131:0.88790458 132:0.37142619 133:0.51926887 134:0.7631951 135:0.82018298 136:0.31816849 137:0.53162777 138:0.59088153 139:0.46978253 140:0.9630599 141:1.327673 142:1.3801613 143:0.46000987 144:0.96444803 145:1.320514 146:1.3861344 147:0.31197864 148:0.36998498 149:0.2726804 150:0.73995131 151:1.0899887 152:1.1473737 153:0.26608115 154:0.74784458 155:1.09157 156:1.1521868 157:0.065540582 158:0.27998874 159:0.54481798 160:0.8572734 161:0.9078517 162:0.25659889 163:0.54678786 164:0.91420406 165:0.96609503 166:0.32492486 167:0.51865697 168:0.81475508 169:0.86326206 170:0.29849535 171:0.52491057 172:0.89039129 173:0.93915486 174:0.53713101 175:0.89651746 176:0.95842439 177:0.06158983 178:0.54100817 179:0.89224261 180:0.95320404 181:0.42011097 182:0.48111251 183:0.52808654 184:0.19950087 185:0.47223589 186:0.51309901 187:0.10993478 188:0.88506949 189:0.41724125 190:0.41679862 191:0.38012198 192:0.94317722 193:0.48384532 194:0.50871724 195:0.46717617 196:0.53053635 197:0.89853555 198:0.9578554 199:0.43637905 200:0.47834945 201:0.10092168 #
-7.2645615398854021e-006 1:93.302055 2:29.999289 3:-0.47929639 4:-0.31822991 5:0.28323707 6:89.908424 7:27.47892 8:0.2156927 9:0.032441288 10:0.24547212 11:0.23748535 12:0.11569904 13:0.62852293 14:0.8521356 15:0.43515098 16:0.42546204 17:0.57271439 18:0.60857701 19:0.43406397 20:0.34784192 21:0.44423634 22:0.50231123 23:0.067232229 24:0.62134081 25:0.95993477 26:1.0059996 27:0.054874007 28:0.60404575 29:0.98279828 30:1.0394132 31:0.52855086 32:0.74980456 33:0.36350885 34:0.37840375 35:0.55042452 36:0.59239227 37:0.35855135 38:0.31121337 39:0.44519573 40:0.50679606 41:0.15873581 42:0.69411385 43:1.040611 44:1.0903653 45:0.15903114 46:0.70674402 47:1.0879021 48:1.1430569 49:0.22777534 50:0.27424228 51:0.43029517 52:0.6766398 53:0.74917793 54:0.24401811 55:0.46277612 56:0.67769694 57:0.73451245 58:0.68018079 59:1.2040462 60:1.5461057 61:1.5978633 62:0.65817416 63:1.228875 64:1.608446 65:1.6663593 66:0.47507682 67:0.59864455 68:0.79045367 69:0.86390245 70:0.45994848 71:0.65229517 72:0.84073806 73:0.8883329 74:0.90152866 75:1.4135143 76:1.7546979 77:1.8081619 78:0.88290358 79:1.4521295 80:1.8328084 81:1.8888479 82:0.30539092 83:0.5693891 84:0.63603777 85:0.11603972 86:0.22690885 87:0.47678009 88:0.54354888 89:0.48694679 90:1.0289549 91:1.361258 92:1.4070408 93:0.45981237 94:1.0178801 95:1.3973196 96:1.451502 97:0.27280059 98:0.34615365 99:0.37137946 100:0.20739107 101:0.29956251 102:0.36443138 103:0.45247602 104:0.9431541 105:1.2752621 106:1.3210922 107:0.44693246 108:0.94018239 109:1.3298624 110:1.3733804 111:0.086500593 112:0.63612849 113:0.44431132 114:0.30800948 115:0.29672977 116:0.56257486 117:0.92045343 118:1.2416584 119:1.2856333 120:0.58264911 121:0.91811335 122:1.3026946 123:1.3331984 124:0.70296669 125:0.50297815 126:0.36191177 127:0.3424142 128:0.59133118 129:0.90020502 130:1.2154832 131:1.2582874 132:0.61718673 133:0.89161146 134:1.2727879 135:1.2998987 136:0.30993795 137:0.55955321 138:0.62645715 139:0.49295664 140:1.0388634 141:1.3733295 142:1.4197601 143:0.45436198 144:1.0256361 145:1.3991077 146:1.4593554 147:0.25966415 148:0.33064976 149:0.38469407 150:0.9066571 151:1.2363976 152:1.2795542 153:0.37005797 154:0.87701464 155:1.262743 156:1.3082874 157:0.080512896 158:0.43784365 159:0.84376889 160:1.1618751 161:1.2025462 162:0.45468149 163:0.81527227 164:1.1978221 165:1.2288653 166:0.48626947 167:0.84176952 168:1.1539998 169:1.1938423 170:0.51052195 171:0.81708276 172:1.1945382 173:1.2216519 174:0.56315476 175:0.90376955 176:0.95034194 177:0.095097229 178:0.55577236 179:0.93683124 180:0.99038678 181:0.36660561 182:0.42624345 183:0.62046051 184:0.34457275 185:0.57497281 186:0.59994459 187:0.1078714 188:0.95347339 189:0.52369785 190:0.46474308 191:0.45238176 192:0.99673265 193:0.54340053 194:0.43194911 195:0.40888309 196:0.58023506 197:0.95457143 198:1.0136226 199:0.39890763 200:0.45091817 201:0.11728819 #
4.5491435301822327e-005 1:146.47639 2:26.862247 3:-0.49939761 4:-0.6223104 5:1.0634109 6:98.52961 7:24.322067 8:0.1369255 9:-0.021109359 10:1.2760931 11:0.39220202 12:0.1099026 13:0.60316324 14:0.83606029 15:0.45255458 16:0.26487985 17:0.33494166 18:0.39132765 19:0.44606772 20:0.2494217 21:0.30432844 22:0.37366951 23:0.039224189 24:0.59034145 25:0.96918333 26:1.009944 27:0.043896757 28:0.58590597 29:0.97922796 30:1.0387466 31:0.50634056 32:0.73891056 33:0.36947614 34:0.22149968 35:0.34698349 36:0.41289529 37:0.36719829 38:0.20721373 39:0.33892399 40:0.41775298 41:0.13335283 42:0.67240745 43:1.0549264 44:1.0998861 45:0.14479914 46:0.68381053 47:1.081085 48:1.1404563 49:0.23517869 50:0.20757782 51:0.48066694 52:0.71651864 53:0.78746712 54:0.2657187 55:0.47158435 56:0.74683142 57:0.83636874 58:0.62876415 59:1.1702247 60:1.5509359 61:1.5990912 62:0.63604015 63:1.1815544 64:1.5744382 65:1.6291691 66:0.42260107 67:0.70404804 68:0.93816602 69:1.0068727 70:0.45875636 71:0.69453096 72:0.96818489 73:1.056447 74:0.86215663 75:1.3990616 76:1.777552 77:1.8274492 78:0.86798137 79:1.4147388 80:1.8058782 81:1.8603153 82:0.29522648 83:0.56118214 84:0.63704699 85:0.22107339 86:0.32522541 87:0.59582251 88:0.68795061 89:0.47341388 90:1.0262411 91:1.4022511 92:1.445825 93:0.48815697 94:1.0219767 95:1.4119015 96:1.4659483 97:0.30743399 98:0.38510644 99:0.39734256 100:0.21598886 101:0.352743 102:0.44056731 103:0.26681772 104:0.77845389 105:1.1495559 106:1.1914822 107:0.29983515 108:0.77126145 109:1.1635311 110:1.2180393 111:0.085253105 112:0.63917571 113:0.44707909 114:0.31374651 115:0.30908802 116:0.31259149 117:0.61346239 118:0.9816249 119:1.0239336 120:0.35275114 121:0.60777766 122:0.99921352 123:1.0469985 124:0.70814127 125:0.51286918 126:0.36193013 127:0.32728207 128:0.36576512 129:0.59332567 130:0.95289254 131:0.99414271 132:0.40481803 133:0.58015484 134:0.96521658 135:1.0091131 136:0.3211346 137:0.61032456 138:0.69986212 139:0.47876355 140:1.0084928 141:1.3808534 142:1.4250315 143:0.4676851 144:1.0090169 145:1.3901786 146:1.4465246 147:0.30091247 148:0.39460859 149:0.27025452 150:0.78230333 151:1.1429455 152:1.187042 153:0.273231 154:0.78103906 155:1.1639805 156:1.2238059 157:0.0964498 158:0.29060578 159:0.58403927 160:0.91682738 161:0.96230245 162:0.30691001 163:0.5937987 164:0.96421748 165:1.0269957 166:0.35581353 167:0.53415889 168:0.84866071 169:0.8955341 170:0.37013498 171:0.55279517 172:0.91203314 173:0.9761048 174:0.56660265 175:0.94526529 176:0.98555422 177:0.061427824 178:0.56055272 179:0.95641261 180:1.0156873 181:0.40701011 182:0.45498374 183:0.56350535 184:0.26391563 185:0.54589242 186:0.62003219 187:0.10139834 188:0.94055188 189:0.51203477 190:0.44199735 191:0.51870555 192:0.98045474 193:0.51938158 194:0.39283741 195:0.46153229 196:0.55723357 197:0.94751471 198:1.0078914 199:0.41959989 200:0.47548047 201:0.10860412 #
-4.5491435301822327e-005 1:104.39857 2:40.67968 3:-0.61993217 4:-0.1998412 5:0.77044243 6:176.65694 7:17.085175 8:0.1267681 9:-0.057841271 10:0.84748667 11:0.5217278 12:0.092604995 13:0.55787486 14:0.75102085 15:0.41002354 16:0.22162548 17:0.27213755 18:0.32938722 19:0.42733112 20:0.30061039 21:0.37363064 22:0.43347734 23:0.072888047 24:0.56145018 25:0.92414552 26:0.98422873 27:0.077501804 28:0.53990179 29:0.9106828 30:0.97328156 31:0.46577996 32:0.65995294 33:0.32557404 34:0.19080482 35:0.32292566 36:0.38935649 37:0.34326655 38:0.26496467 39:0.40206146 40:0.4676933 41:0.14926599 42:0.65037566 43:1.0139571 44:1.0745471 45:0.1581118 46:0.61360842 47:0.98421407 48:1.0448573 49:0.21273094 50:0.2312365 51:0.48202196 52:0.7210294 53:0.79605943 54:0.20627126 55:0.4700163 56:0.7211383 57:0.78747809 58:0.6061005 59:1.1059753 60:1.4710673 61:1.5327091 62:0.61670637 63:1.0337321 64:1.3902683 65:1.4422271 66:0.429548 67:0.67805928 68:0.90589237 69:0.97890705 70:0.36496046 71:0.62572438 72:0.86381805 73:0.92548585 74:0.80166703 75:1.2887934 76:1.6581194 77:1.7167858 78:0.80541492 79:1.195545 80:1.5387505 81:1.5857005 82:0.28906712 83:0.55208385 84:0.63003504 85:0.26084206 86:0.4366979 87:0.66864616 88:0.73861003 89:0.44597188 90:0.96289659 91:1.3153191 92:1.3793396 93:0.47587568 94:0.91025138 95:1.2766231 96:1.3324087 97:0.26862851 98:0.34764072 99:0.41114986 100:0.3910467 101:0.52588654 102:0.59253114 103:0.23326722 104:0.72843176 105:1.0735451 106:1.1315423 107:0.27713504 108:0.66646075 109:1.030442 110:1.0861162 111:0.08230532 112:0.61705482 113:0.4939456 114:0.45192215 115:0.50119895 116:0.24790157 117:0.54197896 118:0.87130976 119:0.91792113 120:0.26401412 121:0.46251345 122:0.80896711 123:0.86269832 124:0.68844992 125:0.55222028 126:0.47522306 127:0.49911854 128:0.30061838 129:0.49968827 130:0.8140161 131:0.85720176 132:0.30887932 133:0.42266402 134:0.75523901 135:0.80851996 136:0.27607757 137:0.53441864 138:0.60026801 139:0.47706473 140:0.94808406 141:1.31699 142:1.3759578 143:0.48039135 144:0.89172554 145:1.2450007 146:1.2989942 147:0.27756333 148:0.34158057 149:0.33888033 150:0.72155899 151:1.0883901 152:1.1446192 153:0.32791492 154:0.69640678 155:1.0377316 156:1.0958017 157:0.070935674 158:0.38879904 159:0.55951089 160:0.91793925 161:0.95898193 162:0.35200009 163:0.50556159 164:0.80522877 165:0.85931873 166:0.44458577 167:0.54620653 168:0.89256382 169:0.9300487 170:0.40548605 171:0.49566111 172:0.77260488 173:0.82542497 174:0.53020674 175:0.88552314 176:0.9468329 177:0.11145927 178:0.52544922 179:0.89309442 180:0.95697993 181:0.38545251 182:0.43728346 183:0.50243556 184:0.34416243 185:0.57618606 186:0.65062195 187:0.10479234 188:0.86830759 189:0.6231702 190:0.61720538 191:0.69156456 192:0.92604715 193:0.6416918 194:0.57981002 195:0.64190829 196:0.48007187 197:0.84997821 198:0.91349179 199:0.376055 200:0.43957597 201:0.10277045 #
4.5491435301822327e-005 1:78.528099 2:30.816906 3:-0.54862863 4:-0.59705389 5:0.063119724 6:50.424412 7:45.844795 8:0.207552 9:-0.041562252 10:0.021039909 11:0.32013962 12:0.08424218 13:0.50927043 14:0.72214192 15:0.38754475 16:0.14752252 17:0.26820549 18:0.32070059 19:0.35323527 20:0.27444658 21:0.28702429 22:0.34212378 23:0.09709508 24:0.68758637 25:1.0720496 26:1.143025 27:0.097840033 28:0.75040722 29:1.1173601 30:1.1824571 31:0.4251138 32:0.63929403 33:0.31245983 34:0.11170346 35:0.30632061 36:0.36663279 37:0.2778728 38:0.26267323 39:0.32695404 40:0.38497734 41:0.16944386 42:0.76980805 43:1.1545959 44:1.226182 45:0.16816172 46:0.83205307 47:1.1981583 48:1.2640733 49:0.23119318 50:0.20547073 51:0.41860092 52:0.65554476 53:0.72036076 54:0.24449596 55:0.51408613 56:0.68265522 57:0.7345497 58:0.58243942 59:1.1864924 60:1.5728182 61:1.6465031 62:0.58455676 63:1.2519729 64:1.614453 65:1.6828611 66:0.37105033 67:0.61384314 68:0.84214163 69:0.90460801 70:0.45672339 71:0.7334457 72:0.88835293 73:0.93105948 74:0.78835195 75:1.393873 76:1.7875792 77:1.8597132 78:0.800726 79:1.4691212 80:1.8349899 81:1.9012104 82:0.2713578 83:0.54498923 84:0.6068508 85:0.29575059 86:0.49787197 87:0.60716724 88:0.65013313 89:0.43563476 90:1.0307804 91:1.4282743 92:1.5005772 93:0.47967187 94:1.1331234 95:1.4998752 96:1.5646859 97:0.30176297 98:0.36213791 99:0.3229875 100:0.35442406 101:0.3785367 102:0.41703925 103:0.18952623 104:0.78698164 105:1.1828271 106:1.2526922 107:0.23798074 108:0.87570131 109:1.2444379 110:1.3071451 111:0.077385925 112:0.48814648 113:0.37557432 114:0.20855078 115:0.21235749 116:0.26699793 117:0.66677064 118:1.0408442 119:1.1035936 120:0.24626587 121:0.70084494 122:1.062528 123:1.1192422 124:0.55166024 125:0.42321789 126:0.2327427 127:0.20046002 128:0.30781072 129:0.62688565 130:0.99580115 131:1.0564975 132:0.28711784 133:0.659082 134:1.0169557 135:1.0712444 136:0.27802455 137:0.47381285 138:0.5369696 139:0.44602624 140:1.0323918 141:1.4014611 142:1.4736922 143:0.39949891 144:1.0526705 145:1.4092878 146:1.4786547 147:0.26935983 148:0.35019985 149:0.3591198 150:0.83852458 151:1.1742264 152:1.2457187 153:0.24346597 154:0.80877429 155:1.1516223 156:1.2233441 157:0.085599281 158:0.31949097 159:0.67969954 160:1.006357 161:1.0719652 162:0.21833715 163:0.63709319 164:0.98376715 165:1.0487795 166:0.35894287 167:0.66404998 168:0.98319465 169:1.0460182 170:0.27784258 171:0.61464739 172:0.9589836 173:1.0209236 174:0.60906416 175:1.0029309 176:1.0732825 177:0.13490744 178:0.70169854 179:1.0693595 180:1.1319636 181:0.40830612 182:0.47569841 183:0.63877457 184:0.31313956 185:0.57483834 186:0.62166989 187:0.09072683 188:1.0093226 189:0.42299557 190:0.33048138 191:0.34646699 192:1.0793598 193:0.47465384 194:0.32999796 195:0.32462493 196:0.66927099 197:1.0346922 198:1.1005979 199:0.37322557 200:0.43396088 201:0.086400524 #
-4.5491435301822327e-005 1:143.75226 2:27.196785 3:-0.26613501 4:-0.284522 5:0.39968228 6:78.066856 7:24.003885 8:0.1126376 9:-0.07221546 10:0.42632779 11:0.5903852 12:0.085851058 13:0.51578975 14:0.70573729 15:0.43745488 16:0.30190185 17:0.24364451 18:0.27055392 19:0.39614981 20:0.20395947 21:0.28121084 22:0.34865355 23:0.069150098 24:0.53305894 25:0.87333602 26:0.94087672 27:0.065532275 28:0.47665551 29:0.85822338 30:0.93124121 31:0.43000564 32:0.62065035 33:0.35952118 34:0.26132807 35:0.26928231 36:0.31726152 37:0.31550506 38:0.18520726 39:0.33705989 40:0.41237518 41:0.14411326 42:0.61520582 43:0.95409679 44:1.0220072 45:0.13687029 46:0.55452901 47:0.93499464 48:1.004528 49:0.20343348 50:0.18680608 51:0.40905455 52:0.59675127 53:0.66901714 54:0.19578047 55:0.47273466 56:0.7170406 57:0.80069661 58:0.56717896 59:1.0347865 60:1.3668579 61:1.4351729 62:0.56033373 63:0.96615702 64:1.3367985 65:1.3937277 66:0.32786769 67:0.56921726 68:0.75793892 69:0.83297807 70:0.37483022 71:0.66247863 72:0.90319973 73:0.98634654 74:0.75363106 75:1.226746 76:1.5620227 77:1.6280148 78:0.75220239 79:1.1391327 80:1.4991285 81:1.5483618 82:0.24969637 83:0.46600094 84:0.54296881 85:0.28791174 86:0.47014725 87:0.67890871 88:0.75542897 89:0.47321376 90:0.9311133 91:1.2643979 92:1.328668 93:0.4932802 94:0.87244028 95:1.2342081 96:1.2888787 97:0.2930204 98:0.36670256 99:0.40638429 100:0.42949706 101:0.56966674 102:0.63255745 103:0.31141058 104:0.71909064 105:1.0546256 106:1.1162633 107:0.35750577 108:0.69070369 109:1.0442111 110:1.1052678 111:0.084849104 112:0.53919488 113:0.41178122 114:0.41782033 115:0.45512235 116:0.20619652 117:0.55880725 118:0.88143212 119:0.92979157 120:0.28536397 121:0.45693296 122:0.80102587 123:0.8551845 124:0.59985358 125:0.43581253 126:0.39042246 127:0.41367051 128:0.22105351 129:0.50278723 130:0.81726545 131:0.8622095 132:0.29680568 133:0.39604318 134:0.73735464 135:0.7928704 136:0.30217677 137:0.56026131 138:0.64653587 139:0.45782867 140:0.91131586 141:1.2398517 142:1.3113657 143:0.42592898 144:0.84629178 145:1.2246785 146:1.2897669 147:0.26332045 148:0.3497518 149:0.26224825 150:0.64996737 151:0.96906477 152:1.0398586 153:0.19410849 154:0.58986926 155:0.96966267 156:1.043193 157:0.088317387 158:0.28211978 159:0.46646616 160:0.76249397 161:0.82587844 162:0.23764735 163:0.3860971 164:0.74735141 165:0.82386279 166:0.33676094 167:0.42120454 168:0.69750077 169:0.75720972 170:0.30467626 171:0.34041607 172:0.68362087 173:0.76141793 174:0.48672163 175:0.82800335 176:0.89307171 177:0.098761208 178:0.42687711 179:0.80489761 180:0.87717092 181:0.39630777 182:0.453181 183:0.49813476 184:0.29599079 185:0.53193599 186:0.62689376 187:0.10777242 188:0.83704633 189:0.59201825 190:0.59246868 191:0.66960067 192:0.90659583 193:0.62958086 194:0.58309096 195:0.64965463 196:0.45036882 197:0.83329588 198:0.91075671 199:0.38686022 200:0.46738058 201:0.116426 #
4.5491435301822327e-005 1:88.798157 2:45.909718 3:-0.60146338 4:-0.57942837 5:1.504216 6:127.87285 7:28.86672 8:0.14858671 9:-0.0083813509 10:2.5070267 11:0.41220531 12:0.10696681 13:0.61296302 14:0.84224832 15:0.44528636 16:0.27862784 17:0.3541773 18:0.41025034 19:0.39519593 20:0.27955645 21:0.36232775 22:0.41217679 23:0.069694676 24:0.59225744 25:0.9770155 26:1.0259953 27:0.07866843 28:0.59655023 29:0.95377743 30:1.0075209 31:0.51243192 32:0.74196404 33:0.34902218 34:0.24044535 35:0.38530108 36:0.44854391 37:0.30262446 38:0.25426647 39:0.40346387 40:0.45746571 41:0.16134632 42:0.69303846 43:1.0767018 44:1.1264635 45:0.17408457 46:0.69510931 47:1.0519278 48:1.1060381 49:0.23708299 50:0.24868259 51:0.5458861 52:0.77025849 53:0.83190662 54:0.291105 55:0.57056862 56:0.7967177 57:0.84807736 58:0.65965021 59:1.1981671 60:1.5765684 61:1.6273302 62:0.67483497 63:1.1895331 64:1.5439478 65:1.5981088 66:0.46843055 67:0.77158314 68:0.98610294 69:1.043368 70:0.48971093 71:0.76931232 72:0.9947564 73:1.0435475 74:0.89173579 75:1.4275084 76:1.8052615 77:1.8548646 78:0.89971352 79:1.4111353 80:1.7662284 81:1.8194754 82:0.31574166 83:0.56532466 84:0.63467026 85:0.23056971 86:0.46464673 87:0.66988432 88:0.7235474 89:0.47592399 90:1.015576 91:1.395281 92:1.4468393 93:0.51710325 94:1.0274895 95:1.3731641 96:1.4261564 97:0.28029627 98:0.35656974 99:0.39995906 100:0.37802374 101:0.51848567 102:0.57149518 103:0.266498 104:0.76551312 105:1.1402678 106:1.1921118 107:0.34428892 108:0.77809173 109:1.101357 110:1.1541262 111:0.078976117 112:0.59361565 113:0.46346027 114:0.42363524 115:0.46907255 116:0.31885657 117:0.64722848 118:1.009515 119:1.0550697 120:0.3742559 121:0.61320877 122:0.91010678 123:0.95679939 124:0.65312099 125:0.5124076 126:0.43594709 127:0.46116364 128:0.37568915 129:0.63767356 130:0.99069464 131:1.0341883 132:0.41923457 133:0.58811295 134:0.87130719 135:0.91609395 136:0.30374035 137:0.54457289 138:0.60101569 139:0.45595366 140:0.97043288 141:1.3496766 142:1.3961438 143:0.43854886 144:0.95475596 145:1.3137004 146:1.3657508 147:0.26677909 148:0.32305866 149:0.33669025 150:0.74698722 151:1.1197034 152:1.1601179 153:0.26437455 154:0.70491165 155:1.0620013 156:1.1112211 157:0.064775556 158:0.38112134 159:0.59969813 160:0.96022117 161:0.98895347 162:0.30722305 163:0.5352447 164:0.88877946 165:0.92966783 166:0.42621368 167:0.58579081 168:0.93805701 169:0.96321076 170:0.35530561 171:0.51542044 172:0.86443669 173:0.90321219 174:0.55056572 175:0.93514472 176:0.98522633 177:0.10607738 178:0.56657577 179:0.91606063 180:0.96988958 181:0.39698637 182:0.44180006 183:0.53997689 184:0.27106375 185:0.49428973 186:0.53786379 187:0.098949924 188:0.92404646 189:0.53032011 190:0.44155365 191:0.44471705 192:0.97075087 193:0.5616048 194:0.45043534 195:0.44352853 196:0.53456038 197:0.89724422 198:0.95034224 199:0.39209408 200:0.44117841 201:0.10508124 #
-2.3611430069045512e-005 1:54.811996 2:54.707146 3:-0.60345572 4:-0.65504378 5:0.63008928 6:60.409176 7:32.522095 8:0.076761842 9:-0.041642219 10:0.063008927 11:0.54075533 12:0.090815462 13:0.54712689 14:0.7065379 15:0.43593898 16:0.35303223 17:0.19672929 18:0.18904676 19:0.46297619 20:0.28243601 21:0.24324037 22:0.29242066 23:0.11531994 24:0.51428282 25:0.89573938 26:0.9542312 27:0.11630429 28:0.49303302 29:0.90664887 30:0.97412455 31:0.45635536 32:0.61767346 33:0.35063276 34:0.30030259 35:0.19272266 36:0.20613205 37:0.37818855 38:0.23461595 39:0.28892529 40:0.34605429 41:0.1880216 42:0.60272437 43:0.98505312 44:1.0444131 45:0.19378357 46:0.57617712 47:0.98862624 48:1.0549895 49:0.19653891 50:0.19917271 51:0.41784129 52:0.5332154 53:0.57475859 54:0.17288643 55:0.41709933 56:0.66959548 57:0.73050874 58:0.63124621 59:1.0540925 60:1.4370478 61:1.4992397 62:0.63678348 63:1.0123744 64:1.4156837 65:1.4776182 66:0.3674148 67:0.58643073 68:0.67661583 69:0.70963049 70:0.30607331 71:0.55851436 72:0.81634921 73:0.87540615 74:0.79118139 75:1.2200781 76:1.6019682 77:1.65915 78:0.79109931 79:1.1403768 80:1.5280188 81:1.5859795 82:0.22212428 83:0.38216826 84:0.43859717 85:0.28114596 86:0.41670743 87:0.61568004 88:0.67677104 89:0.49399135 90:0.91921473 91:1.3039505 92:1.3652105 93:0.5437457 94:0.91676283 95:1.3175755 96:1.3808653 97:0.26258042 98:0.3337588 99:0.45371446 100:0.47161284 101:0.57645458 102:0.63097709 103:0.36164066 104:0.75756967 105:1.1362145 106:1.1969352 107:0.4662298 108:0.81208199 109:1.2019296 110:1.2663879 111:0.072525516 112:0.5073418 113:0.41817868 114:0.4330982 115:0.47919041 116:0.17521732 117:0.59511012 118:0.97363913 119:1.0222886 120:0.2961311 121:0.57560998 122:0.95562059 123:1.0183786 124:0.53448504 125:0.42039493 126:0.4059276 127:0.44745052 128:0.16228248 129:0.56553066 130:0.93955791 131:0.98431659 132:0.26821148 133:0.5144074 134:0.89148343 135:0.95405573 136:0.26534155 137:0.53242773 138:0.59098631 139:0.56580687 140:0.96569175 141:1.3408382 142:1.4043977 143:0.52993661 144:0.90524662 145:1.3128055 146:1.3758917 147:0.27026951 148:0.32703832 149:0.39745122 150:0.73972231 151:1.101342 152:1.165017 153:0.30245507 154:0.66970724 155:1.081872 156:1.147364 157:0.061653052 158:0.31292892 159:0.50690043 160:0.84609371 161:0.90829027 162:0.14995606 163:0.43416256 164:0.84583563 165:0.91428882 166:0.34764016 167:0.4814592 168:0.80483526 169:0.86653411 170:0.18695186 171:0.40145448 172:0.80558777 173:0.87419111 174:0.43746859 175:0.82133186 176:0.87685978 177:0.16441415 178:0.45372832 179:0.85324985 180:0.9207437 181:0.38530454 182:0.44896895 183:0.448232 184:0.3431266 185:0.61273265 186:0.68153805 187:0.097868085 188:0.81832159 189:0.57723272 190:0.57700497 191:0.62406152 192:0.87713999 193:0.59997052 194:0.53124124 195:0.57035089 196:0.40510812 197:0.82478768 198:0.89359152 199:0.42026284 200:0.49065459 201:0.090108156 #
4.5491435301822327e-005 1:116.15396 2:31.391512 3:-0.57060617 4:-0.59107208 5:1.0906552 6:130.48615 7:33.347553 8:0.1496883 9:-0.02943654 10:1.3451415 11:0.20329063 12:0.10433118 13:0.58193207 14:0.79367471 15:0.44161531 16:0.26880783 17:0.22428276 18:0.28841943 19:0.41887408 20:0.25806692 21:0.33486322 22:0.39664042 23:0.058119249 24:0.59667963 25:0.95344633 26:1.0113865 27:0.049735013 28:0.60690558 29:0.98072076 30:1.021474 31:0.48756692 32:0.69882786 33:0.35808548 34:0.22690669 35:0.27087137 36:0.33922088 37:0.33479574 38:0.2392582 39:0.38583007 40:0.45494935 41:0.15389626 42:0.68579596 43:1.0440034 44:1.1030952 45:0.13808702 46:0.70156956 47:1.0755279 48:1.1173846 49:0.21309648 50:0.21761946 51:0.46220118 52:0.67272311 53:0.73191988 54:0.23169312 55:0.52578014 56:0.77334088 57:0.84764677 58:0.62704182 59:1.1605645 60:1.5136383 61:1.5724283 62:0.61260372 63:1.1779242 64:1.5513357 65:1.5957969 66:0.40403202 67:0.66060507 68:0.87269944 69:0.93028748 70:0.42523503 71:0.72628313 72:0.97523391 73:1.0487154 74:0.83808136 75:1.3682997 76:1.7199155 77:1.7791061 78:0.82412952 79:1.3873342 80:1.7593539 81:1.804894 82:0.26680616 83:0.49363518 84:0.55418956 85:0.13925998 86:0.40358782 87:0.6468311 88:0.72046232 89:0.47488207 90:1.0201656 91:1.3708171 92:1.4283541 93:0.48099092 94:1.0262879 95:1.3953757 96:1.4380733 97:0.2403753 98:0.30202889 99:0.33318451 100:0.27772713 101:0.47157538 102:0.53930652 103:0.27063009 104:0.78850919 105:1.1415162 106:1.1954861 107:0.31014508 108:0.79961979 109:1.1630265 110:1.2014842 111:0.088848539 112:0.54443055 113:0.39228457 114:0.41507509 115:0.46777067 116:0.19479832 117:0.61052734 118:0.9697063 119:1.0184518 120:0.24895535 121:0.63067287 122:0.98129612 123:1.0118586 124:0.60105056 125:0.42647901 126:0.37872058 127:0.42405561 128:0.25548562 129:0.59035099 130:0.94701362 131:0.99155062 132:0.30605742 133:0.61957246 134:0.96349066 135:0.98831165 136:0.31390151 137:0.57777023 138:0.65483701 139:0.46963021 140:1.0036856 141:1.3483218 142:1.407937 143:0.43914238 144:1.0055627 145:1.3753465 146:1.4192574 147:0.27283704 148:0.35084856 149:0.29658362 150:0.75471896 151:1.0789406 152:1.1379585 153:0.24567279 154:0.75393838 155:1.12169 156:1.1646209 157:0.080244109 158:0.33549351 159:0.56643099 160:0.86641586 161:0.92092097 162:0.30223009 163:0.58144766 164:0.93750042 165:0.97555691 166:0.39029083 167:0.53268987 168:0.81618917 169:0.86867702 170:0.36328244 171:0.55012828 172:0.89564043 173:0.93186486 174:0.55530047 175:0.91417426 176:0.97076213 177:0.080396131 178:0.56736499 179:0.93883955 180:0.97890222 181:0.39864522 182:0.44781008 183:0.57282203 184:0.24427281 185:0.50304657 186:0.53375924 187:0.10208447 188:0.92767817 189:0.41618824 190:0.35269004 191:0.39125931 192:0.98600256 193:0.4762263 194:0.3597576 195:0.38490146 196:0.58229738 197:0.95508236 198:0.99584842 199:0.40840048 200:0.45341998 201:0.10364234 #
-4.1839036298603558e-005 1:145.08714 2:13.620201 3:-0.04676491 4:0.063183188 5:0.78703666 6:127.58871 7:28.722044 8:0.18810789 9:-0.01195817 10:1.2067896 11:0.20734198 12:0.081513911 13:0.49145114 14:0.67637658 15:0.36542445 16:0.27665392 17:0.38030812 18:0.4415282 19:0.52912736 20:0.59061539 21:0.69628012 22:0.76489311 23:0.099496856 24:0.53737938 25:0.90809888 26:0.97282499 27:0.095070571 28:0.56452465 29:0.92285472 30:0.96895897 31:0.41002414 32:0.59597999 33:0.29360449 34:0.26089185 35:0.41958919 36:0.48870951 37:0.45451629 38:0.52193701 39:0.65638196 40:0.7312268 41:0.16680516 42:0.61199641 43:0.98174059 44:1.0457392 45:0.16291767 46:0.63471013 47:0.9904626 48:1.033541 49:0.20375144 50:0.22974874 51:0.48719534 52:0.73857486 53:0.81862479 54:0.18184623 55:0.35150796 56:0.58281708 57:0.65651947 58:0.56630617 59:1.0060259 60:1.3674212 61:1.4282438 62:0.56155217 63:1.0134796 64:1.35352 65:1.3856182 66:0.41606846 67:0.66507471 68:0.90876538 69:0.98748964 70:0.22922885 71:0.33072469 72:0.54374862 73:0.61179864 74:0.75544721 75:1.1785624 76:1.5359936 77:1.591859 78:0.73847467 79:1.1741015 80:1.5042013 81:1.5285274 82:0.29885435 83:0.57305896 84:0.65820009 85:0.37836778 86:0.49033222 87:0.67401403 88:0.74422741 89:0.41226545 90:0.86502039 91:1.224869 92:1.2903466 93:0.45059803 94:0.90690982 95:1.2483611 96:1.2907162 97:0.28250805 98:0.37069553 99:0.59412742 100:0.64290023 101:0.71971846 102:0.7748118 103:0.27201891 104:0.66465265 105:1.0177448 106:1.0804186 107:0.33186761 108:0.70087719 109:1.0205215 110:1.0666103 111:0.092041455 112:0.80960608 113:0.83490014 114:0.84793085 115:0.86687869 116:0.33808488 117:0.52466291 118:0.84907424 119:0.90648121 120:0.37282366 121:0.51247114 122:0.7876063 123:0.83608365 124:0.88022047 125:0.90240341 126:0.91143119 127:0.92025054 128:0.39600357 129:0.50506032 130:0.8097983 131:0.86560708 132:0.421424 133:0.46670333 134:0.71901977 135:0.7691763 136:0.28625193 137:0.54343402 138:0.62222958 139:0.61496001 140:1.029265 141:1.3867992 142:1.4445792 143:0.58023864 144:1.0032786 145:1.3405768 146:1.3667412 147:0.26841298 148:0.34817386 149:0.67501938 150:1.0559351 151:1.3945343 152:1.4444153 153:0.63514578 154:1.042441 155:1.370348 156:1.3916202 157:0.091451392 158:0.75756562 159:1.0869838 160:1.4023321 161:1.4441787 162:0.72880381 163:1.0951651 164:1.4083602 165:1.4265918 166:0.81735992 167:1.1173577 168:1.4185364 169:1.458523 170:0.79126889 171:1.1275791 172:1.4300244 173:1.4474447 174:0.48843065 175:0.85493022 176:0.92280138 177:0.13951406 178:0.53659463 179:0.88850021 180:0.94103771 181:0.385387 182:0.4461017 183:0.47655702 184:0.36975881 185:0.64474237 186:0.69667554 187:0.10188568 188:0.84782881 189:0.62217999 190:0.6903131 191:0.72790122 192:0.91058856 193:0.67216742 194:0.71527451 195:0.74218214 196:0.4879396 197:0.85050315 198:0.89383703 199:0.38893905 200:0.43943527 201:0.11316541 #
4.5491435301822327e-005 1:85.390236 2:50.589893 3:-0.51981401 4:-0.62032872 5:0.023954537 6:46.982761 7:37.770504 8:0.2286637 9:-0.01368675 10:0.0071863611 11:0.17713481 12:0.085860506 13:0.52161211 14:0.74592775 15:0.44869387 16:0.2456584 17:0.36124113 18:0.42110395 19:0.37718141 20:0.27151263 21:0.26060277 22:0.32094771 23:0.073815681 24:0.66000772 25:1.0530422 26:1.0800383 27:0.058165576 28:0.66206425 29:1.0231434 30:1.0915482 31:0.43581206 32:0.66175896 33:0.37298506 34:0.22766565 35:0.39813152 36:0.46505776 37:0.29803574 38:0.24370429 39:0.31173834 40:0.38287944 41:0.15149681 42:0.7418803 43:1.1348658 44:1.1634334 45:0.1256852 46:0.74683094 47:1.1076851 48:1.1761404 49:0.24662064 50:0.21119377 51:0.48122889 52:0.71892405 53:0.79240459 54:0.2214985 55:0.47031131 56:0.69435757 57:0.77642268 58:0.5807761 59:1.1652755 60:1.5567397 61:1.590609 62:0.55486614 63:1.1807774 64:1.5407377 65:1.6091139 66:0.35242113 67:0.66392964 68:0.89680225 69:0.96726483 70:0.45573255 71:0.71064329 72:0.92891854 73:1.0064479 74:0.79894263 75:1.3896196 76:1.7833124 77:1.8139181 78:0.78318906 79:1.402196 80:1.7639019 81:1.8288606 82:0.32106972 83:0.54842412 84:0.62013471 85:0.32430673 86:0.50739825 87:0.67191637 88:0.74625248 89:0.48744956 90:1.0582074 91:1.4574935 92:1.4900186 93:0.4972699 94:1.0990896 95:1.4605563 96:1.5265926 97:0.2486316 98:0.32542399 99:0.44188765 100:0.45520833 101:0.48770136 102:0.54037392 103:0.23557582 104:0.75832379 105:1.1629329 106:1.1914804 107:0.29970321 108:0.81109762 109:1.1673738 110:1.2315893 111:0.080897927 112:0.66406202 113:0.61111701 114:0.54454964 115:0.56595677 116:0.30387357 117:0.58960277 118:0.98520464 119:1.0125799 120:0.39733711 121:0.69172359 122:1.0256596 123:1.0865825 124:0.73613316 125:0.67401004 126:0.58732176 127:0.59918737 128:0.35882193 129:0.55796301 130:0.94304514 131:0.96827412 132:0.4526597 133:0.67151856 134:0.99364829 135:1.0521106 136:0.25755665 137:0.49728698 138:0.58151412 139:0.44801548 140:1.0161161 141:1.3963276 142:1.4292952 143:0.39207122 144:1.008698 145:1.362349 146:1.4324771 147:0.26684892 148:0.35675785 149:0.33709848 150:0.81511527 151:1.1776249 152:1.2126291 153:0.24755496 154:0.79662973 155:1.137598 156:1.2112887 157:0.096969351 158:0.27611855 159:0.59253943 160:0.94144386 161:0.96839023 162:0.20617364 163:0.54156864 164:0.88031429 165:0.95299816 166:0.31984007 167:0.54548854 168:0.88086849 169:0.90228808 170:0.26822612 171:0.46642733 172:0.80047178 173:0.87160319 174:0.60261768 175:1.0002785 176:1.0258248 177:0.099506035 178:0.61304265 179:0.97452509 180:1.041804 181:0.42742482 182:0.46213108 183:0.63880724 184:0.29277775 185:0.50627095 186:0.5787943 187:0.10185623 188:1.0242629 189:0.50538111 190:0.38690552 191:0.43294689 192:1.0510961 193:0.5001837 194:0.33368474 195:0.36376235 196:0.62760007 197:0.98694533 198:1.0562623 199:0.36271802 200:0.42987245 201:0.086577721 #
-4.5491435301822327e-005 1:95.607841 2:90.036919 3:-0.57396293 4:-0.54307079 5:0.68971401 6:78.824341 7:60.269653 8:0.074418582 9:-0.073649921 10:0.045980934 11:0.13346756 12:0.084037773 13:0.50721997 14:0.72144324 15:0.41160074 16:0.27875951 17:0.16265801 18:0.17339298 19:0.42520738 20:0.30408821 21:0.15791975 22:0.13294613 23:0.087850392 24:0.50953376 25:0.86496711 26:0.91547525 27:0.078453302 28:0.57750583 29:0.9377321 30:0.98819441 31:0.42323267 32:0.63914698 33:0.33876556 34:0.26439723 35:0.1485415 36:0.19407733 37:0.34587565 38:0.26399931 39:0.14999165 40:0.14909267 41:0.1619456 42:0.5916425 43:0.94614911 44:0.99828368 45:0.14542979 46:0.66000217 47:1.0204633 48:1.0719669 49:0.2414529 50:0.22005861 51:0.48687345 52:0.46219969 53:0.53979611 54:0.1742961 55:0.42099959 56:0.47875619 57:0.51275039 58:0.5763908 59:1.007983 60:1.3594036 61:1.4167559 62:0.55964732 63:1.0796981 64:1.4395922 65:1.4943995 66:0.39409876 67:0.6832366 68:0.64045459 69:0.71595907 70:0.37671527 71:0.63388276 72:0.67710733 73:0.70693153 74:0.78622419 75:1.2120095 76:1.581033 77:1.6335031 78:0.77469212 79:1.2985998 80:1.659045 81:1.7070748 82:0.29302129 83:0.36944732 84:0.46078259 85:0.31331247 86:0.46667439 87:0.44919938 88:0.45879745 89:0.45462802 90:0.86626762 91:1.2270817 92:1.2843029 93:0.48304516 94:0.96789747 95:1.3178074 96:1.3706578 97:0.30764571 98:0.37552759 99:0.49840453 100:0.49986276 101:0.40950477 102:0.38786268 103:0.26433021 104:0.60607231 105:0.95801115 106:1.0161281 107:0.35163692 108:0.72529387 109:1.0569843 110:1.1106484 111:0.092735633 112:0.40566513 113:0.36157969 114:0.17581017 115:0.13840149 116:0.19622499 117:0.58569163 118:0.97246057 119:1.0125449 120:0.21006109 121:0.68513262 122:1.0402359 123:1.0773442 124:0.46275023 125:0.37333962 126:0.15941635 127:0.10235273 128:0.19437951 129:0.53591996 130:0.92057711 131:0.95538342 132:0.1861434 133:0.62593037 134:0.97944313 135:1.0121729 136:0.26011074 137:0.36119345 138:0.40998977 139:0.50776863 140:0.93402374 141:1.2689426 142:1.3252594 143:0.45753446 144:0.97771889 145:1.3392794 146:1.3953632 147:0.21816528 148:0.27953598 149:0.38884565 150:0.76450938 151:1.0626322 152:1.1182271 153:0.29207337 154:0.76538879 155:1.1211849 156:1.1806408 157:0.063813969 158:0.23173413 159:0.60696673 160:0.95473099 161:0.99863654 162:0.14515413 163:0.65004921 164:1.0113635 165:1.0562944 166:0.18972354 167:0.55661827 168:0.91754985 169:0.95859474 170:0.12322485 171:0.61483014 172:0.97499675 173:1.016263 174:0.43236053 175:0.79972255 176:0.84861666 177:0.12018365 178:0.5213061 179:0.87614411 180:0.92438638 181:0.41656432 182:0.44346744 183:0.48352656 184:0.21836063 185:0.4870806 186:0.51781803 187:0.10091519 188:0.8248558 189:0.31746793 190:0.15551679 191:0.23154043 192:0.87388951 193:0.35631037 194:0.10717362 195:0.14736237 196:0.52769971 197:0.89034414 198:0.94107091 199:0.36353239 200:0.42128855 201:0.11326671 #
4.5491435301822327e-005 1:114.52028 2:16.728897 3:-0.63380289 4:-0.63434237 5:0.92943227 6:116.13946 7:17.801891 8:0.1440032 9:-0.02319386 10:1.208262 11:0.15543595 12:0.11758006 13:0.62711835 14:0.83936894 15:0.46212158 16:0.24920368 17:0.23873454 18:0.29564419 19:0.44376296 20:0.25128815 21:0.31445807 22:0.37149173 23:0.035587445 24:0.58052742 25:0.93339819 26:0.99792725 27:0.035863005 28:0.5875029 29:0.94244015 30:0.9965772 31:0.5266766 32:0.73855877 33:0.37097734 34:0.20543827 35:0.29272592 36:0.36243355 37:0.35313517 38:0.22673695 39:0.36898264 40:0.43476284 41:0.14240587 42:0.68039447 43:1.038208 44:1.1041068 45:0.14232722 46:0.69020683 47:1.04175 48:1.0985923 49:0.21510673 50:0.23126467 51:0.5037663 52:0.74707144 53:0.82174408 54:0.24517982 55:0.53645372 56:0.78534353 57:0.8584457 58:0.65100211 59:1.1884649 60:1.5457865 61:1.6059541 62:0.65304589 63:1.2050233 64:1.5583682 65:1.614966 66:0.42368606 67:0.70851594 68:0.95465714 69:1.0289265 70:0.43876866 71:0.73946643 72:0.98898476 73:1.0613122 74:0.86329341 75:1.3988129 76:1.7542802 77:1.8136533 78:0.86486548 79:1.4158065 80:1.7685072 81:1.8256837 82:0.29660234 83:0.55995464 84:0.63422215 85:0.071093187 86:0.32605165 87:0.58867902 88:0.66575933 89:0.48232991 90:1.0314385 91:1.3788481 92:1.4408891 93:0.49052227 94:1.0364395 95:1.3839649 96:1.4391793 97:0.27424201 98:0.34510484 99:0.29512602 100:0.08816836 101:0.31081229 102:0.38852105 103:0.25714293 104:0.77442521 105:1.1121207 106:1.1758529 107:0.27451143 108:0.78326142 109:1.1237043 110:1.1769251 111:0.085124291 112:0.55490959 113:0.28084534 114:0.15399741 115:0.19217896 116:0.22665735 117:0.55763167 118:0.87497014 119:0.94032985 120:0.23873505 121:0.58041602 122:0.90692365 123:0.95767725 124:0.62914038 125:0.34365004 126:0.15072297 127:0.14136094 128:0.27960938 129:0.51136881 130:0.81700116 131:0.88214803 132:0.29076666 133:0.5450896 134:0.85493177 135:0.90485203 136:0.32373372 137:0.5855785 138:0.66269708 139:0.46792606 140:1.0131226 141:1.3603758 142:1.4225193 143:0.46830633 144:1.0160574 145:1.3660159 146:1.421306 147:0.27198043 148:0.35166368 149:0.26036409 150:0.75976652 151:1.0892895 152:1.1518397 153:0.27507117 154:0.767941 155:1.1070073 156:1.1586348 157:0.084168226 158:0.29974627 159:0.57549512 160:0.87803715 161:0.93795919 162:0.31641391 163:0.60748613 164:0.92364097 165:0.96923423 166:0.35398743 167:0.53625739 168:0.82460761 169:0.8824802 170:0.36908141 171:0.57886511 172:0.881652 173:0.92469877 174:0.56027067 175:0.91255891 176:0.97691733 177:0.051922403 178:0.56765473 179:0.9205398 180:0.97432923 181:0.40656704 182:0.46657619 183:0.55608916 184:0.24297534 185:0.47410026 186:0.51779532 187:0.11228304 188:0.90843815 189:0.42111698 190:0.38546538 191:0.36969933 192:0.97319275 193:0.48934186 194:0.42431176 195:0.39261687 196:0.56215203 197:0.91841441 198:0.9723323 199:0.41449118 200:0.45149937 201:0.1077464 #
-4.5491435301822327e-005 1:107.23454 2:7.7066708 3:-0.2463579 4:-0.31147829 5:0.87082773 6:124.20336 7:17.139866 8:0.16874941 9:-0.074539639 10:2.4673452 11:0.13766433 12:0.090326391 13:0.54390341 14:0.73164201 15:0.40317723 16:0.24683142 17:0.27501532 18:0.33942834 19:0.39486867 20:0.26474702 21:0.27423623 22:0.32519278 23:0.071197823 24:0.54803973 25:0.92850941 26:0.98906672 27:0.078174658 28:0.55287856 29:0.93352348 30:0.99024963 31:0.4536505 32:0.64253646 33:0.31904298 34:0.21964851 35:0.3315165 36:0.40621769 37:0.31285065 38:0.21888144 39:0.31196314 40:0.37369025 41:0.14496987 42:0.63390714 43:1.0131607 44:1.0729212 45:0.15793243 46:0.63612568 47:1.0146576 48:1.0697752 49:0.20782952 50:0.22016576 51:0.48759723 52:0.73297161 53:0.81915045 54:0.21974422 55:0.43175122 56:0.657386 57:0.73713696 58:0.59102315 59:1.0769687 60:1.4491349 61:1.5058699 62:0.60358036 63:1.0704594 64:1.4378734 65:1.4866145 66:0.40629146 67:0.68198192 68:0.92502522 69:1.0098103 70:0.37658355 71:0.58568215 72:0.81448668 73:0.89451629 74:0.78121692 75:1.2568555 76:1.6234004 77:1.6762362 78:0.78686321 79:1.2507643 80:1.6183393 81:1.6619173 82:0.28191441 83:0.5422914 84:0.63096869 85:0.27782038 86:0.38326347 87:0.57804716 88:0.65194565 89:0.4316847 90:0.92236298 91:1.2940329 92:1.3537252 93:0.47582939 94:0.93792039 95:1.3034621 96:1.3581139 97:0.27154869 98:0.36135334 99:0.43950963 100:0.40190515 101:0.48246059 102:0.5365876 103:0.2286097 104:0.68758917 105:1.0559591 106:1.118727 107:0.31845632 108:0.72038937 109:1.075273 110:1.136863 111:0.090959199 112:0.63300723 113:0.52043319 114:0.46359003 115:0.47988826 116:0.21174663 117:0.46872365 118:0.83011794 119:0.88997912 120:0.2924673 121:0.50391942 122:0.84075516 123:0.90399426 124:0.71099788 125:0.58529717 126:0.49876577 127:0.49895358 128:0.27656481 129:0.41574073 130:0.76592726 131:0.82465315 132:0.33975232 133:0.4510974 134:0.77113491 135:0.83484834 136:0.2620514 137:0.4737131 138:0.55141139 139:0.45630285 140:0.91791654 141:1.2897158 142:1.345659 143:0.43697336 144:0.89569318 145:1.2674199 146:1.3146654 147:0.24184641 148:0.32638159 149:0.32434106 150:0.74230486 151:1.1098509 152:1.1677566 153:0.28980061 154:0.73023945 155:1.1078006 156:1.1595592 157:0.098998874 158:0.2981301 159:0.57064313 160:0.92592812 161:0.98240447 162:0.24428356 163:0.54805416 164:0.92176896 165:0.97450727 166:0.33897567 167:0.52691132 168:0.86916316 169:0.92197698 170:0.28210327 171:0.49313831 172:0.85654587 173:0.90785843 174:0.50714576 175:0.88700324 176:0.94886875 177:0.10988355 178:0.52796501 179:0.90411055 180:0.96404773 181:0.38942224 182:0.4505432 183:0.50093913 184:0.33594292 185:0.62190247 186:0.68365324 187:0.10473467 188:0.88009834 189:0.60177273 190:0.65283459 191:0.69571358 192:0.9401015 193:0.65398937 194:0.68314087 195:0.71629012 196:0.49256086 197:0.87633413 198:0.93121588 199:0.40438595 200:0.46198463 201:0.1124208 #
4.5491435301822327e-005 1:85.756851 2:39.591496 3:-0.5920006 4:-0.61911142 5:0.22697642 6:103.99222 7:103.76675 8:0.1761695 9:-0.02968386 10:0.015131761 11:0.081223488 12:0.09387327 13:0.56927252 14:0.79590499 15:0.48303622 16:0.26339996 17:0.33639726 18:0.36899477 19:0.42163822 20:0.25219044 21:0.33414745 22:0.3912895 23:0.036280125 24:0.54778463 25:0.91747236 26:0.98350966 27:0.036952566 28:0.64401603 29:1.0475211 30:1.0278528 31:0.4754329 32:0.70220238 33:0.39877874 34:0.19567154 35:0.31413528 36:0.3564958 37:0.3346118 38:0.22849332 39:0.39036661 40:0.45519039 41:0.11762809 42:0.63312447 43:1.0072986 44:1.0748937 45:0.12294065 46:0.73080814 47:1.1337804 48:1.1174209 49:0.22897688 50:0.22189657 51:0.40874073 52:0.5502575 53:0.59604198 54:0.22906162 55:0.51625711 56:0.79541034 57:0.86955398 58:0.5906347 59:1.0870693 60:1.4688075 61:1.5410612 62:0.59616572 63:1.1849658 64:1.581807 65:1.577111 66:0.40246543 67:0.62417024 68:0.75843656 69:0.80200094 70:0.42320803 71:0.72027028 72:1.0039533 73:1.0785227 74:0.81805259 75:1.3081342 76:1.6874181 77:1.7619303 78:0.82183224 79:1.4024802 80:1.7944481 81:1.7946852 82:0.31656283 83:0.38193965 84:0.43397695 85:0.33766264 86:0.53239298 87:0.77233851 88:0.84207016 89:0.4989838 90:0.958951 91:1.3500996 92:1.4174429 93:0.51111317 94:1.0591152 95:1.4566677 96:1.4541627 97:0.27022028 98:0.32452217 99:0.30980071 100:0.33756766 101:0.53540999 102:0.60073382 103:0.27216062 104:0.73544902 105:1.1135516 106:1.1789885 107:0.29151714 108:0.83065611 109:1.2302053 110:1.2192106 111:0.067799285 112:0.52292407 113:0.53478682 114:0.66309834 115:0.71482068 116:0.32725611 117:0.71332502 118:1.1004184 119:1.1494579 120:0.36398426 121:0.82240349 122:1.2215241 123:1.2005447 124:0.56638098 125:0.57140994 126:0.68678236 127:0.734905 128:0.35498175 129:0.71776611 130:1.1042879 131:1.1485467 132:0.39627773 133:0.83354038 134:1.2299583 135:1.2036563 136:0.30391085 137:0.58945787 138:0.66380793 139:0.44560051 140:0.9505887 141:1.3143463 142:1.3879796 143:0.44446254 144:1.0433474 145:1.4364117 146:1.4253278 147:0.28755116 148:0.36136335 149:0.27745718 150:0.71493471 151:1.0438485 152:1.1193457 153:0.25398445 154:0.79262477 155:1.1724538 156:1.1561407 157:0.076377518 158:0.34137151 159:0.53661633 160:0.79490173 161:0.87025517 162:0.30802125 163:0.58146197 164:0.93031394 165:0.90622514 166:0.39410031 167:0.51155341 168:0.74046868 169:0.81467283 170:0.36344671 171:0.54618138 172:0.87873846 173:0.85104328 174:0.53076231 175:0.90370202 176:0.96750659 177:0.054843489 178:0.63198507 179:1.0364739 180:1.0141691 181:0.4397417 182:0.49935696 183:0.5229407 184:0.21506608 185:0.57686692 186:0.54988652 187:0.11194548 188:0.8869763 189:0.29678643 190:0.18764831 191:0.12421911 192:0.95433164 193:0.36866018 194:0.20311031 195:0.10214452 196:0.61408424 197:1.0163507 198:0.9974612 199:0.40696082 200:0.39536348 201:0.11194526 #
-4.2241876116196793e-005 1:58.134445 2:33.656536 3:-0.42412019 4:-0.29118589 5:2.7733407 6:79.787827 7:70.701218 8:0.21628261 9:0.007390717 10:0.27733406 11:0.085543789 12:0.12143709 13:0.7165246 14:0.89661318 15:0.61716902 16:0.72372305 17:0.81180501 18:0.84993643 19:0.74431652 20:0.68517083 21:0.57282466 22:0.49153093 23:0.070607297 24:0.50689763 25:1.0397794 26:1.0817108 27:0.10068565 28:0.54964036 29:1.0496724 30:1.0626991 31:0.59746534 32:0.77866608 33:0.50297171 34:0.61025333 35:0.70407778 36:0.74478823 37:0.62915915 38:0.57848936 39:0.47068569 40:0.40400469 41:0.16978301 42:0.62389708 43:1.1562515 44:1.1976572 45:0.21314171 46:0.66727722 47:1.1645479 48:1.1752315 49:0.19330548 50:0.22162676 51:0.16493271 52:0.31714228 53:0.37252158 54:0.20506993 55:0.25118753 56:0.3413088 57:0.44764811 58:0.75798315 59:1.2051771 60:1.7273411 61:1.7626225 62:0.80342281 63:1.2454015 64:1.7225659 65:1.7217051 66:0.38195395 67:0.27698523 68:0.30579939 69:0.3406426 70:0.273247 71:0.32975224 72:0.43916887 73:0.54491347 74:0.94084573 75:1.3856375 76:1.9042795 77:1.9375609 78:0.98002392 79:1.4226093 80:1.8957108 81:1.891372 82:0.19674681 83:0.33187637 84:0.39788848 85:0.36093435 86:0.40384293 87:0.43945387 88:0.51271671 89:0.64180142 90:1.1035283 91:1.6274662 92:1.6679685 93:0.71274894 94:1.1472992 95:1.6270405 96:1.6324404 97:0.21969257 98:0.2856361 99:0.36415985 100:0.38368639 101:0.4596321 102:0.55043453 103:0.75512755 104:1.1982589 105:1.711439 106:1.7452043 107:0.81601107 108:1.2332807 109:1.6953058 110:1.6920885 111:0.070327148 112:0.47085378 113:0.46537966 114:0.60003722 115:0.71040595 116:0.84180623 117:1.2790663 118:1.7831128 119:1.8142987 120:0.90351295 121:1.3123399 122:1.764688 123:1.7579941 124:0.51063722 125:0.49749392 126:0.64502937 127:0.75973213 128:0.87924957 129:1.312041 130:1.8125732 131:1.8424286 132:0.94124389 133:1.3448534 134:1.7927551 135:1.7846028 136:0.18535359 137:0.29589775 138:0.40899664 139:0.79416311 140:1.233093 141:1.757677 142:1.7956005 143:0.82061797 144:1.2796017 145:1.7688625 146:1.7714944 147:0.22161886 148:0.35843232 149:0.73741114 150:1.1528716 151:1.6670654 152:1.6984738 153:0.75537169 154:1.1912183 155:1.6645099 156:1.6606196 157:0.13749096 158:0.62887961 159:1.0476031 160:1.5655172 161:1.5987632 162:0.63934714 163:1.0850579 164:1.5654846 165:1.5645366 166:0.55017108 167:0.9627431 168:1.4831467 169:1.5185089 170:0.54939491 171:0.99963379 172:1.4852941 173:1.4876572 174:0.47027758 175:1.0025722 176:1.0462625 177:0.1254981 178:0.51885337 179:1.0154331 180:1.0312291 181:0.53538901 182:0.58112305 183:0.43742353 184:0.12220129 185:0.57988501 186:0.60926986 187:0.081594832 188:0.96689516 189:0.52487898 190:0.2098832 191:0.26774868 192:1.0090699 193:0.56130207 194:0.19015849 195:0.22825965 196:0.4722583 197:0.97572899 198:0.98963374 199:0.50596148 200:0.52800202 201:0.081480235 #
4.5491435301822327e-005 1:118.82796 2:30.21312 3:-0.50628233 4:-0.55731553 5:1.4271181 6:120.93433 7:9.0820332 8:0.1465251 9:-0.03398582 10:1.2368356 11:0.3014558 12:0.094452344 13:0.56110322 14:0.78041822 15:0.44755268 16:0.2972942 17:0.3164373 18:0.36764222 19:0.41911992 20:0.26906633 21:0.35898134 22:0.41798627 23:0.065046877 24:0.58101422 25:0.91564107 26:0.96926934 27:0.052667756 28:0.59996372 29:0.94689637 30:0.99337989 31:0.46850625 32:0.68795073 33:0.36502403 34:0.25395465 35:0.34082231 36:0.40074176 37:0.33322665 38:0.24257573 39:0.40497807 40:0.47103208 41:0.15129767 42:0.66866362 43:1.0064671 44:1.06059 45:0.12995708 46:0.69022918 47:1.0361663 48:1.0831585 49:0.22168319 50:0.21043929 51:0.45188528 52:0.66828126 53:0.73814523 54:0.20649622 55:0.50594813 56:0.78023505 57:0.8538174 58:0.61262584 59:1.1282301 60:1.4696516 61:1.5237485 62:0.59223282 63:1.1504353 64:1.4910347 65:1.5398932 66:0.39094076 67:0.64831889 68:0.87020111 69:0.93927926 70:0.40580976 71:0.71274197 72:0.99037457 73:1.06372 74:0.83104122 75:1.3445597 76:1.6870759 77:1.7414017 78:0.81149292 79:1.3670824 80:1.70314 81:1.7529451 82:0.30883008 83:0.5162189 84:0.59024578 85:0.26310739 86:0.47128358 87:0.7113598 88:0.7801888 89:0.48412436 90:0.98923498 91:1.3339468 92:1.3848153 93:0.49067742 94:1.0177521 95:1.3633252 96:1.4098303 97:0.28268534 98:0.36329728 99:0.38328734 100:0.3815828 101:0.55400568 102:0.61348015 103:0.312475 104:0.76998079 105:1.1064416 106:1.151731 107:0.33820385 108:0.80367815 109:1.1480849 110:1.1880893 111:0.087046936 112:0.58563465 113:0.47702634 114:0.48005331 115:0.51447988 116:0.29023734 117:0.60350567 118:0.94438231 119:0.98103404 120:0.33798254 121:0.6407907 122:0.98814851 123:1.0143883 124:0.6506111 125:0.5261299 126:0.48819789 127:0.50363219 128:0.33756196 129:0.57094872 130:0.90691215 131:0.93941551 132:0.38093543 133:0.60777354 134:0.95237482 135:0.97285664 136:0.31746545 137:0.60458446 138:0.68014258 139:0.4783133 140:0.98793 141:1.3191177 142:1.3739709 143:0.43850586 144:1.0013795 145:1.3371487 146:1.3861084 147:0.2936132 148:0.36984044 149:0.32087189 150:0.75179273 151:1.0538965 152:1.1111077 153:0.25419506 154:0.75459975 155:1.0897378 156:1.1383778 157:0.078342527 158:0.36537948 159:0.56751484 160:0.81956547 161:0.87819797 162:0.322799 163:0.56481051 164:0.89132077 165:0.9369294 166:0.4159824 167:0.53909278 168:0.76758623 169:0.82636535 170:0.38171721 171:0.53200656 172:0.85026753 173:0.89466083 174:0.53103912 175:0.8675729 176:0.91986358 177:0.088768281 178:0.55211574 179:0.90271604 180:0.94764143 181:0.39820659 182:0.44158587 183:0.55906409 184:0.23043564 185:0.46210715 186:0.49507934 187:0.096348114 188:0.88893783 189:0.39464316 190:0.34295896 191:0.350777 192:0.94344437 193:0.44469005 194:0.36197382 195:0.35933512 196:0.57595426 197:0.91844583 198:0.96570134 199:0.40876848 200:0.44368252 201:0.10508543 #
-4.5491435301822327e-005 1:144.97826 2:55.701328 3:-0.3784906 4:-0.5214653 5:0.85185272 6:111.29021 7:26.828659 8:0.064147368 9:-0.072801203 10:0.19876564 11:0.034723043 12:0.084244385 13:0.51736969 14:0.82298958 15:0.46397996 16:0.18512027 17:0.33109367 18:0.47729337 19:0.45750108 20:0.22665432 21:0.2411069 22:0.31751791 23:0.055508345 24:0.54081392 25:0.84253073 26:0.88387769 27:0.021818303 28:0.49802881 29:0.82701403 30:0.8912065 31:0.43319282 32:0.73907554 33:0.38974321 34:0.11004881 35:0.30884022 36:0.4707655 37:0.37696418 38:0.18359159 39:0.29100576 40:0.37871787 41:0.13677204 42:0.62114823 43:0.92426282 44:0.96671355 45:0.093193218 46:0.57815135 47:0.91017991 48:0.97465956 49:0.30780676 50:0.20806529 51:0.34821588 52:0.50576431 53:0.65511459 54:0.16060202 55:0.41485023 56:0.6718058 57:0.76999635 58:0.56815249 59:1.0418179 60:1.3479328 61:1.3935071 62:0.52489108 63:0.99990451 64:1.3385837 65:1.4037292 66:0.42574951 67:0.64940292 68:0.78033251 69:0.90780413 70:0.42226559 71:0.71212435 72:0.97175771 73:1.0694114 74:0.87249285 75:1.3414611 76:1.64917 77:1.6942099 78:0.83134478 79:1.2978109 80:1.6411315 81:1.7054064 82:0.31200492 83:0.5730902 84:0.74209189 85:0.32400638 86:0.45932564 87:0.66641295 88:0.75594634 89:0.50531864 90:0.94240737 91:1.2511302 92:1.2923199 93:0.47724763 94:0.91418844 95:1.2454852 96:1.3079152 97:0.30288669 98:0.47533342 99:0.3067534 100:0.19463618 101:0.35604432 102:0.44670323 103:0.22986226 104:0.71529973 105:1.0216616 106:1.0587986 107:0.19739307 108:0.65382326 109:1.0051899 110:1.0659541 111:0.17333843 112:0.37651762 113:0.16266051 114:0.26254565 115:0.34792444 116:0.35860249 117:0.78775632 118:1.0606569 119:1.0947006 120:0.32549888 121:0.68261492 122:1.0313208 123:1.0878997 124:0.514148 125:0.32133415 126:0.32907224 127:0.37989193 128:0.49479103 129:0.85885918 130:1.1016178 131:1.1319987 132:0.4685449 133:0.73638207 134:1.0663576 135:1.1180574 136:0.29850459 137:0.56878674 138:0.66855967 139:0.51040584 140:0.99028313 141:1.289098 142:1.3364059 143:0.46009895 144:0.94068229 145:1.276274 146:1.3422145 147:0.27423659 148:0.37443084 149:0.27161792 150:0.7325213 151:1.0197526 152:1.0640491 153:0.22086556 154:0.67212945 155:1.0013481 156:1.0655968 157:0.10059942 158:0.2283594 159:0.53993934 160:0.80368191 161:0.83485895 162:0.23068987 163:0.43946898 164:0.77266049 165:0.82770896 166:0.29096356 167:0.49519193 168:0.7375657 169:0.76203293 170:0.30805621 171:0.37493435 172:0.70123976 173:0.75097048 174:0.49275619 175:0.79561228 176:0.83393264 177:0.061733726 178:0.44433215 179:0.77774662 180:0.84041655 181:0.33937481 182:0.37427589 183:0.53651434 184:0.2667588 185:0.30888224 186:0.37759799 187:0.11989659 188:0.83600605 189:0.47274077 190:0.11022855 191:0.17106983 192:0.87898141 193:0.46465746 194:0.12625879 195:0.088933706 196:0.49763432 197:0.82093084 198:0.8860389 199:0.42530686 200:0.46047419 201:0.1073029 #
4.5491435301822327e-005 1:78.545074 2:66.1931 3:-0.50701612 4:-0.56103891 5:0.11995446 6:70.399734 7:47.695873 8:0.1198418 9:0.002005259 10:0.023990892 11:0.64003336 12:0.1240486 13:0.66204792 14:0.87621886 15:0.45166561 16:0.28298867 17:0.3338244 18:0.38519827 19:0.51252598 20:0.30324408 21:0.31780547 22:0.36185098 23:0.03529948 24:0.55850613 25:0.96456087 26:1.0038372 27:0.032263681 28:0.54134655 29:0.89787889 30:0.95801353 31:0.55641222 32:0.77047515 33:0.37053755 34:0.26330277 35:0.33057427 36:0.38253203 37:0.42663762 38:0.30280074 39:0.31592703 40:0.36114177 41:0.15138084 42:0.66841441 43:1.0726815 44:1.1137044 45:0.14372122 46:0.63688922 47:0.99660879 48:1.0562506 49:0.21486825 50:0.29787368 51:0.54979867 52:0.66413802 53:0.70368022 54:0.25581607 55:0.59236848 56:0.66568029 57:0.69754243 58:0.68634427 59:1.2074628 60:1.6036339 61:1.6483384 62:0.68420774 63:1.1741475 64:1.5316365 65:1.5811728 66:0.48843196 67:0.75127816 68:0.8620041 69:0.89658868 70:0.43459725 71:0.78865767 72:0.86535102 73:0.89331263 74:0.90036827 75:1.418237 76:1.8109857 77:1.8565181 78:0.89825648 79:1.3857716 80:1.7423524 81:1.7896247 82:0.28569001 83:0.47623029 84:0.54157805 85:0.084950514 86:0.30403474 87:0.46807683 88:0.52455199 89:0.46714079 90:0.97706991 91:1.3711396 92:1.4163679 93:0.47843045 94:0.98418909 95:1.335107 96:1.3903574 97:0.25323468 98:0.33500433 99:0.33136469 100:0.1205439 101:0.23536882 102:0.310063 103:0.28967491 104:0.76905388 105:1.1667106 106:1.2043877 107:0.30164236 108:0.75656742 109:1.0888673 110:1.1425395 111:0.083938338 112:0.50100255 113:0.35899749 114:0.037954662 115:0.061968926 116:0.34591976 117:0.77529836 118:1.1730036 119:1.1984843 120:0.3310135 121:0.64848292 122:0.96176261 123:1.0055932 124:0.56079787 125:0.44215918 126:0.10545259 127:0.033786424 128:0.39876634 129:0.80356592 130:1.1967632 131:1.2182356 132:0.37764919 133:0.63872123 134:0.94123125 135:0.98034501 136:0.3588959 137:0.49487388 138:0.54723936 139:0.53122753 140:1.0435728 141:1.4390066 142:1.4828733 143:0.53673404 144:1.0388638 145:1.3877653 146:1.4393463 147:0.33907917 148:0.41560572 149:0.30151302 150:0.73607409 151:1.1222708 152:1.1646934 153:0.32528901 154:0.78105044 155:1.1087936 156:1.1661456 157:0.082493432 158:0.32881752 159:0.75717801 160:1.1549886 161:1.1813004 162:0.31514847 163:0.64096504 164:0.95541865 165:0.99993962 166:0.37479553 167:0.78393835 168:1.1782418 169:1.200601 170:0.3549138 171:0.62948638 172:0.93569463 173:0.97655118 174:0.53357464 175:0.93936533 176:0.97940606 177:0.048421275 178:0.52967864 179:0.88403809 180:0.94609201 181:0.40864781 182:0.449384 183:0.54187959 184:0.36344317 185:0.55894059 186:0.63166636 187:0.085090123 188:0.9484421 189:0.65703249 190:0.62314427 191:0.68146217 192:0.98606759 193:0.66236776 194:0.58882922 195:0.6428771 196:0.51337725 197:0.86997175 198:0.92895848 199:0.36498418 200:0.43278846 201:0.10795988 #
-1.2761163901097867e-005 1:84.882835 2:5.6203599 3:-0.0638768 4:-0.41379479 5:0.42891976 6:112.42423 7:25.778696 8:0.192752 9:-0.075599223 10:0.9007315 11:0.34888104 12:0.091466933 13:0.48242831 14:0.66059798 15:0.36713147 16:0.29990944 17:0.4052726 18:0.4653061 19:0.39102668 20:0.3149828 21:0.43257296 22:0.49803627 23:0.098709553 24:0.57418019 25:0.94957989 26:1.0100341 27:0.10643721 28:0.59580243 29:0.9672153 30:1.0201658 31:0.40555403 32:0.59143716 33:0.29490879 34:0.27552724 35:0.43908101 36:0.50522685 37:0.3226935 38:0.29464656 39:0.45754269 40:0.52641022 41:0.16863738 42:0.65661764 43:1.0316203 44:1.0935988 45:0.17978366 46:0.66441894 47:1.033605 48:1.0890045 49:0.20339404 50:0.20211057 51:0.47885782 52:0.72674662 53:0.79961514 54:0.20377968 55:0.45128822 56:0.64052504 57:0.70496929 58:0.55185121 59:1.0423287 60:1.4063417 61:1.4620335 62:0.56525582 63:1.0650496 64:1.434413 65:1.4898939 66:0.3850441 67:0.65684497 68:0.88917273 69:0.9585309 70:0.33150682 71:0.56269306 72:0.71682179 73:0.77093518 74:0.73297429 75:1.2115414 76:1.5668298 77:1.6163502 78:0.73606211 79:1.2439882 80:1.6173115 81:1.6692469 82:0.29118842 83:0.55824357 84:0.63549799 85:0.2967225 86:0.45448768 87:0.62284857 88:0.68606043 89:0.40958706 90:0.90517217 91:1.2721933 92:1.3319309 93:0.46787575 94:0.942985 95:1.3035175 96:1.3628439 97:0.28643841 98:0.36657745 99:0.50188619 100:0.51451868 101:0.61347181 102:0.6666913 103:0.2710993 104:0.70749664 105:1.0680293 106:1.1317823 107:0.39179993 108:0.76294243 109:1.1025729 110:1.1643249 111:0.082533285 112:0.70874852 113:0.62271523 114:0.62152469 115:0.65305436 116:0.33388659 117:0.5491783 118:0.88520128 119:0.94638258 120:0.44123256 121:0.63309783 122:0.94290787 123:0.9991411 124:0.77445579 125:0.6705724 126:0.64503294 127:0.66895938 128:0.39412636 129:0.52357119 130:0.84501028 131:0.90578294 132:0.48707241 133:0.60950029 134:0.90338951 135:0.95773494 136:0.28549552 137:0.50852859 138:0.57873201 139:0.4813391 140:0.94670671 141:1.3101765 142:1.3649473 143:0.44364288 144:0.94057846 145:1.3127425 146:1.3632171 147:0.26085594 148:0.33581331 149:0.40120885 150:0.79453391 151:1.1546926 152:1.209416 153:0.30437824 154:0.76089853 155:1.1296824 156:1.1745874 157:0.08001475 158:0.47654489 159:0.72727519 160:1.0716015 161:1.1241044 162:0.37874597 163:0.684165 164:1.0479019 165:1.0856801 166:0.53402144 167:0.73471922 168:1.0679685 169:1.1195632 170:0.44407877 171:0.68481183 172:1.0420876 173:1.0769235 174:0.50997829 175:0.88713688 176:0.94948554 177:0.14842027 178:0.55049551 179:0.91290307 180:0.96831226 181:0.3849816 182:0.45153698 183:0.51774865 184:0.27802494 185:0.51554406 186:0.55982643 187:0.098787993 188:0.89046395 189:0.53904712 190:0.44825327 191:0.45928806 192:0.9503032 193:0.6085397 194:0.50098985 195:0.49490905 196:0.51727957 197:0.89195895 198:0.94112736 199:0.38278541 200:0.43266934 201:0.086789683 #
4.5491435301822327e-005 1:127.26476 2:32.709564 3:-0.57499778 4:-0.46428031 5:1.2072417 6:122.0312 7:25.891563 8:0.1680679 9:-0.0096876677 10:1.4889313 11:0.25520629 12:0.10292982 13:0.6220836 14:0.84783083 15:0.44626355 16:0.27966624 17:0.36116222 18:0.41319501 19:0.48975623 20:0.29687327 21:0.35230148 22:0.39799377 23:0.040037669 24:0.5841862 25:0.98352706 26:1.0176897 27:0.047694888 28:0.57449788 29:0.91080153 30:0.96396023 31:0.51922888 32:0.74521267 33:0.3500945 34:0.24635641 35:0.39858934 36:0.45919704 37:0.39740524 38:0.25912338 39:0.37768301 40:0.4351401 41:0.12997946 42:0.68357134 43:1.0821495 44:1.1173196 45:0.14285961 46:0.67254722 47:1.0102239 48:1.0633235 49:0.2292349 50:0.25378838 51:0.54851586 52:0.78963566 53:0.85494494 54:0.2485469 55:0.53348601 56:0.7371068 57:0.80833721 58:0.64622653 59:1.193174 60:1.5866386 61:1.6250653 62:0.65924388 63:1.1780674 64:1.5172932 65:1.5699416 66:0.46217725 67:0.76583326 68:1.0049481 69:1.0685004 70:0.42682746 71:0.73157346 72:0.9314959 73:1.0019975 74:0.87252855 75:1.4170913 76:1.8091073 77:1.8474797 78:0.88409024 79:1.3994738 80:1.7401348 81:1.7920007 82:0.32500404 83:0.59125733 84:0.66510755 85:0.32714137 86:0.46621281 87:0.64121157 88:0.7108584 89:0.4628714 90:1.0101225 91:1.4033716 92:1.4408598 93:0.48731017 94:1.0118134 95:1.3418994 96:1.3954065 97:0.28220224 98:0.36032164 99:0.51093763 100:0.43200356 101:0.5471127 102:0.60457087 103:0.28267288 104:0.77344245 105:1.1631083 106:1.1978518 107:0.30783325 108:0.76453316 109:1.0761906 110:1.1258982 111:0.083891228 112:0.71154833 113:0.55025756 114:0.57063222 115:0.59070355 116:0.3513779 117:0.64069879 118:1.0129023 119:1.044325 120:0.35820246 121:0.59976989 122:0.87664038 123:0.9184646 124:0.76775789 125:0.59261078 126:0.60646546 127:0.60950917 128:0.40283263 129:0.61947858 130:0.98156923 131:1.0120491 132:0.40420359 133:0.56558114 134:0.8298797 135:0.86793023 136:0.33948502 137:0.56070346 138:0.63104963 139:0.51949006 140:1.0367346 141:1.4254526 142:1.4632001 143:0.51852852 144:1.0097104 145:1.3473835 146:1.3995869 147:0.29988572 148:0.36044672 149:0.33153763 150:0.77934813 151:1.1586957 152:1.1867465 153:0.29911712 154:0.72014731 155:1.067109 156:1.1139873 157:0.083544493 158:0.36877275 159:0.64388245 160:0.98506528 161:1.0096965 162:0.33309737 163:0.61795878 164:0.95895308 165:1.0059726 166:0.41028929 167:0.61104316 168:0.93854558 169:0.9593448 170:0.37369573 171:0.58078903 172:0.91728795 173:0.96182185 174:0.56054658 175:0.96102864 176:0.99630535 177:0.064246252 178:0.56028807 179:0.88980454 180:0.94455558 181:0.43239754 182:0.47079226 183:0.55249363 184:0.28447652 185:0.41478303 186:0.47868407 187:0.10434672 188:0.95049101 189:0.54205436 190:0.41396883 191:0.43064681 192:0.98273271 193:0.55748039 194:0.42164871 195:0.42696005 196:0.53522474 197:0.87583357 198:0.92737073 199:0.39954281 200:0.43447745 201:0.10302322 #
