SVM-light Version V6.02
0 # kernel type
3 # kernel parameter -d 
1 # kernel parameter -g 
1 # kernel parameter -s 
1 # kernel parameter -r 
empty# kernel parameter -u 
201 # highest feature index 
235 # number of training documents 
142 # number of support vectors plus 1 
0.98361073 # threshold b, each following line is a SV (starting with alpha*y)
-4.5491435301822327e-005 1:108.38143 2:39.488037 3:-0.58799392 4:-0.20984709 5:1.1533196 6:88.352074 7:26.979515 8:0.2104256 9:0.01646189 10:1.3839835 11:0.14044164 12:0.10096797 13:0.61201352 14:0.82687527 15:0.44646886 16:0.27540419 17:0.31595176 18:0.37037414 19:0.55533677 20:0.3389222 21:0.33774802 22:0.40009776 23:0.055161558 24:0.55941021 25:0.95444691 26:1.0096643 27:0.060696397 28:0.57742202 29:0.93103963 30:1.0065737 31:0.51111251 32:0.72614336 33:0.35211465 34:0.23582117 35:0.3581818 36:0.42302817 37:0.46309677 38:0.27579376 39:0.35858402 40:0.4350518 41:0.14155275 42:0.6579628 43:1.0515318 44:1.1071023 45:0.15097989 46:0.67403811 47:1.0283242 48:1.1033834 49:0.21684082 50:0.24724282 51:0.52054149 52:0.76595157 53:0.8391543 54:0.21134822 55:0.43536749 56:0.70750272 57:0.79541409 58:0.6476686 59:1.1628668 60:1.5498446 61:1.6062047 62:0.65703255 63:1.1721317 64:1.5266769 65:1.5996865 66:0.4421975 67:0.72616857 68:0.97305435 69:1.0452565 70:0.35170075 71:0.6212334 72:0.8958534 73:0.98158514 74:0.86277544 75:1.3760695 76:1.7606938 77:1.8170408 78:0.87093896 79:1.3825704 80:1.7380788 81:1.8102671 82:0.29680482 83:0.56229687 84:0.64142561 85:0.35842082 86:0.41192555 87:0.64038873 88:0.72535241 89:0.47315568 90:0.9864741 91:1.3732412 92:1.4313306 93:0.49614215 94:1.0171899 95:1.3608375 96:1.436622 97:0.27705416 98:0.35972598 99:0.55608541 100:0.44413823 101:0.55367672 102:0.62545228 103:0.28386843 104:0.75259048 105:1.1369981 106:1.1944345 107:0.31462196 108:0.78743458 109:1.1125997 110:1.1883538 111:0.086018912 112:0.75445104 113:0.57370859 114:0.55208665 115:0.59235334 116:0.30301395 117:0.58470541 118:0.95757037 119:1.0104306 120:0.31211606 121:0.59579283 122:0.89237398 123:0.96163994 124:0.81757647 125:0.6265983 126:0.58111632 127:0.61120456 128:0.35532159 129:0.5562591 130:0.91927397 131:0.97012746 132:0.35753313 133:0.55512756 134:0.83513445 135:0.90103531 136:0.3002848 137:0.57153898 138:0.65787095 139:0.59697837 140:1.0886534 141:1.4730084 142:1.525304 143:0.59095234 144:1.0704656 145:1.4315306 146:1.4996146 147:0.29285491 148:0.3833493 149:0.38766542 150:0.83105212 151:1.2136704 152:1.2609891 153:0.35448992 154:0.80649287 155:1.1730366 156:1.2384437 157:0.094722241 158:0.37276968 159:0.6288479 160:0.99460185 161:1.0299561 162:0.3052966 163:0.59045011 164:0.96363711 165:1.021945 166:0.42776072 167:0.59503818 168:0.946428 169:0.97567427 170:0.35974082 171:0.54581243 172:0.9153598 173:0.97033006 174:0.52951294 175:0.92157072 176:0.97891879 177:0.086414531 178:0.55534774 179:0.89974833 180:0.97759503 181:0.41095534 182:0.4586063 183:0.51761246 184:0.23567876 185:0.49018335 186:0.56485784 187:0.096526839 188:0.9151147 189:0.50395167 190:0.42530304 191:0.46716368 192:0.96764058 193:0.54364252 194:0.44536632 195:0.47398964 196:0.53073633 197:0.89048767 198:0.96400028 199:0.4029302 200:0.46681342 201:0.11154508 #
4.5491435301822327e-005 1:81.792274 2:3.8847544 3:-0.56428862 4:-0.65203178 5:1.0008037 6:115.58486 7:32.090611 8:0.1063406 9:-0.015824391 10:0.53376192 11:0.27392429 12:0.095446959 13:0.57758313 14:0.79779613 15:0.46242741 16:0.28077698 17:0.25207636 18:0.29398039 19:0.50282568 20:0.29756185 21:0.34576726 22:0.38880983 23:0.062207043 24:0.52960551 25:0.83797848 26:0.90969718 27:0.076217666 28:0.49842381 29:0.88438684 30:0.94326091 31:0.48219711 32:0.70260829 33:0.37086087 34:0.224746 35:0.1952188 36:0.24724606 37:0.41441038 38:0.23501523 39:0.35540971 40:0.41482535 41:0.14214088 42:0.61997753 43:0.9304567 44:0.99988043 45:0.16069275 46:0.59021932 47:0.97625798 48:1.0359598 49:0.22653966 50:0.18516886 51:0.43819892 52:0.43837419 53:0.46387297 54:0.18787487 55:0.40083686 56:0.65058607 57:0.73285496 58:0.61709708 59:1.0880382 60:1.4040626 61:1.4664505 62:0.63648552 63:1.0617249 64:1.4452564 65:1.5070313 66:0.38234556 67:0.6449331 68:0.63136846 69:0.64334476 70:0.35920182 71:0.59917569 72:0.84693903 73:0.9265241 74:0.83882684 75:1.306639 76:1.6149979 77:1.6719196 78:0.85361969 79:1.2808589 80:1.6691619 81:1.7293428 82:0.26630974 83:0.33912233 84:0.39336088 85:0.28745136 86:0.34437579 87:0.61531407 88:0.69299001 89:0.4929668 90:0.97981298 91:1.2891475 92:1.3558455 93:0.52689725 94:0.95422554 95:1.3261172 96:1.3926246 97:0.2499122 98:0.33370203 99:0.46273732 100:0.33266938 101:0.55046278 102:0.60985214 103:0.29109946 104:0.77064788 105:1.0618836 106:1.1331686 107:0.34274381 108:0.7451207 109:1.1000818 110:1.169048 111:0.084725842 112:0.40281957 113:0.21637449 114:0.46316487 115:0.51479876 116:0.29997501 117:0.73746026 118:1.0017129 119:1.0544045 120:0.28071409 121:0.7108652 122:1.1099315 123:1.1621094 124:0.40864992 125:0.20753235 126:0.45359042 127:0.50086331 128:0.34659895 129:0.74686754 130:0.99805552 131:1.0437193 132:0.30744657 133:0.72097754 134:1.1279074 135:1.1739719 136:0.32441974 137:0.50825 138:0.59270597 139:0.54857236 140:0.98339182 141:1.3050786 142:1.3662117 143:0.55265993 144:0.95468503 145:1.3445984 146:1.3999252 147:0.31693277 148:0.38351622 149:0.3366724 150:0.74400657 151:1.0513135 152:1.1103705 153:0.33833832 154:0.74668163 155:1.1163713 156:1.1688226 157:0.10532179 158:0.36588731 159:0.57680744 160:0.90311807 161:0.96893167 162:0.34379771 163:0.5786469 164:0.92402714 165:0.96598738 166:0.40188116 167:0.53948486 168:0.85192049 169:0.91468501 170:0.37414962 171:0.55171359 172:0.87998229 173:0.91661209 174:0.49841908 175:0.81321204 176:0.88922673 177:0.10202119 178:0.47185472 179:0.84384489 180:0.90649194 181:0.42991224 182:0.51299042 183:0.48021767 184:0.18107776 185:0.40403971 186:0.449231 187:0.11951578 188:0.77429223 189:0.42288363 190:0.40172741 191:0.37484404 192:0.84349161 193:0.51364017 194:0.5019362 195:0.45976582 196:0.44267508 197:0.8401655 198:0.8940202 199:0.43504065 200:0.47842357 201:0.11729527 #
-1.2886094546368113e-005 1:85.546143 2:9.1338224 3:-0.33843511 4:-0.34658691 5:0.499928 6:143.48643 7:39.153988 8:0.20607521 9:0.029679891 10:0.83321333 11:0.28692406 12:0.091206446 13:0.52263439 14:0.75739002 15:0.42580065 16:0.44234383 17:0.55910838 18:0.61894298 19:0.46007198 20:0.39458472 21:0.52634692 22:0.58621907 23:0.10974567 24:0.61347294 25:0.99897707 26:1.0584939 27:0.12470839 28:0.65393156 29:1.001092 30:1.0509207 31:0.4375985 32:0.67436934 33:0.34780702 34:0.40012148 35:0.54527146 36:0.61057478 37:0.38958716 38:0.35006458 39:0.52541715 40:0.5936867 41:0.18192622 42:0.69640321 43:1.0794972 44:1.1410859 45:0.20440911 46:0.73764706 47:1.0843006 48:1.1347606 49:0.24818794 50:0.22923832 51:0.37311178 52:0.53860116 53:0.6050595 54:0.24214348 55:0.38381028 56:0.57804042 57:0.65602434 58:0.60370511 59:1.1187829 60:1.4978029 61:1.5570143 62:0.62685996 63:1.1580282 64:1.5011607 65:1.5457116 66:0.43853599 67:0.53332633 68:0.62495935 69:0.67399633 70:0.38430429 71:0.51456404 72:0.64163983 73:0.71322119 74:0.84176505 75:1.3491867 76:1.7277681 77:1.783964 78:0.85348642 79:1.3838586 80:1.7276858 81:1.7676148 82:0.2944546 83:0.52689886 84:0.60735255 85:0.38561597 86:0.42858541 87:0.61692989 88:0.68758672 89:0.47551981 90:0.98883867 91:1.3648295 92:1.4275503 93:0.54524136 94:1.0564219 95:1.3890109 96:1.4385568 97:0.25938728 98:0.34602931 99:0.47289488 100:0.52342767 101:0.71118003 102:0.769894 103:0.4639143 104:0.92861533 105:1.3082399 106:1.3571404 107:0.5417369 108:1.0272068 109:1.3560036 110:1.3979392 111:0.089129567 112:0.5849126 113:0.65791118 114:0.83507365 115:0.88672328 116:0.56369978 117:0.94731921 118:1.3244244 119:1.3616407 120:0.61808532 121:1.0547251 122:1.3769017 123:1.413947 124:0.63752067 125:0.71712691 126:0.88942516 127:0.93864691 128:0.62209779 129:0.95989645 130:1.3333944 131:1.3669275 132:0.66341776 133:1.069747 134:1.3871975 135:1.4230229 136:0.28814462 137:0.49784285 138:0.5752399 139:0.56067836 140:1.0462667 141:1.4222739 142:1.4772117 143:0.52313638 144:1.0365944 145:1.3840925 146:1.4242673 147:0.28249466 148:0.36522698 149:0.49621421 150:0.95383877 151:1.3351849 152:1.3870866 153:0.43343872 154:0.94418591 155:1.291666 156:1.3259093 157:0.094580233 158:0.59668726 159:0.96320713 160:1.3425357 161:1.3887069 162:0.50514185 163:0.93787962 164:1.2787522 165:1.3017642 166:0.64103466 167:0.95430505 168:1.329572 169:1.3726661 170:0.55565232 171:0.92061186 172:1.2554249 173:1.2738843 174:0.53408784 175:0.91817069 176:0.97949475 177:0.15936475 178:0.59977818 179:0.93761545 180:0.98921293 181:0.40176362 182:0.4582369 183:0.54883587 184:0.34993693 185:0.56655014 186:0.60971463 187:0.11332147 188:0.93021512 189:0.56248039 190:0.51092052 191:0.53020215 192:0.98702824 193:0.60590696 194:0.52399033 195:0.53020287 196:0.55748373 197:0.90906465 198:0.95702404 199:0.36659673 200:0.41630575 201:0.11565201 #
4.5491435301822327e-005 1:104.17623 2:97.663994 3:-0.66414839 4:-0.60051131 5:0.55618012 6:88.577362 7:82.020706 8:0.088411182 9:-0.068752602 10:0.037078675 11:0.10072505 12:0.086111419 13:0.51834863 14:0.68065274 15:0.39090815 16:0.3049176 17:0.21085782 18:0.24360731 19:0.41772982 20:0.20825419 21:0.2570852 22:0.32163319 23:0.10002055 24:0.57429481 25:0.94217217 26:0.9809525 27:0.10195495 28:0.57188803 29:0.95370018 30:0.9511708 31:0.4322916 32:0.59639668 33:0.3099598 34:0.2718353 35:0.21840237 36:0.25952187 37:0.33909664 38:0.17521784 39:0.31546247 40:0.38674775 41:0.1705762 42:0.6594466 43:1.0271599 44:1.0664388 45:0.17626734 46:0.6526227 47:1.0365778 48:1.0361391 49:0.19559747 50:0.1982252 51:0.45845687 52:0.54204208 53:0.58028239 54:0.18839175 55:0.43071216 56:0.69603366 57:0.773094 58:0.59270871 59:1.0898509 60:1.456057 61:1.4971638 62:0.59737313 63:1.0692732 64:1.4580408 65:1.4647576 66:0.3731434 67:0.63273656 68:0.68140423 69:0.70582128 70:0.31586018 71:0.57791305 72:0.84683526 73:0.92394865 74:0.75717151 75:1.2414333 76:1.6199129 77:1.6538099 78:0.75339848 79:1.2400199 80:1.6302741 81:1.6308367 82:0.26239479 83:0.38734406 84:0.44068411 85:0.27034426 86:0.38431785 87:0.61240029 88:0.68628001 89:0.44301623 90:0.94738472 91:1.3096597 92:1.3511443 93:0.48588982 94:0.93803543 95:1.3139631 96:1.3191596 97:0.26823789 98:0.34204653 99:0.47384807 100:0.42803541 101:0.54649973 102:0.60474753 103:0.29449841 104:0.76408666 105:1.1062996 106:1.1499649 107:0.40074271 108:0.76479793 109:1.1116287 110:1.1162633 111:0.074775822 112:0.49917772 113:0.37648508 114:0.44108304 115:0.49314836 116:0.18603338 117:0.60547191 118:0.99390936 119:1.0154715 120:0.28038967 121:0.68693292 122:1.0324495 123:1.0125008 124:0.52785242 125:0.39704379 126:0.44496113 127:0.49276 128:0.2220995 129:0.58569682 130:0.9830482 131:0.99705458 132:0.29275331 133:0.69290215 134:1.0320823 135:1.0046326 136:0.27325904 137:0.54413766 138:0.6210987 139:0.50959283 140:0.97980988 141:1.3415152 142:1.3831633 143:0.47406593 144:0.94525725 145:1.3408697 146:1.3479683 147:0.27124801 148:0.34925371 149:0.30705076 150:0.72413164 151:1.0770801 152:1.1197424 153:0.22234857 154:0.68072236 155:1.0767181 156:1.0821223 157:0.085937887 158:0.2913973 159:0.49995929 160:0.82553738 161:0.87084287 162:0.16600937 163:0.43080738 164:0.82257724 165:0.8270458 166:0.33896512 167:0.45253339 168:0.75962377 169:0.80638868 170:0.22633141 171:0.36962897 172:0.75663537 173:0.76129985 174:0.50583977 175:0.87402147 176:0.91136438 177:0.1405926 178:0.52374846 179:0.89065534 180:0.88473576 181:0.40849158 182:0.41867408 183:0.5086059 184:0.29482743 185:0.48506269 186:0.43288413 187:0.11737009 188:0.87306619 189:0.43355015 190:0.1670156 191:0.076676264 192:0.9117415 193:0.50919271 194:0.28038806 195:0.1635161 196:0.49830684 197:0.88450772 198:0.88075346 199:0.39747834 200:0.42060602 201:0.11736982 #
-4.5491435301822327e-005 1:108.31303 2:97.851067 3:-0.41616881 4:-0.31682679 5:0.33203402 6:79.438103 7:70.396484 8:0.1509473 9:-0.037950002 10:0.066406801 11:0.22592986 12:0.083393008 13:0.50369614 14:0.71296436 15:0.41936591 16:0.26642594 17:0.29609749 18:0.35399526 19:0.39504606 20:0.14574571 21:0.38821507 22:0.42874268 23:0.067834161 24:0.44756162 25:0.62404323 26:0.68170738 27:0.096122235 28:0.51418942 29:0.90539277 30:0.93793154 31:0.42038667 32:0.63115215 33:0.34202257 34:0.23219123 35:0.33974203 36:0.40928897 37:0.31846133 38:0.13232902 39:0.36564732 40:0.40860417 41:0.12570485 42:0.50526595 43:0.70607406 44:0.76239032 45:0.17196462 46:0.59615558 47:0.98647511 48:1.0200706 49:0.23319551 50:0.19569722 51:0.42596632 52:0.69187742 53:0.77691305 54:0.18193932 55:0.45515013 56:0.49214935 57:0.52231497 58:0.53459316 59:0.86431664 60:1.1237881 61:1.1766051 62:0.58536708 63:1.0115654 64:1.3997492 65:1.4372264 66:0.398927 67:0.63591057 68:0.89654434 69:0.98220718 70:0.34548309 71:0.64338422 72:0.60613322 73:0.61790329 74:0.74947816 75:1.0243407 76:1.3279185 77:1.3736616 78:0.78716886 79:1.2202973 80:1.61638 81:1.649615 82:0.26215482 83:0.5484215 84:0.63439459 85:0.28524542 86:0.42869893 87:0.55258745 88:0.58671558 89:0.43267113 90:0.79009193 91:1.0154969 92:1.0689958 93:0.51064575 94:0.91903716 95:1.2854835 96:1.3225329 97:0.29045725 98:0.37560126 99:0.42118147 100:0.3579661 101:0.56154329 102:0.59364092 103:0.25194809 104:0.59487909 105:0.78104913 106:0.83113897 107:0.34710041 108:0.70946074 109:1.0548518 110:1.0855061 111:0.088463098 112:0.63499987 113:0.42492935 114:0.64043647 115:0.66232038 116:0.25591129 117:0.40521699 118:0.52067286 119:0.5607121 120:0.3043164 121:0.50149918 122:0.80898082 123:0.82593662 124:0.71326947 125:0.48231903 126:0.69384009 127:0.71413285 128:0.31302285 129:0.38986024 130:0.44962031 131:0.48746023 132:0.34263331 133:0.45102429 134:0.73343706 135:0.7468375 136:0.30743378 137:0.31636155 138:0.35463327 139:0.43968853 140:0.74485111 141:1.0085883 142:1.0613071 143:0.46115524 144:0.88560957 145:1.2875539 146:1.3235143 147:0.25086522 148:0.29794264 149:0.20470582 150:0.48349503 151:0.70835406 152:0.76201946 153:0.1686427 154:0.58541584 155:0.99242395 156:1.0238972 157:0.069136083 158:0.44531322 159:0.58793372 160:0.86467737 161:0.90809238 162:0.38443512 163:0.73847526 164:1.1492294 165:1.1756619 166:0.48549822 167:0.57971883 168:0.8790164 169:0.9162153 170:0.41905198 171:0.76309687 172:1.1714164 173:1.1930915 174:0.45595771 175:0.59778398 176:0.65842301 177:0.12723501 178:0.49238798 179:0.87241679 180:0.90668696 181:0.4424938 182:0.43171573 183:0.38741556 184:0.4729555 185:0.78874171 186:0.7731092 187:0.10005517 188:0.55174208 189:0.22356984 190:0.34865633 191:0.34205666 192:0.60846812 193:0.30885345 194:0.38261837 195:0.34865656 196:0.43877921 197:0.83806682 198:0.86746615 199:0.41293567 200:0.44875839 201:0.10005493 #
4.5491435301822327e-005 1:111.4327 2:8.5207939 3:-0.61737168 4:-0.61644298 5:1.0330215 6:114.47215 7:30.972601 8:0.1018442 9:-0.072671764 10:1.3084939 11:0.13553907 12:0.095858224 13:0.57808363 14:0.7605536 15:0.43208948 16:0.22634569 17:0.2293205 18:0.26805893 19:0.4443574 20:0.24989645 21:0.23463438 22:0.293208 23:0.066482142 24:0.5354507 25:0.87251192 26:0.93349111 27:0.050989069 28:0.51944405 29:0.87137461 30:0.93269736 31:0.48229569 32:0.6657418 33:0.34174186 34:0.19893947 35:0.23372984 36:0.28271261 37:0.3536112 38:0.20944081 39:0.29473543 40:0.36535844 41:0.15445273 42:0.62656879 43:0.9663251 44:1.0254166 45:0.12938336 46:0.61209917 47:0.96280032 48:1.0257246 49:0.20273398 50:0.19749688 51:0.50369185 52:0.57529795 53:0.62045687 54:0.21523014 55:0.48554239 56:0.73019773 57:0.81100923 58:0.63187015 59:1.0957561 60:1.4414349 61:1.4943504 62:0.60642284 63:1.0867984 64:1.4315552 65:1.4989498 66:0.35896572 67:0.67270958 68:0.71820015 69:0.75596493 70:0.38860229 71:0.66776597 72:0.90470749 73:0.98234999 74:0.81113005 75:1.2732725 76:1.6115767 77:1.6573623 78:0.79097611 79:1.2654086 80:1.6218232 81:1.6857709 82:0.31568152 83:0.4093388 84:0.45925906 85:0.2591393 86:0.42377919 87:0.61907977 88:0.69279253 89:0.47551912 90:0.93018502 91:1.2759366 92:1.3271562 93:0.46994108 94:0.93224502 95:1.2796913 96:1.3435833 97:0.24061814 98:0.29258284 99:0.45146257 100:0.39489496 101:0.44738969 102:0.49842876 103:0.22859456 104:0.63378793 105:0.97964311 106:1.0341954 107:0.27072078 108:0.65093166 109:0.98955309 110:1.0495762 111:0.069829263 112:0.49796742 113:0.39368367 114:0.36741418 115:0.4011426 116:0.22217512 117:0.59978527 118:0.91352457 119:0.95173872 120:0.26732635 121:0.60431027 122:0.98578876 123:1.0311942 124:0.54229856 125:0.42960343 126:0.37349069 127:0.39652234 128:0.2542153 129:0.58932376 130:0.88769013 131:0.9205327 132:0.29947579 133:0.59273612 134:0.97942054 135:1.0201278 136:0.29192781 137:0.55680841 138:0.64165741 139:0.50655013 140:0.96663195 141:1.3068079 142:1.3649213 143:0.4596006 144:0.94300669 145:1.2825772 146:1.3514816 147:0.28110233 148:0.36884612 149:0.31009927 150:0.72218227 151:1.0503045 152:1.1130544 153:0.23645666 154:0.68790478 155:1.019976 156:1.0869762 157:0.089466035 158:0.23931089 159:0.49779323 160:0.78960013 161:0.84824091 162:0.19676933 163:0.44252273 164:0.79456389 165:0.84906167 166:0.28130591 167:0.44583735 168:0.71418124 169:0.77049297 170:0.25820518 171:0.37899435 172:0.73572743 173:0.78359205 174:0.48119235 175:0.81684846 176:0.87677103 177:0.087340429 178:0.47128272 179:0.82562816 180:0.88424432 181:0.40335473 182:0.47334862 183:0.51981074 184:0.2508826 185:0.43786883 186:0.47410867 187:0.11758965 188:0.85324669 189:0.41662675 190:0.37193891 191:0.32524329 192:0.9167127 193:0.49247122 194:0.47346953 195:0.41382331 196:0.49595475 197:0.84373164 198:0.90653193 199:0.41606551 200:0.45615873 201:0.11352939 #
-4.5491435301822327e-005 1:84.882835 2:5.6203599 3:-0.0638768 4:-0.41379479 5:0.42891976 6:112.42423 7:25.778696 8:0.192752 9:-0.075599223 10:0.9007315 11:0.34888104 12:0.091466933 13:0.48242831 14:0.66059798 15:0.36713147 16:0.29990944 17:0.4052726 18:0.4653061 19:0.39102668 20:0.3149828 21:0.43257296 22:0.49803627 23:0.098709553 24:0.57418019 25:0.94957989 26:1.0100341 27:0.10643721 28:0.59580243 29:0.9672153 30:1.0201658 31:0.40555403 32:0.59143716 33:0.29490879 34:0.27552724 35:0.43908101 36:0.50522685 37:0.3226935 38:0.29464656 39:0.45754269 40:0.52641022 41:0.16863738 42:0.65661764 43:1.0316203 44:1.0935988 45:0.17978366 46:0.66441894 47:1.033605 48:1.0890045 49:0.20339404 50:0.20211057 51:0.47885782 52:0.72674662 53:0.79961514 54:0.20377968 55:0.45128822 56:0.64052504 57:0.70496929 58:0.55185121 59:1.0423287 60:1.4063417 61:1.4620335 62:0.56525582 63:1.0650496 64:1.434413 65:1.4898939 66:0.3850441 67:0.65684497 68:0.88917273 69:0.9585309 70:0.33150682 71:0.56269306 72:0.71682179 73:0.77093518 74:0.73297429 75:1.2115414 76:1.5668298 77:1.6163502 78:0.73606211 79:1.2439882 80:1.6173115 81:1.6692469 82:0.29118842 83:0.55824357 84:0.63549799 85:0.2967225 86:0.45448768 87:0.62284857 88:0.68606043 89:0.40958706 90:0.90517217 91:1.2721933 92:1.3319309 93:0.46787575 94:0.942985 95:1.3035175 96:1.3628439 97:0.28643841 98:0.36657745 99:0.50188619 100:0.51451868 101:0.61347181 102:0.6666913 103:0.2710993 104:0.70749664 105:1.0680293 106:1.1317823 107:0.39179993 108:0.76294243 109:1.1025729 110:1.1643249 111:0.082533285 112:0.70874852 113:0.62271523 114:0.62152469 115:0.65305436 116:0.33388659 117:0.5491783 118:0.88520128 119:0.94638258 120:0.44123256 121:0.63309783 122:0.94290787 123:0.9991411 124:0.77445579 125:0.6705724 126:0.64503294 127:0.66895938 128:0.39412636 129:0.52357119 130:0.84501028 131:0.90578294 132:0.48707241 133:0.60950029 134:0.90338951 135:0.95773494 136:0.28549552 137:0.50852859 138:0.57873201 139:0.4813391 140:0.94670671 141:1.3101765 142:1.3649473 143:0.44364288 144:0.94057846 145:1.3127425 146:1.3632171 147:0.26085594 148:0.33581331 149:0.40120885 150:0.79453391 151:1.1546926 152:1.209416 153:0.30437824 154:0.76089853 155:1.1296824 156:1.1745874 157:0.08001475 158:0.47654489 159:0.72727519 160:1.0716015 161:1.1241044 162:0.37874597 163:0.684165 164:1.0479019 165:1.0856801 166:0.53402144 167:0.73471922 168:1.0679685 169:1.1195632 170:0.44407877 171:0.68481183 172:1.0420876 173:1.0769235 174:0.50997829 175:0.88713688 176:0.94948554 177:0.14842027 178:0.55049551 179:0.91290307 180:0.96831226 181:0.3849816 182:0.45153698 183:0.51774865 184:0.27802494 185:0.51554406 186:0.55982643 187:0.098787993 188:0.89046395 189:0.53904712 190:0.44825327 191:0.45928806 192:0.9503032 193:0.6085397 194:0.50098985 195:0.49490905 196:0.51727957 197:0.89195895 198:0.94112736 199:0.38278541 200:0.43266934 201:0.086789683 #
4.5491435301822327e-005 1:95.607841 2:90.036919 3:-0.57396293 4:-0.54307079 5:0.68971401 6:78.824341 7:60.269653 8:0.074418582 9:-0.073649921 10:0.045980934 11:0.13346756 12:0.084037773 13:0.50721997 14:0.72144324 15:0.41160074 16:0.27875951 17:0.16265801 18:0.17339298 19:0.42520738 20:0.30408821 21:0.15791975 22:0.13294613 23:0.087850392 24:0.50953376 25:0.86496711 26:0.91547525 27:0.078453302 28:0.57750583 29:0.9377321 30:0.98819441 31:0.42323267 32:0.63914698 33:0.33876556 34:0.26439723 35:0.1485415 36:0.19407733 37:0.34587565 38:0.26399931 39:0.14999165 40:0.14909267 41:0.1619456 42:0.5916425 43:0.94614911 44:0.99828368 45:0.14542979 46:0.66000217 47:1.0204633 48:1.0719669 49:0.2414529 50:0.22005861 51:0.48687345 52:0.46219969 53:0.53979611 54:0.1742961 55:0.42099959 56:0.47875619 57:0.51275039 58:0.5763908 59:1.007983 60:1.3594036 61:1.4167559 62:0.55964732 63:1.0796981 64:1.4395922 65:1.4943995 66:0.39409876 67:0.6832366 68:0.64045459 69:0.71595907 70:0.37671527 71:0.63388276 72:0.67710733 73:0.70693153 74:0.78622419 75:1.2120095 76:1.581033 77:1.6335031 78:0.77469212 79:1.2985998 80:1.659045 81:1.7070748 82:0.29302129 83:0.36944732 84:0.46078259 85:0.31331247 86:0.46667439 87:0.44919938 88:0.45879745 89:0.45462802 90:0.86626762 91:1.2270817 92:1.2843029 93:0.48304516 94:0.96789747 95:1.3178074 96:1.3706578 97:0.30764571 98:0.37552759 99:0.49840453 100:0.49986276 101:0.40950477 102:0.38786268 103:0.26433021 104:0.60607231 105:0.95801115 106:1.0161281 107:0.35163692 108:0.72529387 109:1.0569843 110:1.1106484 111:0.092735633 112:0.40566513 113:0.36157969 114:0.17581017 115:0.13840149 116:0.19622499 117:0.58569163 118:0.97246057 119:1.0125449 120:0.21006109 121:0.68513262 122:1.0402359 123:1.0773442 124:0.46275023 125:0.37333962 126:0.15941635 127:0.10235273 128:0.19437951 129:0.53591996 130:0.92057711 131:0.95538342 132:0.1861434 133:0.62593037 134:0.97944313 135:1.0121729 136:0.26011074 137:0.36119345 138:0.40998977 139:0.50776863 140:0.93402374 141:1.2689426 142:1.3252594 143:0.45753446 144:0.97771889 145:1.3392794 146:1.3953632 147:0.21816528 148:0.27953598 149:0.38884565 150:0.76450938 151:1.0626322 152:1.1182271 153:0.29207337 154:0.76538879 155:1.1211849 156:1.1806408 157:0.063813969 158:0.23173413 159:0.60696673 160:0.95473099 161:0.99863654 162:0.14515413 163:0.65004921 164:1.0113635 165:1.0562944 166:0.18972354 167:0.55661827 168:0.91754985 169:0.95859474 170:0.12322485 171:0.61483014 172:0.97499675 173:1.016263 174:0.43236053 175:0.79972255 176:0.84861666 177:0.12018365 178:0.5213061 179:0.87614411 180:0.92438638 181:0.41656432 182:0.44346744 183:0.48352656 184:0.21836063 185:0.4870806 186:0.51781803 187:0.10091519 188:0.8248558 189:0.31746793 190:0.15551679 191:0.23154043 192:0.87388951 193:0.35631037 194:0.10717362 195:0.14736237 196:0.52769971 197:0.89034414 198:0.94107091 199:0.36353239 200:0.42128855 201:0.11326671 #
-4.5491435301822327e-005 1:81.416275 2:79.291138 3:-0.67563331 4:-0.6493485 5:0.45121267 6:62.781628 7:56.536922 8:0.15385561 9:-0.008823392 10:0.090242535 11:0.064285792 12:0.09948387 13:0.59878969 14:0.81459308 15:0.43010077 16:0.31435612 17:0.34225425 18:0.38518625 19:0.44377416 20:0.2402111 21:0.27014539 22:0.33341137 23:0.10686777 24:0.61188352 25:0.99070114 26:1.0261252 27:0.10644309 28:0.57843149 29:0.96876717 30:1.0318817 31:0.49935427 32:0.71595758 33:0.33726138 34:0.28625834 35:0.39218065 36:0.44650918 37:0.35687581 38:0.21629198 39:0.33044279 40:0.40460855 41:0.18761799 42:0.71093261 43:1.0879272 44:1.1246494 45:0.19062339 46:0.67230916 47:1.0642031 48:1.1295025 49:0.22717135 50:0.2447003 51:0.55255669 52:0.80383444 53:0.87396628 54:0.26591983 55:0.53321922 56:0.76320726 57:0.8479203 58:0.67547017 59:1.2094065 60:1.5805416 61:1.6212128 62:0.67688006 63:1.1559951 64:1.5509064 65:1.6229379 66:0.46032947 67:0.77473557 68:1.028949 69:1.099225 70:0.42539614 71:0.72077584 72:0.95313179 73:1.036247 74:0.89525485 75:1.4255997 76:1.799325 77:1.8384916 78:0.88590294 79:1.3675694 80:1.7694978 81:1.8406796 82:0.32107899 83:0.5789367 84:0.65092647 85:0.32924816 86:0.46460426 87:0.65529096 88:0.73278755 89:0.48084918 90:1.0233954 91:1.391865 92:1.4323263 93:0.52780592 94:0.99410939 95:1.3674301 96:1.4370288 97:0.27287459 98:0.34638196 99:0.54048222 100:0.48553193 101:0.57985604 102:0.64132124 103:0.29337975 104:0.78064328 105:1.1231228 106:1.1692203 107:0.41250768 108:0.77450407 109:1.0988238 110:1.1717274 111:0.074019298 112:0.73016781 113:0.56307065 114:0.54208773 115:0.57233721 116:0.25091457 117:0.54328907 118:0.86262184 119:0.90979093 120:0.38840431 121:0.57116574 122:0.84299773 123:0.91325176 124:0.78999496 125:0.60411936 126:0.55581254 127:0.57611334 128:0.28827077 129:0.48664513 130:0.79382372 131:0.8417182 132:0.41484445 133:0.52741444 134:0.77552724 135:0.84513754 136:0.29865819 137:0.53429174 138:0.62037975 139:0.54341632 140:1.0347804 141:1.4067171 142:1.443723 143:0.4898583 144:0.96279263 145:1.375784 146:1.4444503 147:0.24394049 148:0.33584961 149:0.34313217 150:0.75429457 151:1.1210719 152:1.1564056 153:0.22886878 154:0.67359447 155:1.0903335 156:1.1562771 157:0.096164137 158:0.32176426 159:0.55085438 160:0.91685718 161:0.94328797 162:0.17136429 163:0.47366318 164:0.89382231 165:0.9478479 166:0.36303455 167:0.49649331 168:0.86019737 169:0.87991303 170:0.23116292 171:0.42615613 172:0.84290904 173:0.88834387 174:0.54363281 175:0.9200905 176:0.95568776 177:0.15577661 178:0.53489649 179:0.90205276 180:0.96358085 181:0.39199671 182:0.41621059 183:0.54636663 184:0.21291509 185:0.39367139 186:0.43045169 187:0.087891288 188:0.92583019 189:0.47573963 190:0.098229922 191:0.061765745 192:0.95873076 193:0.5144757 194:0.17725292 195:0.075349227 196:0.49964622 197:0.90351754 198:0.964001 199:0.44159365 200:0.50548673 201:0.11890556 #
4.5491435301822327e-005 1:85.479919 2:39.714645 3:-0.58675247 4:-0.2459901 5:1.3656453 6:174.86086 7:34.552631 8:0.098598503 9:-0.03044159 10:1.2290808 11:0.32273284 12:0.10638249 13:0.55444616 14:0.75569153 15:0.42670691 16:0.26993787 17:0.21634369 18:0.25912538 19:0.45440045 20:0.3015326 21:0.20473753 22:0.26307857 23:0.070545547 24:0.53294885 25:0.91559666 26:0.95234972 27:0.080234595 28:0.52480656 29:0.85155571 30:0.90620649 31:0.46644303 32:0.67250091 33:0.34107527 34:0.23741308 35:0.24045862 36:0.2907131 37:0.36932787 38:0.25337693 39:0.19984926 40:0.27742529 41:0.14639765 42:0.62439799 43:1.0071936 44:1.0478721 45:0.17759536 46:0.61666012 47:0.939632 48:0.99598354 49:0.21198842 50:0.22942533 51:0.4672825 52:0.49045792 53:0.5065636 54:0.20579579 55:0.47696352 56:0.46026349 57:0.49670649 58:0.60134941 59:1.0699381 60:1.4539344 61:1.4872007 62:0.61675006 63:1.0358489 64:1.3825401 65:1.433929 66:0.42034742 67:0.66548318 68:0.67017114 69:0.6716696 70:0.36218491 71:0.65332258 72:0.64334828 73:0.66954958 74:0.80569941 75:1.2639158 76:1.6462232 77:1.6748046 78:0.81321824 79:1.2170631 80:1.5713938 81:1.6198646 82:0.26199639 83:0.37102225 84:0.42177439 85:0.31398702 86:0.45798248 87:0.3542141 88:0.37629044 89:0.45597866 90:0.93952835 91:1.3205394 92:1.3577089 93:0.49934265 94:0.94035292 95:1.2676719 96:1.3233389 97:0.23490904 98:0.3184244 99:0.47333142 100:0.46477827 101:0.26248488 102:0.24512672 103:0.26900265 104:0.73027468 105:1.1017828 106:1.138021 107:0.33557057 108:0.75684565 109:1.0619179 110:1.1189671 111:0.085818954 112:0.44912443 113:0.4105601 114:0.14211069 115:0.12866743 116:0.24626853 117:0.6512118 118:1.0264599 119:1.0475482 120:0.25117853 121:0.63771331 122:0.98131287 123:1.0283375 124:0.4527325 125:0.41499004 126:0.14860982 127:0.13567612 128:0.29677969 129:0.65783173 130:1.0288255 131:1.0439713 132:0.27753976 133:0.6254462 134:0.97992766 135:1.0228065 136:0.29829934 137:0.39104396 138:0.46072802 139:0.50793433 140:0.94261253 141:1.3220836 142:1.3577691 143:0.50531584 144:0.89473128 145:1.2405287 146:1.2907796 147:0.31618124 148:0.41398892 149:0.34636861 150:0.69318581 151:1.0564212 152:1.0980177 153:0.32365343 154:0.65384585 155:0.99231327 156:1.0429302 157:0.099689558 158:0.24596949 159:0.65137494 160:1.0216088 161:1.046694 162:0.24607024 163:0.63934016 164:1.0001972 165:1.0465883 166:0.28845569 167:0.67018086 168:1.0321224 169:1.0513159 170:0.29725051 171:0.66699982 172:1.0241961 173:1.0683529 174:0.49705207 175:0.87821603 176:0.91830564 177:0.11044011 178:0.51493949 179:0.82224679 180:0.87902701 181:0.39631665 182:0.44050291 183:0.47705692 184:0.27669504 185:0.43239573 186:0.48266548 187:0.10392401 188:0.85639727 189:0.51986253 190:0.38741288 191:0.38435352 192:0.89017957 193:0.53538275 194:0.42059964 195:0.41268119 196:0.45327172 197:0.78868407 198:0.84199208 199:0.4041096 200:0.44281083 201:0.10381 #
-4.5491435301822327e-005 1:104.39857 2:40.67968 3:-0.61993217 4:-0.1998412 5:0.77044243 6:176.65694 7:17.085175 8:0.1267681 9:-0.057841271 10:0.84748667 11:0.5217278 12:0.092604995 13:0.55787486 14:0.75102085 15:0.41002354 16:0.22162548 17:0.27213755 18:0.32938722 19:0.42733112 20:0.30061039 21:0.37363064 22:0.43347734 23:0.072888047 24:0.56145018 25:0.92414552 26:0.98422873 27:0.077501804 28:0.53990179 29:0.9106828 30:0.97328156 31:0.46577996 32:0.65995294 33:0.32557404 34:0.19080482 35:0.32292566 36:0.38935649 37:0.34326655 38:0.26496467 39:0.40206146 40:0.4676933 41:0.14926599 42:0.65037566 43:1.0139571 44:1.0745471 45:0.1581118 46:0.61360842 47:0.98421407 48:1.0448573 49:0.21273094 50:0.2312365 51:0.48202196 52:0.7210294 53:0.79605943 54:0.20627126 55:0.4700163 56:0.7211383 57:0.78747809 58:0.6061005 59:1.1059753 60:1.4710673 61:1.5327091 62:0.61670637 63:1.0337321 64:1.3902683 65:1.4422271 66:0.429548 67:0.67805928 68:0.90589237 69:0.97890705 70:0.36496046 71:0.62572438 72:0.86381805 73:0.92548585 74:0.80166703 75:1.2887934 76:1.6581194 77:1.7167858 78:0.80541492 79:1.195545 80:1.5387505 81:1.5857005 82:0.28906712 83:0.55208385 84:0.63003504 85:0.26084206 86:0.4366979 87:0.66864616 88:0.73861003 89:0.44597188 90:0.96289659 91:1.3153191 92:1.3793396 93:0.47587568 94:0.91025138 95:1.2766231 96:1.3324087 97:0.26862851 98:0.34764072 99:0.41114986 100:0.3910467 101:0.52588654 102:0.59253114 103:0.23326722 104:0.72843176 105:1.0735451 106:1.1315423 107:0.27713504 108:0.66646075 109:1.030442 110:1.0861162 111:0.08230532 112:0.61705482 113:0.4939456 114:0.45192215 115:0.50119895 116:0.24790157 117:0.54197896 118:0.87130976 119:0.91792113 120:0.26401412 121:0.46251345 122:0.80896711 123:0.86269832 124:0.68844992 125:0.55222028 126:0.47522306 127:0.49911854 128:0.30061838 129:0.49968827 130:0.8140161 131:0.85720176 132:0.30887932 133:0.42266402 134:0.75523901 135:0.80851996 136:0.27607757 137:0.53441864 138:0.60026801 139:0.47706473 140:0.94808406 141:1.31699 142:1.3759578 143:0.48039135 144:0.89172554 145:1.2450007 146:1.2989942 147:0.27756333 148:0.34158057 149:0.33888033 150:0.72155899 151:1.0883901 152:1.1446192 153:0.32791492 154:0.69640678 155:1.0377316 156:1.0958017 157:0.070935674 158:0.38879904 159:0.55951089 160:0.91793925 161:0.95898193 162:0.35200009 163:0.50556159 164:0.80522877 165:0.85931873 166:0.44458577 167:0.54620653 168:0.89256382 169:0.9300487 170:0.40548605 171:0.49566111 172:0.77260488 173:0.82542497 174:0.53020674 175:0.88552314 176:0.9468329 177:0.11145927 178:0.52544922 179:0.89309442 180:0.95697993 181:0.38545251 182:0.43728346 183:0.50243556 184:0.34416243 185:0.57618606 186:0.65062195 187:0.10479234 188:0.86830759 189:0.6231702 190:0.61720538 191:0.69156456 192:0.92604715 193:0.6416918 194:0.57981002 195:0.64190829 196:0.48007187 197:0.84997821 198:0.91349179 199:0.376055 200:0.43957597 201:0.10277045 #
4.5491435301822327e-005 1:54.811996 2:54.707146 3:-0.60345572 4:-0.65504378 5:0.63008928 6:60.409176 7:32.522095 8:0.076761842 9:-0.041642219 10:0.063008927 11:0.54075533 12:0.090815462 13:0.54712689 14:0.7065379 15:0.43593898 16:0.35303223 17:0.19672929 18:0.18904676 19:0.46297619 20:0.28243601 21:0.24324037 22:0.29242066 23:0.11531994 24:0.51428282 25:0.89573938 26:0.9542312 27:0.11630429 28:0.49303302 29:0.90664887 30:0.97412455 31:0.45635536 32:0.61767346 33:0.35063276 34:0.30030259 35:0.19272266 36:0.20613205 37:0.37818855 38:0.23461595 39:0.28892529 40:0.34605429 41:0.1880216 42:0.60272437 43:0.98505312 44:1.0444131 45:0.19378357 46:0.57617712 47:0.98862624 48:1.0549895 49:0.19653891 50:0.19917271 51:0.41784129 52:0.5332154 53:0.57475859 54:0.17288643 55:0.41709933 56:0.66959548 57:0.73050874 58:0.63124621 59:1.0540925 60:1.4370478 61:1.4992397 62:0.63678348 63:1.0123744 64:1.4156837 65:1.4776182 66:0.3674148 67:0.58643073 68:0.67661583 69:0.70963049 70:0.30607331 71:0.55851436 72:0.81634921 73:0.87540615 74:0.79118139 75:1.2200781 76:1.6019682 77:1.65915 78:0.79109931 79:1.1403768 80:1.5280188 81:1.5859795 82:0.22212428 83:0.38216826 84:0.43859717 85:0.28114596 86:0.41670743 87:0.61568004 88:0.67677104 89:0.49399135 90:0.91921473 91:1.3039505 92:1.3652105 93:0.5437457 94:0.91676283 95:1.3175755 96:1.3808653 97:0.26258042 98:0.3337588 99:0.45371446 100:0.47161284 101:0.57645458 102:0.63097709 103:0.36164066 104:0.75756967 105:1.1362145 106:1.1969352 107:0.4662298 108:0.81208199 109:1.2019296 110:1.2663879 111:0.072525516 112:0.5073418 113:0.41817868 114:0.4330982 115:0.47919041 116:0.17521732 117:0.59511012 118:0.97363913 119:1.0222886 120:0.2961311 121:0.57560998 122:0.95562059 123:1.0183786 124:0.53448504 125:0.42039493 126:0.4059276 127:0.44745052 128:0.16228248 129:0.56553066 130:0.93955791 131:0.98431659 132:0.26821148 133:0.5144074 134:0.89148343 135:0.95405573 136:0.26534155 137:0.53242773 138:0.59098631 139:0.56580687 140:0.96569175 141:1.3408382 142:1.4043977 143:0.52993661 144:0.90524662 145:1.3128055 146:1.3758917 147:0.27026951 148:0.32703832 149:0.39745122 150:0.73972231 151:1.101342 152:1.165017 153:0.30245507 154:0.66970724 155:1.081872 156:1.147364 157:0.061653052 158:0.31292892 159:0.50690043 160:0.84609371 161:0.90829027 162:0.14995606 163:0.43416256 164:0.84583563 165:0.91428882 166:0.34764016 167:0.4814592 168:0.80483526 169:0.86653411 170:0.18695186 171:0.40145448 172:0.80558777 173:0.87419111 174:0.43746859 175:0.82133186 176:0.87685978 177:0.16441415 178:0.45372832 179:0.85324985 180:0.9207437 181:0.38530454 182:0.44896895 183:0.448232 184:0.3431266 185:0.61273265 186:0.68153805 187:0.097868085 188:0.81832159 189:0.57723272 190:0.57700497 191:0.62406152 192:0.87713999 193:0.59997052 194:0.53124124 195:0.57035089 196:0.40510812 197:0.82478768 198:0.89359152 199:0.42026284 200:0.49065459 201:0.090108156 #
-2.4472441608498232e-005 1:39.976528 2:34.382336 3:-0.43533409 4:-0.41748181 5:0.026281785 6:59.711735 7:59.710953 8:0.2381541 9:0.016670531 10:0.0017521189 11:0.66513038 12:0.09503784 13:0.57053852 14:0.78237671 15:0.62893903 16:0.82840735 17:0.99260533 18:1.0563269 19:0.38964149 20:0.20215654 21:0.26880354 22:0.34142426 23:0.043371979 24:0.66957575 25:0.97588098 26:1.0572578 27:0.0222516 28:0.65643698 29:1.0563453 30:1.1084201 31:0.47556436 32:0.68861294 33:0.54950428 34:0.74502057 35:0.91062707 36:0.97533232 37:0.30157113 38:0.18583503 39:0.34210753 40:0.42235592 41:0.13759126 42:0.75899023 43:1.0605464 44:1.1426015 45:0.11554236 46:0.74865848 47:1.148646 48:1.2016275 49:0.22841665 50:0.30569312 51:0.39584732 52:0.55213702 53:0.61924201 54:0.24930148 55:0.52627933 56:0.78504294 57:0.87338871 58:0.61254525 59:1.2154672 60:1.4976897 61:1.5811366 62:0.59099966 63:1.2189083 64:1.6179577 65:1.6733774 66:0.34707674 67:0.27379367 68:0.37332526 69:0.4341152 70:0.45629358 71:0.72265232 72:0.98908818 73:1.0784354 74:0.82277089 75:1.4048969 76:1.670218 77:1.7530026 78:0.80360967 79:1.4361206 80:1.8356148 81:1.8875171 82:0.25244665 83:0.47080904 84:0.54869109 85:0.47880316 86:0.65294075 87:0.87066567 88:0.94820887 89:0.66229051 90:1.1755245 91:1.4307564 92:1.5146296 93:0.65054744 94:1.2663835 95:1.6624671 96:1.7134959 97:0.22343437 98:0.30186036 99:0.60661149 100:0.8049801 101:1.0474231 102:1.1300673 103:0.86239302 104:1.3713574 105:1.6073757 106:1.689104 107:0.85058856 108:1.4759191 109:1.87291 110:1.9185851 111:0.079362214 112:0.7461465 113:0.93588483 114:1.1867372 115:1.2712392 116:1.0253944 117:1.5186148 118:1.7357556 119:1.8142215 120:1.014534 121:1.6353151 122:2.0295761 123:2.0691121 124:0.80648404 125:0.9912926 126:1.2425448 127:1.3270804 128:1.0885288 129:1.5741779 130:1.784377 131:1.8615646 132:1.0780898 133:1.6953191 134:2.0879726 135:2.1254323 136:0.30355376 137:0.56654108 138:0.65740782 139:0.43114376 140:1.0499787 141:1.3423725 142:1.4232882 143:0.40666938 144:1.0103848 145:1.4049776 146:1.4590726 147:0.28255427 148:0.37623164 149:0.22231799 150:0.78171957 151:1.0682493 152:1.1456246 153:0.2092137 154:0.75149637 155:1.1413953 156:1.1859125 157:0.093770288 158:0.2426227 159:0.56066877 160:0.84987587 161:0.92624724 162:0.25262859 163:0.49574459 164:0.87716842 165:0.91856205 166:0.30952808 167:0.49752927 168:0.78321809 169:0.85847723 170:0.3231934 171:0.41787389 172:0.79256338 173:0.83240896 174:0.62733579 175:0.93484044 176:1.0158581 177:0.029100852 178:0.61840159 179:1.0179572 180:1.0689172 181:0.33146048 182:0.40528959 183:0.65438616 184:0.40522054 185:0.63751602 186:0.64776069 187:0.098457783 188:0.96267825 189:0.66411471 190:0.72953767 191:0.69709939 192:1.043696 193:0.71521032 194:0.73934293 195:0.69678688 196:0.63464123 197:1.0345687 198:1.0869243 199:0.40015396 200:0.45916876 201:0.10043982 #
4.5491435301822327e-005 1:124.98376 2:39.305767 3:-0.61975873 4:-0.64223689 5:1.0399314 6:108.14439 7:26.933262 8:0.1122522 9:-0.031953249 10:1.282582 11:0.26358449 12:0.092388101 13:0.55591875 14:0.76513237 15:0.42737603 16:0.29957777 17:0.232216 18:0.26303419 19:0.46969363 20:0.34178081 21:0.42815191 22:0.51675242 23:0.086799607 24:0.53945482 25:0.9260143 26:0.9674775 27:0.10590205 28:0.5567084 29:0.90771627 30:0.9690941 31:0.46407646 32:0.67392647 33:0.34127134 34:0.25936273 35:0.22871426 36:0.27102047 37:0.38893294 38:0.29492086 39:0.44317102 40:0.55159414 41:0.15927821 42:0.62880206 43:1.0155828 44:1.0577769 45:0.18732545 46:0.64535928 47:0.99527323 48:1.0559984 49:0.21980383 50:0.21144797 51:0.46620604 52:0.55168438 53:0.59557641 54:0.22958435 55:0.42731467 56:0.71152854 57:0.85668188 58:0.61251563 59:1.0837721 60:1.4709337 61:1.5147454 62:0.64086574 63:1.0997064 64:1.4439363 65:1.501415 66:0.41061869 67:0.67299962 68:0.74245542 69:0.77746457 70:0.36949861 71:0.59184301 72:0.86921674 73:1.0142227 74:0.82428873 75:1.2910063 76:1.6794627 77:1.7200428 78:0.84490609 79:1.3033736 80:1.6495367 81:1.703119 82:0.26476979 83:0.39892143 84:0.46053386 85:0.3356407 86:0.44299224 87:0.70369744 88:0.839378 89:0.46382043 90:0.94356793 91:1.3261002 92:1.3729169 93:0.52534562 94:0.97632021 95:1.3129416 96:1.3754722 97:0.27070299 98:0.35124305 99:0.51261067 100:0.50655818 101:0.69160295 102:0.8008374 103:0.2906673 104:0.73643363 105:1.1063625 106:1.1572777 107:0.39387429 108:0.79128361 109:1.1068418 110:1.1754206 111:0.081334092 112:0.52409905 113:0.4631156 114:0.58931744 115:0.67999846 116:0.22765321 117:0.63354492 118:1.0178788 119:1.04928 120:0.28349921 121:0.66957521 122:1.0041031 123:1.0571786 124:0.54818338 125:0.47269911 126:0.57387793 127:0.65577078 128:0.26394325 129:0.62232828 130:1.0045717 131:1.0293318 132:0.28920999 133:0.6478467 134:0.98386484 135:1.0309731 136:0.22435668 137:0.50339735 138:0.64916843 139:0.54552209 140:0.97601116 141:1.3606446 142:1.3997251 143:0.52712923 144:0.96868795 145:1.3162315 146:1.3672088 147:0.28968129 148:0.43558165 149:0.42330399 150:0.7909739 151:1.1677403 152:1.2050976 153:0.36078274 154:0.76640707 155:1.1125542 156:1.1613575 157:0.1494706 158:0.48781997 159:0.66528726 160:1.0003271 161:1.0280561 162:0.37498522 163:0.60632533 164:0.93191409 165:0.97003168 166:0.56409431 167:0.62936461 168:0.92878008 169:0.94835168 170:0.44462797 171:0.54648465 172:0.84434056 173:0.87484056 174:0.49446836 175:0.87434345 176:0.91817486 177:0.13991112 178:0.52515739 179:0.86884695 180:0.93385053 181:0.40570462 182:0.44677198 183:0.46701416 184:0.22903571 185:0.44942772 186:0.51329654 187:0.10443167 188:0.85407668 189:0.47283044 190:0.35424733 191:0.38402694 192:0.8918308 193:0.50021595 194:0.37870705 195:0.39967939 196:0.47038934 197:0.82708961 198:0.88458955 199:0.38956174 200:0.4471696 201:0.1072153 #
-4.5491435301822327e-005 1:144.97826 2:55.701328 3:-0.3784906 4:-0.5214653 5:0.85185272 6:111.29021 7:26.828659 8:0.064147368 9:-0.072801203 10:0.19876564 11:0.034723043 12:0.084244385 13:0.51736969 14:0.82298958 15:0.46397996 16:0.18512027 17:0.33109367 18:0.47729337 19:0.45750108 20:0.22665432 21:0.2411069 22:0.31751791 23:0.055508345 24:0.54081392 25:0.84253073 26:0.88387769 27:0.021818303 28:0.49802881 29:0.82701403 30:0.8912065 31:0.43319282 32:0.73907554 33:0.38974321 34:0.11004881 35:0.30884022 36:0.4707655 37:0.37696418 38:0.18359159 39:0.29100576 40:0.37871787 41:0.13677204 42:0.62114823 43:0.92426282 44:0.96671355 45:0.093193218 46:0.57815135 47:0.91017991 48:0.97465956 49:0.30780676 50:0.20806529 51:0.34821588 52:0.50576431 53:0.65511459 54:0.16060202 55:0.41485023 56:0.6718058 57:0.76999635 58:0.56815249 59:1.0418179 60:1.3479328 61:1.3935071 62:0.52489108 63:0.99990451 64:1.3385837 65:1.4037292 66:0.42574951 67:0.64940292 68:0.78033251 69:0.90780413 70:0.42226559 71:0.71212435 72:0.97175771 73:1.0694114 74:0.87249285 75:1.3414611 76:1.64917 77:1.6942099 78:0.83134478 79:1.2978109 80:1.6411315 81:1.7054064 82:0.31200492 83:0.5730902 84:0.74209189 85:0.32400638 86:0.45932564 87:0.66641295 88:0.75594634 89:0.50531864 90:0.94240737 91:1.2511302 92:1.2923199 93:0.47724763 94:0.91418844 95:1.2454852 96:1.3079152 97:0.30288669 98:0.47533342 99:0.3067534 100:0.19463618 101:0.35604432 102:0.44670323 103:0.22986226 104:0.71529973 105:1.0216616 106:1.0587986 107:0.19739307 108:0.65382326 109:1.0051899 110:1.0659541 111:0.17333843 112:0.37651762 113:0.16266051 114:0.26254565 115:0.34792444 116:0.35860249 117:0.78775632 118:1.0606569 119:1.0947006 120:0.32549888 121:0.68261492 122:1.0313208 123:1.0878997 124:0.514148 125:0.32133415 126:0.32907224 127:0.37989193 128:0.49479103 129:0.85885918 130:1.1016178 131:1.1319987 132:0.4685449 133:0.73638207 134:1.0663576 135:1.1180574 136:0.29850459 137:0.56878674 138:0.66855967 139:0.51040584 140:0.99028313 141:1.289098 142:1.3364059 143:0.46009895 144:0.94068229 145:1.276274 146:1.3422145 147:0.27423659 148:0.37443084 149:0.27161792 150:0.7325213 151:1.0197526 152:1.0640491 153:0.22086556 154:0.67212945 155:1.0013481 156:1.0655968 157:0.10059942 158:0.2283594 159:0.53993934 160:0.80368191 161:0.83485895 162:0.23068987 163:0.43946898 164:0.77266049 165:0.82770896 166:0.29096356 167:0.49519193 168:0.7375657 169:0.76203293 170:0.30805621 171:0.37493435 172:0.70123976 173:0.75097048 174:0.49275619 175:0.79561228 176:0.83393264 177:0.061733726 178:0.44433215 179:0.77774662 180:0.84041655 181:0.33937481 182:0.37427589 183:0.53651434 184:0.2667588 185:0.30888224 186:0.37759799 187:0.11989659 188:0.83600605 189:0.47274077 190:0.11022855 191:0.17106983 192:0.87898141 193:0.46465746 194:0.12625879 195:0.088933706 196:0.49763432 197:0.82093084 198:0.8860389 199:0.42530686 200:0.46047419 201:0.1073029 #
4.5491435301822327e-005 1:36.779217 2:12.247529 3:-0.54797173 4:-0.45749101 5:0.44896346 6:102.55065 7:29.885471 8:0.095645249 9:-0.048097432 10:0.14965449 11:0.35107511 12:0.081768461 13:0.49188226 14:0.65851551 15:0.44381052 16:0.22075894 17:0.16384363 18:0.17792886 19:0.36136717 20:0.2439073 21:0.31946376 22:0.38641709 23:0.086841255 24:0.57494271 25:0.85826373 26:0.92364073 27:0.060655713 28:0.49399605 29:0.81556517 30:0.88286144 31:0.41022262 32:0.57804549 33:0.37229618 34:0.17416739 35:0.20108213 36:0.22175916 37:0.28680247 38:0.23401877 39:0.37834725 40:0.45147932 41:0.16301423 42:0.65225458 43:0.93967104 44:1.004357 45:0.1259681 46:0.57201612 47:0.89294952 48:0.96150684 49:0.18256254 50:0.20732321 51:0.36419949 52:0.55102366 53:0.57466632 54:0.21607274 55:0.49273375 56:0.74842823 57:0.82988 58:0.56769085 59:1.0524348 60:1.3471953 61:1.4087011 62:0.52916521 63:0.97373664 64:1.2929292 65:1.3644356 66:0.33531332 67:0.51195568 68:0.69739932 69:0.72059417 70:0.37145811 71:0.6562081 72:0.91230899 73:0.99448097 74:0.73340929 75:1.225875 76:1.5046762 77:1.5612782 78:0.69487649 79:1.13386 80:1.4668539 81:1.5365493 82:0.26791197 83:0.47451901 84:0.50164288 85:0.32873729 86:0.52912551 87:0.74327666 88:0.81712091 89:0.49726 90:0.96569896 91:1.2676203 92:1.3310238 93:0.49658558 94:0.91847759 95:1.2177559 96:1.287549 97:0.21072033 98:0.23842588 99:0.33963114 100:0.39916247 101:0.53751272 102:0.60429639 103:0.2597616 104:0.74718595 105:1.0151379 106:1.0739287 107:0.27698219 108:0.67371976 109:0.99963176 110:1.0635579 111:0.06632752 112:0.46570763 113:0.3926582 114:0.41380757 115:0.46427971 116:0.14033139 117:0.58441871 118:0.81834692 119:0.87352079 120:0.19302773 121:0.48732734 122:0.83205056 123:0.88945168 124:0.48416018 125:0.39790624 126:0.39963207 127:0.44685954 128:0.14537974 129:0.56803602 130:0.79254824 131:0.84729707 132:0.19769624 133:0.46490332 134:0.8122893 135:0.86870718 136:0.28824818 137:0.55832577 138:0.64139324 139:0.44672546 140:0.90697193 141:1.2050918 142:1.2694718 143:0.37906682 144:0.81895077 145:1.1323388 146:1.2054135 147:0.28148043 148:0.36342651 149:0.30780202 150:0.66821253 151:0.96761107 152:1.0369569 153:0.21366857 154:0.57998216 155:0.87133938 156:0.94537759 157:0.084193051 158:0.31158236 159:0.44352588 160:0.70610154 161:0.77597952 162:0.26177847 163:0.33300984 164:0.61732733 165:0.68557352 166:0.36436155 167:0.3891125 168:0.63814908 169:0.70948404 170:0.33078909 171:0.27935138 172:0.54198468 173:0.60883987 174:0.50307006 175:0.78405792 176:0.85044247 177:0.10330499 178:0.43372735 179:0.74897999 180:0.81423217 181:0.40638408 182:0.4973093 183:0.54856527 184:0.25851318 185:0.27190354 186:0.33716774 187:0.097848296 188:0.82829213 189:0.41159877 190:0.34242842 191:0.30628148 192:0.8938933 193:0.47629911 194:0.4284541 195:0.38372895 196:0.45635098 197:0.78119767 198:0.84852487 199:0.40405455 200:0.45143488 201:0.10429777 #
-4.5491435301822327e-005 1:27.76902 2:19.377316 3:-0.3727214 4:-0.4248243 5:0.16057637 6:60.712112 7:54.259422 8:0.091957562 9:-0.068945192 10:0.02676273 11:0.72861093 12:0.084019154 13:0.50792271 14:0.67342883 15:0.44411823 16:0.28532362 17:0.25095257 18:0.30548596 19:0.38976344 20:0.22717032 21:0.3280102 22:0.41396457 23:0.05006114 24:0.49023509 25:0.85875773 26:0.95321804 27:0.056754578 28:0.58860892 29:0.97174597 30:1.0226653 31:0.42396316 32:0.59054434 33:0.36900696 34:0.23413026 35:0.28709397 36:0.34441528 37:0.31223509 38:0.20947893 39:0.37763664 40:0.47273338 41:0.12422957 42:0.56117523 43:0.92612201 44:1.0182087 45:0.130798 46:0.67102885 47:1.0541537 48:1.1058625 49:0.18781379 50:0.19335248 51:0.35901001 52:0.62324804 53:0.67276061 54:0.206753 55:0.47646743 56:0.73744702 57:0.84361684 58:0.54304117 59:0.95064509 60:1.2950225 61:1.3771991 62:0.55107838 63:1.0913465 64:1.4736847 65:1.5280151 66:0.31656918 67:0.50536406 68:0.78076518 69:0.82347244 70:0.36683333 71:0.63650423 72:0.88381732 73:0.98650151 74:0.70560771 75:1.0828593 76:1.4067415 77:1.4812957 78:0.71795237 79:1.2609953 80:1.6437654 81:1.694074 82:0.20624174 83:0.4851523 84:0.52562952 85:0.31417283 86:0.50276834 87:0.7327435 88:0.83053625 89:0.46482438 90:0.84856546 91:1.1964774 92:1.2824738 93:0.49700066 94:1.0174506 95:1.3980143 96:1.4507697 97:0.28052187 98:0.32106355 99:0.37198269 100:0.42692471 101:0.60330755 102:0.68977928 103:0.29042241 104:0.65763551 105:1.0150955 106:1.1064917 107:0.34078613 108:0.82844567 109:1.2056081 110:1.2564464 111:0.065668233 112:0.57042885 113:0.47268176 114:0.52796447 115:0.58264434 116:0.21384726 117:0.45339772 118:0.82149994 119:0.92292619 120:0.27689686 121:0.58855772 122:0.95107543 123:1.001219 124:0.62923861 125:0.53061098 126:0.56484598 127:0.61015999 128:0.26405552 129:0.42735249 130:0.78579432 131:0.88715369 132:0.32937497 133:0.59040105 134:0.94229567 135:0.98882669 136:0.29008919 137:0.56670624 138:0.67712414 139:0.43536362 140:0.85991603 141:1.209389 142:1.2938025 143:0.41750839 144:0.94554597 145:1.322962 146:1.3792276 147:0.28541708 148:0.39704227 149:0.27325881 150:0.6526196 151:0.99538124 152:1.081948 153:0.21406765 154:0.68310976 155:1.0530211 156:1.1067445 157:0.11199702 158:0.33731067 159:0.4843322 160:0.77682561 161:0.85796404 162:0.28170383 163:0.49344733 164:0.83770269 165:0.87823462 166:0.41300109 167:0.44754729 168:0.70130038 169:0.77867454 170:0.36684224 171:0.44305915 172:0.76287246 173:0.79581475 174:0.44715983 175:0.81858587 176:0.91438729 177:0.075548656 178:0.5620777 179:0.9445489 180:0.99378711 181:0.37754509 182:0.47946125 183:0.47536346 184:0.43542528 185:0.72271866 186:0.73460501 187:0.10842285 188:0.84167504 189:0.65326113 190:0.76511604 191:0.73004603 192:0.93660867 193:0.74917459 194:0.83315343 195:0.78893697 196:0.54341519 197:0.92606759 198:0.97775036 199:0.38343978 200:0.43942711 201:0.092883855 #
4.5491435301822327e-005 1:115.80661 2:25.590725 3:-0.69319862 4:-0.60764861 5:1.3564808 6:105.20052 7:28.266609 8:0.050526571 9:-0.080756247 10:2.4868815 11:0.4636201 12:0.074736431 13:0.45191059 14:0.69555223 15:0.43263957 16:0.35123748 17:0.26472229 18:0.29589567 19:0.38245609 20:0.21485186 21:0.2823104 22:0.3454375 23:0.074687384 24:0.59632391 25:0.96616834 26:1.0168005 27:0.059183583 28:0.54085124 29:0.92553949 30:0.9893958 31:0.37722844 32:0.62136382 33:0.3653335 34:0.32301095 35:0.25801316 36:0.29276872 37:0.31291255 38:0.2024118 39:0.32887238 40:0.3996655 41:0.14292115 42:0.66751301 43:1.0371211 44:1.0873736 45:0.12018399 46:0.61302257 47:0.9975878 48:1.0614513 49:0.25081655 50:0.16683193 51:0.41147909 52:0.46336502 53:0.49210289 54:0.17531689 55:0.43287465 56:0.65693295 57:0.73654735 58:0.5144127 59:1.0331025 60:1.399846 61:1.4482183 62:0.49104527 63:0.98334593 64:1.3656667 65:1.4295528 66:0.32733622 67:0.59928781 68:0.66124117 69:0.68118864 70:0.38016626 71:0.66685337 72:0.89115751 73:0.96959627 74:0.7549091 75:1.2705057 76:1.6365542 77:1.6808262 78:0.7359792 79:1.2229247 80:1.6068828 81:1.668201 82:0.28340355 83:0.36539611 84:0.39877227 85:0.30339175 86:0.48861644 87:0.67461175 88:0.74588937 89:0.47782215 90:0.9747631 91:1.3402829 92:1.3846747 93:0.48356402 94:0.94460493 95:1.3247784 96:1.3870553 97:0.24838506 98:0.30837154 99:0.46492973 100:0.50302607 101:0.61399549 102:0.66669607 103:0.35922915 104:0.77087957 105:1.1301887 106:1.176542 107:0.39965531 108:0.77457029 109:1.1226141 110:1.1876335 111:0.072329342 112:0.48197886 113:0.43468204 114:0.47939116 115:0.52137184 116:0.25077575 117:0.66077662 118:1.0263556 119:1.0617785 120:0.3144204 121:0.64562219 122:1.0255458 123:1.0778923 124:0.51100892 125:0.45603144 126:0.48305234 127:0.52018291 128:0.27932319 129:0.66346651 130:1.0241164 131:1.0546534 132:0.34254786 133:0.64356524 134:1.0285739 135:1.0761117 136:0.30112317 137:0.54602313 138:0.62967485 139:0.45418936 140:0.9686771 141:1.3322518 142:1.3849622 143:0.40533698 144:0.90390527 145:1.2800558 146:1.3460163 147:0.25581309 148:0.34107479 149:0.27356276 150:0.71761107 151:1.0664963 152:1.1216823 153:0.19312714 154:0.64914221 155:1.0212898 156:1.0862712 157:0.086859599 158:0.27948967 159:0.521532 160:0.84671968 161:0.89784348 162:0.23991521 163:0.46441498 164:0.82906532 165:0.8873145 166:0.32778117 167:0.46847454 168:0.77665573 169:0.82613403 170:0.30403349 171:0.42183504 172:0.77362406 173:0.82878202 174:0.53272033 175:0.90385193 176:0.9528451 177:0.093381234 178:0.48238939 179:0.86886096 180:0.93121034 181:0.39495558 182:0.4466379 183:0.57236052 184:0.25356451 185:0.47512591 186:0.52558285 187:0.10396641 188:0.93935984 189:0.54537606 190:0.46228808 191:0.47459021 192:0.99239188 193:0.59241027 194:0.49394548 195:0.49595973 196:0.5105933 197:0.89082891 198:0.95566201 199:0.42012405 200:0.47026893 201:0.10335565 #
-4.5371296514838424e-006 1:100.83074 2:9.385745 3:-0.2490018 4:-0.37007391 5:0.80878401 6:116.73006 7:45.698681 8:0.1030454 9:-0.084187344 10:1.6984465 11:0.095739655 12:0.067468874 13:0.40822291 14:0.57641447 15:0.34715089 16:0.22073165 17:0.35677215 18:0.40156564 19:0.33807397 20:0.27497283 21:0.33979627 22:0.39282715 23:0.10121327 24:0.60330802 25:0.95301604 26:1.0170131 27:0.088081591 28:0.55304068 29:0.91831154 30:0.96112108 31:0.34082478 32:0.509646 33:0.29449964 34:0.22679162 35:0.40446803 36:0.45432344 37:0.27839252 38:0.26496404 39:0.34878582 40:0.40399909 41:0.16027869 42:0.66691744 43:1.0146518 44:1.0774292 45:0.14040455 46:0.61779898 47:0.98318303 48:1.0266812 49:0.18272419 50:0.22389416 51:0.45244449 52:0.69295174 53:0.75343007 54:0.19469227 55:0.433718 56:0.52442461 57:0.56994098 58:0.49151409 59:0.99494392 60:1.3338078 61:1.3917671 62:0.47047114 63:0.95129389 64:1.3152795 65:1.3611547 66:0.34495094 67:0.60160846 68:0.84686631 69:0.90657657 70:0.32767957 71:0.58439189 72:0.65548468 73:0.69165826 74:0.65598226 75:1.152078 76:1.476526 77:1.528901 78:0.63879222 79:1.1160913 80:1.4868201 81:1.5289952 82:0.28116021 83:0.53347063 84:0.59860235 85:0.34219363 86:0.50373542 87:0.5728482 88:0.61555821 89:0.39216083 90:0.86979967 91:1.1986907 92:1.2547014 93:0.42988399 94:0.85834301 95:1.2244416 96:1.2643124 97:0.27019277 98:0.33128762 99:0.46583891 100:0.4787181 101:0.50587982 102:0.54057914 103:0.19044979 104:0.59967351 105:0.92864108 106:0.98731995 107:0.29012242 108:0.60528547 109:0.96746486 110:1.0015323 111:0.07298556 112:0.67383599 113:0.60078561 114:0.57857209 115:0.59221286 116:0.26584709 117:0.39819816 118:0.71478963 119:0.77689767 120:0.37186611 121:0.43618059 122:0.77375293 123:0.79963726 124:0.7258426 125:0.63510388 126:0.59967154 127:0.6064409 128:0.30799049 129:0.34241185 130:0.64743876 131:0.70912427 132:0.40567929 133:0.38997114 134:0.72181445 135:0.74245209 136:0.27156112 137:0.40275162 138:0.46052045 139:0.43665037 140:0.92542547 141:1.2730198 142:1.3343426 143:0.3708877 144:0.85935295 145:1.2112534 146:1.260887 147:0.24121743 148:0.3151018 149:0.35765588 150:0.75600481 151:1.1063541 152:1.1727631 153:0.24073866 154:0.66898751 155:0.99232948 156:1.0445095 157:0.076556236 158:0.38031587 159:0.68371165 160:1.0199499 161:1.0822376 162:0.29145348 163:0.61100942 164:0.93512529 165:0.9779737 166:0.42172053 167:0.66963679 168:0.99601185 169:1.0567027 170:0.34652564 171:0.59982574 172:0.91778266 173:0.95750451 174:0.51945311 175:0.86677253 176:0.93088794 177:0.13118942 178:0.48611048 179:0.85261297 180:0.89169222 181:0.40901464 182:0.48449901 183:0.56933665 184:0.28215298 185:0.47518885 186:0.48400414 187:0.10621569 188:0.92221463 189:0.53533065 190:0.5343067 191:0.47047937 192:0.98847198 193:0.60799247 194:0.60760128 195:0.53378975 196:0.49885324 197:0.85773963 198:0.9027158 199:0.39780271 200:0.42661211 201:0.1013111 #
4.5491435301822327e-005 1:64.678589 2:41.587975 3:-0.53689909 4:-0.56752813 5:0.3457377 6:67.950333 7:66.264854 8:0.072150059 9:-0.055623181 10:0.023049181 11:0.090966582 12:0.079606675 13:0.47914863 14:0.73064578 15:0.52024323 16:0.47951248 17:0.24786559 18:0.24128221 19:0.43444294 20:0.27017087 21:0.25421426 22:0.3024472 23:0.044208825 24:0.55470484 25:0.89824092 26:0.97157919 27:0.029907983 28:0.57955754 29:0.92485386 30:0.97725737 31:0.3995904 32:0.65272576 33:0.44667122 34:0.42074454 35:0.19760291 36:0.2024222 37:0.35959402 38:0.23106086 39:0.28881416 40:0.34948829 41:0.11974091 42:0.63313806 43:0.97764826 44:1.0510025 45:0.099513672 46:0.65724677 47:1.0027306 48:1.0560786 49:0.2743077 50:0.16837142 51:0.30560896 52:0.33625934 53:0.3800309 54:0.17369428 55:0.39084408 56:0.61192358 57:0.68846893 58:0.51713002 59:1.0285119 60:1.3766658 61:1.4499379 62:0.49714276 63:1.0527034 64:1.3974581 65:1.4539721 66:0.29122475 67:0.45675978 68:0.55211961 69:0.5831182 70:0.40064389 71:0.64290547 72:0.85688597 73:0.92884088 74:0.76453018 75:1.2655072 76:1.6245338 77:1.693423 78:0.751562 79:1.3083429 80:1.6547655 81:1.7050018 82:0.17012975 83:0.31234968 84:0.35771504 85:0.32598755 86:0.51018554 87:0.70624059 88:0.77767318 89:0.55072832 90:1.0411028 91:1.3996882 92:1.4709195 93:0.54340583 94:1.0918263 95:1.4299594 96:1.4864933 97:0.2594099 98:0.3070761 99:0.42554411 100:0.54365969 101:0.70450127 102:0.7696113 103:0.50153524 104:0.95282751 105:1.3091401 106:1.3799917 107:0.50368643 108:1.0172859 109:1.3427358 110:1.4018873 111:0.069657303 112:0.38301834 113:0.38496262 114:0.48003519 115:0.53474253 116:0.26501667 117:0.73339516 118:1.0973022 119:1.1658626 120:0.27594218 121:0.80093765 122:1.1373581 123:1.1873078 124:0.42179072 125:0.40338701 126:0.47180054 127:0.52000749 128:0.25166613 129:0.70276988 130:1.0707844 131:1.1373093 132:0.27041987 133:0.78064144 134:1.1161406 135:1.1616596 136:0.26088908 137:0.5063284 138:0.58775753 139:0.4773654 140:0.98522383 141:1.3130696 142:1.3892223 143:0.44386134 144:0.97738802 145:1.3206775 146:1.3802575 147:0.25483122 148:0.33887792 149:0.31054807 150:0.77255315 151:1.0763386 152:1.1537312 153:0.26312193 154:0.73596108 155:1.0764606 156:1.1354365 157:0.084691077 158:0.26243249 159:0.56834465 160:0.85027361 161:0.92405748 162:0.23094621 163:0.51690537 164:0.85571957 165:0.90415394 166:0.29930538 167:0.5156675 168:0.78470725 169:0.85591429 170:0.2792705 171:0.45970613 172:0.79373932 173:0.83610833 174:0.51370746 175:0.86185408 176:0.93409467 177:0.051738348 178:0.54846084 179:0.89269948 180:0.94304794 181:0.37733206 182:0.43840781 183:0.54309267 184:0.22649096 185:0.45666501 186:0.4783023 187:0.093362048 188:0.880584 189:0.34631035 190:0.15131187 191:0.12845959 192:0.95495647 193:0.43071866 194:0.21455757 195:0.1345892 196:0.55814588 197:0.90399051 198:0.9575966 199:0.34831899 200:0.40416357 201:0.11270345 #
-4.5491435301822327e-005 1:58.134445 2:33.656536 3:-0.42412019 4:-0.29118589 5:2.7733407 6:79.787827 7:70.701218 8:0.21628261 9:0.007390717 10:0.27733406 11:0.085543789 12:0.12143709 13:0.7165246 14:0.89661318 15:0.61716902 16:0.72372305 17:0.81180501 18:0.84993643 19:0.74431652 20:0.68517083 21:0.57282466 22:0.49153093 23:0.070607297 24:0.50689763 25:1.0397794 26:1.0817108 27:0.10068565 28:0.54964036 29:1.0496724 30:1.0626991 31:0.59746534 32:0.77866608 33:0.50297171 34:0.61025333 35:0.70407778 36:0.74478823 37:0.62915915 38:0.57848936 39:0.47068569 40:0.40400469 41:0.16978301 42:0.62389708 43:1.1562515 44:1.1976572 45:0.21314171 46:0.66727722 47:1.1645479 48:1.1752315 49:0.19330548 50:0.22162676 51:0.16493271 52:0.31714228 53:0.37252158 54:0.20506993 55:0.25118753 56:0.3413088 57:0.44764811 58:0.75798315 59:1.2051771 60:1.7273411 61:1.7626225 62:0.80342281 63:1.2454015 64:1.7225659 65:1.7217051 66:0.38195395 67:0.27698523 68:0.30579939 69:0.3406426 70:0.273247 71:0.32975224 72:0.43916887 73:0.54491347 74:0.94084573 75:1.3856375 76:1.9042795 77:1.9375609 78:0.98002392 79:1.4226093 80:1.8957108 81:1.891372 82:0.19674681 83:0.33187637 84:0.39788848 85:0.36093435 86:0.40384293 87:0.43945387 88:0.51271671 89:0.64180142 90:1.1035283 91:1.6274662 92:1.6679685 93:0.71274894 94:1.1472992 95:1.6270405 96:1.6324404 97:0.21969257 98:0.2856361 99:0.36415985 100:0.38368639 101:0.4596321 102:0.55043453 103:0.75512755 104:1.1982589 105:1.711439 106:1.7452043 107:0.81601107 108:1.2332807 109:1.6953058 110:1.6920885 111:0.070327148 112:0.47085378 113:0.46537966 114:0.60003722 115:0.71040595 116:0.84180623 117:1.2790663 118:1.7831128 119:1.8142987 120:0.90351295 121:1.3123399 122:1.764688 123:1.7579941 124:0.51063722 125:0.49749392 126:0.64502937 127:0.75973213 128:0.87924957 129:1.312041 130:1.8125732 131:1.8424286 132:0.94124389 133:1.3448534 134:1.7927551 135:1.7846028 136:0.18535359 137:0.29589775 138:0.40899664 139:0.79416311 140:1.233093 141:1.757677 142:1.7956005 143:0.82061797 144:1.2796017 145:1.7688625 146:1.7714944 147:0.22161886 148:0.35843232 149:0.73741114 150:1.1528716 151:1.6670654 152:1.6984738 153:0.75537169 154:1.1912183 155:1.6645099 156:1.6606196 157:0.13749096 158:0.62887961 159:1.0476031 160:1.5655172 161:1.5987632 162:0.63934714 163:1.0850579 164:1.5654846 165:1.5645366 166:0.55017108 167:0.9627431 168:1.4831467 169:1.5185089 170:0.54939491 171:0.99963379 172:1.4852941 173:1.4876572 174:0.47027758 175:1.0025722 176:1.0462625 177:0.1254981 178:0.51885337 179:1.0154331 180:1.0312291 181:0.53538901 182:0.58112305 183:0.43742353 184:0.12220129 185:0.57988501 186:0.60926986 187:0.081594832 188:0.96689516 189:0.52487898 190:0.2098832 191:0.26774868 192:1.0090699 193:0.56130207 194:0.19015849 195:0.22825965 196:0.4722583 197:0.97572899 198:0.98963374 199:0.50596148 200:0.52800202 201:0.081480235 #
4.5491435301822327e-005 1:108.71307 2:22.145079 3:-0.61158741 4:-0.56254792 5:1.0727937 6:90.353661 7:10.50951 8:0.12782571 9:-0.054352671 10:1.2873524 11:0.31112298 12:0.093697973 13:0.56474185 14:0.77422023 15:0.48186249 16:0.36754215 17:0.30097198 18:0.29869539 19:0.41491622 20:0.22999193 21:0.28625989 22:0.34854287 23:0.052329153 24:0.57081306 25:0.89457089 26:0.96310234 27:0.04465922 28:0.53787208 29:0.8921901 30:0.95069307 31:0.4711132 32:0.68079036 33:0.39507353 34:0.30373472 35:0.25932711 36:0.26629508 37:0.32581291 38:0.19373241 39:0.33120763 40:0.40505922 41:0.1384774 42:0.65880001 43:0.98523605 44:1.053475 45:0.12673499 46:0.62979573 47:0.98308432 48:1.0410922 49:0.21198323 50:0.18329047 51:0.3722322 52:0.45696235 53:0.4914968 54:0.21726543 55:0.48072568 56:0.72084308 57:0.80556774 58:0.60582584 59:1.114069 60:1.4454544 61:1.5123326 62:0.59475487 63:1.0959252 64:1.4454643 65:1.5018569 66:0.34443069 67:0.5418911 68:0.64591783 69:0.68210393 70:0.40385902 71:0.68208265 72:0.92485899 73:1.0096569 74:0.81473422 75:1.3210162 76:1.6513598 77:1.7180415 78:0.80430394 79:1.3043957 80:1.65346 81:1.7104517 82:0.21173957 83:0.3418788 84:0.39083719 85:0.285537 86:0.47751415 87:0.68930429 88:0.76736808 89:0.51280063 90:1.0029132 91:1.3345793 92:1.3994323 93:0.51956242 94:0.99525934 95:1.3458652 96:1.4020699 97:0.25805593 98:0.3171688 99:0.3682119 100:0.44571322 101:0.61379391 102:0.68135673 103:0.38350171 104:0.84313905 105:1.1689262 106:1.2341726 107:0.4079836 108:0.83855122 109:1.1853882 110:1.2437497 111:0.070825458 112:0.40987274 113:0.37895972 114:0.46776614 115:0.52656591 116:0.307753 117:0.73095673 118:1.069832 119:1.1287798 120:0.34067172 121:0.74434257 122:1.0875473 123:1.1305411 124:0.43097195 125:0.37350631 126:0.43344736 127:0.4888595 128:0.30330378 129:0.70663381 130:1.0473275 131:1.1046448 132:0.33510894 133:0.72244316 134:1.0613585 135:1.1004266 136:0.28463677 137:0.54177493 138:0.63004899 139:0.46306053 140:0.97376245 141:1.2975347 142:1.3670658 143:0.43474603 144:0.94104493 145:1.2870148 146:1.346199 147:0.26628464 148:0.35540214 149:0.27667886 150:0.737948 151:1.0498861 152:1.1200594 153:0.22506534 154:0.7002027 155:1.0402806 156:1.0974082 157:0.090304807 158:0.29234344 159:0.55075365 160:0.84587222 161:0.91176003 162:0.25730884 163:0.52863812 164:0.84868217 165:0.89532208 166:0.34298882 167:0.49796098 168:0.78022724 169:0.84416676 170:0.31854922 171:0.48409736 172:0.7887547 173:0.83121043 174:0.52657825 175:0.85235989 176:0.92012966 177:0.068849988 178:0.49747127 179:0.85303921 180:0.91028726 181:0.38528806 182:0.44525027 183:0.55309057 184:0.23176944 185:0.44240615 186:0.48085293 187:0.10379238 188:0.87184232 189:0.42189556 190:0.39890668 191:0.417135 192:0.94139719 193:0.48719552 194:0.41897371 195:0.42741755 196:0.51323205 197:0.86571622 198:0.92552316 199:0.39846861 200:0.45794258 201:0.10747069 #
-4.5491435301822327e-005 1:106.23997 2:35.538021 3:-0.55262399 4:-0.25137401 5:1.215351 6:119.59492 7:0.68590879 8:0.15056729 9:-0.061702412 10:1.8230265 11:0.12554905 12:0.10164123 13:0.52980876 14:0.72081131 15:0.38488695 16:0.20119987 17:0.28428078 18:0.34857494 19:0.42434877 20:0.30455747 21:0.35689494 22:0.4209325 23:0.063076578 24:0.55374861 25:0.94173843 26:0.99224079 27:0.06342952 28:0.56463307 29:0.82683355 30:0.90154266 31:0.44589657 32:0.63984752 33:0.30487949 34:0.20992573 35:0.36650565 36:0.43614274 37:0.34398592 38:0.27331999 39:0.41035268 40:0.47769564 41:0.14581075 42:0.63958758 43:1.0221044 44:1.0769216 45:0.15204348 46:0.6507256 47:0.92373592 48:0.99885976 49:0.20571683 50:0.21677609 51:0.5067144 52:0.74683928 53:0.82682335 54:0.17653935 55:0.48785383 56:0.72704941 57:0.7952624 58:0.57543004 59:1.0686377 60:1.4611906 61:1.5128402 62:0.57674527 63:1.0633543 64:1.3065047 65:1.3671451 66:0.39814219 67:0.69544065 68:0.93405616 69:1.0139447 70:0.3414239 71:0.65288991 72:0.88998085 73:0.95523959 74:0.76717144 75:1.2520615 76:1.6496909 77:1.6994609 78:0.76543051 79:1.2483034 80:1.4736211 81:1.5290132 82:0.31576297 83:0.57309788 84:0.65607899 85:0.26157847 86:0.46363479 87:0.66511697 88:0.7361424 89:0.41529468 90:0.92883378 91:1.3067265 92:1.3610753 93:0.44233054 94:0.9367075 95:1.1851301 96:1.2508038 97:0.26414216 98:0.34794131 99:0.46449354 100:0.46287706 101:0.5269205 102:0.59100693 103:0.18505274 104:0.66900611 105:1.0294621 106:1.0789526 107:0.2524839 108:0.67966789 109:0.92267454 110:0.99109596 111:0.085229069 112:0.6713661 113:0.5586319 114:0.47813618 115:0.52064627 116:0.23762394 117:0.47296959 118:0.80844474 119:0.8479811 120:0.28169259 121:0.47112471 122:0.69882601 123:0.7673763 124:0.74458736 125:0.60763258 126:0.49104488 127:0.52351862 128:0.30197471 129:0.42150599 130:0.73789757 131:0.77408224 132:0.33475479 133:0.41434526 134:0.6382302 135:0.70700765 136:0.31700483 137:0.56914365 138:0.63503015 139:0.47954896 140:0.93814093 141:1.3355047 142:1.3861575 143:0.45953608 144:0.9302237 145:1.1821201 146:1.2453359 147:0.30110914 148:0.35867119 149:0.35930651 150:0.68118715 151:1.0727776 152:1.1230637 153:0.29453939 154:0.67722297 155:0.95141208 156:1.0228496 157:0.071476288 158:0.38361359 159:0.47398078 160:0.87339801 161:0.90552723 162:0.30589998 163:0.45245129 164:0.67981213 165:0.74534905 166:0.4434582 167:0.45632038 168:0.84434301 169:0.87242252 170:0.3671402 171:0.42801538 172:0.64484054 173:0.70863718 174:0.52351844 175:0.90235913 176:0.9538824 177:0.09029644 178:0.54250389 179:0.80493879 180:0.88145965 181:0.42721292 182:0.46703732 183:0.50415862 184:0.21387415 185:0.46002871 186:0.54911721 187:0.10600299 188:0.89755422 189:0.48665386 190:0.5565871 191:0.63243955 192:0.94654369 193:0.51586765 194:0.52550954 195:0.58935481 196:0.51451379 197:0.77613163 198:0.85188711 199:0.41629991 200:0.49623817 201:0.1120525 #
4.5491435301822327e-005 1:84.548073 2:57.915764 3:-0.57141447 4:-0.48568261 5:0.097819589 6:72.509422 7:69.488495 8:0.087516718 9:-0.083771497 10:0.006521306 11:0.34691405 12:0.072861917 13:0.44041383 14:0.65539259 15:0.45087716 16:0.20014991 17:0.2284748 18:0.34655553 19:0.37399501 20:0.21859857 21:0.36282343 22:0.43478197 23:0.057691086 24:0.62334269 25:1.0319635 26:1.0695169 27:0.048373412 28:0.60581464 29:0.97938043 30:1.0281448 31:0.36760893 32:0.58281606 33:0.38594148 34:0.15413767 35:0.26878199 36:0.39578184 37:0.307347 38:0.21203668 39:0.40997833 40:0.48759496 41:0.12440428 42:0.69156206 43:1.0994899 44:1.1388309 45:0.11104073 46:0.67785239 47:1.0510714 48:1.1007568 49:0.21722309 50:0.17628984 51:0.31614649 52:0.58158785 53:0.71334881 54:0.17759402 55:0.44595692 56:0.72102308 57:0.80680841 58:0.4875316 59:1.0423923 60:1.4451132 61:1.4912158 62:0.47491708 63:1.0434475 64:1.4149053 65:1.4677292 66:0.28483057 67:0.51260859 68:0.78176296 69:0.91180116 70:0.3571426 71:0.646218 72:0.91861451 73:1.0037274 74:0.70063812 75:1.2452463 76:1.6420094 77:1.6922355 78:0.69088113 79:1.2596904 80:1.6313301 81:1.6832606 82:0.29801089 83:0.60750318 84:0.74234521 85:0.33031487 86:0.52870935 87:0.76027602 88:0.83478796 89:0.48273209 90:0.99583286 91:1.3937765 92:1.4456439 93:0.49505103 94:1.0380328 95:1.4045743 96:1.4548025 97:0.32008228 98:0.45390889 99:0.31978855 100:0.30268994 101:0.47635269 102:0.5462904 103:0.22425364 104:0.73674822 105:1.1342859 106:1.1826481 107:0.24304113 108:0.77864236 109:1.1501192 110:1.1910766 111:0.13576196 112:0.49856979 113:0.22350566 114:0.15720515 115:0.22935914 116:0.21940468 117:0.55695671 118:0.92837316 119:0.96851033 120:0.21314718 121:0.5670256 122:0.93253535 123:0.95843834 124:0.61950386 125:0.32098997 126:0.080995232 127:0.10551983 128:0.32910007 129:0.50850695 130:0.84621239 131:0.88224185 132:0.32185209 133:0.50600171 134:0.85159808 135:0.86709142 136:0.31486639 137:0.61753058 138:0.71038389 139:0.4299607 140:0.99482024 141:1.3974495 142:1.4358479 143:0.39341119 144:0.95268935 145:1.3217467 146:1.3769215 147:0.31019235 148:0.40541214 149:0.25997844 150:0.74789232 151:1.1322726 152:1.1651912 153:0.20309602 154:0.69029111 155:1.0573436 156:1.1008422 157:0.096554384 158:0.34978864 159:0.53674912 160:0.87016344 161:0.90253025 162:0.33396158 163:0.51439518 164:0.85785085 165:0.87444103 166:0.41203806 167:0.47950435 168:0.78735745 169:0.8198998 170:0.40694761 171:0.47931308 172:0.8042565 173:0.80991495 174:0.56808597 175:0.97772771 176:1.0163693 177:0.071208835 178:0.56435585 179:0.93742019 180:0.9839679 181:0.41767681 182:0.45872122 183:0.60802519 184:0.31703243 185:0.54367781 186:0.54036093 187:0.10039808 188:1.0150898 189:0.60433096 190:0.56234246 191:0.48016825 192:1.0492254 193:0.59698671 194:0.50092971 195:0.40968508 196:0.57146811 197:0.94504869 198:0.99482775 199:0.37492555 200:0.42727429 201:0.12078713 #
-2.4306465417869287e-005 1:85.390236 2:50.589893 3:-0.51981401 4:-0.62032872 5:0.023954537 6:46.982761 7:37.770504 8:0.2286637 9:-0.01368675 10:0.0071863611 11:0.17713481 12:0.085860506 13:0.52161211 14:0.74592775 15:0.44869387 16:0.2456584 17:0.36124113 18:0.42110395 19:0.37718141 20:0.27151263 21:0.26060277 22:0.32094771 23:0.073815681 24:0.66000772 25:1.0530422 26:1.0800383 27:0.058165576 28:0.66206425 29:1.0231434 30:1.0915482 31:0.43581206 32:0.66175896 33:0.37298506 34:0.22766565 35:0.39813152 36:0.46505776 37:0.29803574 38:0.24370429 39:0.31173834 40:0.38287944 41:0.15149681 42:0.7418803 43:1.1348658 44:1.1634334 45:0.1256852 46:0.74683094 47:1.1076851 48:1.1761404 49:0.24662064 50:0.21119377 51:0.48122889 52:0.71892405 53:0.79240459 54:0.2214985 55:0.47031131 56:0.69435757 57:0.77642268 58:0.5807761 59:1.1652755 60:1.5567397 61:1.590609 62:0.55486614 63:1.1807774 64:1.5407377 65:1.6091139 66:0.35242113 67:0.66392964 68:0.89680225 69:0.96726483 70:0.45573255 71:0.71064329 72:0.92891854 73:1.0064479 74:0.79894263 75:1.3896196 76:1.7833124 77:1.8139181 78:0.78318906 79:1.402196 80:1.7639019 81:1.8288606 82:0.32106972 83:0.54842412 84:0.62013471 85:0.32430673 86:0.50739825 87:0.67191637 88:0.74625248 89:0.48744956 90:1.0582074 91:1.4574935 92:1.4900186 93:0.4972699 94:1.0990896 95:1.4605563 96:1.5265926 97:0.2486316 98:0.32542399 99:0.44188765 100:0.45520833 101:0.48770136 102:0.54037392 103:0.23557582 104:0.75832379 105:1.1629329 106:1.1914804 107:0.29970321 108:0.81109762 109:1.1673738 110:1.2315893 111:0.080897927 112:0.66406202 113:0.61111701 114:0.54454964 115:0.56595677 116:0.30387357 117:0.58960277 118:0.98520464 119:1.0125799 120:0.39733711 121:0.69172359 122:1.0256596 123:1.0865825 124:0.73613316 125:0.67401004 126:0.58732176 127:0.59918737 128:0.35882193 129:0.55796301 130:0.94304514 131:0.96827412 132:0.4526597 133:0.67151856 134:0.99364829 135:1.0521106 136:0.25755665 137:0.49728698 138:0.58151412 139:0.44801548 140:1.0161161 141:1.3963276 142:1.4292952 143:0.39207122 144:1.008698 145:1.362349 146:1.4324771 147:0.26684892 148:0.35675785 149:0.33709848 150:0.81511527 151:1.1776249 152:1.2126291 153:0.24755496 154:0.79662973 155:1.137598 156:1.2112887 157:0.096969351 158:0.27611855 159:0.59253943 160:0.94144386 161:0.96839023 162:0.20617364 163:0.54156864 164:0.88031429 165:0.95299816 166:0.31984007 167:0.54548854 168:0.88086849 169:0.90228808 170:0.26822612 171:0.46642733 172:0.80047178 173:0.87160319 174:0.60261768 175:1.0002785 176:1.0258248 177:0.099506035 178:0.61304265 179:0.97452509 180:1.041804 181:0.42742482 182:0.46213108 183:0.63880724 184:0.29277775 185:0.50627095 186:0.5787943 187:0.10185623 188:1.0242629 189:0.50538111 190:0.38690552 191:0.43294689 192:1.0510961 193:0.5001837 194:0.33368474 195:0.36376235 196:0.62760007 197:0.98694533 198:1.0562623 199:0.36271802 200:0.42987245 201:0.086577721 #
4.5491435301822327e-005 1:96.218575 2:29.371792 3:-0.64748597 4:-0.53871238 5:1.0679027 6:146.74815 7:35.322796 8:0.1052394 9:-0.045463961 10:1.3882735 11:0.34719181 12:0.098722652 13:0.59594727 14:0.76398551 15:0.48996964 16:0.34132856 17:0.22285275 18:0.23411247 19:0.50678861 20:0.31831181 21:0.32715824 22:0.3755514 23:0.055960804 24:0.50216389 25:0.86481464 26:0.90888339 27:0.074362278 28:0.51569849 29:0.84059942 30:0.90482241 31:0.49729493 32:0.66663396 33:0.39638323 34:0.28426874 35:0.17341147 36:0.20151325 37:0.41777253 38:0.27413017 39:0.3527225 40:0.40942544 41:0.13629577 42:0.59594095 43:0.96030301 44:1.0053484 45:0.16319638 46:0.61022377 47:0.93416327 48:0.99761796 49:0.19671941 50:0.20139983 51:0.45244297 52:0.4785665 53:0.51491362 54:0.22248353 55:0.48818371 56:0.69955188 57:0.76031089 58:0.62702864 59:1.0815867 60:1.4476246 61:1.4956392 62:0.65485418 63:1.0969229 64:1.415315 65:1.475968 66:0.37587115 67:0.63288838 68:0.6254276 69:0.64800918 70:0.34557989 71:0.6334092 72:0.82369059 73:0.88159317 74:0.79941058 75:1.2511371 76:1.6195251 77:1.6623211 78:0.81687301 79:1.2536012 80:1.5765412 81:1.6310221 82:0.26554853 83:0.37192968 84:0.43169853 85:0.32678607 86:0.48427576 87:0.68023711 88:0.74220765 89:0.51021296 90:0.95895332 91:1.3174725 92:1.3683909 93:0.55532098 94:0.99564433 95:1.3085281 96:1.3748078 97:0.27966911 98:0.35820451 99:0.49311739 100:0.48994273 101:0.62766951 102:0.68397272 103:0.33970851 104:0.74696296 105:1.090938 106:1.1447618 107:0.40446246 108:0.80518669 109:1.1013877 110:1.1731706 111:0.081640765 112:0.45693243 113:0.39378902 114:0.42986265 115:0.48579392 116:0.25227618 117:0.67127919 118:1.0343096 119:1.0693672 120:0.26022202 121:0.67660052 122:1.0048734 123:1.0595949 124:0.47340658 125:0.39181247 126:0.38398924 127:0.4373014 128:0.26975903 129:0.66111404 130:1.0228343 131:1.0520942 132:0.252628 133:0.6503861 134:0.98366439 135:1.0325782 136:0.30530402 137:0.53468066 138:0.5924651 139:0.54357278 140:0.97687709 141:1.3390057 142:1.3869348 143:0.55603796 144:0.9764902 145:1.2915195 146:1.3503143 147:0.29514533 148:0.34340078 149:0.35321465 150:0.71808338 151:1.0724312 152:1.1215589 153:0.34450215 154:0.71256059 155:1.0166565 156:1.0765803 157:0.071584478 158:0.36017644 159:0.58740377 160:0.92401898 161:0.95387566 162:0.29560015 163:0.52385563 164:0.83847117 165:0.88207251 166:0.40317467 167:0.57413721 168:0.8982051 169:0.92606932 170:0.33840522 171:0.5048008 172:0.80884248 173:0.84957355 174:0.47347486 175:0.83208942 176:0.87864685 177:0.09916956 178:0.50106531 179:0.81963086 180:0.88683444 181:0.39734378 182:0.4518162 183:0.4550384 184:0.26763159 185:0.42941186 186:0.49717239 187:0.11153109 188:0.81756145 189:0.46902764 190:0.37085202 191:0.40024075 192:0.85780638 193:0.49025258 194:0.39568526 195:0.41813093 196:0.45361802 197:0.78362703 198:0.84499514 199:0.37325519 200:0.42894611 201:0.11336951 #
-4.5491435301822327e-005 1:116.18121 2:44.520828 3:-0.57736611 4:-0.2372815 5:2.1492672 6:123.06026 7:102.7741 8:0.1613591 9:-0.021535421 10:0.2149267 11:0.39561725 12:0.084666915 13:0.50261438 14:0.75097144 15:0.51653993 16:0.36488107 17:0.31805271 18:0.37691647 19:0.38488683 20:0.21230808 21:0.26603663 22:0.34897164 23:0.039811004 24:0.5848285 25:0.94551623 26:1.020142 27:0.059213396 28:0.63625157 29:0.56601691 30:0.64951092 31:0.41799301 32:0.66637981 33:0.43632153 34:0.31477866 35:0.33122176 36:0.40852043 37:0.30638608 38:0.19824725 39:0.32923576 40:0.41614437 41:0.11500112 42:0.66711092 43:1.0204185 44:1.0972451 45:0.13689284 46:0.7161746 47:0.64686197 48:0.73249978 49:0.24905999 50:0.13947551 51:0.36744964 52:0.59331805 53:0.69816548 54:0.19711339 55:0.47124055 56:0.71288633 57:0.80075634 58:0.52933204 59:1.0770485 60:1.4044515 61:1.4881775 62:0.55216968 63:1.119783 64:1.0527104 65:1.1442574 66:0.29383022 67:0.57223499 68:0.81589937 69:0.921776 70:0.41069376 71:0.70193708 72:0.95418102 73:1.0413301 74:0.77784616 75:1.3222244 76:1.6370773 77:1.7232972 78:0.79978704 79:1.3634337 80:1.2964782 81:1.3901072 82:0.27917081 83:0.53037757 84:0.64125979 85:0.30737105 86:0.53958094 87:0.75264549 88:0.8388921 89:0.53495371 90:1.0700343 91:1.4067568 92:1.4910975 93:0.57220072 94:1.1196479 95:1.0440451 96:1.1362739 97:0.26373586 98:0.38164178 99:0.41607141 100:0.49437192 101:0.61798793 102:0.69485724 103:0.36344051 104:0.84653503 105:1.2076814 106:1.2874359 107:0.42205355 108:0.90657848 109:0.8215372 110:0.90833074 111:0.12579308 112:0.57139212 113:0.51526529 114:0.52150446 115:0.57875037 116:0.29027405 117:0.64582497 118:1.0398166 119:1.1095459 120:0.35259286 121:0.71988308 122:0.62340963 123:0.69561237 124:0.66129279 125:0.57112831 126:0.52221447 127:0.56336004 128:0.34422335 129:0.59712809 130:1.0084764 131:1.0701088 132:0.39510757 133:0.66574609 134:0.5791409 135:0.63606042 136:0.29372296 137:0.55301976 138:0.64031869 139:0.41952443 140:0.95755714 141:1.2775534 142:1.3579376 143:0.42187938 144:0.99230707 145:0.93755633 146:1.0247271 147:0.26878962 148:0.35475674 149:0.24881729 150:0.70600647 151:1.0202951 152:1.0953809 153:0.20688745 154:0.72913587 155:0.69624817 156:0.77429211 157:0.092029482 158:0.26950985 159:0.48239332 160:0.81105125 161:0.8764258 162:0.21204141 163:0.48443225 164:0.49411249 165:0.55102599 166:0.34733924 167:0.44107011 168:0.75681615 169:0.81690729 170:0.29418772 171:0.42578748 172:0.46790394 173:0.51038593 174:0.55885303 175:0.92849427 176:1.0020155 177:0.068971895 178:0.61349368 179:0.53896582 180:0.6216864 181:0.43250424 182:0.4829239 183:0.54210693 184:0.18278347 185:0.17593454 186:0.16267265 187:0.11091264 188:0.89989102 189:0.42296317 190:0.4463065 191:0.43034044 192:0.97318906 193:0.47720122 194:0.50441456 195:0.46534353 196:0.59106845 197:0.52637357 198:0.60749453 199:0.31131601 200:0.28243124 201:0.11625223 #
4.5491435301822327e-005 1:84.585022 2:28.71747 3:-0.47988299 4:-0.42647949 5:1.07832 6:67.869034 7:32.163284 8:0.13600311 9:-0.029215081 10:0.68293607 11:0.41969872 12:0.088607177 13:0.49689418 14:0.73338348 15:0.42234334 16:0.33563823 17:0.40892869 18:0.4475731 19:0.35270745 20:0.31828558 21:0.36190596 22:0.40683717 23:0.059389003 24:0.55457813 25:0.92732519 26:0.98609132 27:0.065581225 28:0.55869842 29:0.93435168 30:1.005639 31:0.41699257 32:0.6535812 33:0.35665369 34:0.31570458 35:0.35935089 36:0.39206859 37:0.2929928 38:0.30395567 39:0.30897698 40:0.34649187 41:0.13788989 42:0.63166279 43:1.0037718 44:1.0625745 45:0.13612278 46:0.63915819 47:1.0150524 48:1.0870785 49:0.24308647 50:0.16181926 51:0.39335763 52:0.27561229 53:0.24467482 54:0.2316338 55:0.40945664 56:0.26781091 57:0.2278446 58:0.53569013 59:1.0393354 60:1.4082756 61:1.4619853 62:0.54727256 63:1.0532693 64:1.4250244 65:1.4987227 66:0.35698387 67:0.59389263 68:0.45467526 69:0.41477761 70:0.43866816 71:0.61591357 72:0.46659261 73:0.41721743 74:0.77184153 75:1.2721188 76:1.6395301 77:1.6902896 78:0.7826122 79:1.2898968 80:1.6592362 81:1.7328728 82:0.2756387 83:0.18438946 84:0.1863714 85:0.21414658 86:0.30680341 87:0.17367795 88:0.15722275 89:0.44854081 90:0.94559884 91:1.3115091 92:1.3610538 93:0.48166031 94:0.97101539 95:1.3427111 96:1.4133925 97:0.21981554 98:0.28001994 99:0.31517306 100:0.12553285 101:0.21506023 102:0.25554696 103:0.33236751 104:0.77873713 105:1.1294533 106:1.1727738 107:0.39539826 108:0.81695974 109:1.1826388 110:1.244655 111:0.065201551 112:0.25221899 113:0.21432951 114:0.083759941 115:0.09013702 116:0.4274261 117:0.89858228 118:1.2493603 119:1.2935733 120:0.46423081 121:0.92815536 122:1.3004662 123:1.3643442 124:0.25438115 125:0.26848775 126:0.11378635 127:0.093283974 128:0.47082233 129:0.9415462 130:1.2910726 131:1.3354286 132:0.50006545 133:0.96835274 134:1.3398056 135:1.4042703 136:0.2801792 137:0.21286948 138:0.22952388 139:0.39427242 140:0.90179861 141:1.2711854 142:1.3272758 143:0.39536923 144:0.8902213 145:1.2520598 146:1.328223 147:0.20174627 148:0.25984555 149:0.3220444 150:0.77681613 151:1.1254612 152:1.1726838 153:0.36779946 154:0.79076004 155:1.1559964 156:1.2203072 157:0.062767662 158:0.38401839 159:0.86259818 160:1.2164539 161:1.2632279 162:0.41622275 163:0.8897233 164:1.2640862 165:1.3298495 166:0.43155745 167:0.90837252 168:1.2619925 169:1.3081079 170:0.46093646 171:0.93969488 172:1.3145599 173:1.3802718 174:0.51313913 175:0.88469994 176:0.94157231 177:0.090791985 178:0.52675372 179:0.90460509 180:0.97320515 181:0.38167986 182:0.44479206 183:0.51936513 184:0.18982008 185:0.48810849 186:0.5306232 187:0.10395517 188:0.89149475 189:0.45078552 190:0.42492375 191:0.39447743 192:0.95303732 193:0.52072239 194:0.47681341 195:0.43251884 196:0.51047653 197:0.88322407 198:0.95625597 199:0.39364746 200:0.45831433 201:0.10544693 #
-4.5491435301822327e-005 1:61.243958 2:17.585062 3:-0.30130279 4:-0.046128131 5:0.88805014 6:95.21048 7:25.285038 8:0.095283359 9:-0.072075091 10:0.76964349 11:0.63714331 12:0.068634108 13:0.41454637 14:0.65010071 15:0.42641556 16:0.17620556 17:0.32962772 18:0.41777548 19:0.35552865 20:0.2100441 21:0.28919542 22:0.36117834 23:0.050325092 24:0.59105855 25:0.93233413 26:1.0111294 27:0.047359481 28:0.59800315 29:0.99355221 30:1.0433971 31:0.34598631 32:0.58163309 33:0.37188059 34:0.14551803 35:0.36191759 36:0.45542315 37:0.29442677 38:0.20468651 39:0.33787206 40:0.41667882 41:0.11283603 42:0.65054679 43:0.9913736 44:1.0685376 45:0.10777879 46:0.66529435 47:1.060215 48:1.110763 49:0.23650135 50:0.23544206 51:0.3414194 52:0.61752868 53:0.71297145 54:0.18822055 55:0.42397311 56:0.64672989 57:0.73554689 58:0.45497927 59:0.96771753 60:1.3021017 61:1.3724852 62:0.45050249 63:1.0071495 64:1.3988528 65:1.4518666 66:0.36696139 67:0.56836247 68:0.83198017 69:0.92378736 70:0.36486641 71:0.64026564 72:0.87521094 73:0.96585172 74:0.69035441 75:1.1967635 76:1.5279558 77:1.5958676 78:0.68535602 79:1.2408974 80:1.6288751 81:1.6838807 82:0.31189442 83:0.50435936 84:0.58631372 85:0.38143456 86:0.53287399 87:0.70582289 88:0.78147769 89:0.44805554 90:0.90114909 91:1.2338774 92:1.3059224 93:0.4698284 94:0.97531521 95:1.3560131 96:1.4076319 97:0.29065049 98:0.38914475 99:0.35866314 100:0.33296636 101:0.42542556 102:0.49114937 103:0.18344323 104:0.63677037 105:0.97054243 106:1.0419766 107:0.21793348 108:0.71219403 109:1.1144785 110:1.1577959 111:0.098550603 112:0.63801479 113:0.53282976 114:0.4926604 115:0.51015633 116:0.29072765 117:0.42663169 118:0.75027537 119:0.82487249 120:0.34619468 121:0.56877458 122:0.94431853 123:0.97769248 124:0.73482275 125:0.61860573 126:0.55204785 127:0.55510616 128:0.37584206 129:0.38397175 130:0.690539 131:0.76530856 132:0.42925811 133:0.55092275 134:0.90352362 135:0.93227547 136:0.28240448 137:0.53029257 138:0.62429059 139:0.40357912 140:0.93312246 141:1.2674998 142:1.3408031 143:0.37657386 144:0.9264856 145:1.3112409 146:1.3669297 147:0.25650403 148:0.35106367 149:0.24781998 150:0.72852629 151:1.0540731 152:1.1302719 153:0.1942614 154:0.67158777 155:1.0534506 156:1.1071501 157:0.095539115 158:0.2824167 159:0.54354471 160:0.8418861 161:0.91625065 162:0.25048921 163:0.45960936 164:0.84452438 165:0.88797861 166:0.34471819 167:0.49190688 168:0.77131617 169:0.84466296 170:0.32256502 171:0.38920823 172:0.76965272 173:0.80823201 174:0.54489684 175:0.88679671 176:0.96612537 177:0.064745657 178:0.56013 179:0.95701396 180:1.0053858 181:0.34974825 182:0.43595099 183:0.57556719 184:0.35795677 185:0.6428985 186:0.6508919 187:0.10477804 188:0.91528922 189:0.58230305 190:0.65342617 191:0.60977948 192:0.99504328 193:0.6670348 194:0.72759545 195:0.66970378 196:0.56584966 197:0.9596163 198:1.010082 199:0.41508433 200:0.45594493 201:0.09892638 #
4.5491435301822327e-005 1:102.11737 2:30.083689 3:-0.5264017 4:-0.54799789 5:0.20968753 6:110.54236 7:64.446083 8:0.081566483 9:-0.052193791 10:0.048927091 11:0.22598884 12:0.10127132 13:0.61232853 14:0.78482479 15:0.44945538 16:0.30842295 17:0.20130597 18:0.21045534 19:0.51935637 20:0.26569575 21:0.41787809 22:0.46954551 23:0.066070467 24:0.50996822 25:0.89978683 26:0.9506014 27:0.081507027 28:0.54945052 29:0.87992507 30:0.94041741 31:0.51110697 32:0.68428522 33:0.35431972 34:0.25834146 35:0.15663113 36:0.1756497 37:0.42299941 38:0.18793313 39:0.36028168 40:0.41349092 41:0.1474442 42:0.60899496 43:0.99897844 44:1.0490897 45:0.17334868 46:0.64891255 47:0.97767717 48:1.0396112 49:0.18716866 50:0.23634374 51:0.49306259 52:0.50994426 53:0.5296278 54:0.17246336 55:0.41615045 56:0.42335483 57:0.43293211 58:0.65081227 59:1.1144081 60:1.503352 61:1.551495 62:0.67799753 63:1.1553196 64:1.4770316 65:1.5428724 66:0.41017339 67:0.67107588 68:0.67026323 69:0.68109995 70:0.29641351 71:0.56114691 72:0.53056365 73:0.52662754 74:0.82622355 75:1.2833871 76:1.6727519 77:1.7167361 78:0.84615278 79:1.3243136 80:1.654199 81:1.7167 82:0.2623753 83:0.33526874 84:0.3786726 85:0.28696185 86:0.33635274 87:0.41392782 88:0.43574095 89:0.47166723 90:0.94244039 91:1.3288267 92:1.377696 93:0.52511865 94:0.98792672 95:1.3021019 96:1.3718134 97:0.24194287 98:0.30999538 99:0.49295917 100:0.3695347 101:0.50808579 102:0.54192102 103:0.29480249 104:0.74004722 105:1.1140314 106:1.165911 107:0.3834779 108:0.78628826 109:1.0813482 110:1.1555537 111:0.071529232 112:0.44655511 113:0.20687321 114:0.3414385 115:0.38032135 116:0.21746066 117:0.65065742 118:1.0391674 119:1.0774781 120:0.25745413 121:0.69910884 122:1.0421691 123:1.0984788 124:0.44952244 125:0.18673702 126:0.30184993 127:0.3418532 128:0.23714748 129:0.64309955 130:1.0299913 131:1.0647593 132:0.25077358 133:0.68597662 134:1.041972 135:1.0929832 136:0.30270782 137:0.32354519 138:0.35553727 139:0.56904477 140:1.0103863 141:1.3972027 142:1.4444838 143:0.57280403 144:1.0472226 145:1.3746713 146:1.4345061 147:0.21811312 148:0.27752602 149:0.31830317 150:0.74278474 151:1.131549 152:1.1727713 153:0.30924997 154:0.7777015 155:1.1261867 156:1.1796174 157:0.067428418 158:0.46877515 159:0.82953751 160:1.2082543 161:1.24073 162:0.44569293 163:0.87295467 164:1.2237241 165:1.2666602 166:0.51776963 167:0.86473185 168:1.2400432 169:1.2691954 170:0.49678043 171:0.91291767 172:1.2622749 173:1.3025531 174:0.48297435 175:0.87055689 176:0.92197901 177:0.10973513 178:0.52099109 179:0.84527147 180:0.90916407 181:0.39914122 182:0.44770005 183:0.44876814 184:0.19275381 185:0.43281388 186:0.467118 187:0.1157101 188:0.83764333 189:0.41644788 190:0.23241507 191:0.19083792 192:0.88703835 193:0.47176751 194:0.32907352 195:0.26058272 196:0.48716965 197:0.82521856 198:0.88056695 199:0.40158015 200:0.44001102 201:0.11582621 #
-1.8909414325157304e-005 1:90.245186 2:24.772432 3:-0.1994202 4:-0.51649803 5:0.63738281 6:145.8965 7:25.056423 8:0.2324622 9:0.058755759 10:0.91358203 11:0.32258236 12:0.10628033 13:0.57787275 14:0.79622811 15:0.43594638 16:0.44662264 17:0.55041212 18:0.60908669 19:0.51698852 20:0.44172189 21:0.52090436 22:0.5858199 23:0.06817805 24:0.62418199 25:1.0363485 26:1.0834 27:0.080869861 28:0.67057788 29:1.0453475 30:1.0893182 31:0.48514631 32:0.70422864 33:0.34763858 34:0.40340438 35:0.55959171 36:0.62140471 37:0.43043834 38:0.39747769 39:0.54892033 40:0.62490726 41:0.14917596 42:0.72342402 43:1.1334 44:1.1827214 45:0.17908186 46:0.75667238 47:1.1316524 48:1.1776758 49:0.22791758 50:0.22390494 51:0.37496966 52:0.57473141 53:0.63473213 54:0.19656372 55:0.42134729 56:0.69114757 57:0.78681886 58:0.6244362 59:1.1850611 60:1.5947098 61:1.6343628 62:0.64105016 63:1.2136319 64:1.5867431 65:1.6285096 66:0.40984926 67:0.48211446 68:0.63524467 69:0.69244629 70:0.36238438 71:0.56671828 72:0.82186556 73:0.91674304 74:0.84049588 75:1.3954184 76:1.8016727 77:1.8389286 78:0.85973114 79:1.4259182 80:1.7969595 81:1.8381428 82:0.29428059 83:0.53582579 84:0.60630149 85:0.31362554 86:0.45186269 87:0.68503344 88:0.77142841 89:0.46896285 90:1.0340383 91:1.4425313 92:1.4878893 93:0.50721043 94:1.0814933 95:1.451405 96:1.4992015 97:0.25737929 98:0.33161062 99:0.42659196 100:0.46426994 101:0.63388604 102:0.71247095 103:0.49358824 104:0.99762064 105:1.4023306 106:1.4307897 107:0.49606854 108:1.07235 109:1.4426521 110:1.4818177 111:0.081601754 112:0.58562493 113:0.60196149 114:0.64392668 115:0.69786495 116:0.58781314 117:0.99492508 118:1.3899832 119:1.4065962 120:0.55997151 121:1.0839542 122:1.4501228 123:1.4811422 124:0.63535017 125:0.64683956 126:0.67289007 127:0.70798302 128:0.64194548 129:1.0055218 130:1.3968681 131:1.4098797 132:0.61536825 133:1.0980818 134:1.4610682 135:1.4898187 136:0.31705558 137:0.60421324 138:0.70149767 139:0.57102072 140:1.1045043 141:1.5127685 142:1.549041 143:0.56737226 144:1.1049066 145:1.4799645 146:1.5165565 147:0.30547833 148:0.40511405 149:0.5054307 150:0.98377979 151:1.3903902 152:1.4199817 153:0.46026537 154:0.98384684 155:1.3607306 156:1.386506 157:0.10512399 158:0.55918962 159:0.87897009 160:1.2697251 161:1.2901551 162:0.47357547 163:0.89461404 164:1.2595884 165:1.2738532 166:0.61229789 167:0.84744513 168:1.226251 169:1.2430634 170:0.53141367 171:0.87029147 172:1.2254362 173:1.2349384 174:0.58491081 175:0.99444288 176:1.046452 177:0.10700796 178:0.64160055 179:1.0119318 180:1.0589664 181:0.42708987 182:0.47257295 183:0.5717631 184:0.30416137 185:0.55502599 186:0.58791399 187:0.12285746 188:0.98417175 189:0.56913102 190:0.50637478 191:0.51340759 192:1.0286508 193:0.615291 194:0.53740174 195:0.5328083 196:0.61111456 197:0.98747301 198:1.0280156 199:0.39606148 200:0.43582764 201:0.11854524 #
4.5491435301822327e-005 1:94.284073 2:25.753023 3:-0.61506242 4:-0.59603763 5:0.84037083 6:74.250816 7:29.18187 8:0.13921221 9:-0.031754881 10:1.0924821 11:0.16742334 12:0.087307326 13:0.52648973 14:0.72634274 15:0.40952766 16:0.29420584 17:0.18491174 18:0.195141 19:0.43408552 20:0.29248384 21:0.17249535 22:0.25985754 23:0.09532135 24:0.54494178 25:0.92607892 26:0.9852736 27:0.11119017 28:0.57076263 29:0.92379111 30:0.99058789 31:0.43924287 32:0.63968396 33:0.32841319 34:0.25349137 35:0.15538034 36:0.18218315 37:0.35622847 38:0.22711426 39:0.19496429 40:0.30815938 41:0.1637115 42:0.62991613 43:1.0110649 44:1.0706055 45:0.18730201 46:0.65565598 47:1.0080352 48:1.0748513 49:0.21125746 50:0.20471233 51:0.43586633 52:0.45676982 53:0.49301806 54:0.20921679 55:0.34598985 56:0.53915834 57:0.674851 58:0.59067559 59:1.0636262 60:1.4428278 61:1.5035285 62:0.61542362 63:1.0873454 64:1.4361458 65:1.5027814 66:0.39227477 67:0.63136965 68:0.64310861 69:0.66878921 70:0.35491559 71:0.51317239 72:0.72189951 73:0.85931599 74:0.79238588 75:1.2626638 76:1.6426597 77:1.7001052 78:0.81034374 79:1.2833246 80:1.6354358 81:1.6999224 82:0.24048312 83:0.315891 84:0.38053569 85:0.31190303 86:0.33420631 87:0.47778407 88:0.59829199 89:0.44976661 90:0.92649782 91:1.3023826 92:1.3654504 93:0.51412374 94:0.97112185 95:1.3112651 96:1.3806587 97:0.21826893 98:0.30896264 99:0.47118786 100:0.39014 101:0.42132637 102:0.50101453 103:0.2871218 104:0.73308927 105:1.0988241 106:1.1646868 107:0.39825305 108:0.79892617 109:1.1214157 110:1.1934218 111:0.091980778 112:0.42212203 113:0.27557284 114:0.28720289 115:0.38462552 116:0.20116159 117:0.65688592 118:1.0385538 119:1.0916103 120:0.27427128 121:0.69937623 122:1.0460706 123:1.1105394 124:0.42976496 125:0.27042314 126:0.26145566 127:0.3592515 128:0.22164799 129:0.64152527 130:1.0224466 131:1.069508 132:0.25593513 133:0.67184466 134:1.0258281 135:1.0861901 136:0.22022633 137:0.39755166 138:0.53587532 139:0.51775897 140:0.95941162 141:1.3358057 142:1.3933709 143:0.49668574 144:0.95919877 145:1.3116952 146:1.3743619 147:0.22996786 148:0.37198517 149:0.37636665 150:0.80919957 151:1.1894124 152:1.2443287 153:0.34680635 154:0.80815059 155:1.1616603 156:1.2227854 157:0.14924487 158:0.24613327 159:0.59914768 160:0.97595733 161:1.0301208 162:0.1528488 163:0.59419417 164:0.94886124 165:1.0096271 166:0.29062915 167:0.48353896 168:0.85271591 169:0.90556693 170:0.19969162 171:0.47993964 172:0.82870555 173:0.88890749 174:0.48713905 175:0.86498314 176:0.92524683 177:0.14914325 178:0.53107113 179:0.87587142 180:0.94451416 181:0.40002403 182:0.45822239 183:0.47502464 184:0.21939906 185:0.46080509 186:0.52135766 187:0.1039958 188:0.85412961 189:0.45414495 190:0.35349229 191:0.3755241 192:0.91108119 193:0.50157344 194:0.3809042 195:0.38772914 196:0.48305482 197:0.84135318 198:0.90527797 199:0.38748732 200:0.44937763 201:0.097776055 #
-4.5491435301822327e-005 1:78.528099 2:30.816906 3:-0.54862863 4:-0.59705389 5:0.063119724 6:50.424412 7:45.844795 8:0.207552 9:-0.041562252 10:0.021039909 11:0.32013962 12:0.08424218 13:0.50927043 14:0.72214192 15:0.38754475 16:0.14752252 17:0.26820549 18:0.32070059 19:0.35323527 20:0.27444658 21:0.28702429 22:0.34212378 23:0.09709508 24:0.68758637 25:1.0720496 26:1.143025 27:0.097840033 28:0.75040722 29:1.1173601 30:1.1824571 31:0.4251138 32:0.63929403 33:0.31245983 34:0.11170346 35:0.30632061 36:0.36663279 37:0.2778728 38:0.26267323 39:0.32695404 40:0.38497734 41:0.16944386 42:0.76980805 43:1.1545959 44:1.226182 45:0.16816172 46:0.83205307 47:1.1981583 48:1.2640733 49:0.23119318 50:0.20547073 51:0.41860092 52:0.65554476 53:0.72036076 54:0.24449596 55:0.51408613 56:0.68265522 57:0.7345497 58:0.58243942 59:1.1864924 60:1.5728182 61:1.6465031 62:0.58455676 63:1.2519729 64:1.614453 65:1.6828611 66:0.37105033 67:0.61384314 68:0.84214163 69:0.90460801 70:0.45672339 71:0.7334457 72:0.88835293 73:0.93105948 74:0.78835195 75:1.393873 76:1.7875792 77:1.8597132 78:0.800726 79:1.4691212 80:1.8349899 81:1.9012104 82:0.2713578 83:0.54498923 84:0.6068508 85:0.29575059 86:0.49787197 87:0.60716724 88:0.65013313 89:0.43563476 90:1.0307804 91:1.4282743 92:1.5005772 93:0.47967187 94:1.1331234 95:1.4998752 96:1.5646859 97:0.30176297 98:0.36213791 99:0.3229875 100:0.35442406 101:0.3785367 102:0.41703925 103:0.18952623 104:0.78698164 105:1.1828271 106:1.2526922 107:0.23798074 108:0.87570131 109:1.2444379 110:1.3071451 111:0.077385925 112:0.48814648 113:0.37557432 114:0.20855078 115:0.21235749 116:0.26699793 117:0.66677064 118:1.0408442 119:1.1035936 120:0.24626587 121:0.70084494 122:1.062528 123:1.1192422 124:0.55166024 125:0.42321789 126:0.2327427 127:0.20046002 128:0.30781072 129:0.62688565 130:0.99580115 131:1.0564975 132:0.28711784 133:0.659082 134:1.0169557 135:1.0712444 136:0.27802455 137:0.47381285 138:0.5369696 139:0.44602624 140:1.0323918 141:1.4014611 142:1.4736922 143:0.39949891 144:1.0526705 145:1.4092878 146:1.4786547 147:0.26935983 148:0.35019985 149:0.3591198 150:0.83852458 151:1.1742264 152:1.2457187 153:0.24346597 154:0.80877429 155:1.1516223 156:1.2233441 157:0.085599281 158:0.31949097 159:0.67969954 160:1.006357 161:1.0719652 162:0.21833715 163:0.63709319 164:0.98376715 165:1.0487795 166:0.35894287 167:0.66404998 168:0.98319465 169:1.0460182 170:0.27784258 171:0.61464739 172:0.9589836 173:1.0209236 174:0.60906416 175:1.0029309 176:1.0732825 177:0.13490744 178:0.70169854 179:1.0693595 180:1.1319636 181:0.40830612 182:0.47569841 183:0.63877457 184:0.31313956 185:0.57483834 186:0.62166989 187:0.09072683 188:1.0093226 189:0.42299557 190:0.33048138 191:0.34646699 192:1.0793598 193:0.47465384 194:0.32999796 195:0.32462493 196:0.66927099 197:1.0346922 198:1.1005979 199:0.37322557 200:0.43396088 201:0.086400524 #
4.5491435301822327e-005 1:99.462158 2:38.37822 3:-0.62374038 4:-0.58553982 5:1.3073111 6:137.73485 7:30.339188 8:0.1113596 9:-0.048900221 10:1.9173896 11:0.32914281 12:0.10409828 13:0.54687423 14:0.78924865 15:0.44989884 16:0.31372279 17:0.20444949 18:0.22128771 19:0.51364434 20:0.30054918 21:0.28224489 22:0.34489778 23:0.056812111 24:0.51504898 25:0.88891709 26:0.94173473 27:0.070570774 28:0.53683776 29:0.89032668 30:0.9396289 31:0.46008474 32:0.70632368 33:0.36686644 34:0.26903012 35:0.22273359 36:0.25757498 37:0.43151003 38:0.25685585 39:0.33170843 40:0.40861648 41:0.13129647 42:0.60254472 43:0.96745199 44:1.0253398 45:0.16817236 46:0.6239292 47:0.97365957 48:1.026203 49:0.25042462 50:0.19913323 51:0.44924617 52:0.48625362 53:0.51296967 54:0.17444259 55:0.42145509 56:0.70482194 57:0.80154347 58:0.58108109 59:1.0502604 60:1.421079 61:1.4775807 62:0.60250211 63:1.0698462 64:1.421092 65:1.4686533 66:0.41811284 67:0.68290579 68:0.71343231 69:0.72987014 70:0.33105171 71:0.62557489 72:0.92294854 73:1.0212042 74:0.82583338 75:1.2899874 76:1.6641661 77:1.7183 78:0.84112763 79:1.3050265 80:1.6582437 81:1.7020359 82:0.26735014 83:0.36833465 84:0.4203715 85:0.32203311 86:0.44375813 87:0.67049068 88:0.75902194 89:0.4732416 90:0.94308382 91:1.3071855 92:1.3660284 93:0.5114994 94:0.97865283 95:1.3214755 96:1.3731233 97:0.24487844 98:0.32639349 99:0.51913673 100:0.48362601 101:0.58714873 102:0.65330368 103:0.31139085 104:0.73998201 105:1.0889065 106:1.1489612 107:0.37075543 108:0.79350865 109:1.1156174 110:1.171389 111:0.084049806 112:0.50243551 113:0.38489357 114:0.44455472 115:0.50790536 116:0.225243 117:0.63692397 118:1.0202067 119:1.0648141 120:0.23569261 121:0.67398399 122:1.0169041 123:1.0585613 124:0.5106045 125:0.37209827 126:0.41626969 127:0.4776457 128:0.24954829 129:0.62706584 130:1.0166684 131:1.0555376 132:0.23531786 133:0.65641868 134:1.0035228 135:1.0395677 136:0.30187288 137:0.60414326 138:0.7027685 139:0.5533011 140:1.0006607 141:1.3679171 142:1.4224626 143:0.56058186 144:1.0027162 145:1.3562647 146:1.4009492 147:0.30368561 148:0.40253288 149:0.34193558 150:0.73096567 151:1.0934896 152:1.1439781 153:0.32474023 154:0.71850896 155:1.0726427 156:1.1151103 157:0.10028153 158:0.29718035 159:0.47406229 160:0.81960177 161:0.86331439 162:0.24742904 163:0.43724126 164:0.78727776 165:0.82699728 166:0.34967592 167:0.40918788 168:0.73783213 169:0.7779519 170:0.29966199 171:0.35661981 172:0.69928896 173:0.73744702 174:0.48894334 175:0.85477376 176:0.91019714 177:0.094926678 178:0.51207787 179:0.8612017 180:0.91281122 181:0.40581304 182:0.44634888 183:0.46361589 184:0.23012052 185:0.47502837 186:0.52554399 187:0.10560026 188:0.84387869 189:0.4505958 190:0.3431392 191:0.3827579 192:0.89277846 193:0.48730087 194:0.35094279 195:0.37021482 196:0.48575231 197:0.84086335 198:0.88783658 199:0.38400924 200:0.42915893 201:0.10188037 #
