SVM-light Version V6.02
0 # kernel type
3 # kernel parameter -d 
1 # kernel parameter -g 
1 # kernel parameter -s 
1 # kernel parameter -r 
empty# kernel parameter -u 
201 # highest feature index 
235 # number of training documents 
99 # number of support vectors plus 1 
0.98903363 # threshold b, each following line is a SV (starting with alpha*y)
-4.5491435301822327e-005 1:92.488182 2:25.71257 3:-0.59844041 4:-0.61344481 5:1.1314135 6:133.03127 7:46.730858 8:0.1145226 9:-0.039418869 10:1.3954099 11:0.28780872 12:0.093426742 13:0.56486976 14:0.74724323 15:0.45451111 16:0.2983067 17:0.21440126 18:0.2416265 19:0.44551271 20:0.29231003 21:0.35765749 22:0.42056739 23:0.068575062 24:0.48446316 25:0.87956864 26:0.94252872 27:0.084876828 28:0.53657192 29:0.88297921 30:0.92189628 31:0.47151431 32:0.65459192 33:0.36707383 34:0.2537902 35:0.18686122 36:0.21854337 37:0.36052561 38:0.25929815 39:0.4024438 40:0.47327974 41:0.14329174 42:0.572712 43:0.96834683 44:1.0306323 45:0.16818692 46:0.62650514 47:0.97361559 48:1.0117954 49:0.19603571 50:0.20699471 51:0.45837364 52:0.49770159 53:0.51314294 54:0.21344608 55:0.48347807 56:0.76809454 57:0.84684545 58:0.60594046 59:1.0318153 60:1.4249294 61:1.4847134 62:0.63277328 63:1.0883663 64:1.4355582 65:1.4712249 66:0.38339865 67:0.6418497 68:0.66446036 69:0.66769069 70:0.34856912 71:0.63226783 72:0.91993344 73:0.99571329 74:0.79156339 75:1.2071233 76:1.600237 77:1.6556455 78:0.81032795 79:1.2607218 80:1.6108896 81:1.6415373 82:0.26979825 83:0.37466487 84:0.4162775 85:0.3078813 86:0.48246971 87:0.73317403 88:0.81184304 89:0.48359102 90:0.91932553 91:1.3073914 92:1.370558 93:0.5287773 94:0.9831118 95:1.320235 96:1.362161 97:0.22732678 98:0.30185321 99:0.463687 100:0.486132 101:0.64364523 102:0.71226859 103:0.30150318 104:0.70930839 105:1.0819883 106:1.1460224 107:0.36508906 108:0.7817716 109:1.1054767 110:1.1510993 111:0.077854313 112:0.4355841 113:0.39738417 114:0.52140957 115:0.58023649 116:0.24680267 117:0.60450387 118:0.99296445 119:1.0439165 120:0.2496736 121:0.67024451 122:1.0164392 123:1.0463519 124:0.43472642 125:0.38596207 126:0.50226229 127:0.55695212 128:0.28237349 129:0.60358292 130:0.99209535 131:1.037544 132:0.26078203 133:0.66469359 134:1.0153607 135:1.0389522 136:0.28769508 137:0.57542062 138:0.65235317 139:0.49356517 140:0.89211732 141:1.2836348 142:1.3422525 143:0.50253791 144:0.93666041 145:1.2866609 146:1.317958 147:0.29098389 148:0.37027299 149:0.33561936 150:0.65743256 151:1.0377128 152:1.0974656 153:0.31839418 154:0.68575287 155:1.0319031 156:1.0616564 157:0.084139593 158:0.37153864 159:0.46045229 160:0.80095005 161:0.85801911 162:0.32270095 163:0.45619833 164:0.786066 165:0.80980176 166:0.43092042 167:0.43912742 168:0.75477958 169:0.80746847 170:0.37569407 171:0.41936541 172:0.73583686 173:0.75431764 174:0.4625051 175:0.84747708 176:0.91331488 177:0.11395102 178:0.5102998 179:0.8496924 180:0.89221942 181:0.42138088 182:0.48208091 183:0.41782832 184:0.23756592 185:0.51758605 186:0.54950136 187:0.10853966 188:0.81823462 189:0.4515945 190:0.43595257 191:0.44418982 192:0.87885493 193:0.50884795 194:0.46729973 195:0.46605772 196:0.47111833 197:0.82046306 198:0.85600007 199:0.39094278 200:0.41902432 201:0.10269461 #
4.5491435301822327e-005 1:94.773117 2:27.321442 3:-0.314226 4:-0.1240901 5:1.110478 6:62.479465 7:19.575851 8:0.18298 9:-0.044477161 10:0.99943024 11:0.57646996 12:0.051229894 13:0.2979632 14:0.49750379 15:0.20838845 16:0.1871095 17:0.33756849 18:0.39204308 19:0.27259204 20:0.20593981 21:0.24720888 22:0.31046379 23:0.092593968 24:0.57258236 25:0.98316443 26:1.0472358 27:0.098239198 28:0.58490241 29:0.97040248 30:1.0359517 31:0.24983844 32:0.44931853 33:0.16927561 34:0.2113245 35:0.38287202 36:0.43893191 37:0.24009322 38:0.208828 39:0.29247048 40:0.35822594 41:0.13620746 42:0.62041628 43:1.028764 44:1.0938002 45:0.14293189 46:0.63321489 47:1.0188891 48:1.0844101 49:0.20207632 50:0.18744007 51:0.40775511 52:0.60307735 53:0.65940922 54:0.20900467 55:0.35541508 56:0.51334536 57:0.58101314 58:0.37620646 59:0.86922121 60:1.2764927 61:1.3414893 62:0.38564545 63:0.85901755 64:1.2387395 65:1.3001765 66:0.35181057 67:0.5905261 68:0.79148406 69:0.84854555 70:0.36492237 71:0.54196405 72:0.70948398 73:0.77538908 74:0.57237256 75:1.0687704 76:1.4740716 77:1.5394673 78:0.58465821 79:1.0514189 80:1.4261421 81:1.4851313 82:0.25556993 83:0.47070628 84:0.5348261 85:0.30492553 86:0.35166243 87:0.43401879 88:0.49286392 89:0.25300208 90:0.7468577 91:1.15071 92:1.2174656 93:0.29954994 94:0.7834056 95:1.1609628 96:1.2243965 97:0.22118638 98:0.28936189 99:0.43895757 100:0.34582549 101:0.26541975 102:0.29861656 103:0.12969604 104:0.53176177 105:0.93903184 106:1.0005234 107:0.20532954 108:0.59349871 109:0.95541757 110:1.0168339 111:0.071645945 112:0.58537716 113:0.43398526 114:0.21188518 115:0.18165599 116:0.2619355 117:0.37561396 118:0.77845508 119:0.83040255 120:0.29803365 121:0.43089369 122:0.76214164 123:0.81957829 124:0.62880468 125:0.4668659 126:0.22697906 127:0.17543925 128:0.31849787 129:0.3483302 130:0.74297684 131:0.79041046 132:0.34538645 133:0.38566369 134:0.70022851 135:0.75535649 136:0.21467549 137:0.43309224 138:0.50542468 139:0.35607356 140:0.78477466 141:1.1827558 142:1.2458744 143:0.31772554 144:0.73773086 145:1.1175579 146:1.181414 147:0.25220358 148:0.32453519 149:0.25640637 150:0.59873194 151:0.99529994 152:1.0551112 153:0.18146032 154:0.5420416 155:0.92789996 156:0.99374491 157:0.081708975 158:0.20943627 159:0.40844429 160:0.82339507 161:0.87697887 162:0.18302619 163:0.36877233 164:0.75016683 165:0.81283581 166:0.2604191 167:0.3652868 168:0.77733111 169:0.82734531 170:0.24660288 171:0.32039031 172:0.69125032 173:0.75218636 174:0.50514358 175:0.91747987 176:0.98155689 177:0.10907101 178:0.54039925 179:0.92023802 180:0.98565358 181:0.42259949 182:0.48138878 183:0.49090922 184:0.28870118 185:0.56916821 186:0.64307618 187:0.093719319 188:0.89917439 189:0.59677291 190:0.60739344 191:0.6555118 192:0.96241379 193:0.62880081 194:0.59589386 195:0.63638389 196:0.50585133 197:0.89589614 198:0.96355325 199:0.40145856 200:0.47144154 201:0.088449724 #
-4.5491435301822327e-005 1:85.390236 2:50.589893 3:-0.51981401 4:-0.62032872 5:0.023954537 6:46.982761 7:37.770504 8:0.2286637 9:-0.01368675 10:0.0071863611 11:0.17713481 12:0.085860506 13:0.52161211 14:0.74592775 15:0.44869387 16:0.2456584 17:0.36124113 18:0.42110395 19:0.37718141 20:0.27151263 21:0.26060277 22:0.32094771 23:0.073815681 24:0.66000772 25:1.0530422 26:1.0800383 27:0.058165576 28:0.66206425 29:1.0231434 30:1.0915482 31:0.43581206 32:0.66175896 33:0.37298506 34:0.22766565 35:0.39813152 36:0.46505776 37:0.29803574 38:0.24370429 39:0.31173834 40:0.38287944 41:0.15149681 42:0.7418803 43:1.1348658 44:1.1634334 45:0.1256852 46:0.74683094 47:1.1076851 48:1.1761404 49:0.24662064 50:0.21119377 51:0.48122889 52:0.71892405 53:0.79240459 54:0.2214985 55:0.47031131 56:0.69435757 57:0.77642268 58:0.5807761 59:1.1652755 60:1.5567397 61:1.590609 62:0.55486614 63:1.1807774 64:1.5407377 65:1.6091139 66:0.35242113 67:0.66392964 68:0.89680225 69:0.96726483 70:0.45573255 71:0.71064329 72:0.92891854 73:1.0064479 74:0.79894263 75:1.3896196 76:1.7833124 77:1.8139181 78:0.78318906 79:1.402196 80:1.7639019 81:1.8288606 82:0.32106972 83:0.54842412 84:0.62013471 85:0.32430673 86:0.50739825 87:0.67191637 88:0.74625248 89:0.48744956 90:1.0582074 91:1.4574935 92:1.4900186 93:0.4972699 94:1.0990896 95:1.4605563 96:1.5265926 97:0.2486316 98:0.32542399 99:0.44188765 100:0.45520833 101:0.48770136 102:0.54037392 103:0.23557582 104:0.75832379 105:1.1629329 106:1.1914804 107:0.29970321 108:0.81109762 109:1.1673738 110:1.2315893 111:0.080897927 112:0.66406202 113:0.61111701 114:0.54454964 115:0.56595677 116:0.30387357 117:0.58960277 118:0.98520464 119:1.0125799 120:0.39733711 121:0.69172359 122:1.0256596 123:1.0865825 124:0.73613316 125:0.67401004 126:0.58732176 127:0.59918737 128:0.35882193 129:0.55796301 130:0.94304514 131:0.96827412 132:0.4526597 133:0.67151856 134:0.99364829 135:1.0521106 136:0.25755665 137:0.49728698 138:0.58151412 139:0.44801548 140:1.0161161 141:1.3963276 142:1.4292952 143:0.39207122 144:1.008698 145:1.362349 146:1.4324771 147:0.26684892 148:0.35675785 149:0.33709848 150:0.81511527 151:1.1776249 152:1.2126291 153:0.24755496 154:0.79662973 155:1.137598 156:1.2112887 157:0.096969351 158:0.27611855 159:0.59253943 160:0.94144386 161:0.96839023 162:0.20617364 163:0.54156864 164:0.88031429 165:0.95299816 166:0.31984007 167:0.54548854 168:0.88086849 169:0.90228808 170:0.26822612 171:0.46642733 172:0.80047178 173:0.87160319 174:0.60261768 175:1.0002785 176:1.0258248 177:0.099506035 178:0.61304265 179:0.97452509 180:1.041804 181:0.42742482 182:0.46213108 183:0.63880724 184:0.29277775 185:0.50627095 186:0.5787943 187:0.10185623 188:1.0242629 189:0.50538111 190:0.38690552 191:0.43294689 192:1.0510961 193:0.5001837 194:0.33368474 195:0.36376235 196:0.62760007 197:0.98694533 198:1.0562623 199:0.36271802 200:0.42987245 201:0.086577721 #
4.5491435301822327e-005 1:104.39857 2:40.67968 3:-0.61993217 4:-0.1998412 5:0.77044243 6:176.65694 7:17.085175 8:0.1267681 9:-0.057841271 10:0.84748667 11:0.5217278 12:0.092604995 13:0.55787486 14:0.75102085 15:0.41002354 16:0.22162548 17:0.27213755 18:0.32938722 19:0.42733112 20:0.30061039 21:0.37363064 22:0.43347734 23:0.072888047 24:0.56145018 25:0.92414552 26:0.98422873 27:0.077501804 28:0.53990179 29:0.9106828 30:0.97328156 31:0.46577996 32:0.65995294 33:0.32557404 34:0.19080482 35:0.32292566 36:0.38935649 37:0.34326655 38:0.26496467 39:0.40206146 40:0.4676933 41:0.14926599 42:0.65037566 43:1.0139571 44:1.0745471 45:0.1581118 46:0.61360842 47:0.98421407 48:1.0448573 49:0.21273094 50:0.2312365 51:0.48202196 52:0.7210294 53:0.79605943 54:0.20627126 55:0.4700163 56:0.7211383 57:0.78747809 58:0.6061005 59:1.1059753 60:1.4710673 61:1.5327091 62:0.61670637 63:1.0337321 64:1.3902683 65:1.4422271 66:0.429548 67:0.67805928 68:0.90589237 69:0.97890705 70:0.36496046 71:0.62572438 72:0.86381805 73:0.92548585 74:0.80166703 75:1.2887934 76:1.6581194 77:1.7167858 78:0.80541492 79:1.195545 80:1.5387505 81:1.5857005 82:0.28906712 83:0.55208385 84:0.63003504 85:0.26084206 86:0.4366979 87:0.66864616 88:0.73861003 89:0.44597188 90:0.96289659 91:1.3153191 92:1.3793396 93:0.47587568 94:0.91025138 95:1.2766231 96:1.3324087 97:0.26862851 98:0.34764072 99:0.41114986 100:0.3910467 101:0.52588654 102:0.59253114 103:0.23326722 104:0.72843176 105:1.0735451 106:1.1315423 107:0.27713504 108:0.66646075 109:1.030442 110:1.0861162 111:0.08230532 112:0.61705482 113:0.4939456 114:0.45192215 115:0.50119895 116:0.24790157 117:0.54197896 118:0.87130976 119:0.91792113 120:0.26401412 121:0.46251345 122:0.80896711 123:0.86269832 124:0.68844992 125:0.55222028 126:0.47522306 127:0.49911854 128:0.30061838 129:0.49968827 130:0.8140161 131:0.85720176 132:0.30887932 133:0.42266402 134:0.75523901 135:0.80851996 136:0.27607757 137:0.53441864 138:0.60026801 139:0.47706473 140:0.94808406 141:1.31699 142:1.3759578 143:0.48039135 144:0.89172554 145:1.2450007 146:1.2989942 147:0.27756333 148:0.34158057 149:0.33888033 150:0.72155899 151:1.0883901 152:1.1446192 153:0.32791492 154:0.69640678 155:1.0377316 156:1.0958017 157:0.070935674 158:0.38879904 159:0.55951089 160:0.91793925 161:0.95898193 162:0.35200009 163:0.50556159 164:0.80522877 165:0.85931873 166:0.44458577 167:0.54620653 168:0.89256382 169:0.9300487 170:0.40548605 171:0.49566111 172:0.77260488 173:0.82542497 174:0.53020674 175:0.88552314 176:0.9468329 177:0.11145927 178:0.52544922 179:0.89309442 180:0.95697993 181:0.38545251 182:0.43728346 183:0.50243556 184:0.34416243 185:0.57618606 186:0.65062195 187:0.10479234 188:0.86830759 189:0.6231702 190:0.61720538 191:0.69156456 192:0.92604715 193:0.6416918 194:0.57981002 195:0.64190829 196:0.48007187 197:0.84997821 198:0.91349179 199:0.376055 200:0.43957597 201:0.10277045 #
-4.3995544397462522e-005 1:85.479919 2:39.714645 3:-0.58675247 4:-0.2459901 5:1.3656453 6:174.86086 7:34.552631 8:0.098598503 9:-0.03044159 10:1.2290808 11:0.32273284 12:0.10638249 13:0.55444616 14:0.75569153 15:0.42670691 16:0.26993787 17:0.21634369 18:0.25912538 19:0.45440045 20:0.3015326 21:0.20473753 22:0.26307857 23:0.070545547 24:0.53294885 25:0.91559666 26:0.95234972 27:0.080234595 28:0.52480656 29:0.85155571 30:0.90620649 31:0.46644303 32:0.67250091 33:0.34107527 34:0.23741308 35:0.24045862 36:0.2907131 37:0.36932787 38:0.25337693 39:0.19984926 40:0.27742529 41:0.14639765 42:0.62439799 43:1.0071936 44:1.0478721 45:0.17759536 46:0.61666012 47:0.939632 48:0.99598354 49:0.21198842 50:0.22942533 51:0.4672825 52:0.49045792 53:0.5065636 54:0.20579579 55:0.47696352 56:0.46026349 57:0.49670649 58:0.60134941 59:1.0699381 60:1.4539344 61:1.4872007 62:0.61675006 63:1.0358489 64:1.3825401 65:1.433929 66:0.42034742 67:0.66548318 68:0.67017114 69:0.6716696 70:0.36218491 71:0.65332258 72:0.64334828 73:0.66954958 74:0.80569941 75:1.2639158 76:1.6462232 77:1.6748046 78:0.81321824 79:1.2170631 80:1.5713938 81:1.6198646 82:0.26199639 83:0.37102225 84:0.42177439 85:0.31398702 86:0.45798248 87:0.3542141 88:0.37629044 89:0.45597866 90:0.93952835 91:1.3205394 92:1.3577089 93:0.49934265 94:0.94035292 95:1.2676719 96:1.3233389 97:0.23490904 98:0.3184244 99:0.47333142 100:0.46477827 101:0.26248488 102:0.24512672 103:0.26900265 104:0.73027468 105:1.1017828 106:1.138021 107:0.33557057 108:0.75684565 109:1.0619179 110:1.1189671 111:0.085818954 112:0.44912443 113:0.4105601 114:0.14211069 115:0.12866743 116:0.24626853 117:0.6512118 118:1.0264599 119:1.0475482 120:0.25117853 121:0.63771331 122:0.98131287 123:1.0283375 124:0.4527325 125:0.41499004 126:0.14860982 127:0.13567612 128:0.29677969 129:0.65783173 130:1.0288255 131:1.0439713 132:0.27753976 133:0.6254462 134:0.97992766 135:1.0228065 136:0.29829934 137:0.39104396 138:0.46072802 139:0.50793433 140:0.94261253 141:1.3220836 142:1.3577691 143:0.50531584 144:0.89473128 145:1.2405287 146:1.2907796 147:0.31618124 148:0.41398892 149:0.34636861 150:0.69318581 151:1.0564212 152:1.0980177 153:0.32365343 154:0.65384585 155:0.99231327 156:1.0429302 157:0.099689558 158:0.24596949 159:0.65137494 160:1.0216088 161:1.046694 162:0.24607024 163:0.63934016 164:1.0001972 165:1.0465883 166:0.28845569 167:0.67018086 168:1.0321224 169:1.0513159 170:0.29725051 171:0.66699982 172:1.0241961 173:1.0683529 174:0.49705207 175:0.87821603 176:0.91830564 177:0.11044011 178:0.51493949 179:0.82224679 180:0.87902701 181:0.39631665 182:0.44050291 183:0.47705692 184:0.27669504 185:0.43239573 186:0.48266548 187:0.10392401 188:0.85639727 189:0.51986253 190:0.38741288 191:0.38435352 192:0.89017957 193:0.53538275 194:0.42059964 195:0.41268119 196:0.45327172 197:0.78868407 198:0.84199208 199:0.4041096 200:0.44281083 201:0.10381 #
4.5491435301822327e-005 1:27.76902 2:19.377316 3:-0.3727214 4:-0.4248243 5:0.16057637 6:60.712112 7:54.259422 8:0.091957562 9:-0.068945192 10:0.02676273 11:0.72861093 12:0.084019154 13:0.50792271 14:0.67342883 15:0.44411823 16:0.28532362 17:0.25095257 18:0.30548596 19:0.38976344 20:0.22717032 21:0.3280102 22:0.41396457 23:0.05006114 24:0.49023509 25:0.85875773 26:0.95321804 27:0.056754578 28:0.58860892 29:0.97174597 30:1.0226653 31:0.42396316 32:0.59054434 33:0.36900696 34:0.23413026 35:0.28709397 36:0.34441528 37:0.31223509 38:0.20947893 39:0.37763664 40:0.47273338 41:0.12422957 42:0.56117523 43:0.92612201 44:1.0182087 45:0.130798 46:0.67102885 47:1.0541537 48:1.1058625 49:0.18781379 50:0.19335248 51:0.35901001 52:0.62324804 53:0.67276061 54:0.206753 55:0.47646743 56:0.73744702 57:0.84361684 58:0.54304117 59:0.95064509 60:1.2950225 61:1.3771991 62:0.55107838 63:1.0913465 64:1.4736847 65:1.5280151 66:0.31656918 67:0.50536406 68:0.78076518 69:0.82347244 70:0.36683333 71:0.63650423 72:0.88381732 73:0.98650151 74:0.70560771 75:1.0828593 76:1.4067415 77:1.4812957 78:0.71795237 79:1.2609953 80:1.6437654 81:1.694074 82:0.20624174 83:0.4851523 84:0.52562952 85:0.31417283 86:0.50276834 87:0.7327435 88:0.83053625 89:0.46482438 90:0.84856546 91:1.1964774 92:1.2824738 93:0.49700066 94:1.0174506 95:1.3980143 96:1.4507697 97:0.28052187 98:0.32106355 99:0.37198269 100:0.42692471 101:0.60330755 102:0.68977928 103:0.29042241 104:0.65763551 105:1.0150955 106:1.1064917 107:0.34078613 108:0.82844567 109:1.2056081 110:1.2564464 111:0.065668233 112:0.57042885 113:0.47268176 114:0.52796447 115:0.58264434 116:0.21384726 117:0.45339772 118:0.82149994 119:0.92292619 120:0.27689686 121:0.58855772 122:0.95107543 123:1.001219 124:0.62923861 125:0.53061098 126:0.56484598 127:0.61015999 128:0.26405552 129:0.42735249 130:0.78579432 131:0.88715369 132:0.32937497 133:0.59040105 134:0.94229567 135:0.98882669 136:0.29008919 137:0.56670624 138:0.67712414 139:0.43536362 140:0.85991603 141:1.209389 142:1.2938025 143:0.41750839 144:0.94554597 145:1.322962 146:1.3792276 147:0.28541708 148:0.39704227 149:0.27325881 150:0.6526196 151:0.99538124 152:1.081948 153:0.21406765 154:0.68310976 155:1.0530211 156:1.1067445 157:0.11199702 158:0.33731067 159:0.4843322 160:0.77682561 161:0.85796404 162:0.28170383 163:0.49344733 164:0.83770269 165:0.87823462 166:0.41300109 167:0.44754729 168:0.70130038 169:0.77867454 170:0.36684224 171:0.44305915 172:0.76287246 173:0.79581475 174:0.44715983 175:0.81858587 176:0.91438729 177:0.075548656 178:0.5620777 179:0.9445489 180:0.99378711 181:0.37754509 182:0.47946125 183:0.47536346 184:0.43542528 185:0.72271866 186:0.73460501 187:0.10842285 188:0.84167504 189:0.65326113 190:0.76511604 191:0.73004603 192:0.93660867 193:0.74917459 194:0.83315343 195:0.78893697 196:0.54341519 197:0.92606759 198:0.97775036 199:0.38343978 200:0.43942711 201:0.092883855 #
-1.1647346042731376e-005 1:92.166771 2:29.937473 3:-0.49748611 4:-0.62059891 5:1.5042871 6:122.75797 7:32.304333 8:0.094407633 9:-0.063471667 10:1.4040014 11:0.44776133 12:0.10236413 13:0.55095989 14:0.72683024 15:0.44654396 16:0.28199443 17:0.22694175 18:0.25303271 19:0.51766312 20:0.33825746 21:0.2228246 22:0.22609475 23:0.048102941 24:0.5007233 25:0.88055915 26:0.93933636 27:0.060689326 28:0.54811776 29:0.87222922 30:0.93914956 31:0.46285397 32:0.64528215 33:0.36274686 34:0.24272162 35:0.25435606 36:0.29672286 37:0.4340069 38:0.2630406 39:0.24146406 40:0.27551854 41:0.12298814 42:0.5925985 43:0.96991122 44:1.0318 45:0.15790059 46:0.64105576 47:0.95772177 48:1.0266156 49:0.19890697 50:0.19600575 51:0.44499829 52:0.51454091 53:0.55747408 54:0.16129448 55:0.37606224 56:0.57526261 57:0.63657928 58:0.57831097 59:1.0249674 60:1.4150985 61:1.4714589 62:0.5976966 63:1.077751 64:1.4035712 65:1.4665079 66:0.36113885 67:0.61904186 68:0.66173989 69:0.69417435 70:0.27873915 71:0.54044086 72:0.73884243 73:0.79785931 74:0.7568922 75:1.1857439 76:1.577255 77:1.627933 78:0.76949775 79:1.2405578 80:1.5775086 81:1.6361848 82:0.27056214 83:0.40184972 84:0.46485019 85:0.30587345 86:0.3821288 87:0.51968151 88:0.57125556 89:0.46501219 90:0.9078269 91:1.2998489 92:1.3596123 93:0.4981291 94:0.98578835 95:1.3027089 96:1.3699728 97:0.25145528 98:0.33187675 99:0.49805555 100:0.42842031 101:0.41704702 102:0.4386256 103:0.28287643 104:0.69427645 105:1.0804945 106:1.1415834 107:0.32738057 108:0.78150749 109:1.0779128 110:1.1476074 111:0.082224943 112:0.51737225 113:0.44068617 114:0.31537119 115:0.30167961 116:0.24861148 117:0.58058357 118:0.98176938 119:1.0261996 120:0.23788762 121:0.64745373 122:0.98377454 123:1.0401328 124:0.54337907 125:0.46467945 126:0.31564119 127:0.27401948 128:0.27860364 129:0.55786705 130:0.95697069 131:0.99533087 132:0.24865189 133:0.61323112 134:0.95771599 135:1.0086501 136:0.28213963 137:0.50477135 138:0.57099712 139:0.55002016 140:0.98546237 141:1.3647833 142:1.418872 143:0.55732661 144:1.0125536 145:1.3400877 146:1.4000691 147:0.29153761 148:0.36816666 149:0.36462942 150:0.78328323 151:1.138485 152:1.198789 153:0.37253237 154:0.79808682 155:1.1089221 156:1.1732382 157:0.090174958 158:0.24892296 159:0.58353937 160:0.92517358 161:0.97895193 162:0.21805602 163:0.56177795 164:0.87359113 165:0.93025798 166:0.24466892 167:0.5278334 168:0.87050009 169:0.92115057 170:0.20298709 171:0.49716809 172:0.81033373 173:0.86457717 174:0.48109019 175:0.8575303 176:0.91873407 177:0.083545022 178:0.53689587 179:0.852202 180:0.92161483 181:0.41256613 182:0.46454576 183:0.45911142 184:0.29849592 185:0.56221038 186:0.63068664 187:0.10955328 188:0.83771634 189:0.45976454 190:0.47474229 191:0.51220626 192:0.89415908 193:0.50170845 194:0.49490193 195:0.52114266 196:0.49655926 197:0.82735747 198:0.8921982 199:0.3993074 200:0.45425126 201:0.10995115 #
4.5491435301822327e-005 1:144.97826 2:55.701328 3:-0.3784906 4:-0.5214653 5:0.85185272 6:111.29021 7:26.828659 8:0.064147368 9:-0.072801203 10:0.19876564 11:0.034723043 12:0.084244385 13:0.51736969 14:0.82298958 15:0.46397996 16:0.18512027 17:0.33109367 18:0.47729337 19:0.45750108 20:0.22665432 21:0.2411069 22:0.31751791 23:0.055508345 24:0.54081392 25:0.84253073 26:0.88387769 27:0.021818303 28:0.49802881 29:0.82701403 30:0.8912065 31:0.43319282 32:0.73907554 33:0.38974321 34:0.11004881 35:0.30884022 36:0.4707655 37:0.37696418 38:0.18359159 39:0.29100576 40:0.37871787 41:0.13677204 42:0.62114823 43:0.92426282 44:0.96671355 45:0.093193218 46:0.57815135 47:0.91017991 48:0.97465956 49:0.30780676 50:0.20806529 51:0.34821588 52:0.50576431 53:0.65511459 54:0.16060202 55:0.41485023 56:0.6718058 57:0.76999635 58:0.56815249 59:1.0418179 60:1.3479328 61:1.3935071 62:0.52489108 63:0.99990451 64:1.3385837 65:1.4037292 66:0.42574951 67:0.64940292 68:0.78033251 69:0.90780413 70:0.42226559 71:0.71212435 72:0.97175771 73:1.0694114 74:0.87249285 75:1.3414611 76:1.64917 77:1.6942099 78:0.83134478 79:1.2978109 80:1.6411315 81:1.7054064 82:0.31200492 83:0.5730902 84:0.74209189 85:0.32400638 86:0.45932564 87:0.66641295 88:0.75594634 89:0.50531864 90:0.94240737 91:1.2511302 92:1.2923199 93:0.47724763 94:0.91418844 95:1.2454852 96:1.3079152 97:0.30288669 98:0.47533342 99:0.3067534 100:0.19463618 101:0.35604432 102:0.44670323 103:0.22986226 104:0.71529973 105:1.0216616 106:1.0587986 107:0.19739307 108:0.65382326 109:1.0051899 110:1.0659541 111:0.17333843 112:0.37651762 113:0.16266051 114:0.26254565 115:0.34792444 116:0.35860249 117:0.78775632 118:1.0606569 119:1.0947006 120:0.32549888 121:0.68261492 122:1.0313208 123:1.0878997 124:0.514148 125:0.32133415 126:0.32907224 127:0.37989193 128:0.49479103 129:0.85885918 130:1.1016178 131:1.1319987 132:0.4685449 133:0.73638207 134:1.0663576 135:1.1180574 136:0.29850459 137:0.56878674 138:0.66855967 139:0.51040584 140:0.99028313 141:1.289098 142:1.3364059 143:0.46009895 144:0.94068229 145:1.276274 146:1.3422145 147:0.27423659 148:0.37443084 149:0.27161792 150:0.7325213 151:1.0197526 152:1.0640491 153:0.22086556 154:0.67212945 155:1.0013481 156:1.0655968 157:0.10059942 158:0.2283594 159:0.53993934 160:0.80368191 161:0.83485895 162:0.23068987 163:0.43946898 164:0.77266049 165:0.82770896 166:0.29096356 167:0.49519193 168:0.7375657 169:0.76203293 170:0.30805621 171:0.37493435 172:0.70123976 173:0.75097048 174:0.49275619 175:0.79561228 176:0.83393264 177:0.061733726 178:0.44433215 179:0.77774662 180:0.84041655 181:0.33937481 182:0.37427589 183:0.53651434 184:0.2667588 185:0.30888224 186:0.37759799 187:0.11989659 188:0.83600605 189:0.47274077 190:0.11022855 191:0.17106983 192:0.87898141 193:0.46465746 194:0.12625879 195:0.088933706 196:0.49763432 197:0.82093084 198:0.8860389 199:0.42530686 200:0.46047419 201:0.1073029 #
-4.3754121428062583e-006 1:95.462433 2:24.383827 3:-0.55911529 4:-0.63061202 5:1.1400251 6:79.790207 7:30.292013 8:0.1104395 9:-0.064396359 10:1.2920285 11:0.1271036 12:0.09791857 13:0.59194189 14:0.79214042 15:0.47422636 16:0.31403318 17:0.21781339 18:0.23545051 19:0.49263811 20:0.27032846 21:0.36912504 22:0.39044076 23:0.043842141 24:0.48054904 25:0.87825471 26:0.94538218 27:0.060888998 28:0.51276785 29:0.85788608 30:0.9213717 31:0.4940863 32:0.69510448 33:0.38179818 34:0.26093575 35:0.17880443 36:0.20996776 37:0.40241978 38:0.22346783 39:0.38480651 40:0.42220706 41:0.12654157 42:0.57244134 43:0.97160882 44:1.0386176 45:0.15113154 46:0.60616994 47:0.95218259 48:1.0152121 49:0.21531223 50:0.20959778 51:0.46090427 52:0.49955282 53:0.52958858 54:0.20254292 55:0.46621919 56:0.69960696 57:0.76245809 58:0.61640739 59:1.0536076 60:1.4516635 61:1.5178864 62:0.64142787 63:1.087903 64:1.4339191 65:1.4950995 66:0.40179256 67:0.66287291 68:0.68206859 69:0.7008388 70:0.35704824 71:0.64362282 72:0.85438961 73:0.91574144 74:0.81917065 75:1.2476153 76:1.6465394 77:1.7088423 78:0.83806628 79:1.2800404 80:1.6290621 81:1.6863122 82:0.26696396 83:0.37409258 84:0.42798364 85:0.30740812 86:0.44763818 87:0.68498898 88:0.7372998 89:0.49039641 90:0.92363167 91:1.3195713 92:1.3888477 93:0.52803463 94:0.97676182 95:1.3147067 96:1.3800248 97:0.25492164 98:0.33160806 99:0.47504616 100:0.44192514 101:0.63677579 102:0.66992986 103:0.31301227 104:0.71095151 105:1.0976641 106:1.1695284 107:0.36398253 108:0.77720511 109:1.0966009 110:1.1652226 111:0.079590179 112:0.45996505 113:0.35268629 114:0.47427937 115:0.49391931 116:0.24084148 117:0.60224259 118:1.0146165 119:1.0724196 120:0.24300884 121:0.66810393 122:1.012177 123:1.0673295 124:0.47497234 125:0.3504546 126:0.43757421 127:0.45207995 128:0.26421326 129:0.59020078 130:1.00313 131:1.0558764 132:0.2462654 133:0.64995515 134:0.99623644 135:1.0464344 136:0.2966103 137:0.52965301 138:0.60287058 139:0.52068937 140:0.94733775 141:1.3361086 142:1.4016941 143:0.5362367 144:0.95888317 145:1.3051426 146:1.3648776 147:0.28441155 148:0.35691133 149:0.2991873 150:0.68182081 151:1.0595919 152:1.1241997 153:0.29602051 154:0.67462921 155:1.0210092 156:1.0799359 157:0.091182776 158:0.39307904 159:0.59819496 160:0.94150418 161:0.99215752 162:0.3518568 163:0.55649459 164:0.88709897 165:0.93244523 166:0.4114418 167:0.5557875 168:0.89027375 169:0.93670827 170:0.36242273 171:0.50563705 172:0.83531177 173:0.87654549 174:0.46302131 175:0.85679835 176:0.92596239 177:0.077763394 178:0.4977268 179:0.8379398 180:0.90355963 181:0.42566526 182:0.48500347 183:0.43367508 184:0.26121303 185:0.52388459 186:0.57999766 187:0.10498876 188:0.83291841 189:0.48770076 190:0.42879593 191:0.45729068 192:0.89775008 193:0.54467648 194:0.45201972 195:0.4610934 196:0.46364531 197:0.81183851 198:0.87322158 199:0.38621694 200:0.44417 201:0.10117263 #
4.5491435301822327e-005 1:56.744148 2:40.542744 3:-0.34722489 4:-0.4546431 5:1.4970852 6:98.056625 7:30.131792 8:0.1012027 9:-0.058291711 10:0.099805683 11:0.050842047 12:0.080705464 13:0.49922389 14:0.72245759 15:0.49208677 16:0.28569594 17:0.23738523 18:0.30230942 19:0.38945788 20:0.24646668 21:0.34596455 22:0.41403097 23:0.070223108 24:0.57955748 25:0.91759557 26:0.98847383 27:0.051131129 28:0.5567404 29:0.85568887 30:0.92100942 31:0.41857597 32:0.64297873 33:0.42158616 34:0.25740701 35:0.29854506 36:0.37433913 37:0.31413767 38:0.23280852 39:0.40271255 40:0.47614717 41:0.14390682 42:0.65667969 43:0.99582732 44:1.0678649 45:0.11576369 46:0.63343233 47:0.93555969 48:1.0011755 49:0.24154112 50:0.21287777 51:0.43256542 52:0.68023008 53:0.77252656 54:0.19305182 55:0.48619211 56:0.77449203 57:0.85518587 58:0.5568369 59:1.0631206 60:1.4045384 61:1.4803227 62:0.52884817 63:1.040815 64:1.3502644 65:1.416608 66:0.34539431 67:0.62997639 68:0.89263409 69:0.98573482 70:0.40941665 71:0.71255547 72:1.0008134 73:1.0814563 74:0.77666456 75:1.288306 76:1.6316472 77:1.7034314 78:0.75334543 79:1.2418025 80:1.5733907 81:1.6363152 82:0.30710211 83:0.60506117 84:0.70514685 85:0.34912202 86:0.5686571 87:0.81627023 88:0.89175099 89:0.5292505 90:1.0021693 91:1.3450215 92:1.4197277 93:0.53578597 94:1.0092345 95:1.2973748 96:1.3621742 97:0.31054509 98:0.41179615 99:0.43434292 100:0.46532384 101:0.6141125 102:0.67692596 103:0.28830183 104:0.70239288 105:1.0434886 106:1.1173446 107:0.33507362 108:0.74186975 109:0.99846673 110:1.0632402 111:0.10131107 112:0.60708714 113:0.46339864 114:0.4332301 115:0.46824142 116:0.17064072 117:0.40952936 118:0.75218874 119:0.81945485 120:0.25515553 121:0.44417062 122:0.69626367 123:0.7587018 124:0.687222 125:0.50912327 126:0.41314995 127:0.43145701 128:0.23298016 129:0.32061297 130:0.66018939 131:0.72374153 132:0.30538487 133:0.35301328 134:0.59904164 135:0.65998 136:0.30767271 137:0.60791761 138:0.68940055 139:0.4571453 140:0.9549616 141:1.2878088 142:1.364944 143:0.40377757 144:0.92922348 145:1.23164 146:1.2998583 147:0.30650195 148:0.38741481 149:0.30548102 150:0.71569926 151:1.0271596 152:1.1047817 153:0.21944073 154:0.69987571 155:0.97006619 156:1.0401809 157:0.081651211 158:0.34683773 159:0.49840558 160:0.76621038 161:0.83732647 162:0.29641369 163:0.47569683 164:0.70238316 165:0.76974416 166:0.40545547 167:0.46400055 168:0.70658112 169:0.77539539 170:0.36581844 171:0.44392547 172:0.6420899 173:0.70823771 174:0.51969314 175:0.85991842 176:0.9290266 177:0.089715742 178:0.50190651 179:0.79747683 180:0.86168885 181:0.34445313 182:0.42106563 183:0.56441295 184:0.3403677 185:0.30265945 186:0.37835801 187:0.10936996 188:0.89733201 189:0.54111904 190:0.11876006 191:0.15954113 192:0.96822923 193:0.56126881 194:0.13896897 195:0.10927547 196:0.53546327 197:0.83381796 198:0.89950222 199:0.43500224 200:0.4641383 201:0.099860385 #
-4.5491435301822327e-005 1:36.779217 2:12.247529 3:-0.54797173 4:-0.45749101 5:0.44896346 6:102.55065 7:29.885471 8:0.095645249 9:-0.048097432 10:0.14965449 11:0.35107511 12:0.081768461 13:0.49188226 14:0.65851551 15:0.44381052 16:0.22075894 17:0.16384363 18:0.17792886 19:0.36136717 20:0.2439073 21:0.31946376 22:0.38641709 23:0.086841255 24:0.57494271 25:0.85826373 26:0.92364073 27:0.060655713 28:0.49399605 29:0.81556517 30:0.88286144 31:0.41022262 32:0.57804549 33:0.37229618 34:0.17416739 35:0.20108213 36:0.22175916 37:0.28680247 38:0.23401877 39:0.37834725 40:0.45147932 41:0.16301423 42:0.65225458 43:0.93967104 44:1.004357 45:0.1259681 46:0.57201612 47:0.89294952 48:0.96150684 49:0.18256254 50:0.20732321 51:0.36419949 52:0.55102366 53:0.57466632 54:0.21607274 55:0.49273375 56:0.74842823 57:0.82988 58:0.56769085 59:1.0524348 60:1.3471953 61:1.4087011 62:0.52916521 63:0.97373664 64:1.2929292 65:1.3644356 66:0.33531332 67:0.51195568 68:0.69739932 69:0.72059417 70:0.37145811 71:0.6562081 72:0.91230899 73:0.99448097 74:0.73340929 75:1.225875 76:1.5046762 77:1.5612782 78:0.69487649 79:1.13386 80:1.4668539 81:1.5365493 82:0.26791197 83:0.47451901 84:0.50164288 85:0.32873729 86:0.52912551 87:0.74327666 88:0.81712091 89:0.49726 90:0.96569896 91:1.2676203 92:1.3310238 93:0.49658558 94:0.91847759 95:1.2177559 96:1.287549 97:0.21072033 98:0.23842588 99:0.33963114 100:0.39916247 101:0.53751272 102:0.60429639 103:0.2597616 104:0.74718595 105:1.0151379 106:1.0739287 107:0.27698219 108:0.67371976 109:0.99963176 110:1.0635579 111:0.06632752 112:0.46570763 113:0.3926582 114:0.41380757 115:0.46427971 116:0.14033139 117:0.58441871 118:0.81834692 119:0.87352079 120:0.19302773 121:0.48732734 122:0.83205056 123:0.88945168 124:0.48416018 125:0.39790624 126:0.39963207 127:0.44685954 128:0.14537974 129:0.56803602 130:0.79254824 131:0.84729707 132:0.19769624 133:0.46490332 134:0.8122893 135:0.86870718 136:0.28824818 137:0.55832577 138:0.64139324 139:0.44672546 140:0.90697193 141:1.2050918 142:1.2694718 143:0.37906682 144:0.81895077 145:1.1323388 146:1.2054135 147:0.28148043 148:0.36342651 149:0.30780202 150:0.66821253 151:0.96761107 152:1.0369569 153:0.21366857 154:0.57998216 155:0.87133938 156:0.94537759 157:0.084193051 158:0.31158236 159:0.44352588 160:0.70610154 161:0.77597952 162:0.26177847 163:0.33300984 164:0.61732733 165:0.68557352 166:0.36436155 167:0.3891125 168:0.63814908 169:0.70948404 170:0.33078909 171:0.27935138 172:0.54198468 173:0.60883987 174:0.50307006 175:0.78405792 176:0.85044247 177:0.10330499 178:0.43372735 179:0.74897999 180:0.81423217 181:0.40638408 182:0.4973093 183:0.54856527 184:0.25851318 185:0.27190354 186:0.33716774 187:0.097848296 188:0.82829213 189:0.41159877 190:0.34242842 191:0.30628148 192:0.8938933 193:0.47629911 194:0.4284541 195:0.38372895 196:0.45635098 197:0.78119767 198:0.84852487 199:0.40405455 200:0.45143488 201:0.10429777 #
4.5491435301822327e-005 1:108.31303 2:97.851067 3:-0.41616881 4:-0.31682679 5:0.33203402 6:79.438103 7:70.396484 8:0.1509473 9:-0.037950002 10:0.066406801 11:0.22592986 12:0.083393008 13:0.50369614 14:0.71296436 15:0.41936591 16:0.26642594 17:0.29609749 18:0.35399526 19:0.39504606 20:0.14574571 21:0.38821507 22:0.42874268 23:0.067834161 24:0.44756162 25:0.62404323 26:0.68170738 27:0.096122235 28:0.51418942 29:0.90539277 30:0.93793154 31:0.42038667 32:0.63115215 33:0.34202257 34:0.23219123 35:0.33974203 36:0.40928897 37:0.31846133 38:0.13232902 39:0.36564732 40:0.40860417 41:0.12570485 42:0.50526595 43:0.70607406 44:0.76239032 45:0.17196462 46:0.59615558 47:0.98647511 48:1.0200706 49:0.23319551 50:0.19569722 51:0.42596632 52:0.69187742 53:0.77691305 54:0.18193932 55:0.45515013 56:0.49214935 57:0.52231497 58:0.53459316 59:0.86431664 60:1.1237881 61:1.1766051 62:0.58536708 63:1.0115654 64:1.3997492 65:1.4372264 66:0.398927 67:0.63591057 68:0.89654434 69:0.98220718 70:0.34548309 71:0.64338422 72:0.60613322 73:0.61790329 74:0.74947816 75:1.0243407 76:1.3279185 77:1.3736616 78:0.78716886 79:1.2202973 80:1.61638 81:1.649615 82:0.26215482 83:0.5484215 84:0.63439459 85:0.28524542 86:0.42869893 87:0.55258745 88:0.58671558 89:0.43267113 90:0.79009193 91:1.0154969 92:1.0689958 93:0.51064575 94:0.91903716 95:1.2854835 96:1.3225329 97:0.29045725 98:0.37560126 99:0.42118147 100:0.3579661 101:0.56154329 102:0.59364092 103:0.25194809 104:0.59487909 105:0.78104913 106:0.83113897 107:0.34710041 108:0.70946074 109:1.0548518 110:1.0855061 111:0.088463098 112:0.63499987 113:0.42492935 114:0.64043647 115:0.66232038 116:0.25591129 117:0.40521699 118:0.52067286 119:0.5607121 120:0.3043164 121:0.50149918 122:0.80898082 123:0.82593662 124:0.71326947 125:0.48231903 126:0.69384009 127:0.71413285 128:0.31302285 129:0.38986024 130:0.44962031 131:0.48746023 132:0.34263331 133:0.45102429 134:0.73343706 135:0.7468375 136:0.30743378 137:0.31636155 138:0.35463327 139:0.43968853 140:0.74485111 141:1.0085883 142:1.0613071 143:0.46115524 144:0.88560957 145:1.2875539 146:1.3235143 147:0.25086522 148:0.29794264 149:0.20470582 150:0.48349503 151:0.70835406 152:0.76201946 153:0.1686427 154:0.58541584 155:0.99242395 156:1.0238972 157:0.069136083 158:0.44531322 159:0.58793372 160:0.86467737 161:0.90809238 162:0.38443512 163:0.73847526 164:1.1492294 165:1.1756619 166:0.48549822 167:0.57971883 168:0.8790164 169:0.9162153 170:0.41905198 171:0.76309687 172:1.1714164 173:1.1930915 174:0.45595771 175:0.59778398 176:0.65842301 177:0.12723501 178:0.49238798 179:0.87241679 180:0.90668696 181:0.4424938 182:0.43171573 183:0.38741556 184:0.4729555 185:0.78874171 186:0.7731092 187:0.10005517 188:0.55174208 189:0.22356984 190:0.34865633 191:0.34205666 192:0.60846812 193:0.30885345 194:0.38261837 195:0.34865656 196:0.43877921 197:0.83806682 198:0.86746615 199:0.41293567 200:0.44875839 201:0.10005493 #
-7.1789405943704537e-007 1:81.792274 2:3.8847544 3:-0.56428862 4:-0.65203178 5:1.0008037 6:115.58486 7:32.090611 8:0.1063406 9:-0.015824391 10:0.53376192 11:0.27392429 12:0.095446959 13:0.57758313 14:0.79779613 15:0.46242741 16:0.28077698 17:0.25207636 18:0.29398039 19:0.50282568 20:0.29756185 21:0.34576726 22:0.38880983 23:0.062207043 24:0.52960551 25:0.83797848 26:0.90969718 27:0.076217666 28:0.49842381 29:0.88438684 30:0.94326091 31:0.48219711 32:0.70260829 33:0.37086087 34:0.224746 35:0.1952188 36:0.24724606 37:0.41441038 38:0.23501523 39:0.35540971 40:0.41482535 41:0.14214088 42:0.61997753 43:0.9304567 44:0.99988043 45:0.16069275 46:0.59021932 47:0.97625798 48:1.0359598 49:0.22653966 50:0.18516886 51:0.43819892 52:0.43837419 53:0.46387297 54:0.18787487 55:0.40083686 56:0.65058607 57:0.73285496 58:0.61709708 59:1.0880382 60:1.4040626 61:1.4664505 62:0.63648552 63:1.0617249 64:1.4452564 65:1.5070313 66:0.38234556 67:0.6449331 68:0.63136846 69:0.64334476 70:0.35920182 71:0.59917569 72:0.84693903 73:0.9265241 74:0.83882684 75:1.306639 76:1.6149979 77:1.6719196 78:0.85361969 79:1.2808589 80:1.6691619 81:1.7293428 82:0.26630974 83:0.33912233 84:0.39336088 85:0.28745136 86:0.34437579 87:0.61531407 88:0.69299001 89:0.4929668 90:0.97981298 91:1.2891475 92:1.3558455 93:0.52689725 94:0.95422554 95:1.3261172 96:1.3926246 97:0.2499122 98:0.33370203 99:0.46273732 100:0.33266938 101:0.55046278 102:0.60985214 103:0.29109946 104:0.77064788 105:1.0618836 106:1.1331686 107:0.34274381 108:0.7451207 109:1.1000818 110:1.169048 111:0.084725842 112:0.40281957 113:0.21637449 114:0.46316487 115:0.51479876 116:0.29997501 117:0.73746026 118:1.0017129 119:1.0544045 120:0.28071409 121:0.7108652 122:1.1099315 123:1.1621094 124:0.40864992 125:0.20753235 126:0.45359042 127:0.50086331 128:0.34659895 129:0.74686754 130:0.99805552 131:1.0437193 132:0.30744657 133:0.72097754 134:1.1279074 135:1.1739719 136:0.32441974 137:0.50825 138:0.59270597 139:0.54857236 140:0.98339182 141:1.3050786 142:1.3662117 143:0.55265993 144:0.95468503 145:1.3445984 146:1.3999252 147:0.31693277 148:0.38351622 149:0.3366724 150:0.74400657 151:1.0513135 152:1.1103705 153:0.33833832 154:0.74668163 155:1.1163713 156:1.1688226 157:0.10532179 158:0.36588731 159:0.57680744 160:0.90311807 161:0.96893167 162:0.34379771 163:0.5786469 164:0.92402714 165:0.96598738 166:0.40188116 167:0.53948486 168:0.85192049 169:0.91468501 170:0.37414962 171:0.55171359 172:0.87998229 173:0.91661209 174:0.49841908 175:0.81321204 176:0.88922673 177:0.10202119 178:0.47185472 179:0.84384489 180:0.90649194 181:0.42991224 182:0.51299042 183:0.48021767 184:0.18107776 185:0.40403971 186:0.449231 187:0.11951578 188:0.77429223 189:0.42288363 190:0.40172741 191:0.37484404 192:0.84349161 193:0.51364017 194:0.5019362 195:0.45976582 196:0.44267508 197:0.8401655 198:0.8940202 199:0.43504065 200:0.47842357 201:0.11729527 #
4.5491435301822327e-005 1:84.882835 2:5.6203599 3:-0.0638768 4:-0.41379479 5:0.42891976 6:112.42423 7:25.778696 8:0.192752 9:-0.075599223 10:0.9007315 11:0.34888104 12:0.091466933 13:0.48242831 14:0.66059798 15:0.36713147 16:0.29990944 17:0.4052726 18:0.4653061 19:0.39102668 20:0.3149828 21:0.43257296 22:0.49803627 23:0.098709553 24:0.57418019 25:0.94957989 26:1.0100341 27:0.10643721 28:0.59580243 29:0.9672153 30:1.0201658 31:0.40555403 32:0.59143716 33:0.29490879 34:0.27552724 35:0.43908101 36:0.50522685 37:0.3226935 38:0.29464656 39:0.45754269 40:0.52641022 41:0.16863738 42:0.65661764 43:1.0316203 44:1.0935988 45:0.17978366 46:0.66441894 47:1.033605 48:1.0890045 49:0.20339404 50:0.20211057 51:0.47885782 52:0.72674662 53:0.79961514 54:0.20377968 55:0.45128822 56:0.64052504 57:0.70496929 58:0.55185121 59:1.0423287 60:1.4063417 61:1.4620335 62:0.56525582 63:1.0650496 64:1.434413 65:1.4898939 66:0.3850441 67:0.65684497 68:0.88917273 69:0.9585309 70:0.33150682 71:0.56269306 72:0.71682179 73:0.77093518 74:0.73297429 75:1.2115414 76:1.5668298 77:1.6163502 78:0.73606211 79:1.2439882 80:1.6173115 81:1.6692469 82:0.29118842 83:0.55824357 84:0.63549799 85:0.2967225 86:0.45448768 87:0.62284857 88:0.68606043 89:0.40958706 90:0.90517217 91:1.2721933 92:1.3319309 93:0.46787575 94:0.942985 95:1.3035175 96:1.3628439 97:0.28643841 98:0.36657745 99:0.50188619 100:0.51451868 101:0.61347181 102:0.6666913 103:0.2710993 104:0.70749664 105:1.0680293 106:1.1317823 107:0.39179993 108:0.76294243 109:1.1025729 110:1.1643249 111:0.082533285 112:0.70874852 113:0.62271523 114:0.62152469 115:0.65305436 116:0.33388659 117:0.5491783 118:0.88520128 119:0.94638258 120:0.44123256 121:0.63309783 122:0.94290787 123:0.9991411 124:0.77445579 125:0.6705724 126:0.64503294 127:0.66895938 128:0.39412636 129:0.52357119 130:0.84501028 131:0.90578294 132:0.48707241 133:0.60950029 134:0.90338951 135:0.95773494 136:0.28549552 137:0.50852859 138:0.57873201 139:0.4813391 140:0.94670671 141:1.3101765 142:1.3649473 143:0.44364288 144:0.94057846 145:1.3127425 146:1.3632171 147:0.26085594 148:0.33581331 149:0.40120885 150:0.79453391 151:1.1546926 152:1.209416 153:0.30437824 154:0.76089853 155:1.1296824 156:1.1745874 157:0.08001475 158:0.47654489 159:0.72727519 160:1.0716015 161:1.1241044 162:0.37874597 163:0.684165 164:1.0479019 165:1.0856801 166:0.53402144 167:0.73471922 168:1.0679685 169:1.1195632 170:0.44407877 171:0.68481183 172:1.0420876 173:1.0769235 174:0.50997829 175:0.88713688 176:0.94948554 177:0.14842027 178:0.55049551 179:0.91290307 180:0.96831226 181:0.3849816 182:0.45153698 183:0.51774865 184:0.27802494 185:0.51554406 186:0.55982643 187:0.098787993 188:0.89046395 189:0.53904712 190:0.44825327 191:0.45928806 192:0.9503032 193:0.6085397 194:0.50098985 195:0.49490905 196:0.51727957 197:0.89195895 198:0.94112736 199:0.38278541 200:0.43266934 201:0.086789683 #
-4.5491435301822327e-005 1:118.82796 2:30.21312 3:-0.50628233 4:-0.55731553 5:1.4271181 6:120.93433 7:9.0820332 8:0.1465251 9:-0.03398582 10:1.2368356 11:0.3014558 12:0.094452344 13:0.56110322 14:0.78041822 15:0.44755268 16:0.2972942 17:0.3164373 18:0.36764222 19:0.41911992 20:0.26906633 21:0.35898134 22:0.41798627 23:0.065046877 24:0.58101422 25:0.91564107 26:0.96926934 27:0.052667756 28:0.59996372 29:0.94689637 30:0.99337989 31:0.46850625 32:0.68795073 33:0.36502403 34:0.25395465 35:0.34082231 36:0.40074176 37:0.33322665 38:0.24257573 39:0.40497807 40:0.47103208 41:0.15129767 42:0.66866362 43:1.0064671 44:1.06059 45:0.12995708 46:0.69022918 47:1.0361663 48:1.0831585 49:0.22168319 50:0.21043929 51:0.45188528 52:0.66828126 53:0.73814523 54:0.20649622 55:0.50594813 56:0.78023505 57:0.8538174 58:0.61262584 59:1.1282301 60:1.4696516 61:1.5237485 62:0.59223282 63:1.1504353 64:1.4910347 65:1.5398932 66:0.39094076 67:0.64831889 68:0.87020111 69:0.93927926 70:0.40580976 71:0.71274197 72:0.99037457 73:1.06372 74:0.83104122 75:1.3445597 76:1.6870759 77:1.7414017 78:0.81149292 79:1.3670824 80:1.70314 81:1.7529451 82:0.30883008 83:0.5162189 84:0.59024578 85:0.26310739 86:0.47128358 87:0.7113598 88:0.7801888 89:0.48412436 90:0.98923498 91:1.3339468 92:1.3848153 93:0.49067742 94:1.0177521 95:1.3633252 96:1.4098303 97:0.28268534 98:0.36329728 99:0.38328734 100:0.3815828 101:0.55400568 102:0.61348015 103:0.312475 104:0.76998079 105:1.1064416 106:1.151731 107:0.33820385 108:0.80367815 109:1.1480849 110:1.1880893 111:0.087046936 112:0.58563465 113:0.47702634 114:0.48005331 115:0.51447988 116:0.29023734 117:0.60350567 118:0.94438231 119:0.98103404 120:0.33798254 121:0.6407907 122:0.98814851 123:1.0143883 124:0.6506111 125:0.5261299 126:0.48819789 127:0.50363219 128:0.33756196 129:0.57094872 130:0.90691215 131:0.93941551 132:0.38093543 133:0.60777354 134:0.95237482 135:0.97285664 136:0.31746545 137:0.60458446 138:0.68014258 139:0.4783133 140:0.98793 141:1.3191177 142:1.3739709 143:0.43850586 144:1.0013795 145:1.3371487 146:1.3861084 147:0.2936132 148:0.36984044 149:0.32087189 150:0.75179273 151:1.0538965 152:1.1111077 153:0.25419506 154:0.75459975 155:1.0897378 156:1.1383778 157:0.078342527 158:0.36537948 159:0.56751484 160:0.81956547 161:0.87819797 162:0.322799 163:0.56481051 164:0.89132077 165:0.9369294 166:0.4159824 167:0.53909278 168:0.76758623 169:0.82636535 170:0.38171721 171:0.53200656 172:0.85026753 173:0.89466083 174:0.53103912 175:0.8675729 176:0.91986358 177:0.088768281 178:0.55211574 179:0.90271604 180:0.94764143 181:0.39820659 182:0.44158587 183:0.55906409 184:0.23043564 185:0.46210715 186:0.49507934 187:0.096348114 188:0.88893783 189:0.39464316 190:0.34295896 191:0.350777 192:0.94344437 193:0.44469005 194:0.36197382 195:0.35933512 196:0.57595426 197:0.91844583 198:0.96570134 199:0.40876848 200:0.44368252 201:0.10508543 #
4.5491435301822327e-005 1:100.28656 2:40.810146 3:-0.40645871 4:-0.33504391 5:0.32870591 6:74.052826 7:58.353935 8:0.081852101 9:-0.058793131 10:0.065741181 11:0.13737305 12:0.092223719 13:0.55879068 14:0.74046481 15:0.42992246 16:0.27326486 17:0.27660945 18:0.33650371 19:0.52891433 20:0.36950722 21:0.25264072 22:0.41936028 23:0.061573017 24:0.46254301 25:0.72635573 26:0.79717118 27:0.070483617 28:0.49471164 29:0.87807208 30:0.92956167 31:0.4666194 32:0.64880902 33:0.34621653 34:0.24326651 35:0.33992025 36:0.40608838 37:0.44545114 38:0.32665205 39:0.298576 40:0.49230966 41:0.13789278 42:0.53672397 43:0.81731385 44:0.88688731 45:0.15163924 46:0.58301437 47:0.96793252 48:1.0205896 49:0.1947073 50:0.24104919 51:0.49803805 52:0.7604273 53:0.83251101 54:0.20339368 55:0.45346001 56:0.68865615 57:0.91325492 58:0.59830344 59:0.96169358 60:1.2796957 61:1.3455158 62:0.61132801 63:1.0383862 64:1.4255425 65:1.4820586 66:0.39083901 67:0.65882444 68:0.92691243 69:0.99865299 70:0.33426431 71:0.61606252 72:0.86392725 73:1.084684 74:0.77974743 75:1.1164876 76:1.4566334 77:1.5179505 78:0.79165381 79:1.2236151 80:1.6110612 81:1.6640161 82:0.2804305 83:0.57350695 84:0.6449523 85:0.37676117 86:0.49926293 87:0.62987214 88:0.83595568 89:0.44930899 90:0.84214514 91:1.1431199 92:1.2123473 93:0.496016 94:0.91411161 95:1.2930809 96:1.3466126 97:0.30618578 98:0.37443954 99:0.5703249 100:0.5487411 101:0.52167225 102:0.67626601 103:0.25522041 104:0.634821 105:0.90689045 106:0.97670054 107:0.33904582 108:0.70435143 109:1.064481 110:1.1103255 111:0.076767124 112:0.77800053 113:0.64269328 114:0.44835883 115:0.49479702 116:0.2243315 117:0.39096463 118:0.62361801 119:0.68890429 120:0.28486255 121:0.4731119 122:0.79949534 123:0.83030069 124:0.84667462 125:0.69933194 126:0.48065695 127:0.4946073 128:0.28392068 129:0.370877 130:0.57162464 131:0.63569361 132:0.33439106 133:0.44718805 134:0.75070959 135:0.77685446 136:0.29551846 137:0.58572739 138:0.81403595 139:0.58119351 140:0.91734791 141:1.2168686 142:1.2819433 143:0.56333691 144:0.9645431 145:1.3485249 146:1.4095035 147:0.31910613 148:0.542018 149:0.4275063 150:0.7086072 151:0.96240592 152:1.02773 153:0.36956903 154:0.70555192 155:1.0795962 156:1.1427298 157:0.23210217 158:0.28684193 159:0.43042618 160:0.6460402 161:0.71098703 162:0.19404107 163:0.40403619 164:0.77804911 165:0.83285338 166:0.42778355 167:0.32563379 168:0.44898614 169:0.50399536 170:0.34960598 171:0.26641208 172:0.5876292 173:0.62964129 174:0.45065024 175:0.69845897 176:0.77130342 177:0.098654427 178:0.47288293 179:0.85048884 180:0.90088934 181:0.42131767 182:0.44623086 183:0.41355616 184:0.38810477 185:0.64678699 186:0.65018266 187:0.10102659 188:0.67119104 189:0.30193967 190:0.24676657 191:0.23842487 192:0.74098355 193:0.3931953 194:0.28939325 195:0.23742752 196:0.43893197 197:0.82360482 198:0.87438315 199:0.3876214 200:0.450683 201:0.11617741 #
-4.5491435301822327e-005 1:54.811996 2:54.707146 3:-0.60345572 4:-0.65504378 5:0.63008928 6:60.409176 7:32.522095 8:0.076761842 9:-0.041642219 10:0.063008927 11:0.54075533 12:0.090815462 13:0.54712689 14:0.7065379 15:0.43593898 16:0.35303223 17:0.19672929 18:0.18904676 19:0.46297619 20:0.28243601 21:0.24324037 22:0.29242066 23:0.11531994 24:0.51428282 25:0.89573938 26:0.9542312 27:0.11630429 28:0.49303302 29:0.90664887 30:0.97412455 31:0.45635536 32:0.61767346 33:0.35063276 34:0.30030259 35:0.19272266 36:0.20613205 37:0.37818855 38:0.23461595 39:0.28892529 40:0.34605429 41:0.1880216 42:0.60272437 43:0.98505312 44:1.0444131 45:0.19378357 46:0.57617712 47:0.98862624 48:1.0549895 49:0.19653891 50:0.19917271 51:0.41784129 52:0.5332154 53:0.57475859 54:0.17288643 55:0.41709933 56:0.66959548 57:0.73050874 58:0.63124621 59:1.0540925 60:1.4370478 61:1.4992397 62:0.63678348 63:1.0123744 64:1.4156837 65:1.4776182 66:0.3674148 67:0.58643073 68:0.67661583 69:0.70963049 70:0.30607331 71:0.55851436 72:0.81634921 73:0.87540615 74:0.79118139 75:1.2200781 76:1.6019682 77:1.65915 78:0.79109931 79:1.1403768 80:1.5280188 81:1.5859795 82:0.22212428 83:0.38216826 84:0.43859717 85:0.28114596 86:0.41670743 87:0.61568004 88:0.67677104 89:0.49399135 90:0.91921473 91:1.3039505 92:1.3652105 93:0.5437457 94:0.91676283 95:1.3175755 96:1.3808653 97:0.26258042 98:0.3337588 99:0.45371446 100:0.47161284 101:0.57645458 102:0.63097709 103:0.36164066 104:0.75756967 105:1.1362145 106:1.1969352 107:0.4662298 108:0.81208199 109:1.2019296 110:1.2663879 111:0.072525516 112:0.5073418 113:0.41817868 114:0.4330982 115:0.47919041 116:0.17521732 117:0.59511012 118:0.97363913 119:1.0222886 120:0.2961311 121:0.57560998 122:0.95562059 123:1.0183786 124:0.53448504 125:0.42039493 126:0.4059276 127:0.44745052 128:0.16228248 129:0.56553066 130:0.93955791 131:0.98431659 132:0.26821148 133:0.5144074 134:0.89148343 135:0.95405573 136:0.26534155 137:0.53242773 138:0.59098631 139:0.56580687 140:0.96569175 141:1.3408382 142:1.4043977 143:0.52993661 144:0.90524662 145:1.3128055 146:1.3758917 147:0.27026951 148:0.32703832 149:0.39745122 150:0.73972231 151:1.101342 152:1.165017 153:0.30245507 154:0.66970724 155:1.081872 156:1.147364 157:0.061653052 158:0.31292892 159:0.50690043 160:0.84609371 161:0.90829027 162:0.14995606 163:0.43416256 164:0.84583563 165:0.91428882 166:0.34764016 167:0.4814592 168:0.80483526 169:0.86653411 170:0.18695186 171:0.40145448 172:0.80558777 173:0.87419111 174:0.43746859 175:0.82133186 176:0.87685978 177:0.16441415 178:0.45372832 179:0.85324985 180:0.9207437 181:0.38530454 182:0.44896895 183:0.448232 184:0.3431266 185:0.61273265 186:0.68153805 187:0.097868085 188:0.81832159 189:0.57723272 190:0.57700497 191:0.62406152 192:0.87713999 193:0.59997052 194:0.53124124 195:0.57035089 196:0.40510812 197:0.82478768 198:0.89359152 199:0.42026284 200:0.49065459 201:0.090108156 #
4.5491435301822327e-005 1:145.08714 2:13.620201 3:-0.04676491 4:0.063183188 5:0.78703666 6:127.58871 7:28.722044 8:0.18810789 9:-0.01195817 10:1.2067896 11:0.20734198 12:0.081513911 13:0.49145114 14:0.67637658 15:0.36542445 16:0.27665392 17:0.38030812 18:0.4415282 19:0.52912736 20:0.59061539 21:0.69628012 22:0.76489311 23:0.099496856 24:0.53737938 25:0.90809888 26:0.97282499 27:0.095070571 28:0.56452465 29:0.92285472 30:0.96895897 31:0.41002414 32:0.59597999 33:0.29360449 34:0.26089185 35:0.41958919 36:0.48870951 37:0.45451629 38:0.52193701 39:0.65638196 40:0.7312268 41:0.16680516 42:0.61199641 43:0.98174059 44:1.0457392 45:0.16291767 46:0.63471013 47:0.9904626 48:1.033541 49:0.20375144 50:0.22974874 51:0.48719534 52:0.73857486 53:0.81862479 54:0.18184623 55:0.35150796 56:0.58281708 57:0.65651947 58:0.56630617 59:1.0060259 60:1.3674212 61:1.4282438 62:0.56155217 63:1.0134796 64:1.35352 65:1.3856182 66:0.41606846 67:0.66507471 68:0.90876538 69:0.98748964 70:0.22922885 71:0.33072469 72:0.54374862 73:0.61179864 74:0.75544721 75:1.1785624 76:1.5359936 77:1.591859 78:0.73847467 79:1.1741015 80:1.5042013 81:1.5285274 82:0.29885435 83:0.57305896 84:0.65820009 85:0.37836778 86:0.49033222 87:0.67401403 88:0.74422741 89:0.41226545 90:0.86502039 91:1.224869 92:1.2903466 93:0.45059803 94:0.90690982 95:1.2483611 96:1.2907162 97:0.28250805 98:0.37069553 99:0.59412742 100:0.64290023 101:0.71971846 102:0.7748118 103:0.27201891 104:0.66465265 105:1.0177448 106:1.0804186 107:0.33186761 108:0.70087719 109:1.0205215 110:1.0666103 111:0.092041455 112:0.80960608 113:0.83490014 114:0.84793085 115:0.86687869 116:0.33808488 117:0.52466291 118:0.84907424 119:0.90648121 120:0.37282366 121:0.51247114 122:0.7876063 123:0.83608365 124:0.88022047 125:0.90240341 126:0.91143119 127:0.92025054 128:0.39600357 129:0.50506032 130:0.8097983 131:0.86560708 132:0.421424 133:0.46670333 134:0.71901977 135:0.7691763 136:0.28625193 137:0.54343402 138:0.62222958 139:0.61496001 140:1.029265 141:1.3867992 142:1.4445792 143:0.58023864 144:1.0032786 145:1.3405768 146:1.3667412 147:0.26841298 148:0.34817386 149:0.67501938 150:1.0559351 151:1.3945343 152:1.4444153 153:0.63514578 154:1.042441 155:1.370348 156:1.3916202 157:0.091451392 158:0.75756562 159:1.0869838 160:1.4023321 161:1.4441787 162:0.72880381 163:1.0951651 164:1.4083602 165:1.4265918 166:0.81735992 167:1.1173577 168:1.4185364 169:1.458523 170:0.79126889 171:1.1275791 172:1.4300244 173:1.4474447 174:0.48843065 175:0.85493022 176:0.92280138 177:0.13951406 178:0.53659463 179:0.88850021 180:0.94103771 181:0.385387 182:0.4461017 183:0.47655702 184:0.36975881 185:0.64474237 186:0.69667554 187:0.10188568 188:0.84782881 189:0.62217999 190:0.6903131 191:0.72790122 192:0.91058856 193:0.67216742 194:0.71527451 195:0.74218214 196:0.4879396 197:0.85050315 198:0.89383703 199:0.38893905 200:0.43943527 201:0.11316541 #
-4.5491435301822327e-005 1:146.47639 2:26.862247 3:-0.49939761 4:-0.6223104 5:1.0634109 6:98.52961 7:24.322067 8:0.1369255 9:-0.021109359 10:1.2760931 11:0.39220202 12:0.1099026 13:0.60316324 14:0.83606029 15:0.45255458 16:0.26487985 17:0.33494166 18:0.39132765 19:0.44606772 20:0.2494217 21:0.30432844 22:0.37366951 23:0.039224189 24:0.59034145 25:0.96918333 26:1.009944 27:0.043896757 28:0.58590597 29:0.97922796 30:1.0387466 31:0.50634056 32:0.73891056 33:0.36947614 34:0.22149968 35:0.34698349 36:0.41289529 37:0.36719829 38:0.20721373 39:0.33892399 40:0.41775298 41:0.13335283 42:0.67240745 43:1.0549264 44:1.0998861 45:0.14479914 46:0.68381053 47:1.081085 48:1.1404563 49:0.23517869 50:0.20757782 51:0.48066694 52:0.71651864 53:0.78746712 54:0.2657187 55:0.47158435 56:0.74683142 57:0.83636874 58:0.62876415 59:1.1702247 60:1.5509359 61:1.5990912 62:0.63604015 63:1.1815544 64:1.5744382 65:1.6291691 66:0.42260107 67:0.70404804 68:0.93816602 69:1.0068727 70:0.45875636 71:0.69453096 72:0.96818489 73:1.056447 74:0.86215663 75:1.3990616 76:1.777552 77:1.8274492 78:0.86798137 79:1.4147388 80:1.8058782 81:1.8603153 82:0.29522648 83:0.56118214 84:0.63704699 85:0.22107339 86:0.32522541 87:0.59582251 88:0.68795061 89:0.47341388 90:1.0262411 91:1.4022511 92:1.445825 93:0.48815697 94:1.0219767 95:1.4119015 96:1.4659483 97:0.30743399 98:0.38510644 99:0.39734256 100:0.21598886 101:0.352743 102:0.44056731 103:0.26681772 104:0.77845389 105:1.1495559 106:1.1914822 107:0.29983515 108:0.77126145 109:1.1635311 110:1.2180393 111:0.085253105 112:0.63917571 113:0.44707909 114:0.31374651 115:0.30908802 116:0.31259149 117:0.61346239 118:0.9816249 119:1.0239336 120:0.35275114 121:0.60777766 122:0.99921352 123:1.0469985 124:0.70814127 125:0.51286918 126:0.36193013 127:0.32728207 128:0.36576512 129:0.59332567 130:0.95289254 131:0.99414271 132:0.40481803 133:0.58015484 134:0.96521658 135:1.0091131 136:0.3211346 137:0.61032456 138:0.69986212 139:0.47876355 140:1.0084928 141:1.3808534 142:1.4250315 143:0.4676851 144:1.0090169 145:1.3901786 146:1.4465246 147:0.30091247 148:0.39460859 149:0.27025452 150:0.78230333 151:1.1429455 152:1.187042 153:0.273231 154:0.78103906 155:1.1639805 156:1.2238059 157:0.0964498 158:0.29060578 159:0.58403927 160:0.91682738 161:0.96230245 162:0.30691001 163:0.5937987 164:0.96421748 165:1.0269957 166:0.35581353 167:0.53415889 168:0.84866071 169:0.8955341 170:0.37013498 171:0.55279517 172:0.91203314 173:0.9761048 174:0.56660265 175:0.94526529 176:0.98555422 177:0.061427824 178:0.56055272 179:0.95641261 180:1.0156873 181:0.40701011 182:0.45498374 183:0.56350535 184:0.26391563 185:0.54589242 186:0.62003219 187:0.10139834 188:0.94055188 189:0.51203477 190:0.44199735 191:0.51870555 192:0.98045474 193:0.51938158 194:0.39283741 195:0.46153229 196:0.55723357 197:0.94751471 198:1.0078914 199:0.41959989 200:0.47548047 201:0.10860412 #
4.5491435301822327e-005 1:61.243958 2:17.585062 3:-0.30130279 4:-0.046128131 5:0.88805014 6:95.21048 7:25.285038 8:0.095283359 9:-0.072075091 10:0.76964349 11:0.63714331 12:0.068634108 13:0.41454637 14:0.65010071 15:0.42641556 16:0.17620556 17:0.32962772 18:0.41777548 19:0.35552865 20:0.2100441 21:0.28919542 22:0.36117834 23:0.050325092 24:0.59105855 25:0.93233413 26:1.0111294 27:0.047359481 28:0.59800315 29:0.99355221 30:1.0433971 31:0.34598631 32:0.58163309 33:0.37188059 34:0.14551803 35:0.36191759 36:0.45542315 37:0.29442677 38:0.20468651 39:0.33787206 40:0.41667882 41:0.11283603 42:0.65054679 43:0.9913736 44:1.0685376 45:0.10777879 46:0.66529435 47:1.060215 48:1.110763 49:0.23650135 50:0.23544206 51:0.3414194 52:0.61752868 53:0.71297145 54:0.18822055 55:0.42397311 56:0.64672989 57:0.73554689 58:0.45497927 59:0.96771753 60:1.3021017 61:1.3724852 62:0.45050249 63:1.0071495 64:1.3988528 65:1.4518666 66:0.36696139 67:0.56836247 68:0.83198017 69:0.92378736 70:0.36486641 71:0.64026564 72:0.87521094 73:0.96585172 74:0.69035441 75:1.1967635 76:1.5279558 77:1.5958676 78:0.68535602 79:1.2408974 80:1.6288751 81:1.6838807 82:0.31189442 83:0.50435936 84:0.58631372 85:0.38143456 86:0.53287399 87:0.70582289 88:0.78147769 89:0.44805554 90:0.90114909 91:1.2338774 92:1.3059224 93:0.4698284 94:0.97531521 95:1.3560131 96:1.4076319 97:0.29065049 98:0.38914475 99:0.35866314 100:0.33296636 101:0.42542556 102:0.49114937 103:0.18344323 104:0.63677037 105:0.97054243 106:1.0419766 107:0.21793348 108:0.71219403 109:1.1144785 110:1.1577959 111:0.098550603 112:0.63801479 113:0.53282976 114:0.4926604 115:0.51015633 116:0.29072765 117:0.42663169 118:0.75027537 119:0.82487249 120:0.34619468 121:0.56877458 122:0.94431853 123:0.97769248 124:0.73482275 125:0.61860573 126:0.55204785 127:0.55510616 128:0.37584206 129:0.38397175 130:0.690539 131:0.76530856 132:0.42925811 133:0.55092275 134:0.90352362 135:0.93227547 136:0.28240448 137:0.53029257 138:0.62429059 139:0.40357912 140:0.93312246 141:1.2674998 142:1.3408031 143:0.37657386 144:0.9264856 145:1.3112409 146:1.3669297 147:0.25650403 148:0.35106367 149:0.24781998 150:0.72852629 151:1.0540731 152:1.1302719 153:0.1942614 154:0.67158777 155:1.0534506 156:1.1071501 157:0.095539115 158:0.2824167 159:0.54354471 160:0.8418861 161:0.91625065 162:0.25048921 163:0.45960936 164:0.84452438 165:0.88797861 166:0.34471819 167:0.49190688 168:0.77131617 169:0.84466296 170:0.32256502 171:0.38920823 172:0.76965272 173:0.80823201 174:0.54489684 175:0.88679671 176:0.96612537 177:0.064745657 178:0.56013 179:0.95701396 180:1.0053858 181:0.34974825 182:0.43595099 183:0.57556719 184:0.35795677 185:0.6428985 186:0.6508919 187:0.10477804 188:0.91528922 189:0.58230305 190:0.65342617 191:0.60977948 192:0.99504328 193:0.6670348 194:0.72759545 195:0.66970378 196:0.56584966 197:0.9596163 198:1.010082 199:0.41508433 200:0.45594493 201:0.09892638 #
-3.7820090060938667e-005 1:107.74208 2:16.554554 3:-0.21282589 4:0.1081765 5:0.31298906 6:126.39037 7:17.448843 8:0.20813569 9:0.033482332 10:1.1997914 11:0.3611522 12:0.095233679 13:0.49406785 14:0.72758025 15:0.39460838 16:0.44550714 17:0.57618576 18:0.62930375 19:0.483253 20:0.47523561 21:0.58356804 22:0.62852144 23:0.1189991 24:0.70216054 25:1.0697453 26:1.1188515 27:0.12447435 28:0.71092665 29:1.067288 30:1.1173517 31:0.4159247 32:0.65009475 33:0.32723492 34:0.42250296 35:0.58234173 36:0.63892776 37:0.41754425 38:0.44550204 39:0.58600402 40:0.63662809 41:0.18794954 42:0.78537297 43:1.1503875 44:1.2025571 45:0.20488657 46:0.78990602 47:1.1471512 48:1.1997159 49:0.24590345 50:0.24620259 51:0.40373799 52:0.57846761 53:0.63551188 54:0.25384733 55:0.43479982 56:0.59934801 57:0.65597451 58:0.58419335 59:1.1799411 60:1.5434109 61:1.5906385 62:0.59545994 63:1.1797043 64:1.5419878 65:1.5908811 66:0.44879013 67:0.55610383 68:0.67181033 69:0.71504718 70:0.3618558 71:0.51353109 72:0.64747638 73:0.70321363 74:0.82107252 75:1.4065568 76:1.7669207 77:1.8118254 78:0.81932735 79:1.4020284 80:1.7666689 81:1.8134145 82:0.27498156 83:0.5102849 84:0.5808807 85:0.41706684 86:0.53703535 87:0.68580085 88:0.73719603 89:0.44196674 90:1.0469933 91:1.4094751 92:1.4601693 93:0.51189166 94:1.0776784 95:1.4277071 96:1.4792674 97:0.25335476 98:0.33266219 99:0.54382461 100:0.65285653 101:0.77593052 102:0.81976086 103:0.45267302 104:1.0050159 105:1.3675436 106:1.4047042 107:0.53513139 108:1.0644799 109:1.4103727 110:1.4528278 111:0.089413263 112:0.67469758 113:0.78325331 114:0.88155389 115:0.91743696 116:0.56195396 117:1.0081825 118:1.3654259 119:1.3900181 120:0.6201902 121:1.0744338 122:1.4166889 123:1.4522578 124:0.71956515 125:0.83118999 126:0.92819601 127:0.95793527 128:0.61482829 129:1.0099289 130:1.3648235 131:1.3862079 132:0.66104299 133:1.0760176 134:1.4147626 135:1.4490616 136:0.28528041 137:0.47859517 138:0.54101616 139:0.59339571 140:1.139957 141:1.4987751 142:1.5420723 143:0.54156733 144:1.1007444 145:1.4639053 146:1.5089155 147:0.26724717 148:0.34157276 149:0.5852555 150:1.0793772 151:1.4394106 152:1.4772258 153:0.4988732 154:1.0293744 155:1.3907216 156:1.4283842 157:0.09007778 158:0.6728726 159:1.0650351 160:1.42172 161:1.4541003 162:0.57330453 163:1.0161942 164:1.3710527 165:1.4000739 166:0.71063524 167:1.0614533 168:1.4141287 169:1.4443661 170:0.61487162 171:1.0142465 172:1.3638104 173:1.3898543 174:0.62517965 175:0.9908672 176:1.0422517 177:0.16788474 178:0.65844107 179:1.0044484 180:1.0560549 181:0.38309562 182:0.43046421 183:0.62564093 184:0.34826219 185:0.55095601 186:0.58965033 187:0.1141501 188:0.99037248 189:0.56223482 190:0.49096295 191:0.50413656 192:1.0367469 193:0.59752321 194:0.49784034 195:0.49771801 196:0.6141656 197:0.97271615 198:1.0211037 199:0.38291618 200:0.4340511 201:0.10725129 #
4.5491435301822327e-005 1:85.766151 2:44.325638 3:-0.4562414 4:-0.282626 5:3.7540283 6:86.01265 7:47.64769 8:0.099648401 9:-0.047537431 10:0.37540284 11:0.047674734 12:0.095538966 13:0.49020144 14:0.73833793 15:0.43288583 16:0.22349545 17:0.26177362 18:0.32285959 19:0.45382586 20:0.26291007 21:0.19950359 22:0.17252353 23:0.074703693 24:0.57694548 25:0.92801964 26:0.96887052 27:0.095565721 28:0.58074051 29:0.94884747 30:1.0059029 31:0.41389152 32:0.6599921 33:0.38029602 34:0.22442676 35:0.32175857 36:0.38840458 37:0.40029347 38:0.21580191 39:0.24758093 40:0.22933319 41:0.13766047 42:0.64367491 43:1.0000606 44:1.0393161 45:0.17805259 46:0.64797354 47:1.016397 48:1.0745449 49:0.25129315 50:0.15531877 51:0.38681784 52:0.63681895 53:0.72469592 54:0.16017985 55:0.2706891 56:0.54558295 57:0.57440692 58:0.53016275 59:1.0559735 60:1.4126472 61:1.450066 62:0.56422156 63:1.0504537 64:1.4162682 65:1.4706639 66:0.35943109 67:0.62981528 68:0.88435596 69:0.97277695 70:0.35763249 71:0.51866043 72:0.79381871 73:0.82487881 74:0.77400839 75:1.2987629 76:1.6580924 77:1.6970652 78:0.81290734 79:1.2979959 80:1.6629654 81:1.7185806 82:0.28609672 83:0.55600786 84:0.6482954 85:0.068002798 86:0.20492563 87:0.46467113 88:0.50537407 89:0.47797686 90:1.0069134 91:1.3554246 92:1.394192 93:0.49860576 94:0.99867558 95:1.363447 96:1.4141214 97:0.27252227 98:0.36529636 99:0.28872463 100:0.13518019 101:0.18385392 102:0.2365917 103:0.27900904 104:0.76498157 105:1.0982113 106:1.1303058 107:0.25898632 108:0.73501754 109:1.0938983 110:1.1391362 111:0.094365783 112:0.55133706 113:0.37417063 114:0.095054284 115:0.12108704 116:0.29545501 117:0.57400012 118:0.87579876 119:0.89407015 120:0.19982699 121:0.50004059 122:0.8442753 123:0.88147974 124:0.64370728 125:0.46436673 126:0.18647593 127:0.16448431 128:0.34651971 129:0.51612067 130:0.80021608 131:0.81301129 132:0.24878184 133:0.4203546 134:0.7553736 135:0.79000562 136:0.20891662 137:0.46239832 138:0.50721872 139:0.5012477 140:1.0266883 141:1.3726941 142:1.4069805 143:0.51639605 144:1.0073979 145:1.3697189 146:1.4179288 147:0.28062233 148:0.3121016 149:0.30990028 150:0.82549596 151:1.172003 152:1.2059083 153:0.3324275 154:0.81406516 155:1.1779338 156:1.2270864 157:0.075897515 158:0.24606563 159:0.6191771 160:0.9390887 161:0.96326739 162:0.18393791 163:0.57204258 164:0.92505503 165:0.96619362 166:0.21427761 167:0.55801171 168:0.88337255 169:0.90882415 170:0.15812683 171:0.52151823 172:0.87763804 173:0.92141008 174:0.53964543 175:0.89219332 176:0.93575573 177:0.13623434 178:0.56882036 179:0.93279546 180:0.99222332 181:0.36577049 182:0.41891509 183:0.52967846 184:0.21803623 185:0.48319274 186:0.54447979 187:0.10691389 188:0.87082052 189:0.42987093 190:0.30206534 191:0.33771953 192:0.90883052 193:0.44379485 194:0.26207656 195:0.26459393 196:0.50928015 197:0.87613189 198:0.92975616 199:0.37287885 200:0.43625921 201:0.11764004 #
-4.5491435301822327e-005 1:56.212521 2:35.233707 3:-0.65759522 4:-0.55141288 5:0.94764066 6:67.260376 7:33.662945 8:0.083777294 9:-0.079141907 10:0.22111616 11:0.07576789 12:0.061691716 13:0.37231219 14:0.55826437 15:0.3430526 16:0.285772 17:0.17461385 18:0.20466569 19:0.33613712 20:0.24327895 21:0.30836132 22:0.39196968 23:0.096183501 24:0.60589457 25:1.0482081 26:1.108911 27:0.077429414 28:0.5633471 29:0.98202473 30:1.0284742 31:0.31069836 32:0.49823311 33:0.29052961 34:0.26042801 35:0.19791847 36:0.23744024 37:0.27997476 38:0.23380603 39:0.3494516 40:0.44062519 41:0.15197806 42:0.66730678 43:1.1096356 44:1.1700221 45:0.12559195 46:0.6222437 47:1.0434376 48:1.0899237 49:0.21067265 50:0.16563225 51:0.32596081 52:0.44147483 53:0.4922435 54:0.15406795 55:0.39236119 56:0.61776191 57:0.72222203 58:0.45486444 59:0.97703838 60:1.4194658 61:1.4788487 62:0.42722636 63:0.92448515 64:1.3534462 65:1.3999621 66:0.30409232 67:0.48402879 68:0.60130489 69:0.64061439 70:0.31780517 71:0.57589304 72:0.79910338 73:0.90221429 74:0.63659018 75:1.1599598 76:1.5939564 77:1.6467835 78:0.6123749 79:1.1188061 80:1.5339462 81:1.5730137 82:0.18155546 83:0.34939265 84:0.41396099 85:0.28884608 86:0.45422819 87:0.63597971 88:0.7299853 89:0.39897162 90:0.92234391 91:1.3606876 92:1.4208542 93:0.41549215 94:0.87543178 95:1.2987801 96:1.3427634 97:0.23407772 98:0.31546891 99:0.40171453 100:0.46527937 101:0.58394021 102:0.66191185 103:0.29998422 104:0.78882635 105:1.2213475 106:1.2848055 107:0.36086836 108:0.74283504 109:1.1604228 110:1.2056422 111:0.087467603 112:0.45882902 113:0.4153958 114:0.43489841 115:0.49173591 116:0.1301074 117:0.59777522 118:1.0220003 119:1.0783356 120:0.22728835 121:0.57850903 122:0.9672181 123:1.0037988 124:0.49894977 125:0.43632099 126:0.41906506 127:0.46432456 128:0.1506054 129:0.56247109 130:0.97549212 131:1.0262722 132:0.23591734 133:0.56022704 134:0.925129 135:0.95520639 136:0.26729038 137:0.51436394 138:0.62333483 139:0.43092975 140:0.92208207 141:1.3627666 142:1.4231999 143:0.36635602 144:0.8625766 145:1.2921039 146:1.3428985 147:0.26146734 148:0.37153703 149:0.31931379 150:0.70343858 151:1.1370418 152:1.2009571 153:0.21197374 154:0.63703752 155:1.0606341 156:1.1177728 157:0.11101606 158:0.31303948 159:0.47350818 160:0.88953906 161:0.95150751 162:0.23197107 163:0.4241091 164:0.81390035 165:0.86907762 166:0.37435016 167:0.39026752 168:0.78879648 169:0.84980845 170:0.3168804 171:0.34909457 172:0.71295041 173:0.76772201 174:0.52884942 175:0.96957737 176:1.0306426 177:0.11663383 178:0.49440223 179:0.90552491 180:0.95029682 181:0.45595306 182:0.52863681 183:0.55957413 184:0.16292654 185:0.38461396 186:0.43980393 187:0.10112498 188:1.0004194 189:0.55244827 190:0.11517085 191:0.088961609 192:1.0611527 193:0.63443601 194:0.20253162 195:0.10392819 196:0.51625592 197:0.93223691 198:0.98012948 199:0.46818808 200:0.54125941 201:0.10857854 #
4.5491435301822327e-005 1:126.16126 2:39.06105 3:-0.2309211 4:-0.2115822 5:0.62404484 6:109.59263 7:28.80378 8:0.12711319 9:-0.055070151 10:0.87366277 11:0.2877453 12:0.10098962 13:0.51297623 14:0.70511329 15:0.52623791 16:0.40045825 17:0.16133392 18:0.18044944 19:0.41820738 20:0.25770643 21:0.33060962 22:0.38511986 23:0.056074135 24:0.5534997 25:0.85496938 26:0.89180577 27:0.052040152 28:0.55554426 29:0.93028122 30:0.9898566 31:0.43199462 32:0.6314863 33:0.44772238 34:0.34983703 35:0.18911752 36:0.23915748 37:0.33758831 38:0.24177152 39:0.39226207 40:0.45741585 41:0.14759941 42:0.64135641 43:0.94567913 44:0.98479527 45:0.13315018 46:0.64012301 47:1.0065752 48:1.0700179 49:0.21409252 50:0.1912408 51:0.43540558 52:0.49979585 53:0.56326735 54:0.2032629 55:0.47440591 56:0.7178179 57:0.7962355 58:0.55716068 59:1.0137188 60:1.337254 61:1.361774 62:0.5493322 63:1.059612 64:1.4294499 65:1.490517 66:0.30627301 67:0.5945645 68:0.67906415 69:0.73928094 70:0.37713423 71:0.65622622 72:0.88966978 73:0.96651554 74:0.74693561 75:1.177253 76:1.504162 77:1.521066 78:0.74239266 79:1.249266 80:1.6251978 81:1.6831816 82:0.29966953 83:0.47555867 84:0.53826916 85:0.35207286 86:0.57221556 87:0.7932418 88:0.86476535 89:0.55821753 90:0.9898895 91:1.3111867 92:1.3386689 93:0.57029408 94:1.0539908 95:1.4174364 96:1.4773107 97:0.32740673 98:0.37683934 99:0.49224493 100:0.5641315 101:0.71788394 102:0.77244908 103:0.40659904 104:0.78609151 105:1.0868323 106:1.1246628 107:0.44428432 108:0.83794057 109:1.1816367 110:1.2403287 111:0.073773533 112:0.45890671 113:0.37150425 114:0.44642404 115:0.49247742 116:0.1647107 117:0.54151136 118:0.85599548 119:0.8849386 120:0.2033183 121:0.61500043 122:0.98853636 123:1.0402975 124:0.51741153 125:0.397329 126:0.43338522 127:0.47143799 128:0.16538362 129:0.48801687 130:0.79941225 131:0.82663018 132:0.20962699 133:0.57537174 134:0.94731569 135:0.99625289 136:0.30561259 137:0.56847662 138:0.65112221 139:0.4706628 140:0.9402926 141:1.2540356 142:1.2834724 143:0.44050312 144:0.94837081 145:1.309911 146:1.3748242 147:0.27135271 148:0.35463843 149:0.30373842 150:0.73583686 151:1.0208828 152:1.0528744 153:0.24475522 154:0.68875039 155:1.0461057 156:1.1093613 157:0.084847055 158:0.33881304 159:0.5894714 160:0.82681924 161:0.85323924 162:0.29318619 163:0.50628924 164:0.85595924 165:0.90968347 166:0.38328087 167:0.55714059 168:0.77107519 169:0.79602402 170:0.34652609 171:0.45872882 172:0.79917479 173:0.84918183 174:0.50801718 175:0.80808163 176:0.84571177 177:0.076014891 178:0.514121 179:0.89066517 180:0.94859147 181:0.34052461 182:0.36509165 183:0.53815889 184:0.3452957 185:0.63038212 186:0.65939862 187:0.10886154 188:0.83302093 189:0.46702686 190:0.50095105 191:0.4961144 192:0.87136286 193:0.52132511 194:0.54213792 195:0.53052789 196:0.52493691 197:0.89682889 198:0.95777559 199:0.39286888 200:0.44336098 201:0.096202753 #
-4.5491435301822327e-005 1:139.48277 2:30.932184 3:-0.39732441 4:-0.60088551 5:1.0224415 6:100.82652 7:25.61149 8:0.15000559 9:-0.001202515 10:1.2269298 11:0.32843542 12:0.089122802 13:0.5246321 14:0.76897687 15:0.40723592 16:0.27591997 17:0.35682622 18:0.40094146 19:0.41387066 20:0.23677078 21:0.29992071 22:0.36520842 23:0.062846288 24:0.61021632 25:0.92253643 26:0.98206031 27:0.050709743 28:0.576518 29:0.97154206 30:1.027034 31:0.43872261 32:0.68278384 33:0.33220628 34:0.25849009 35:0.39206815 36:0.44345137 37:0.33493745 38:0.22182421 39:0.35355791 40:0.42672196 41:0.14317384 42:0.69270074 43:1.0067418 44:1.0667237 45:0.12585591 46:0.66103768 47:1.0551548 48:1.1107314 49:0.24551784 50:0.20762767 51:0.48094761 52:0.70881474 53:0.77076972 54:0.18770017 55:0.48327324 56:0.72162431 57:0.80484009 58:0.57521462 59:1.1226027 60:1.4376457 61:1.4975401 62:0.55666882 63:1.0927871 64:1.4819561 65:1.5375483 66:0.41831413 67:0.70416182 68:0.93347901 69:0.99579757 70:0.39811322 71:0.70966589 72:0.95284086 73:1.0360478 74:0.81926519 75:1.3645788 76:1.6782649 77:1.7384782 78:0.80032361 79:1.3359309 80:1.7218012 81:1.7781391 82:0.29394081 83:0.5278312 84:0.59347659 85:0.2420354 86:0.43499798 87:0.6350528 88:0.71122438 89:0.44334686 90:0.98145336 91:1.2981373 92:1.3542136 93:0.44955969 94:0.96074599 95:1.349804 96:1.4021535 97:0.24779256 98:0.31652322 99:0.45097309 100:0.41187415 101:0.50813437 102:0.56383824 103:0.2678985 104:0.7296235 105:1.052295 106:1.1041267 107:0.31829026 108:0.72190201 109:1.1038934 110:1.1503156 111:0.073381856 112:0.66029775 113:0.53346449 114:0.49354997 115:0.52187347 116:0.31214648 117:0.5536378 118:0.89189291 119:0.93633908 120:0.37996727 121:0.56191278 122:0.92542672 123:0.96006864 124:0.71855038 125:0.57788241 126:0.5082978 127:0.51948553 128:0.35207102 129:0.51151061 130:0.8544265 131:0.8955757 132:0.4184742 133:0.52966058 134:0.88566726 135:0.91473281 136:0.31989953 137:0.57423681 138:0.6614638 139:0.47119322 140:1.0132563 141:1.3203052 142:1.3814309 143:0.4350211 144:0.97276372 145:1.3594362 146:1.4167646 147:0.26315716 148:0.35226059 149:0.28506249 150:0.75291389 151:1.0398438 152:1.1002728 153:0.22481237 154:0.71321881 155:1.0946436 156:1.151804 157:0.0903759 158:0.30038244 159:0.55518985 160:0.81869531 161:0.87306404 162:0.26821378 163:0.53752226 164:0.90635777 165:0.95869094 166:0.35395125 167:0.50269002 168:0.75092721 169:0.80239952 170:0.33376619 171:0.49713242 172:0.85327542 173:0.90350944 174:0.55812186 175:0.87487382 176:0.93263161 177:0.081747815 178:0.52993858 179:0.92688978 180:0.98049456 181:0.40614924 182:0.44742593 183:0.58915854 184:0.21495105 185:0.46892843 186:0.50674367 187:0.10513415 188:0.89498526 189:0.46173212 190:0.38648248 191:0.42441747 192:0.95621854 193:0.51362538 194:0.40202039 195:0.42985141 196:0.54924655 197:0.94248635 198:0.99919915 199:0.41025892 200:0.45707938 201:0.10154794 #
4.5491435301822327e-005 1:70.237206 2:26.978699 3:-0.33711079 4:-0.26216289 5:1.7445709 6:106.01354 7:34.52261 8:0.1385116 9:-0.069096647 10:0.81413305 11:0.64424509 12:0.066192433 13:0.40451226 14:0.66546863 15:0.35986155 16:0.14035206 17:0.35469174 18:0.38257 19:0.36504373 20:0.20165174 21:0.31041062 22:0.37415585 23:0.065362491 24:0.57659245 25:0.93762159 26:1.0009712 27:0.05201254 28:0.54756391 29:0.9208864 30:0.99983883 31:0.33839521 32:0.59976435 33:0.30133021 34:0.13323829 35:0.38744026 36:0.42200124 37:0.30488524 38:0.19433087 39:0.35201234 40:0.42209685 41:0.12588578 42:0.63844413 43:0.99923444 44:1.0608659 45:0.10637879 46:0.61091381 47:0.98325759 48:1.0630412 49:0.26594055 50:0.16000922 51:0.38224253 52:0.63810998 53:0.68758494 54:0.17373489 55:0.40490428 56:0.63849723 57:0.71858668 58:0.45948461 59:0.96234298 60:1.3198949 61:1.374881 62:0.43993208 63:0.94094658 64:1.3082969 65:1.3908005 66:0.35627809 67:0.63048577 68:0.86168432 69:0.91427791 70:0.37937167 71:0.65544611 72:0.89089429 73:0.97154278 74:0.71792245 75:1.2096192 76:1.5625782 77:1.612555 78:0.7019136 79:1.2024927 80:1.5700386 81:1.6529446 82:0.29105949 83:0.51920068 84:0.57488328 85:0.29107276 86:0.43846521 87:0.64093882 88:0.71335089 89:0.39847419 90:0.87870598 91:1.2358186 92:1.2908446 93:0.4059231 94:0.87992209 95:1.2472901 96:1.3282801 97:0.27943352 98:0.32467273 99:0.39554465 100:0.31653515 101:0.42116004 102:0.47671023 103:0.13659677 104:0.59733474 105:0.95589137 106:1.0153846 107:0.18449964 108:0.59394777 109:0.97077727 110:1.0475965 111:0.063814111 112:0.66824955 113:0.53873926 114:0.52126092 115:0.53666431 116:0.30191103 117:0.42683271 118:0.7523942 119:0.8031745 120:0.37692305 121:0.50488168 122:0.87973052 123:0.93973899 124:0.70919424 125:0.55828494 126:0.51185554 127:0.51783413 128:0.32596335 129:0.37414539 130:0.69287491 131:0.7419892 132:0.39843106 133:0.46503463 134:0.84327453 135:0.89854729 136:0.29206136 137:0.54145104 138:0.62519062 139:0.4289228 140:0.93514049 141:1.2905579 142:1.349928 143:0.38375705 144:0.88126779 145:1.2374005 146:1.3212842 147:0.25316679 148:0.33657223 149:0.25340974 150:0.69617546 151:1.0383871 152:1.1007071 153:0.18112762 154:0.61614186 155:0.97673661 156:1.0556372 157:0.084694296 158:0.30937171 159:0.52835768 160:0.83405942 161:0.89385861 162:0.26881874 163:0.4286043 164:0.79610258 165:0.86282295 166:0.36151257 167:0.48193437 168:0.76770198 169:0.82687426 170:0.33263338 171:0.37380528 172:0.73731363 173:0.79851073 174:0.51619202 175:0.87857616 176:0.94239599 177:0.080411024 178:0.49876466 179:0.87486136 180:0.95218062 181:0.37174019 182:0.44349357 183:0.55939615 184:0.26936778 185:0.5554111 186:0.59579176 187:0.10465598 188:0.91841501 189:0.52132976 190:0.57501602 191:0.54063755 192:0.98352349 193:0.60046566 194:0.66665411 195:0.62487257 196:0.51695412 197:0.88583058 198:0.96531737 199:0.42566562 200:0.48119012 201:0.10664531 #
-4.5491435301822327e-005 1:94.585915 2:31.399687 3:-0.3042393 4:-0.3183839 5:0.9689545 6:93.47599 7:29.285095 8:0.1060837 9:-0.049789429 10:1.1627454 11:0.21800716 12:0.061211824 13:0.33159965 14:0.53779888 15:0.32515433 16:0.23632586 17:0.18660322 18:0.2201388 19:0.27362308 20:0.20410946 21:0.30740568 22:0.37152091 23:0.093215302 24:0.5521813 25:1.0367686 26:1.0801946 27:0.085367799 28:0.54956329 29:1.0493677 30:1.0985354 31:0.2787421 32:0.48564339 33:0.28302509 34:0.22442712 35:0.22115743 36:0.26099125 37:0.22709697 38:0.2044704 39:0.34567872 40:0.41505378 41:0.14306946 42:0.60763496 43:1.0925374 44:1.137008 45:0.13129358 46:0.5998587 47:1.0993147 48:1.1500453 49:0.20885946 50:0.19697577 51:0.32432342 52:0.44012401 53:0.47607267 54:0.17006166 55:0.37994304 56:0.58575284 57:0.66426224 58:0.40674075 59:0.88096589 60:1.3650258 61:1.4071501 62:0.39568973 63:0.87388599 64:1.3713313 65:1.4236181 66:0.33037838 67:0.49584174 68:0.63217908 69:0.66339815 70:0.33520773 71:0.56747121 72:0.77990371 73:0.85963607 74:0.6107527 75:1.0847466 76:1.5669985 77:1.6074651 78:0.60033917 79:1.0793687 80:1.576478 81:1.6288211 82:0.18335764 83:0.35216475 84:0.39980495 85:0.31971908 86:0.45932007 87:0.62677723 88:0.69470453 89:0.36138597 90:0.827784 91:1.3070562 92:1.347964 93:0.40837124 94:0.85326934 95:1.3470322 96:1.3928295 97:0.20237926 98:0.26233089 99:0.37742388 100:0.41955721 101:0.53193146 102:0.58723205 103:0.22977243 104:0.66745543 105:1.1420636 106:1.1831959 107:0.31511238 108:0.71001399 109:1.1957281 110:1.2379717 111:0.077666596 112:0.43511912 113:0.38049239 114:0.41200346 115:0.44819888 116:0.11827292 117:0.49077719 118:0.9630971 119:1.0017235 120:0.22978936 121:0.54697764 122:1.0328006 123:1.0705789 124:0.46568081 125:0.40051368 126:0.40875551 127:0.43761384 128:0.15541819 129:0.46995741 130:0.93309784 131:0.96852165 132:0.24896821 133:0.53559911 134:1.0178895 135:1.0522252 136:0.23520005 137:0.45544949 138:0.53816128 139:0.36510676 140:0.807482 141:1.2865837 142:1.3309852 143:0.30617258 144:0.77185655 145:1.2625539 146:1.3195866 147:0.22684714 148:0.31131744 149:0.27563751 150:0.61664766 151:1.0832919 152:1.1299013 153:0.16160062 154:0.55385888 155:1.0367497 156:1.0959029 157:0.085185863 158:0.31649899 159:0.43838918 160:0.87795973 161:0.92446619 162:0.22369795 163:0.35247186 164:0.82564521 165:0.88289678 166:0.36384767 167:0.38087994 168:0.80198312 169:0.8485657 170:0.28868413 171:0.28533223 172:0.74931961 173:0.80499607 174:0.47989649 175:0.96449703 176:1.007358 177:0.12367901 178:0.49960634 179:0.99698484 180:1.0419434 181:0.49130583 182:0.53863132 183:0.50379282 184:0.19616358 185:0.57431769 186:0.6004616 187:0.09276931 188:0.98442429 189:0.56303245 190:0.43431598 191:0.38466722 192:1.0287068 193:0.61378825 194:0.47209039 195:0.41526616 196:0.48231924 197:0.98135245 198:1.0326519 199:0.51050913 200:0.55929083 201:0.099458575 #
4.5491435301822327e-005 1:143.75226 2:27.196785 3:-0.26613501 4:-0.284522 5:0.39968228 6:78.066856 7:24.003885 8:0.1126376 9:-0.07221546 10:0.42632779 11:0.5903852 12:0.085851058 13:0.51578975 14:0.70573729 15:0.43745488 16:0.30190185 17:0.24364451 18:0.27055392 19:0.39614981 20:0.20395947 21:0.28121084 22:0.34865355 23:0.069150098 24:0.53305894 25:0.87333602 26:0.94087672 27:0.065532275 28:0.47665551 29:0.85822338 30:0.93124121 31:0.43000564 32:0.62065035 33:0.35952118 34:0.26132807 35:0.26928231 36:0.31726152 37:0.31550506 38:0.18520726 39:0.33705989 40:0.41237518 41:0.14411326 42:0.61520582 43:0.95409679 44:1.0220072 45:0.13687029 46:0.55452901 47:0.93499464 48:1.004528 49:0.20343348 50:0.18680608 51:0.40905455 52:0.59675127 53:0.66901714 54:0.19578047 55:0.47273466 56:0.7170406 57:0.80069661 58:0.56717896 59:1.0347865 60:1.3668579 61:1.4351729 62:0.56033373 63:0.96615702 64:1.3367985 65:1.3937277 66:0.32786769 67:0.56921726 68:0.75793892 69:0.83297807 70:0.37483022 71:0.66247863 72:0.90319973 73:0.98634654 74:0.75363106 75:1.226746 76:1.5620227 77:1.6280148 78:0.75220239 79:1.1391327 80:1.4991285 81:1.5483618 82:0.24969637 83:0.46600094 84:0.54296881 85:0.28791174 86:0.47014725 87:0.67890871 88:0.75542897 89:0.47321376 90:0.9311133 91:1.2643979 92:1.328668 93:0.4932802 94:0.87244028 95:1.2342081 96:1.2888787 97:0.2930204 98:0.36670256 99:0.40638429 100:0.42949706 101:0.56966674 102:0.63255745 103:0.31141058 104:0.71909064 105:1.0546256 106:1.1162633 107:0.35750577 108:0.69070369 109:1.0442111 110:1.1052678 111:0.084849104 112:0.53919488 113:0.41178122 114:0.41782033 115:0.45512235 116:0.20619652 117:0.55880725 118:0.88143212 119:0.92979157 120:0.28536397 121:0.45693296 122:0.80102587 123:0.8551845 124:0.59985358 125:0.43581253 126:0.39042246 127:0.41367051 128:0.22105351 129:0.50278723 130:0.81726545 131:0.8622095 132:0.29680568 133:0.39604318 134:0.73735464 135:0.7928704 136:0.30217677 137:0.56026131 138:0.64653587 139:0.45782867 140:0.91131586 141:1.2398517 142:1.3113657 143:0.42592898 144:0.84629178 145:1.2246785 146:1.2897669 147:0.26332045 148:0.3497518 149:0.26224825 150:0.64996737 151:0.96906477 152:1.0398586 153:0.19410849 154:0.58986926 155:0.96966267 156:1.043193 157:0.088317387 158:0.28211978 159:0.46646616 160:0.76249397 161:0.82587844 162:0.23764735 163:0.3860971 164:0.74735141 165:0.82386279 166:0.33676094 167:0.42120454 168:0.69750077 169:0.75720972 170:0.30467626 171:0.34041607 172:0.68362087 173:0.76141793 174:0.48672163 175:0.82800335 176:0.89307171 177:0.098761208 178:0.42687711 179:0.80489761 180:0.87717092 181:0.39630777 182:0.453181 183:0.49813476 184:0.29599079 185:0.53193599 186:0.62689376 187:0.10777242 188:0.83704633 189:0.59201825 190:0.59246868 191:0.66960067 192:0.90659583 193:0.62958086 194:0.58309096 195:0.64965463 196:0.45036882 197:0.83329588 198:0.91075671 199:0.38686022 200:0.46738058 201:0.116426 #
-4.5491435301822327e-005 1:138.4359 2:24.392702 3:-0.31291619 4:-0.24795011 5:0.094931982 6:98.734276 7:28.125809 8:0.46787 9:0.061444972 10:0.044301592 11:0.099512421 12:0.082098626 13:0.48470467 14:0.66321081 15:0.35390612 16:0.23282646 17:0.16134457 18:0.22305466 19:0.35987526 20:0.20580895 21:0.28468519 22:0.34532243 23:0.068307675 24:0.50297195 25:0.79977298 26:0.84387469 27:0.061303202 28:0.50062871 29:0.85796756 30:0.92185038 31:0.4026677 32:0.58142567 33:0.28129902 34:0.20112963 35:0.2237266 36:0.29066169 37:0.28096041 38:0.18908997 39:0.33869871 40:0.40507662 41:0.13977914 42:0.58394992 43:0.88060737 44:0.92510897 45:0.12498083 46:0.58026487 47:0.93749863 48:1.0022926 49:0.18238227 50:0.21019529 51:0.40311629 52:0.59917772 53:0.66860539 54:0.16512664 55:0.45080465 56:0.69296688 57:0.76555115 58:0.53504211 59:0.98386663 60:1.2799468 61:1.3254646 62:0.52019113 63:0.97834665 64:1.3339453 65:1.4009528 66:0.36345065 67:0.56518036 68:0.77051318 69:0.83799803 70:0.33363324 71:0.62028289 72:0.86548162 73:0.93740624 74:0.71256983 75:1.1635396 76:1.4599199 77:1.5041043 78:0.69833803 79:1.1575013 80:1.5124738 81:1.5792956 82:0.20330347 83:0.43763727 84:0.51150006 85:0.22959624 86:0.41173699 87:0.61386555 88:0.68286258 89:0.38497517 90:0.8349033 91:1.1323175 92:1.1761692 93:0.40547749 94:0.84796768 95:1.2027709 96:1.2640469 97:0.26631182 98:0.34155983 99:0.35763544 100:0.38558495 101:0.5126676 102:0.57277411 103:0.23024239 104:0.65543145 105:0.95022434 106:0.99263644 107:0.29372674 108:0.6836732 109:1.0319338 110:1.0883665 111:0.082562387 112:0.49650878 113:0.34805724 114:0.33758292 115:0.37467968 116:0.1107038 117:0.42510143 118:0.71847498 119:0.75701958 120:0.18115427 121:0.44553581 122:0.78803867 123:0.84467393 124:0.5602532 125:0.38900524 126:0.32967487 127:0.35270903 128:0.17691471 129:0.37726334 130:0.66248471 131:0.69614297 132:0.22457051 133:0.39768669 134:0.7310909 135:0.78650093 136:0.28959852 137:0.53595465 138:0.60964388 139:0.41982034 140:0.85427743 141:1.1465105 142:1.1916223 143:0.3832691 144:0.83821136 145:1.1930219 146:1.2617168 147:0.25143608 148:0.32527301 149:0.26954785 150:0.61241949 151:0.89162606 152:0.93710345 153:0.17928053 154:0.57622778 155:0.92358118 156:0.99474186 157:0.08154723 158:0.30098218 159:0.40918323 160:0.663625 161:0.70711613 162:0.22664346 163:0.35072935 164:0.68414187 165:0.75596404 166:0.35287961 167:0.37161967 168:0.60658336 169:0.64834338 170:0.28724924 171:0.30031702 172:0.61765808 173:0.68998319 174:0.45748869 175:0.75550926 176:0.79892206 177:0.10190767 178:0.46586481 179:0.82130027 180:0.88198286 181:0.29944354 182:0.34921157 183:0.4741675 184:0.12354753 185:0.38944268 186:0.44338349 187:0.095648631 188:0.76752633 189:0.32395867 190:0.18024862 191:0.19506305 192:0.8117255 193:0.37487933 194:0.20545492 195:0.19278105 196:0.46165472 197:0.81861603 198:0.88468599 199:0.36089224 200:0.42708671 201:0.10921097 #
4.5491435301822327e-005 1:100.83074 2:9.385745 3:-0.2490018 4:-0.37007391 5:0.80878401 6:116.73006 7:45.698681 8:0.1030454 9:-0.084187344 10:1.6984465 11:0.095739655 12:0.067468874 13:0.40822291 14:0.57641447 15:0.34715089 16:0.22073165 17:0.35677215 18:0.40156564 19:0.33807397 20:0.27497283 21:0.33979627 22:0.39282715 23:0.10121327 24:0.60330802 25:0.95301604 26:1.0170131 27:0.088081591 28:0.55304068 29:0.91831154 30:0.96112108 31:0.34082478 32:0.509646 33:0.29449964 34:0.22679162 35:0.40446803 36:0.45432344 37:0.27839252 38:0.26496404 39:0.34878582 40:0.40399909 41:0.16027869 42:0.66691744 43:1.0146518 44:1.0774292 45:0.14040455 46:0.61779898 47:0.98318303 48:1.0266812 49:0.18272419 50:0.22389416 51:0.45244449 52:0.69295174 53:0.75343007 54:0.19469227 55:0.433718 56:0.52442461 57:0.56994098 58:0.49151409 59:0.99494392 60:1.3338078 61:1.3917671 62:0.47047114 63:0.95129389 64:1.3152795 65:1.3611547 66:0.34495094 67:0.60160846 68:0.84686631 69:0.90657657 70:0.32767957 71:0.58439189 72:0.65548468 73:0.69165826 74:0.65598226 75:1.152078 76:1.476526 77:1.528901 78:0.63879222 79:1.1160913 80:1.4868201 81:1.5289952 82:0.28116021 83:0.53347063 84:0.59860235 85:0.34219363 86:0.50373542 87:0.5728482 88:0.61555821 89:0.39216083 90:0.86979967 91:1.1986907 92:1.2547014 93:0.42988399 94:0.85834301 95:1.2244416 96:1.2643124 97:0.27019277 98:0.33128762 99:0.46583891 100:0.4787181 101:0.50587982 102:0.54057914 103:0.19044979 104:0.59967351 105:0.92864108 106:0.98731995 107:0.29012242 108:0.60528547 109:0.96746486 110:1.0015323 111:0.07298556 112:0.67383599 113:0.60078561 114:0.57857209 115:0.59221286 116:0.26584709 117:0.39819816 118:0.71478963 119:0.77689767 120:0.37186611 121:0.43618059 122:0.77375293 123:0.79963726 124:0.7258426 125:0.63510388 126:0.59967154 127:0.6064409 128:0.30799049 129:0.34241185 130:0.64743876 131:0.70912427 132:0.40567929 133:0.38997114 134:0.72181445 135:0.74245209 136:0.27156112 137:0.40275162 138:0.46052045 139:0.43665037 140:0.92542547 141:1.2730198 142:1.3343426 143:0.3708877 144:0.85935295 145:1.2112534 146:1.260887 147:0.24121743 148:0.3151018 149:0.35765588 150:0.75600481 151:1.1063541 152:1.1727631 153:0.24073866 154:0.66898751 155:0.99232948 156:1.0445095 157:0.076556236 158:0.38031587 159:0.68371165 160:1.0199499 161:1.0822376 162:0.29145348 163:0.61100942 164:0.93512529 165:0.9779737 166:0.42172053 167:0.66963679 168:0.99601185 169:1.0567027 170:0.34652564 171:0.59982574 172:0.91778266 173:0.95750451 174:0.51945311 175:0.86677253 176:0.93088794 177:0.13118942 178:0.48611048 179:0.85261297 180:0.89169222 181:0.40901464 182:0.48449901 183:0.56933665 184:0.28215298 185:0.47518885 186:0.48400414 187:0.10621569 188:0.92221463 189:0.53533065 190:0.5343067 191:0.47047937 192:0.98847198 193:0.60799247 194:0.60760128 195:0.53378975 196:0.49885324 197:0.85773963 198:0.9027158 199:0.39780271 200:0.42661211 201:0.1013111 #
-1.8880990897291614e-005 1:78.528099 2:30.816906 3:-0.54862863 4:-0.59705389 5:0.063119724 6:50.424412 7:45.844795 8:0.207552 9:-0.041562252 10:0.021039909 11:0.32013962 12:0.08424218 13:0.50927043 14:0.72214192 15:0.38754475 16:0.14752252 17:0.26820549 18:0.32070059 19:0.35323527 20:0.27444658 21:0.28702429 22:0.34212378 23:0.09709508 24:0.68758637 25:1.0720496 26:1.143025 27:0.097840033 28:0.75040722 29:1.1173601 30:1.1824571 31:0.4251138 32:0.63929403 33:0.31245983 34:0.11170346 35:0.30632061 36:0.36663279 37:0.2778728 38:0.26267323 39:0.32695404 40:0.38497734 41:0.16944386 42:0.76980805 43:1.1545959 44:1.226182 45:0.16816172 46:0.83205307 47:1.1981583 48:1.2640733 49:0.23119318 50:0.20547073 51:0.41860092 52:0.65554476 53:0.72036076 54:0.24449596 55:0.51408613 56:0.68265522 57:0.7345497 58:0.58243942 59:1.1864924 60:1.5728182 61:1.6465031 62:0.58455676 63:1.2519729 64:1.614453 65:1.6828611 66:0.37105033 67:0.61384314 68:0.84214163 69:0.90460801 70:0.45672339 71:0.7334457 72:0.88835293 73:0.93105948 74:0.78835195 75:1.393873 76:1.7875792 77:1.8597132 78:0.800726 79:1.4691212 80:1.8349899 81:1.9012104 82:0.2713578 83:0.54498923 84:0.6068508 85:0.29575059 86:0.49787197 87:0.60716724 88:0.65013313 89:0.43563476 90:1.0307804 91:1.4282743 92:1.5005772 93:0.47967187 94:1.1331234 95:1.4998752 96:1.5646859 97:0.30176297 98:0.36213791 99:0.3229875 100:0.35442406 101:0.3785367 102:0.41703925 103:0.18952623 104:0.78698164 105:1.1828271 106:1.2526922 107:0.23798074 108:0.87570131 109:1.2444379 110:1.3071451 111:0.077385925 112:0.48814648 113:0.37557432 114:0.20855078 115:0.21235749 116:0.26699793 117:0.66677064 118:1.0408442 119:1.1035936 120:0.24626587 121:0.70084494 122:1.062528 123:1.1192422 124:0.55166024 125:0.42321789 126:0.2327427 127:0.20046002 128:0.30781072 129:0.62688565 130:0.99580115 131:1.0564975 132:0.28711784 133:0.659082 134:1.0169557 135:1.0712444 136:0.27802455 137:0.47381285 138:0.5369696 139:0.44602624 140:1.0323918 141:1.4014611 142:1.4736922 143:0.39949891 144:1.0526705 145:1.4092878 146:1.4786547 147:0.26935983 148:0.35019985 149:0.3591198 150:0.83852458 151:1.1742264 152:1.2457187 153:0.24346597 154:0.80877429 155:1.1516223 156:1.2233441 157:0.085599281 158:0.31949097 159:0.67969954 160:1.006357 161:1.0719652 162:0.21833715 163:0.63709319 164:0.98376715 165:1.0487795 166:0.35894287 167:0.66404998 168:0.98319465 169:1.0460182 170:0.27784258 171:0.61464739 172:0.9589836 173:1.0209236 174:0.60906416 175:1.0029309 176:1.0732825 177:0.13490744 178:0.70169854 179:1.0693595 180:1.1319636 181:0.40830612 182:0.47569841 183:0.63877457 184:0.31313956 185:0.57483834 186:0.62166989 187:0.09072683 188:1.0093226 189:0.42299557 190:0.33048138 191:0.34646699 192:1.0793598 193:0.47465384 194:0.32999796 195:0.32462493 196:0.66927099 197:1.0346922 198:1.1005979 199:0.37322557 200:0.43396088 201:0.086400524 #
4.5491435301822327e-005 1:100.02224 2:46.799255 3:-0.39959139 4:-0.27328661 5:0.41169766 6:114.77608 7:29.029478 8:0.083747588 9:-0.05936031 10:0.35680464 11:0.6228711 12:0.091997549 13:0.55165827 14:0.79864371 15:0.4073852 16:0.15344852 17:0.33546451 18:0.43449321 19:0.3914378 20:0.21816143 21:0.30392 22:0.37343881 23:0.077578455 24:0.59076995 25:0.96900421 26:1.0063428 27:0.060468148 28:0.49316564 29:0.90695721 30:0.96751738 31:0.46111116 32:0.70823485 33:0.32699817 34:0.11471196 35:0.3354435 36:0.44383925 37:0.30832946 38:0.20691836 39:0.37113774 40:0.44621509 41:0.16005488 42:0.67674077 43:1.0552554 44:1.0932297 45:0.13398677 46:0.57744122 47:0.98661703 48:1.0449536 49:0.24993397 50:0.22623113 51:0.47984856 52:0.58843893 53:0.6842978 54:0.22773989 55:0.52169305 56:0.78729999 57:0.8680526 58:0.61432105 59:1.1239352 60:1.5017422 61:1.5410776 62:0.58562964 63:1.0223639 64:1.412061 65:1.4621338 66:0.44795346 67:0.72049057 68:0.79692823 69:0.87933618 70:0.4462333 71:0.75067097 72:1.0231735 73:1.1039567 74:0.86163408 75:1.3668505 76:1.7439897 77:1.7855378 78:0.83039856 79:1.2666041 80:1.6483006 81:1.6960392 82:0.32348645 83:0.53922904 84:0.65147072 85:0.26188564 86:0.45073542 87:0.67691964 88:0.75357795 89:0.45356873 90:0.95839471 91:1.3351448 92:1.3664138 93:0.45449799 94:0.85470563 95:1.2451059 96:1.2934587 97:0.31511873 98:0.42722121 99:0.33740962 100:0.23536651 101:0.38839743 102:0.46167436 103:0.18605015 104:0.68451601 105:1.0620025 106:1.0951664 107:0.18997474 108:0.58176881 109:0.98174733 110:1.0382775 111:0.1168981 112:0.38513637 113:0.21315497 114:0.34008637 115:0.40734428 116:0.3789627 117:0.76161832 118:1.1137863 119:1.1578076 120:0.30399033 121:0.66068429 122:1.0401603 123:1.1025811 124:0.47819695 125:0.2939429 126:0.35310403 127:0.4071911 128:0.4716925 129:0.78915268 130:1.1222988 131:1.1695571 132:0.3922103 133:0.69512075 134:1.0566015 135:1.1205188 136:0.30773145 137:0.58313078 138:0.66478723 139:0.46477312 140:0.96161407 141:1.3364743 142:1.3811587 143:0.40889144 144:0.86694783 145:1.2654519 146:1.3213487 147:0.2826924 148:0.36408761 149:0.28223851 150:0.69837534 151:1.0619003 152:1.1123893 153:0.18733725 154:0.62347198 155:1.0295086 156:1.0946963 157:0.083097026 158:0.30314076 159:0.48782048 160:0.8215369 161:0.86835897 162:0.25191438 163:0.42698827 164:0.82259423 165:0.88989067 166:0.36196661 167:0.4455694 168:0.75932914 169:0.80613613 170:0.3234866 171:0.39956525 172:0.77941757 173:0.84673393 174:0.53187609 175:0.90966254 176:0.94240832 177:0.10487234 178:0.43335229 179:0.8481099 180:0.90913385 181:0.38755852 182:0.43775687 183:0.57033908 184:0.31653821 185:0.59433019 186:0.66883522 187:0.1333836 188:0.94531339 189:0.62224931 190:0.64736259 191:0.70232493 192:0.9861297 193:0.63770932 194:0.63162524 195:0.67805767 196:0.47574243 197:0.89098048 198:0.95440388 199:0.43842408 200:0.50692886 201:0.12973209 #
-4.5491435301822327e-005 1:96.218575 2:29.371792 3:-0.64748597 4:-0.53871238 5:1.0679027 6:146.74815 7:35.322796 8:0.1052394 9:-0.045463961 10:1.3882735 11:0.34719181 12:0.098722652 13:0.59594727 14:0.76398551 15:0.48996964 16:0.34132856 17:0.22285275 18:0.23411247 19:0.50678861 20:0.31831181 21:0.32715824 22:0.3755514 23:0.055960804 24:0.50216389 25:0.86481464 26:0.90888339 27:0.074362278 28:0.51569849 29:0.84059942 30:0.90482241 31:0.49729493 32:0.66663396 33:0.39638323 34:0.28426874 35:0.17341147 36:0.20151325 37:0.41777253 38:0.27413017 39:0.3527225 40:0.40942544 41:0.13629577 42:0.59594095 43:0.96030301 44:1.0053484 45:0.16319638 46:0.61022377 47:0.93416327 48:0.99761796 49:0.19671941 50:0.20139983 51:0.45244297 52:0.4785665 53:0.51491362 54:0.22248353 55:0.48818371 56:0.69955188 57:0.76031089 58:0.62702864 59:1.0815867 60:1.4476246 61:1.4956392 62:0.65485418 63:1.0969229 64:1.415315 65:1.475968 66:0.37587115 67:0.63288838 68:0.6254276 69:0.64800918 70:0.34557989 71:0.6334092 72:0.82369059 73:0.88159317 74:0.79941058 75:1.2511371 76:1.6195251 77:1.6623211 78:0.81687301 79:1.2536012 80:1.5765412 81:1.6310221 82:0.26554853 83:0.37192968 84:0.43169853 85:0.32678607 86:0.48427576 87:0.68023711 88:0.74220765 89:0.51021296 90:0.95895332 91:1.3174725 92:1.3683909 93:0.55532098 94:0.99564433 95:1.3085281 96:1.3748078 97:0.27966911 98:0.35820451 99:0.49311739 100:0.48994273 101:0.62766951 102:0.68397272 103:0.33970851 104:0.74696296 105:1.090938 106:1.1447618 107:0.40446246 108:0.80518669 109:1.1013877 110:1.1731706 111:0.081640765 112:0.45693243 113:0.39378902 114:0.42986265 115:0.48579392 116:0.25227618 117:0.67127919 118:1.0343096 119:1.0693672 120:0.26022202 121:0.67660052 122:1.0048734 123:1.0595949 124:0.47340658 125:0.39181247 126:0.38398924 127:0.4373014 128:0.26975903 129:0.66111404 130:1.0228343 131:1.0520942 132:0.252628 133:0.6503861 134:0.98366439 135:1.0325782 136:0.30530402 137:0.53468066 138:0.5924651 139:0.54357278 140:0.97687709 141:1.3390057 142:1.3869348 143:0.55603796 144:0.9764902 145:1.2915195 146:1.3503143 147:0.29514533 148:0.34340078 149:0.35321465 150:0.71808338 151:1.0724312 152:1.1215589 153:0.34450215 154:0.71256059 155:1.0166565 156:1.0765803 157:0.071584478 158:0.36017644 159:0.58740377 160:0.92401898 161:0.95387566 162:0.29560015 163:0.52385563 164:0.83847117 165:0.88207251 166:0.40317467 167:0.57413721 168:0.8982051 169:0.92606932 170:0.33840522 171:0.5048008 172:0.80884248 173:0.84957355 174:0.47347486 175:0.83208942 176:0.87864685 177:0.09916956 178:0.50106531 179:0.81963086 180:0.88683444 181:0.39734378 182:0.4518162 183:0.4550384 184:0.26763159 185:0.42941186 186:0.49717239 187:0.11153109 188:0.81756145 189:0.46902764 190:0.37085202 191:0.40024075 192:0.85780638 193:0.49025258 194:0.39568526 195:0.41813093 196:0.45361802 197:0.78362703 198:0.84499514 199:0.37325519 200:0.42894611 201:0.11336951 #
4.5491435301822327e-005 1:84.827446 2:32.839748 3:-0.19761699 4:-0.1209829 5:0.52574307 6:72.82843 7:19.614393 8:0.1782586 9:-0.063145898 10:0.50821829 11:0.68741763 12:0.083483823 13:0.50166565 14:0.68434447 15:0.41503406 16:0.2532663 17:0.24485433 18:0.29387051 19:0.36292362 20:0.21125033 21:0.33009633 22:0.38216934 23:0.058651831 24:0.51850569 25:0.89880413 26:0.95300484 27:0.067234047 28:0.52317697 29:0.89373881 30:0.95558196 31:0.41825351 32:0.60276896 33:0.33778867 34:0.2219606 35:0.29367274 36:0.35273641 37:0.28788319 38:0.1964822 39:0.38572443 40:0.44382244 41:0.12873353 42:0.60020614 43:0.97903401 44:1.0343714 45:0.1424527 46:0.59604639 47:0.96396577 48:1.0219326 49:0.2146464 50:0.19815792 51:0.43714005 52:0.65789372 53:0.72782886 54:0.20774399 55:0.46062565 56:0.74191767 57:0.80835211 58:0.54182416 59:1.0140722 60:1.3867635 61:1.4456135 62:0.55520475 63:0.98507577 64:1.3376057 65:1.3813111 66:0.38783708 67:0.63089997 68:0.83249962 69:0.89715499 70:0.35799304 71:0.61334401 72:0.89189082 73:0.95791739 74:0.72929853 75:1.1984094 76:1.5766983 77:1.6305224 78:0.73084933 79:1.129476 80:1.46252 81:1.4947976 82:0.27313095 83:0.53152585 84:0.60849035 85:0.28745016 86:0.4563528 87:0.71066946 88:0.7727716 89:0.43832344 90:0.90469414 91:1.2695111 92:1.3314226 93:0.47880933 94:0.92605132 95:1.2823181 96:1.3340378 97:0.2800771 98:0.36007437 99:0.40878871 100:0.40981469 101:0.57473147 102:0.62392402 103:0.2430408 104:0.66426814 105:1.0257746 106:1.0855675 107:0.31370723 108:0.7336939 109:1.0831136 110:1.1423826 111:0.080415815 112:0.56108332 113:0.42640284 114:0.44657001 115:0.47193924 116:0.20891206 117:0.44636482 118:0.81854057 119:0.86420667 120:0.24572331 121:0.50655246 122:0.83134609 123:0.89047855 124:0.62008756 125:0.4613283 126:0.43478584 127:0.44969511 128:0.25875109 129:0.39808717 130:0.76747859 131:0.80730575 132:0.27819332 133:0.45155135 134:0.76236105 135:0.82124448 136:0.26399401 137:0.54743183 138:0.61467052 139:0.41396746 140:0.86461055 141:1.2380418 142:1.2940094 143:0.40221152 144:0.81248724 145:1.171321 146:1.2175566 147:0.2835786 148:0.35084215 149:0.26233649 150:0.63330984 151:1.0043651 152:1.055766 153:0.2065047 154:0.5682748 155:0.9369399 156:0.99061579 157:0.06749855 158:0.34475595 159:0.43881017 160:0.78302085 161:0.82426304 162:0.27040997 163:0.34100574 164:0.70641524 165:0.7695967 166:0.39029911 167:0.40538409 168:0.73521864 169:0.77256262 170:0.31972048 171:0.29741392 172:0.65425968 173:0.7197715 174:0.47884429 175:0.85682046 176:0.91246545 177:0.08677119 178:0.51248705 179:0.88077939 180:0.94609362 181:0.39184955 182:0.44053936 183:0.4737789 184:0.33336669 185:0.60834777 186:0.70037144 187:0.1000664 188:0.85655737 189:0.62146914 190:0.68302017 191:0.78581101 192:0.90778148 193:0.6320501 194:0.63885671 195:0.73321056 196:0.46062517 197:0.83348972 198:0.89585376 199:0.38646555 200:0.46124139 201:0.11189476 #
